ID player,amplua,time,G,As,TB,Shot,BT,pm,dev_As,dev_BT,dev_G,dev_Shot,dev_TB,dev_pm,dev_time
1.00,10.00,11.32,0.04,0.20,1.32,1.70,1.25,-0.40,-7.46,-0.57,-83.29,-31.36,-13.50,-170.46,-8.98
3.00,10.00,13.04,0.00,0.05,1.20,1.33,1.44,-1.69,-65.61,6.04,-95.00,-42.16,-15.90,-897.58,-5.03
8.00,9.00,21.28,0.09,0.15,1.95,2.24,1.50,0.39,8.06,0.26,-11.42,6.44,1.45,221.62,12.41
10.00,9.00,15.37,1.00,0.00,4.00,3.00,1.00,1.00,-80.00,-28.16,479.77,23.22,39.77,450.94,-2.15
10.00,10.00,17.23,1.00,0.33,3.67,3.00,2.00,-1.33,42.94,25.49,197.81,6.61,33.69,-694.67,4.61
13.00,10.00,10.99,0.23,0.07,2.47,2.86,1.29,0.58,-57.86,0.82,-27.65,2.52,9.60,381.92,-9.74
17.00,9.00,13.74,0.14,0.14,2.27,3.20,,0.12,2.18,,15.57,27.63,7.43,120.11,-6.16
18.00,10.00,17.28,0.75,0.25,2.50,4.00,2.00,0.50,11.93,25.49,124.60,35.81,10.20,336.83,4.72
19.00,9.00,15.13,0.08,0.00,1.57,3.00,1.50,-0.78,-80.00,0.26,-16.82,23.22,-5.65,-218.23,-2.74
21.00,9.00,9.22,0.00,0.00,,2.00,,-2.00,-80.00,,-60.00,1.14,,-676.88,-17.29
22.00,10.00,12.87,0.31,0.31,1.62,2.25,1.50,-0.14,35.19,8.12,-4.23,-15.29,-7.47,-23.91,-5.41
24.00,10.00,11.67,0.00,0.00,1.00,,1.00,-1.00,-85.00,-9.25,-95.00,,-19.92,-508.66,-8.17
25.00,10.00,16.76,0.40,0.20,2.42,3.43,1.00,-0.50,-7.46,-9.25,22.13,19.16,8.59,-226.83,3.53
26.00,9.00,11.96,0.05,0.05,1.62,1.38,2.00,-0.50,-50.65,28.68,-33.01,-12.54,-4.72,-112.97,-10.55
35.00,9.00,16.23,0.00,0.12,2.00,1.00,2.00,-0.89,-9.55,28.68,-60.00,-20.93,2.39,-259.58,-0.03
37.00,9.00,13.55,0.00,0.00,1.67,1.00,1.00,-1.25,-80.00,-28.16,-60.00,-20.93,-3.78,-394.92,-6.63
39.00,9.00,15.38,0.50,0.50,,1.67,1.50,0.50,213.53,0.26,209.89,-6.14,,262.97,-2.12
40.00,9.00,20.75,0.27,0.15,2.13,1.88,1.90,0.41,8.06,22.99,85.74,-1.50,4.82,229.13,11.10
47.00,10.00,19.98,0.17,0.08,1.43,3.10,1.33,-1.56,-53.98,2.21,-45.22,9.53,-11.28,-824.31,10.93
49.00,10.00,13.95,0.08,0.10,1.29,1.56,1.17,-0.87,-46.23,-3.34,-71.57,-35.45,-14.10,-435.39,-2.93
51.00,9.00,16.38,0.11,0.21,1.63,1.77,1.38,-0.22,43.28,-6.56,-0.62,-3.93,-4.53,-7.70,0.34
53.00,9.00,22.17,0.05,0.25,1.70,1.69,1.70,0.22,66.76,11.63,-33.01,-5.70,-3.22,157.70,14.60
55.00,9.00,16.87,0.00,0.00,3.00,1.00,1.00,-3.00,-80.00,-28.16,-60.00,-20.93,21.08,-1052.81,1.54
55.00,10.00,13.82,0.00,0.00,,,1.00,-2.00,-85.00,-9.25,-95.00,,,-1072.32,-3.23
62.00,9.00,10.18,0.04,0.15,1.25,1.47,1.14,-0.44,8.06,-20.20,-38.41,-10.55,-11.63,-90.41,-14.93
63.00,10.00,11.69,0.00,0.00,1.33,1.54,1.00,-1.54,-85.00,-9.25,-95.00,-36.03,-13.29,-813.04,-8.13
64.00,10.00,11.97,0.17,0.17,1.40,1.33,1.00,-0.50,-19.09,-9.25,-45.22,-42.16,-11.89,-226.83,-7.48
66.00,9.00,18.76,0.00,0.09,1.50,1.62,1.55,-0.60,-27.17,3.10,-60.00,-7.24,-6.96,-150.56,6.20
74.00,9.00,14.61,0.26,0.30,1.82,2.83,1.20,0.25,96.11,-16.80,80.34,19.47,-0.98,168.98,-4.02
79.00,9.00,21.94,0.20,0.25,1.82,2.21,1.31,-0.61,66.76,-10.54,47.95,5.78,-0.98,-154.32,14.03
83.00,10.00,15.13,0.32,0.31,1.66,2.86,1.26,-0.04,35.19,-0.22,-1.30,2.52,-6.67,32.46,-0.22
87.00,10.00,11.58,0.00,0.00,1.00,1.00,,0.00,-85.00,,-95.00,-51.80,-19.92,55.00,-8.38
92.00,9.00,14.54,0.00,0.00,1.00,1.43,1.50,0.17,-80.00,0.26,-60.00,-11.44,-16.31,138.91,-4.19
95.00,10.00,11.69,0.12,0.12,3.00,1.60,1.00,0.00,-38.48,-9.25,-59.86,-34.27,20.24,55.00,-8.13
104.00,9.00,13.51,0.22,0.16,1.33,1.70,1.25,-0.48,13.93,-13.95,58.75,-5.48,-10.14,-105.45,-6.73
107.00,9.00,15.98,0.08,0.38,2.10,1.80,1.33,-0.18,143.08,-9.40,-16.82,-3.27,4.26,7.33,-0.65
110.00,10.00,16.04,0.48,0.17,2.82,3.28,1.00,-0.33,-19.09,-9.25,45.54,14.79,16.62,-131.01,1.87
114.00,10.00,13.64,0.23,0.23,1.89,3.05,1.00,-0.14,4.17,-9.25,-27.65,8.07,-2.05,-23.91,-3.64
115.00,10.00,12.16,0.10,0.15,2.15,1.80,1.00,-0.30,-26.84,-9.25,-65.72,-28.43,3.17,-114.10,-7.05
116.00,9.00,16.32,0.05,0.12,2.14,1.69,2.19,0.76,-9.55,39.48,-33.01,-5.70,5.00,360.71,0.19
117.00,10.00,15.29,0.39,0.12,1.80,2.50,1.00,0.52,-38.48,-9.25,19.19,-7.99,-3.86,348.10,0.15
118.00,9.00,15.60,0.00,0.05,1.67,1.33,1.50,-0.27,-50.65,0.26,-60.00,-13.64,-3.78,-26.51,-1.58
120.00,10.00,15.92,1.20,0.40,3.22,5.30,1.00,0.75,70.08,-9.25,256.37,73.77,24.66,477.75,1.60
121.00,10.00,21.50,0.35,0.22,1.83,2.79,1.47,-0.77,0.30,7.08,7.49,0.48,-3.25,-379.02,14.42
124.00,9.00,16.29,0.12,0.25,2.43,2.83,1.00,0.00,66.76,-28.16,4.77,19.47,10.42,75.00,0.12
125.00,10.00,14.39,0.09,0.11,1.48,1.68,1.44,-0.05,-42.36,6.04,-68.65,-31.94,-10.28,26.82,-1.92
126.00,9.00,11.87,0.10,0.28,1.53,1.79,1.12,0.75,84.38,-21.34,-6.02,-3.49,-6.40,356.95,-10.77
139.00,10.00,14.34,0.50,0.12,2.71,3.75,1.00,0.50,-38.48,-9.25,51.40,28.51,14.42,336.83,-2.04
142.00,10.00,14.30,0.67,0.17,1.33,2.80,1.00,0.00,-19.09,-9.25,101.18,0.77,-13.29,55.00,-2.13
148.00,10.00,15.38,0.60,0.50,1.86,3.50,1.00,0.70,108.85,-9.25,80.68,21.21,-2.65,449.56,0.35
149.00,10.00,13.81,0.14,0.00,2.00,1.75,1.00,-2.00,-85.00,-9.25,-54.01,-29.90,0.16,-1072.32,-3.25
150.00,10.00,13.70,0.16,0.16,1.53,1.84,1.50,-0.72,-22.97,8.12,-48.16,-27.26,-9.28,-350.83,-3.51
151.00,10.00,15.12,0.12,0.38,2.07,2.50,,-0.50,62.33,,-59.86,-7.99,1.56,-226.83,-0.24
155.00,10.00,14.10,0.17,0.17,2.00,2.04,1.46,-0.21,-19.09,6.73,-45.22,-21.42,0.16,-63.37,-2.59
156.00,10.00,14.26,0.00,0.13,1.57,1.86,1.00,-0.30,-34.59,-9.25,-95.00,-26.68,-8.48,-114.10,-2.22
157.00,10.00,9.47,0.33,0.33,1.50,1.33,,0.33,42.94,,1.62,-42.16,-9.88,241.01,-13.23
158.00,9.00,23.19,0.29,0.13,3.12,2.75,1.45,-1.15,-3.68,-2.58,96.53,17.70,23.32,-357.33,17.11
159.00,9.00,17.71,0.00,0.27,1.33,1.50,1.00,0.00,78.50,-28.16,-60.00,-9.89,-10.14,75.00,3.62
160.00,10.00,19.32,0.00,0.00,1.00,1.00,,-0.50,-85.00,,-95.00,-51.80,-19.92,-226.83,9.41
161.00,10.00,16.21,0.24,0.29,1.79,2.59,1.14,0.75,27.43,-4.39,-24.73,-5.36,-4.06,477.75,2.26
162.00,9.00,20.59,0.00,0.14,1.93,1.42,1.50,-0.89,2.18,0.26,-60.00,-11.66,1.08,-259.58,10.71
164.00,10.00,13.40,0.20,0.20,1.50,2.80,1.00,0.60,-7.46,-9.25,-36.44,0.77,-9.88,393.19,-4.20
167.00,9.00,18.71,0.00,0.00,1.00,1.00,1.67,-2.17,-80.00,9.92,-60.00,-20.93,-16.31,-740.78,6.08
168.00,10.00,17.18,0.53,0.28,1.79,2.79,1.20,-0.03,23.55,-2.31,60.19,0.48,-4.06,38.09,4.49
169.00,9.00,17.77,0.11,0.18,2.20,1.71,1.17,-0.04,25.67,-18.50,-0.62,-5.25,6.12,59.96,3.76
170.00,9.00,14.86,0.00,0.00,2.11,2.33,1.12,-1.21,-80.00,-21.34,-60.00,8.43,4.44,-379.88,-3.40
172.00,10.00,19.49,0.16,0.34,1.96,2.70,1.31,-0.58,46.82,1.52,-48.16,-2.15,-0.64,-271.92,9.80
174.00,10.00,16.86,0.36,0.29,1.77,3.27,1.19,-0.04,27.43,-2.65,10.41,14.49,-4.46,32.46,3.76
175.00,10.00,12.56,0.06,0.12,1.85,2.50,1.00,0.18,-38.48,-9.25,-77.43,-7.99,-2.85,156.46,-6.13
176.00,10.00,16.60,0.06,0.25,1.20,2.00,1.25,-0.17,11.93,-0.57,-77.43,-22.59,-15.90,-40.82,3.16
180.00,10.00,15.39,0.18,0.35,2.64,1.69,1.30,0.44,50.69,1.17,-42.29,-31.65,13.01,303.01,0.38
181.00,9.00,14.86,0.03,0.13,1.21,1.22,1.90,0.50,-3.68,22.99,-43.81,-16.07,-12.38,262.97,-3.40
182.00,10.00,16.15,0.67,0.00,3.00,4.00,,0.00,-85.00,,101.18,35.81,20.24,55.00,2.12
184.00,10.00,12.03,0.05,0.25,1.14,2.33,1.00,-0.07,11.93,-9.25,-80.36,-12.96,-17.11,15.54,-7.35
185.00,10.00,20.32,0.22,0.00,2.83,2.33,1.00,0.88,-85.00,-9.25,-30.58,-12.96,16.83,551.02,11.71
186.00,10.00,10.44,0.09,0.14,1.47,1.77,1.00,-0.10,-30.72,-9.25,-68.65,-29.31,-10.48,-1.36,-11.00
187.00,10.00,13.30,0.12,0.17,1.57,2.00,1.40,0.12,-19.09,4.65,-59.86,-22.59,-8.48,122.64,-4.43
190.00,10.00,17.15,0.39,0.29,1.69,2.19,1.22,-0.59,27.43,-1.61,19.19,-17.04,-6.06,-277.56,4.42
191.00,9.00,14.35,0.06,0.06,1.86,1.62,1.93,0.04,-44.78,24.70,-27.61,-7.24,-0.23,90.04,-4.66
193.00,10.00,19.65,1.13,0.33,2.77,5.87,1.50,0.80,42.94,8.12,235.88,90.42,15.62,505.93,10.17
194.00,10.00,20.39,0.59,0.65,2.25,3.67,1.46,0.51,167.01,6.73,77.76,26.18,5.18,342.47,11.87
202.00,9.00,19.54,0.18,0.29,1.58,1.73,1.48,-0.11,90.25,-0.88,37.16,-4.82,-5.46,33.64,8.12
203.00,10.00,17.57,0.24,0.26,1.84,2.15,1.06,-0.23,15.80,-7.17,-24.73,-18.21,-3.05,-74.64,5.39
204.00,10.00,14.89,0.21,0.00,2.15,1.88,1.00,-0.67,-85.00,-9.25,-33.51,-26.10,3.17,-322.65,-0.77
206.00,10.00,16.88,0.00,0.00,,1.00,,-3.00,-85.00,,-95.00,-51.80,,-1635.98,3.80
207.00,9.00,19.38,0.05,0.13,1.35,1.74,1.22,-0.06,-3.68,-15.66,-33.01,-4.59,-9.76,52.45,7.73
208.00,10.00,18.73,0.85,0.33,2.69,5.59,1.62,0.16,42.94,12.29,153.88,82.25,14.02,145.18,8.06
209.00,10.00,14.10,0.30,0.30,1.85,3.00,1.50,-0.08,31.31,8.12,-7.15,6.61,-2.85,9.91,-2.59
210.00,9.00,25.11,0.00,0.40,1.60,1.00,1.00,-1.20,154.82,-28.16,-60.00,-20.93,-5.09,-376.12,21.84
213.00,9.00,17.75,0.00,0.55,2.00,1.20,1.25,1.22,242.88,-13.95,-60.00,-16.51,2.39,533.64,3.71
214.00,10.00,13.08,0.40,0.00,2.14,3.78,1.00,0.89,-85.00,-9.25,22.13,29.39,2.97,556.66,-4.93
215.00,9.00,16.51,0.00,0.00,2.00,1.33,1.40,0.00,-80.00,-5.42,-60.00,-13.64,2.39,75.00,0.66
216.00,9.00,15.00,0.14,0.00,1.30,1.38,1.25,0.12,-80.00,-13.95,15.57,-12.54,-10.70,120.11,-3.06
224.00,10.00,18.23,0.75,1.00,2.67,6.00,2.00,1.00,302.70,25.49,124.60,94.22,13.61,618.66,6.91
227.00,9.00,18.62,0.04,0.13,1.70,1.62,2.08,-1.25,-3.68,33.23,-38.41,-7.24,-3.22,-394.92,5.86
228.00,10.00,9.89,0.13,0.18,1.50,2.00,1.00,0.19,-15.21,-9.25,-56.93,-22.59,-9.88,162.10,-12.26
230.00,10.00,16.93,0.25,0.50,2.00,2.50,1.00,-1.25,108.85,-9.25,-21.80,-7.99,0.16,-649.58,3.92
231.00,10.00,17.84,0.20,0.07,2.38,2.33,1.00,-0.58,-57.86,-9.25,-36.44,-12.96,7.79,-271.92,6.01
234.00,10.00,14.73,0.91,0.18,2.12,4.10,,0.40,-15.21,,171.46,38.73,2.57,280.46,-1.14
235.00,9.00,13.57,0.00,0.05,1.71,1.14,1.25,0.18,-50.65,-13.95,-60.00,-17.84,-3.03,142.66,-6.58
244.00,9.00,16.01,0.44,0.22,3.33,3.89,2.00,-0.57,49.15,28.68,177.50,42.86,27.25,-139.28,-0.57
246.00,10.00,13.58,0.00,0.00,1.00,1.50,2.00,-1.50,-85.00,25.49,-95.00,-37.20,-19.92,-790.49,-3.78
247.00,10.00,10.08,0.13,0.13,1.60,1.92,,-0.83,-34.59,,-56.93,-24.93,-7.87,-412.84,-11.83
251.00,10.00,16.74,0.57,0.14,2.00,3.14,1.40,-0.71,-30.72,4.65,71.90,10.70,0.16,-345.20,3.48
252.00,9.00,14.07,0.50,0.00,,2.75,,1.67,-80.00,,209.89,17.70,,702.82,-5.35
256.00,9.00,21.66,0.50,0.24,2.17,3.18,1.24,0.77,60.90,-14.52,209.89,27.19,5.56,364.47,13.34
262.00,10.00,14.75,0.50,0.19,2.55,4.31,1.00,0.71,-11.34,-9.25,51.40,44.87,11.20,455.20,-1.09
263.00,10.00,12.22,0.26,0.06,1.29,1.60,1.25,-0.29,-61.74,-0.57,-18.87,-34.27,-14.10,-108.46,-6.91
269.00,9.00,13.86,0.50,0.50,1.50,1.50,,0.00,213.53,,209.89,-9.89,-6.96,75.00,-5.87
272.00,10.00,15.48,0.67,0.33,2.00,4.12,1.75,1.29,42.94,16.81,101.18,39.32,0.16,782.12,0.58
273.00,9.00,22.12,0.09,0.09,1.67,2.00,1.50,0.91,-27.17,0.26,-11.42,1.14,-3.78,417.11,14.48
274.00,10.00,18.03,0.12,0.18,1.96,1.95,1.60,-0.03,-15.21,11.59,-59.86,-24.06,-0.64,38.09,6.45
277.00,9.00,18.48,0.20,0.12,1.62,2.45,1.78,-0.18,-9.55,16.18,47.95,11.08,-4.72,7.33,5.51
281.00,10.00,11.68,0.13,0.11,1.40,1.56,1.38,0.00,-42.36,3.95,-56.93,-35.45,-11.89,55.00,-8.15
282.00,10.00,14.96,0.00,0.00,1.00,2.00,1.00,-1.00,-85.00,-9.25,-95.00,-22.59,-19.92,-508.66,-0.61
283.00,9.00,18.81,0.18,0.09,1.78,1.89,1.00,0.10,-27.17,-28.16,37.16,-1.28,-1.73,112.59,6.32
285.00,10.00,14.42,0.17,0.33,2.50,3.33,,0.00,42.94,,-45.22,16.25,10.20,55.00,-1.85
287.00,9.00,16.43,0.00,0.14,1.29,1.50,1.36,0.50,2.18,-7.70,-60.00,-9.89,-10.88,262.97,0.46
288.00,10.00,15.80,0.46,0.38,1.84,2.74,1.16,0.16,62.33,-3.69,39.69,-0.98,-3.05,145.18,1.32
289.00,10.00,17.52,0.13,0.27,1.80,2.62,1.00,0.17,19.68,-9.25,-56.93,-4.49,-3.86,150.82,5.27
292.00,9.00,13.57,0.00,0.03,1.09,1.38,1.73,-0.54,-62.39,13.34,-60.00,-12.54,-14.62,-128.00,-6.58
294.00,9.00,22.34,0.06,0.10,1.70,1.94,2.03,-0.60,-21.30,30.39,-27.61,-0.18,-3.22,-150.56,15.02
295.00,10.00,14.91,0.20,0.10,1.90,2.59,1.00,-1.36,-46.23,-9.25,-36.44,-5.36,-1.85,-711.58,-0.72
298.00,10.00,14.53,0.37,0.19,1.75,2.04,1.00,-0.54,-11.34,-9.25,13.34,-21.42,-4.86,-249.38,-1.60
299.00,10.00,17.63,0.31,0.29,1.31,2.14,1.12,-0.14,27.43,-5.08,-4.23,-18.51,-13.70,-23.91,5.53
302.00,10.00,11.90,0.22,0.16,1.56,2.08,1.00,-0.57,-22.97,-9.25,-30.58,-20.26,-8.68,-266.29,-7.64
303.00,9.00,20.07,0.17,0.17,2.67,2.75,1.00,-0.25,19.80,-28.16,31.76,17.70,14.91,-18.98,9.43
305.00,10.00,15.56,0.44,0.34,1.80,3.21,1.38,-0.46,46.82,3.95,33.84,12.74,-3.86,-204.28,0.77
314.00,10.00,13.07,1.00,0.25,2.25,3.75,,0.33,11.93,,197.81,28.51,5.18,241.01,-4.96
328.00,10.00,12.59,0.31,0.06,1.69,3.27,1.50,0.56,-61.74,8.12,-4.23,14.49,-6.06,370.65,-6.06
333.00,10.00,13.89,0.30,0.35,2.62,4.00,1.00,0.06,50.69,-9.25,-7.15,35.81,12.61,88.82,-3.07
334.00,10.00,15.61,0.26,0.11,1.45,2.92,1.10,0.46,-42.36,-5.78,-18.87,4.28,-10.88,314.28,0.88
343.00,9.00,16.33,0.19,0.29,1.94,2.14,1.67,-0.05,90.25,9.92,42.56,4.24,1.26,56.20,0.22
349.00,9.00,23.45,0.00,1.00,1.00,5.00,1.00,-1.00,507.05,-28.16,-60.00,67.36,-16.31,-300.94,17.75
351.00,9.00,20.27,0.00,0.33,1.50,1.00,1.00,-3.00,113.73,-28.16,-60.00,-20.93,-6.96,-1052.81,9.92
353.00,9.00,10.76,0.00,0.05,1.70,1.62,2.00,-0.06,-50.65,28.68,-60.00,-7.24,-3.22,52.45,-13.50
356.00,9.00,22.20,0.17,0.17,2.33,2.71,2.64,-0.07,19.80,65.06,31.76,16.82,8.55,48.68,14.67
360.00,10.00,10.03,0.21,0.05,1.40,1.77,,-0.40,-65.61,,-33.51,-29.31,-11.89,-170.46,-11.94
362.00,9.00,17.35,0.51,0.22,2.21,3.26,1.21,0.76,49.15,-16.23,215.28,28.96,6.31,360.71,2.73
364.00,10.00,13.01,0.25,0.25,1.33,2.25,2.00,0.25,11.93,25.49,-21.80,-15.29,-13.29,195.92,-5.09
365.00,9.00,1.93,0.00,0.00,,,,,-80.00,,-60.00,,,,-35.25
366.00,10.00,10.01,0.26,0.23,1.94,1.82,1.00,-0.04,4.17,-9.25,-18.87,-27.85,-1.04,32.46,-11.99
369.00,10.00,13.10,0.41,0.18,1.71,2.76,1.00,-0.22,-15.21,-9.25,25.05,-0.40,-5.66,-69.00,-4.89
370.00,9.00,9.59,0.00,0.00,1.00,1.33,1.00,0.00,-80.00,-28.16,-60.00,-13.64,-16.31,75.00,-16.38
372.00,9.00,15.18,0.07,0.07,1.33,1.08,1.65,0.58,-38.90,8.79,-22.22,-19.16,-10.14,293.04,-2.62
375.00,10.00,16.24,0.50,0.26,2.07,3.26,1.00,0.70,15.80,-9.25,51.40,14.20,1.56,449.56,2.33
376.00,10.00,8.46,0.17,0.00,1.50,1.80,,-1.00,-85.00,,-45.22,-28.43,-9.88,-508.66,-15.55
377.00,10.00,10.23,0.00,0.00,1.50,3.25,1.00,-0.67,-85.00,-9.25,-95.00,13.91,-9.88,-322.65,-11.48
378.00,10.00,15.35,0.29,0.26,2.33,3.08,2.50,-0.13,15.80,42.87,-10.09,8.94,6.79,-18.28,0.29
380.00,10.00,12.88,0.74,0.26,1.69,3.47,,1.00,15.80,,121.68,20.34,-6.06,618.66,-5.39
381.00,9.00,15.63,0.24,0.12,1.37,1.58,2.15,-0.23,-9.55,37.20,69.55,-8.13,-9.39,-11.47,-1.51
385.00,9.00,19.62,0.50,0.50,1.50,4.00,,1.50,213.53,,209.89,45.29,-6.96,638.90,8.32
387.00,10.00,20.31,0.41,0.45,2.02,3.22,1.00,-0.63,89.46,-9.25,25.05,13.03,0.56,-300.11,11.69
388.00,10.00,14.06,0.16,0.12,1.44,2.40,1.00,-0.63,-38.48,-9.25,-48.16,-10.91,-11.08,-300.11,-2.68
393.00,10.00,15.15,0.04,0.08,1.50,1.81,1.00,-1.15,-53.98,-9.25,-83.29,-28.14,-9.88,-593.21,-0.17
397.00,9.00,18.83,0.19,0.12,2.08,2.38,1.17,0.67,-9.55,-18.50,42.56,9.53,3.88,326.88,6.37
399.00,9.00,17.54,0.31,0.06,1.82,2.31,1.74,0.17,-44.78,13.90,107.33,7.99,-0.98,138.91,3.20
402.00,9.00,16.81,0.06,0.11,1.25,1.25,1.50,0.43,-15.42,0.26,-27.61,-15.41,-11.63,236.66,1.40
405.00,10.00,8.40,0.00,0.07,1.25,2.50,2.00,-1.25,-57.86,25.49,-95.00,-7.99,-14.90,-649.58,-15.69
406.00,10.00,15.67,0.36,0.14,2.40,3.25,1.00,0.00,-30.72,-9.25,10.41,13.91,8.19,55.00,1.02
407.00,9.00,16.18,0.25,0.08,1.80,1.78,1.00,1.27,-33.03,-28.16,74.94,-3.71,-1.35,552.44,-0.15
408.00,10.00,13.20,0.11,0.11,1.57,2.40,1.00,-1.40,-42.36,-9.25,-62.79,-10.91,-8.48,-734.12,-4.66
409.00,10.00,14.12,0.25,0.00,2.00,3.50,1.00,0.00,-85.00,-9.25,-21.80,21.21,0.16,55.00,-2.54
410.00,10.00,15.58,0.50,0.42,2.19,3.49,1.25,0.70,77.83,-0.57,51.40,20.92,3.98,449.56,0.82
412.00,9.00,13.05,0.06,0.21,1.25,1.60,1.71,-0.22,43.28,12.20,-27.61,-7.68,-11.63,-7.70,-7.86
415.00,10.00,14.61,0.23,0.26,1.46,2.38,1.30,0.22,15.80,1.17,-27.65,-11.49,-10.68,179.00,-1.41
418.00,10.00,14.74,0.25,0.08,2.38,2.45,1.00,-0.20,-53.98,-9.25,-21.80,-9.45,7.79,-57.73,-1.12
419.00,10.00,13.78,0.17,0.20,1.47,1.59,1.53,-0.03,-7.46,9.16,-45.22,-34.56,-10.48,38.09,-3.32
429.00,10.00,9.10,0.00,0.00,2.00,1.33,,-0.67,-85.00,,-95.00,-42.16,0.16,-322.65,-14.08
435.00,9.00,15.86,0.16,0.05,1.78,1.64,1.31,0.90,-50.65,-10.54,26.36,-6.80,-1.73,413.34,-0.94
438.00,9.00,10.70,0.05,0.21,1.33,1.25,1.25,-0.67,43.28,-13.95,-33.01,-15.41,-10.14,-176.88,-13.65
444.00,9.00,19.74,0.00,0.11,1.73,2.33,2.18,-0.20,-15.42,38.91,-60.00,8.43,-2.66,-0.19,8.61
445.00,10.00,18.26,0.33,0.04,2.00,3.33,1.44,-0.18,-69.50,6.04,1.62,16.25,0.16,-46.46,6.98
446.00,9.00,13.16,0.08,0.15,1.25,1.00,1.57,-0.36,8.06,4.24,-16.82,-20.93,-11.63,-60.34,-7.59
447.00,9.00,27.58,0.00,0.00,2.00,1.00,,-3.00,-80.00,,-60.00,-20.93,2.39,-1052.81,27.92
448.00,10.00,18.81,0.00,0.29,2.75,2.14,1.00,-1.86,27.43,-9.25,-95.00,-18.51,15.22,-993.40,8.24
450.00,9.00,21.77,0.00,0.18,2.29,2.33,2.00,-0.88,25.67,28.68,-60.00,8.43,7.81,-255.83,13.61
451.00,10.00,17.28,0.00,0.00,1.57,3.67,1.00,-2.50,-85.00,-9.25,-95.00,26.18,-8.48,-1354.15,4.72
452.00,9.00,13.53,0.11,0.00,1.00,1.25,1.00,0.57,-80.00,-28.16,-0.62,-15.41,-16.31,289.28,-6.68
453.00,10.00,12.31,0.27,0.36,1.80,2.62,1.00,1.43,54.57,-9.25,-15.94,-4.49,-3.86,861.04,-6.70
456.00,9.00,15.42,0.00,0.24,1.60,2.19,1.38,0.70,60.90,-6.56,-60.00,5.34,-5.09,338.15,-2.02
459.00,10.00,8.14,0.33,1.33,,1.33,,0.50,430.64,,1.62,-42.16,,336.83,-16.29
460.00,10.00,14.93,0.12,0.14,1.32,1.73,1.36,-0.06,-30.72,3.26,-59.86,-30.48,-13.50,21.18,-0.68
461.00,10.00,13.80,0.19,0.06,1.43,2.46,1.00,-0.58,-61.74,-9.25,-39.37,-9.16,-11.28,-271.92,-3.28
464.00,10.00,12.80,0.50,0.50,3.00,1.50,,2.50,108.85,,51.40,-37.20,20.24,1464.15,-5.58
465.00,10.00,2.20,0.00,0.00,,,,,-85.00,,-95.00,,,,-29.94
466.00,10.00,12.21,0.20,0.10,1.25,1.29,,-1.50,-46.23,,-36.44,-43.33,-14.90,-790.49,-6.93
467.00,10.00,16.85,0.48,0.26,2.36,2.89,1.40,-0.08,15.80,4.65,45.54,3.39,7.39,9.91,3.73
474.00,10.00,16.48,0.68,0.68,2.18,3.81,1.33,1.03,178.64,2.21,104.11,30.26,3.78,635.57,2.88
479.00,10.00,13.89,0.43,0.21,1.50,2.50,1.00,0.64,-3.58,-9.25,30.90,-7.99,-9.88,415.75,-3.07
480.00,10.00,13.85,0.12,0.12,1.62,1.90,1.00,-0.18,-38.48,-9.25,-59.86,-25.52,-7.47,-46.46,-3.16
482.00,10.00,12.87,0.07,0.14,1.29,1.50,1.33,0.15,-30.72,2.21,-74.50,-37.20,-14.10,139.55,-5.41
485.00,10.00,15.06,0.25,0.12,2.57,4.38,1.67,-0.75,-38.48,14.03,-21.80,46.91,11.60,-367.75,-0.38
486.00,9.00,8.30,0.00,0.00,,1.00,1.00,1.00,-80.00,-28.16,-60.00,-20.93,,450.94,-19.56
487.00,10.00,15.33,0.57,0.26,2.26,3.70,1.00,0.26,15.80,-9.25,71.90,27.05,5.38,201.55,0.24
492.00,10.00,16.49,0.40,0.20,3.00,3.00,,-1.20,-7.46,,22.13,6.61,20.24,-621.39,2.91
495.00,9.00,18.30,0.00,0.24,2.18,2.00,1.67,-0.24,60.90,9.92,-60.00,1.14,5.75,-15.23,5.07
496.00,9.00,20.26,0.04,0.04,2.56,1.76,1.43,-0.41,-56.52,-3.72,-38.41,-4.15,12.86,-79.13,9.90
499.00,10.00,21.73,0.49,0.22,2.43,3.77,1.14,-1.07,0.30,-4.39,48.48,29.10,8.80,-548.11,14.95
500.00,10.00,4.50,0.00,0.00,,,,-3.00,-85.00,,-95.00,,,-1635.98,-24.65
501.00,10.00,13.45,0.18,0.09,1.00,1.75,1.20,0.14,-50.11,-2.31,-42.29,-29.90,-19.92,133.91,-4.08
506.00,9.00,20.80,0.00,0.00,,1.00,,-2.00,-80.00,,-60.00,-20.93,,-676.88,11.22
508.00,10.00,13.33,0.57,0.13,1.13,3.60,1.17,0.18,-34.59,-3.34,71.90,24.13,-17.31,156.46,-4.36
519.00,9.00,19.11,0.00,0.00,1.80,1.20,1.50,-1.17,-80.00,0.26,-60.00,-16.51,-1.35,-364.84,7.06
522.00,10.00,16.64,0.34,0.47,2.00,3.21,1.55,0.31,97.22,9.86,4.55,12.74,0.16,229.74,3.25
524.00,9.00,18.51,0.03,0.06,1.76,1.70,1.74,0.46,-44.78,13.90,-43.81,-5.48,-2.10,247.93,5.58
526.00,10.00,15.46,0.71,0.14,1.55,2.58,1.14,0.35,-30.72,-4.39,112.89,-5.65,-8.88,252.28,0.54
527.00,9.00,15.61,0.05,0.14,1.56,1.79,1.67,0.39,2.18,9.92,-33.01,-3.49,-5.84,221.62,-1.56
531.00,9.00,13.62,0.41,0.19,1.54,2.65,1.00,0.39,31.54,-28.16,161.30,15.49,-6.21,221.62,-6.46
535.00,9.00,12.33,0.17,0.17,3.67,2.50,1.50,0.33,19.80,0.26,31.76,12.18,33.60,199.06,-9.64
536.00,10.00,18.82,0.40,0.60,1.75,4.20,1.00,-1.20,147.62,-9.25,22.13,41.65,-4.86,-621.39,8.26
541.00,9.00,11.55,0.00,0.00,1.33,1.33,1.00,-0.57,-80.00,-28.16,-60.00,-13.64,-10.14,-139.28,-11.56
543.00,10.00,15.16,0.63,0.26,1.20,3.50,1.56,0.07,15.80,10.20,89.47,21.21,-15.90,94.46,-0.15
544.00,9.00,16.20,0.14,0.14,1.71,2.00,1.64,-0.16,2.18,8.22,15.57,1.14,-3.03,14.85,-0.10
545.00,10.00,17.62,0.11,0.07,1.82,2.12,1.71,-1.00,-57.86,15.42,-62.79,-19.09,-3.46,-508.66,5.51
551.00,10.00,15.74,0.53,0.12,2.18,3.50,,0.40,-38.48,,60.19,21.21,3.78,280.46,1.18
556.00,9.00,23.05,0.47,0.40,2.17,3.42,1.00,-0.50,154.82,-28.16,193.69,32.49,5.56,-112.97,16.76
557.00,10.00,21.91,0.12,0.12,2.29,2.53,2.25,-0.12,-38.48,34.18,-59.86,-7.11,5.98,-12.64,15.36
561.00,10.00,13.21,0.00,0.00,,2.00,,-2.00,-85.00,,-95.00,-22.59,,-1072.32,-4.63
568.00,9.00,19.28,0.50,0.10,2.29,3.14,1.67,0.00,-21.30,9.92,209.89,26.31,7.81,75.00,7.48
570.00,10.00,14.08,0.00,0.00,1.50,1.00,1.00,-0.50,-85.00,-9.25,-95.00,-51.80,-9.88,-226.83,-2.63
571.00,9.00,17.21,0.00,0.06,1.33,1.00,1.36,-1.07,-44.78,-7.70,-60.00,-20.93,-10.14,-327.25,2.38
572.00,10.00,9.95,0.00,0.14,2.00,1.67,1.00,0.40,-30.72,-9.25,-95.00,-32.23,0.16,280.46,-12.13
577.00,9.00,17.12,0.08,0.24,1.64,1.57,1.86,0.35,60.90,20.72,-16.82,-8.35,-4.34,206.58,2.16
583.00,10.00,15.23,0.25,0.25,2.00,3.50,3.00,0.50,11.93,60.24,-21.80,21.21,0.16,336.83,0.01
585.00,10.00,17.34,0.17,0.17,1.50,2.38,1.50,-1.08,-19.09,8.12,-45.22,-11.49,-9.88,-553.75,4.86
587.00,9.00,13.76,0.00,0.00,1.00,2.00,1.33,0.25,-80.00,-9.40,-60.00,1.14,-16.31,168.98,-6.11
589.00,9.00,17.41,0.28,0.26,2.44,2.50,1.44,1.19,72.63,-3.15,91.13,12.18,10.61,522.37,2.88
590.00,9.00,21.78,0.40,0.00,1.62,1.71,2.44,0.10,-80.00,53.69,155.91,-5.25,-4.72,112.59,13.64
592.00,9.00,17.63,0.00,0.11,2.12,1.44,1.57,0.35,-15.42,4.24,-60.00,-11.21,4.63,206.58,3.42
593.00,9.00,19.55,0.06,0.17,1.50,1.20,1.33,0.93,19.80,-9.40,-27.61,-16.51,-6.96,424.62,8.14
594.00,10.00,15.54,0.40,0.00,2.25,2.33,1.00,-2.00,-85.00,-9.25,22.13,-12.96,5.18,-1072.32,0.72
595.00,10.00,9.72,0.00,0.17,2.00,1.00,1.00,-0.67,-19.09,-9.25,-95.00,-51.80,0.16,-322.65,-12.66
597.00,10.00,14.46,0.20,0.10,1.67,2.00,2.00,0.25,-46.23,25.49,-36.44,-22.59,-6.47,195.92,-1.76
610.00,10.00,12.61,0.17,0.42,2.44,3.36,1.25,0.00,77.83,-0.57,-45.22,17.12,9.00,55.00,-6.01
614.00,10.00,22.20,1.00,0.00,4.00,3.00,,1.00,-85.00,,197.81,6.61,40.32,618.66,16.03
616.00,9.00,9.78,0.00,0.25,,1.50,1.00,-2.00,66.76,-28.16,-60.00,-9.89,,-676.88,-15.92
618.00,9.00,20.88,0.21,0.24,2.05,2.61,2.00,-0.81,60.90,28.68,53.35,14.61,3.32,-229.51,11.42
619.00,9.00,22.13,0.03,0.21,1.55,1.47,1.58,-0.19,43.28,4.81,-43.81,-10.55,-6.03,3.57,14.50
628.00,9.00,17.27,0.26,0.26,1.83,2.04,1.40,-0.36,72.63,-5.42,80.34,2.03,-0.79,-60.34,2.53
633.00,9.00,18.99,0.00,0.09,1.38,2.33,1.50,-1.38,-27.17,0.26,-60.00,8.43,-9.21,-443.79,6.77
636.00,9.00,14.62,0.08,0.08,1.80,1.20,2.00,0.08,-33.03,28.68,-16.82,-16.51,-1.35,105.07,-4.00
646.00,10.00,15.75,0.42,0.33,3.44,3.67,1.00,0.81,42.94,-9.25,27.98,26.18,29.08,511.57,1.20
647.00,9.00,23.42,0.14,0.14,2.00,2.10,1.14,1.07,2.18,-20.20,15.57,3.35,2.39,477.25,17.68
648.00,10.00,14.75,0.64,0.32,2.06,3.94,1.50,0.36,39.07,8.12,92.40,34.06,1.36,257.92,-1.09
650.00,10.00,13.12,0.22,0.09,1.95,2.16,1.67,-0.64,-50.11,14.03,-30.58,-17.92,-0.84,-305.75,-4.84
651.00,10.00,19.53,0.37,0.42,1.60,3.36,1.00,-0.19,77.83,-9.25,13.34,17.12,-7.87,-52.10,9.89
652.00,10.00,19.99,0.29,0.29,2.00,3.50,1.25,-0.31,27.43,-0.57,-10.09,21.21,0.16,-119.73,10.95
654.00,10.00,19.49,0.46,0.35,2.00,2.39,1.00,-1.14,50.69,-9.25,39.69,-11.20,0.16,-587.57,9.80
655.00,9.00,18.28,0.02,0.11,1.55,1.41,1.96,0.07,-15.42,26.41,-49.21,-11.88,-6.03,101.32,5.02
657.00,10.00,14.11,0.18,0.30,2.14,2.60,1.20,-0.54,31.31,-2.31,-42.29,-5.07,2.97,-249.38,-2.57
662.00,10.00,10.89,0.06,0.12,1.00,1.24,1.17,-0.15,-38.48,-3.34,-77.43,-44.78,-19.92,-29.55,-9.97
670.00,9.00,19.23,0.00,0.00,1.00,2.00,1.57,-0.30,-80.00,4.24,-60.00,1.14,-16.31,-37.78,7.36
671.00,10.00,21.50,0.87,0.54,3.04,4.88,1.17,0.38,124.36,-3.34,159.74,61.51,21.04,269.19,14.42
672.00,9.00,15.43,0.14,0.24,2.00,2.60,1.20,0.19,60.90,-16.80,15.57,14.39,2.39,146.43,-2.00
675.00,10.00,18.13,0.22,0.37,1.70,2.40,1.33,0.56,58.45,2.21,-30.58,-10.91,-5.86,370.65,6.68
676.00,9.00,16.82,0.00,0.25,1.40,1.57,1.40,1.00,66.76,-5.42,-60.00,-8.35,-8.83,450.94,1.42
678.00,10.00,13.50,0.06,0.06,1.91,1.50,1.00,0.15,-61.74,-9.25,-77.43,-37.20,-1.65,139.55,-3.97
680.00,10.00,19.23,0.67,0.62,2.24,4.16,1.00,0.38,155.37,-9.25,101.18,40.48,4.98,269.19,9.21
681.00,9.00,22.46,0.00,0.08,1.53,1.71,1.50,-0.62,-33.03,0.26,-60.00,-5.25,-6.40,-158.08,15.31
682.00,10.00,9.96,0.00,0.10,1.33,1.33,1.00,0.00,-46.23,-9.25,-95.00,-42.16,-13.29,55.00,-12.10
684.00,10.00,11.52,0.25,0.28,1.39,1.79,1.00,0.05,23.55,-9.25,-21.80,-28.72,-12.09,83.18,-8.52
685.00,9.00,16.64,0.09,0.07,2.00,1.63,1.20,0.11,-38.90,-16.80,-11.42,-7.02,2.39,116.35,0.98
686.00,10.00,16.69,0.33,0.29,1.84,2.77,1.08,0.29,27.43,-6.47,1.62,-0.11,-3.05,218.46,3.37
687.00,10.00,11.16,0.20,0.00,1.40,1.67,,-0.57,-85.00,,-36.44,-32.23,-11.89,-266.29,-9.34
688.00,10.00,19.56,0.12,0.25,1.83,2.67,1.00,0.00,11.93,-9.25,-59.86,-3.03,-3.25,55.00,9.96
689.00,10.00,11.59,0.25,0.28,1.57,2.38,1.00,0.29,23.55,-9.25,-21.80,-11.49,-8.48,218.46,-8.36
691.00,10.00,7.54,0.00,0.00,,1.67,,-1.67,-85.00,,-95.00,-32.23,,-886.31,-17.67
692.00,10.00,12.16,0.17,0.09,1.00,1.93,1.25,0.28,-50.11,-0.57,-45.22,-24.64,-19.92,212.82,-7.05
693.00,9.00,12.80,0.03,0.03,1.35,1.25,1.25,0.09,-62.39,-13.95,-43.81,-15.41,-9.76,108.83,-8.48
694.00,9.00,11.56,0.00,0.00,1.50,1.33,1.00,0.75,-80.00,-28.16,-60.00,-13.64,-6.96,356.95,-11.53
696.00,9.00,18.50,0.11,0.26,2.38,2.52,1.50,0.28,72.63,0.26,-0.62,12.62,9.49,180.26,5.56
697.00,9.00,19.99,0.22,0.24,2.05,2.56,1.39,0.57,60.90,-5.99,58.75,13.51,3.32,289.28,9.23
698.00,9.00,18.76,0.00,0.33,1.00,1.00,1.33,-1.33,113.73,-9.40,-60.00,-20.93,-16.31,-425.00,6.20
699.00,9.00,18.73,0.14,0.09,3.06,3.47,1.31,0.32,-27.17,-10.54,15.57,33.59,22.20,195.30,6.13
700.00,10.00,15.72,0.70,0.70,2.63,4.50,1.25,1.10,186.39,-0.57,109.96,50.41,12.81,675.03,1.14
701.00,10.00,16.05,0.88,0.25,3.00,3.43,1.00,0.71,11.93,-9.25,162.67,19.16,20.24,455.20,1.89
704.00,10.00,18.78,0.50,0.50,1.50,1.40,2.00,-0.60,108.85,25.49,51.40,-40.12,-9.88,-283.19,8.17
712.00,9.00,22.21,0.07,0.40,1.96,1.77,1.76,0.25,154.82,15.04,-22.22,-3.93,1.64,168.98,14.70
715.00,10.00,13.44,0.08,0.46,1.33,2.00,1.00,0.91,93.34,-9.25,-71.57,-22.59,-13.29,567.93,-4.11
717.00,10.00,20.73,0.00,0.00,4.00,4.00,,,-85.00,,-95.00,35.81,40.32,,12.65
720.00,10.00,17.34,0.40,0.20,1.50,2.25,1.00,0.00,-7.46,-9.25,22.13,-15.29,-9.88,55.00,4.86
724.00,10.00,18.60,0.25,0.62,3.00,4.25,,1.62,155.37,,-21.80,43.12,20.24,968.13,7.76
725.00,10.00,13.69,0.33,0.05,1.67,2.22,1.00,-0.31,-65.61,-9.25,1.62,-16.17,-6.47,-119.73,-3.53
727.00,10.00,14.50,0.46,0.36,1.92,3.00,1.67,0.62,54.57,14.03,39.69,6.61,-1.45,404.47,-1.67
729.00,9.00,14.18,0.12,0.19,1.86,2.36,1.00,-0.36,31.54,-28.16,4.77,9.09,-0.23,-60.34,-5.08
730.00,9.00,16.34,0.08,0.08,1.47,1.71,1.00,-0.79,-33.03,-28.16,-16.82,-5.25,-7.52,-221.99,0.24
731.00,9.00,13.42,0.00,0.00,1.00,1.00,2.00,-0.33,-80.00,28.68,-60.00,-20.93,-16.31,-49.06,-6.95
733.00,10.00,16.59,0.57,0.26,2.22,3.44,1.42,0.47,15.80,5.34,71.90,19.46,4.58,319.92,3.14
734.00,10.00,15.11,0.43,0.29,2.37,3.90,1.00,-0.06,27.43,-9.25,30.90,32.89,7.59,21.18,-0.27
738.00,9.00,13.76,0.07,0.00,1.57,1.62,1.00,-0.80,-80.00,-28.16,-22.22,-7.24,-5.65,-225.75,-6.11
741.00,9.00,14.19,0.25,0.00,2.00,1.67,1.00,-1.50,-80.00,-28.16,74.94,-6.14,2.39,-488.90,-5.06
742.00,10.00,12.88,0.50,0.50,1.00,1.00,,-1.00,108.85,,51.40,-51.80,-19.92,-508.66,-5.39
746.00,10.00,18.29,0.52,0.28,2.13,3.48,1.43,0.14,23.55,5.69,57.26,20.63,2.77,133.91,7.05
747.00,10.00,13.00,0.33,0.00,1.00,1.80,,-0.50,-85.00,,1.62,-28.43,-19.92,-226.83,-5.12
748.00,9.00,16.96,0.15,0.30,2.26,2.94,1.78,0.47,96.11,16.18,20.96,21.89,7.24,251.69,1.77
749.00,10.00,15.10,0.94,0.31,2.05,3.80,1.00,0.00,35.19,-9.25,180.23,29.97,1.16,55.00,-0.29
751.00,10.00,15.91,0.14,0.00,3.00,2.50,1.00,-0.67,-85.00,-9.25,-54.01,-7.99,20.24,-322.65,1.57
755.00,10.00,19.16,0.21,0.24,1.66,2.30,1.35,0.45,8.05,2.91,-33.51,-13.83,-6.67,308.65,9.04
756.00,9.00,16.70,0.12,0.12,2.00,1.71,1.00,1.43,-9.55,-28.16,4.77,-5.25,2.39,612.59,1.13
759.00,9.00,19.56,1.00,0.59,3.53,6.26,1.44,0.62,266.36,-3.15,479.77,95.17,30.99,308.08,8.17
763.00,10.00,13.53,0.30,0.33,1.86,3.10,1.33,0.55,42.94,2.21,-7.15,9.53,-2.65,365.01,-3.90
764.00,10.00,18.12,1.00,0.40,1.50,4.00,,0.20,70.08,,197.81,35.81,-9.88,167.73,6.65
765.00,9.00,18.53,0.24,0.14,2.11,2.97,1.37,0.12,2.18,-7.13,69.55,22.55,4.44,120.11,5.63
766.00,9.00,15.11,0.25,0.75,2.67,2.33,1.33,-1.00,360.29,-9.40,74.94,8.43,14.91,-300.94,-2.79
767.00,10.00,11.47,0.44,0.28,1.36,1.80,1.00,0.38,23.55,-9.25,33.84,-28.43,-12.69,269.19,-8.63
768.00,10.00,16.50,1.00,0.33,4.75,7.25,1.00,1.12,42.94,-9.25,197.81,130.73,55.38,686.30,2.93
769.00,9.00,8.99,0.18,0.00,1.25,1.40,1.25,0.11,-80.00,-13.95,37.16,-12.10,-11.63,116.35,-17.86
772.00,9.00,25.41,0.00,0.12,2.50,3.29,1.43,-0.29,-9.55,-3.72,-60.00,29.62,11.73,-34.02,22.58
774.00,10.00,13.02,0.14,0.14,1.62,1.82,1.00,-1.00,-30.72,-9.25,-54.01,-27.85,-7.47,-508.66,-5.07
785.00,10.00,16.34,0.11,0.36,1.58,2.79,1.62,-0.14,54.57,12.29,-62.79,0.48,-8.27,-23.91,2.56
801.00,10.00,14.52,0.67,0.00,2.00,2.33,1.00,2.00,-85.00,-9.25,101.18,-12.96,0.16,1182.32,-1.62
805.00,10.00,11.04,0.00,0.06,1.33,1.79,1.00,-0.83,-61.74,-9.25,-95.00,-28.72,-13.29,-412.84,-9.62
806.00,10.00,23.90,1.00,0.63,3.43,5.64,1.57,0.76,159.26,10.55,197.81,83.71,28.88,483.38,19.94
807.00,10.00,16.19,0.24,0.05,2.00,2.28,1.50,-1.62,-65.61,8.12,-24.73,-14.42,0.16,-858.13,2.22
812.00,9.00,14.50,0.00,0.00,1.00,1.00,1.25,0.33,-80.00,-13.95,-60.00,-20.93,-16.31,199.06,-4.29
813.00,10.00,15.42,0.32,0.68,2.00,3.03,1.20,0.48,178.64,-2.31,-1.30,7.48,0.16,325.56,0.45
814.00,10.00,9.12,0.00,0.09,1.44,1.91,1.00,-0.81,-50.11,-9.25,-95.00,-25.22,-11.08,-401.57,-14.04
815.00,9.00,13.92,0.17,0.17,2.64,2.47,1.36,0.59,19.80,-7.70,31.76,11.52,14.35,296.81,-5.72
822.00,10.00,13.70,1.00,0.00,1.00,1.00,,0.00,-85.00,,197.81,-51.80,-19.92,55.00,-3.51
824.00,9.00,12.28,0.04,0.04,1.75,1.36,1.50,0.33,-56.52,0.26,-38.41,-12.98,-2.29,199.06,-9.76
825.00,10.00,23.66,1.26,0.80,4.19,6.65,1.17,0.34,225.16,-3.34,273.93,113.21,44.14,246.64,19.39
830.00,10.00,18.40,0.47,0.53,2.50,4.48,1.12,0.09,120.48,-5.08,42.62,49.83,10.20,105.73,7.30
832.00,10.00,13.01,0.16,0.18,1.30,2.00,1.50,-0.26,-15.21,8.12,-48.16,-22.59,-13.90,-91.55,-5.09
837.00,9.00,8.75,0.07,0.07,1.20,2.25,1.50,-0.67,-38.90,0.26,-22.22,6.66,-12.57,-176.88,-18.45
840.00,10.00,15.73,0.06,0.25,2.38,2.18,,-0.64,11.93,,-77.43,-17.33,7.79,-305.75,1.16
841.00,9.00,15.68,0.15,0.25,1.82,2.35,1.33,0.35,66.76,-9.40,20.96,8.87,-0.98,206.58,-1.38
842.00,10.00,14.53,0.29,0.29,1.38,2.76,1.17,-0.43,27.43,-3.34,-10.09,-0.40,-12.29,-187.37,-1.60
850.00,10.00,15.58,0.45,0.23,1.94,3.33,2.00,0.24,4.17,25.49,36.77,16.25,-1.04,190.28,0.82
851.00,10.00,25.69,0.50,0.50,2.00,5.00,,-1.00,108.85,,51.40,65.02,0.16,-508.66,24.06
853.00,10.00,14.51,0.13,0.39,2.33,2.28,1.20,0.11,66.21,-2.31,-56.93,-14.42,6.79,117.00,-1.65
854.00,9.00,17.72,0.21,0.14,2.71,2.68,1.43,-0.58,2.18,-3.72,53.35,16.16,15.66,-143.04,3.64
855.00,10.00,14.86,0.48,0.29,1.57,3.00,1.00,0.87,27.43,-9.25,45.54,6.61,-8.48,545.39,-0.84
858.00,10.00,13.15,0.28,0.22,1.55,2.21,1.25,0.85,0.30,-0.57,-13.01,-16.46,-8.88,534.11,-4.77
859.00,10.00,16.26,0.43,0.14,1.80,4.29,,0.75,-30.72,,30.90,44.28,-3.86,477.75,2.38
860.00,9.00,14.22,0.11,0.00,2.00,1.50,1.00,-0.14,-80.00,-28.16,-0.62,-9.89,2.39,22.37,-4.98
863.00,10.00,18.17,0.18,0.18,2.54,2.21,1.80,-0.93,-15.21,18.55,-42.29,-16.46,11.00,-469.21,6.77
864.00,9.00,13.45,1.00,0.00,2.00,1.00,1.00,1.00,-80.00,-28.16,479.77,-20.93,2.39,450.94,-6.88
876.00,10.00,13.03,0.35,0.12,1.94,2.53,1.33,0.09,-38.48,2.21,7.49,-7.11,-1.04,105.73,-5.05
879.00,9.00,19.82,0.07,0.09,1.88,1.85,1.75,-0.44,-27.17,14.47,-22.22,-2.17,0.14,-90.41,8.81
883.00,10.00,20.29,0.57,0.79,2.20,4.75,1.20,0.84,221.28,-2.31,71.90,57.71,4.18,528.47,11.64
886.00,10.00,16.33,0.09,0.00,1.77,2.41,1.38,-1.06,-85.00,3.95,-68.65,-10.62,-4.46,-542.48,2.54
892.00,10.00,16.69,0.68,1.05,2.72,3.21,1.00,1.21,322.09,-9.25,104.11,12.74,14.62,737.03,3.37
896.00,9.00,17.56,0.00,0.20,2.00,2.00,2.00,0.25,37.41,28.68,-60.00,1.14,2.39,168.98,3.24
898.00,10.00,15.48,1.00,0.00,1.00,4.00,,-1.00,-85.00,,197.81,35.81,-19.92,-508.66,0.58
910.00,9.00,14.93,0.08,0.08,1.75,1.77,1.52,0.08,-33.03,1.39,-16.82,-3.93,-2.29,105.07,-3.23
911.00,10.00,12.28,0.10,0.10,1.17,1.78,1.00,-0.33,-46.23,-9.25,-65.72,-29.01,-16.51,-131.01,-6.77
913.00,9.00,19.43,0.00,0.50,,2.00,1.00,-0.50,213.53,-28.16,-60.00,1.14,,-112.97,7.85
913.00,10.00,28.87,0.50,0.00,1.00,1.50,5.00,-1.00,-85.00,129.73,51.40,-37.20,-19.92,-508.66,31.36
917.00,9.00,14.55,0.25,0.19,1.80,2.08,1.20,0.14,31.54,-16.80,74.94,2.91,-1.35,127.63,-4.17
919.00,9.00,15.79,0.09,0.18,1.75,2.36,1.09,0.42,25.67,-23.04,-11.42,9.09,-2.29,232.89,-1.12
921.00,10.00,14.69,0.23,0.60,2.00,2.89,1.00,0.40,147.62,-9.25,-27.65,3.39,0.16,280.46,-1.23
922.00,10.00,10.94,0.29,0.00,1.00,1.33,1.67,-0.20,-85.00,14.03,-10.09,-42.16,-19.92,-57.73,-9.85
923.00,10.00,17.62,1.00,0.00,2.00,2.00,,0.00,-85.00,,197.81,-22.59,0.16,55.00,5.51
924.00,10.00,19.75,1.00,1.00,2.00,7.00,,0.00,302.70,,197.81,123.42,0.16,55.00,10.40
925.00,10.00,10.56,0.00,0.00,2.00,1.50,1.00,-2.00,-85.00,-9.25,-95.00,-37.20,0.16,-1072.32,-10.72
926.00,10.00,,0.00,0.00,,,,,-85.00,,-95.00,,,,
928.00,10.00,11.10,0.00,0.00,1.00,1.50,,0.50,-85.00,,-95.00,-37.20,-19.92,336.83,-9.48
929.00,10.00,12.46,0.33,0.33,1.33,2.00,1.00,-0.67,42.94,-9.25,1.62,-22.59,-13.29,-322.65,-6.36
934.00,10.00,17.98,0.42,0.17,1.88,2.84,1.52,-0.20,-19.09,8.82,27.98,1.94,-2.25,-57.73,6.33
937.00,10.00,11.61,0.67,0.00,1.00,1.67,,0.50,-85.00,,101.18,-32.23,-19.92,336.83,-8.31
939.00,10.00,14.80,0.00,0.00,1.00,2.25,1.00,-2.00,-85.00,-9.25,-95.00,-15.29,-19.92,-1072.32,-0.98
940.00,9.00,20.55,0.00,0.20,3.25,3.00,1.00,-1.50,37.41,-28.16,-60.00,23.22,25.75,-488.90,10.61
942.00,9.00,21.73,0.67,0.33,5.33,4.33,,-1.67,113.73,,301.64,52.57,64.63,-552.82,13.52
946.00,9.00,18.61,0.00,0.11,1.25,1.40,1.33,-1.75,-15.42,-9.40,-60.00,-12.10,-11.63,-582.89,5.83
948.00,10.00,10.17,0.10,0.15,2.00,1.43,1.00,-1.00,-26.84,-9.25,-65.72,-39.24,0.16,-508.66,-11.62
949.00,10.00,14.90,0.47,0.07,2.83,3.20,1.00,-0.17,-57.86,-9.25,42.62,12.45,16.83,-40.82,-0.75
950.00,10.00,10.19,0.20,0.10,1.40,1.80,1.00,0.71,-46.23,-9.25,-36.44,-28.43,-11.89,455.20,-11.57
951.00,10.00,14.84,0.39,0.32,2.50,3.78,1.20,-0.09,39.07,-2.31,19.19,29.39,10.20,4.27,-0.89
952.00,10.00,17.34,0.00,0.00,2.00,2.00,4.00,0.00,-85.00,94.99,-95.00,-22.59,0.16,55.00,4.86
953.00,10.00,14.63,0.64,0.45,2.00,3.64,1.00,1.00,89.46,-9.25,92.40,25.30,0.16,618.66,-1.37
960.00,9.00,16.23,0.11,0.07,1.88,1.62,1.25,0.52,-38.90,-13.95,-0.62,-7.24,0.14,270.49,-0.03
962.00,9.00,17.47,0.03,0.11,1.79,2.00,1.70,0.26,-15.42,11.63,-43.81,1.14,-1.54,172.74,3.02
963.00,9.00,16.34,0.00,0.05,2.77,1.86,1.55,0.47,-50.65,3.10,-60.00,-1.94,16.78,251.69,0.24
964.00,9.00,16.25,0.00,0.44,1.57,2.00,1.00,1.44,178.30,-28.16,-60.00,1.14,-5.65,616.35,0.02
967.00,10.00,14.05,0.25,1.25,2.00,2.67,,2.33,399.63,,-21.80,-3.03,0.16,1368.33,-2.70
971.00,10.00,16.90,0.19,0.33,1.53,2.06,1.33,1.17,42.94,2.21,-39.37,-20.84,-9.28,714.48,3.85
973.00,9.00,23.82,0.00,0.75,1.00,1.00,1.33,1.75,360.29,-9.40,-60.00,-20.93,-16.31,732.89,18.66
976.00,9.00,16.14,0.19,0.19,1.47,2.15,1.61,0.65,31.54,6.51,42.56,4.45,-7.52,319.36,-0.25
977.00,9.00,19.62,0.22,0.25,2.00,2.25,1.17,-0.48,66.76,-18.50,58.75,6.66,2.39,-105.45,8.32
981.00,9.00,19.40,0.05,0.21,1.87,2.24,2.18,0.41,43.28,38.91,-33.01,6.44,-0.04,229.13,7.78
982.00,10.00,18.35,0.56,0.49,2.87,3.28,1.00,0.47,104.97,-9.25,68.97,14.79,17.63,319.92,7.18
985.00,10.00,17.57,0.41,0.35,2.41,4.88,1.20,0.12,50.69,-2.31,25.05,61.51,8.39,122.64,5.39
986.00,9.00,20.03,0.31,0.31,2.10,2.36,1.25,1.45,101.98,-13.95,107.33,9.09,4.26,620.11,9.33
988.00,10.00,16.75,0.64,0.71,2.11,3.61,1.00,0.62,190.26,-9.25,92.40,24.42,2.37,404.47,3.50
990.00,10.00,17.90,0.10,0.24,2.44,2.29,1.40,0.29,8.05,4.65,-65.72,-14.13,9.00,218.46,6.15
994.00,10.00,18.80,1.00,0.50,1.00,3.50,1.00,-2.50,108.85,-9.25,197.81,21.21,-19.92,-1354.15,8.22
1000.00,9.00,23.49,0.00,0.20,2.09,1.86,1.29,-1.47,37.41,-11.68,-60.00,-1.94,4.07,-477.63,17.85
1001.00,9.00,16.16,0.00,0.15,1.20,1.67,1.43,-0.28,8.06,-3.72,-60.00,-6.14,-12.57,-30.26,-0.20
1004.00,10.00,12.68,0.06,0.06,1.20,1.70,1.20,-0.64,-61.74,-2.31,-77.43,-31.36,-15.90,-305.75,-5.85
1006.00,10.00,15.12,0.17,0.06,1.60,2.07,1.57,-1.27,-61.74,10.55,-45.22,-20.55,-7.87,-660.85,-0.24
1007.00,10.00,,0.00,0.00,,,,,-85.00,,-95.00,,,,
1008.00,9.00,20.29,0.00,0.17,1.80,2.00,1.67,0.40,19.80,9.92,-60.00,1.14,-1.35,225.38,9.97
1010.00,9.00,2.27,0.00,0.00,,1.00,,0.00,-80.00,,-60.00,-20.93,,75.00,-34.41
1013.00,10.00,15.31,0.15,0.32,1.33,1.91,1.25,-0.20,39.07,-0.57,-51.08,-25.22,-13.29,-57.73,0.19
1014.00,9.00,10.56,0.00,0.00,1.56,2.33,,-1.09,-80.00,,-60.00,8.43,-5.84,-334.77,-13.99
1015.00,10.00,7.70,0.00,0.00,,1.00,,-1.00,-85.00,,-95.00,-51.80,,-508.66,-17.30
1016.00,10.00,14.18,0.29,0.46,1.89,4.28,1.00,0.90,93.34,-9.25,-10.09,43.99,-2.05,562.29,-2.40
1017.00,9.00,23.55,0.06,0.06,1.47,1.73,2.50,-1.27,-44.78,57.10,-27.61,-4.82,-7.52,-402.44,18.00
1018.00,9.00,9.51,0.08,0.00,1.25,1.33,1.00,-0.56,-80.00,-28.16,-16.82,-13.64,-11.63,-135.52,-16.58
1021.00,10.00,8.84,0.00,0.00,2.67,2.20,1.00,-1.17,-85.00,-9.25,-95.00,-16.75,13.61,-604.48,-14.68
1024.00,10.00,5.31,0.00,0.00,,1.00,,-1.00,-85.00,,-95.00,-51.80,,-508.66,-22.79
1026.00,10.00,13.08,1.00,0.00,1.50,3.00,,0.00,-85.00,,197.81,6.61,-9.88,55.00,-4.93
1027.00,10.00,12.55,0.17,0.00,1.88,2.00,1.00,-0.44,-85.00,-9.25,-45.22,-22.59,-2.25,-193.01,-6.15
1033.00,10.00,14.18,0.14,0.06,1.89,2.45,1.60,-0.72,-61.74,11.59,-54.01,-9.45,-2.05,-350.83,-2.40
1034.00,10.00,9.53,0.00,0.00,,,,,-85.00,,-95.00,,,,-13.09
1036.00,9.00,8.27,0.00,0.06,1.29,1.00,1.00,-0.40,-44.78,-28.16,-60.00,-20.93,-10.88,-75.38,-19.63
1038.00,9.00,24.83,0.00,0.00,2.00,1.00,1.67,-3.67,-80.00,9.92,-60.00,-20.93,2.39,-1304.69,21.15
1039.00,10.00,17.83,0.17,0.11,1.64,1.40,1.83,-0.59,-42.36,19.59,-45.22,-40.12,-7.07,-277.56,5.99
1040.00,9.00,13.51,0.00,0.00,9.00,10.00,6.00,-2.50,-80.00,256.04,-60.00,177.72,133.24,-864.84,-6.73
1043.00,10.00,16.93,0.00,0.00,3.20,3.00,6.00,-0.20,-85.00,164.48,-95.00,6.61,24.26,-57.73,3.92
1049.00,9.00,13.84,0.00,0.00,1.83,1.00,1.00,-0.44,-80.00,-28.16,-60.00,-20.93,-0.79,-90.41,-5.92
1054.00,9.00,10.00,0.00,0.00,,,1.00,-1.00,-80.00,-28.16,-60.00,,,-300.94,-15.37
1058.00,10.00,14.69,0.14,0.19,1.30,2.03,1.00,-0.09,-11.34,-9.25,-54.01,-21.72,-13.90,4.27,-1.23
1059.00,10.00,20.97,0.25,0.25,2.00,2.00,2.50,-0.50,11.93,42.87,-21.80,-22.59,0.16,-226.83,13.21
1066.00,10.00,16.42,0.07,0.14,1.43,2.10,,-1.46,-30.72,,-74.50,-19.67,-11.28,-767.94,2.74
1076.00,9.00,15.44,0.00,0.25,4.00,4.00,2.00,0.33,66.76,28.68,-60.00,45.29,39.77,199.06,-1.98
1082.00,9.00,7.45,0.00,0.06,1.25,1.00,1.00,0.00,-44.78,-28.16,-60.00,-20.93,-11.63,75.00,-21.65
1085.00,10.00,11.23,0.00,0.00,1.33,1.67,1.00,-0.40,-85.00,-9.25,-95.00,-32.23,-13.29,-170.46,-9.18
1086.00,9.00,10.59,0.00,0.00,,1.00,1.00,0.00,-80.00,-28.16,-60.00,-20.93,,75.00,-13.92
1087.00,9.00,6.85,0.00,0.00,1.00,1.00,1.00,-0.71,-80.00,-28.16,-60.00,-20.93,-16.31,-191.92,-23.13
1090.00,10.00,10.28,0.08,0.12,2.38,3.12,1.00,-0.73,-38.48,-9.25,-71.57,10.12,7.79,-356.47,-11.37
1093.00,9.00,10.23,0.02,0.00,1.43,1.36,1.59,0.14,-80.00,5.37,-49.21,-12.98,-8.27,127.63,-14.81
1095.00,10.00,13.21,0.00,0.00,1.00,1.00,2.00,0.67,-85.00,25.49,-95.00,-51.80,-19.92,432.65,-4.63
1100.00,9.00,21.56,0.00,0.14,2.00,1.62,1.36,0.22,2.18,-7.70,-60.00,-7.24,2.39,157.70,13.10
1101.00,10.00,13.92,0.34,0.31,1.84,4.24,1.00,0.52,35.19,-9.25,4.55,42.82,-3.05,348.10,-3.00
1102.00,10.00,14.59,0.16,0.10,1.85,2.25,1.18,-1.04,-46.23,-3.00,-48.16,-15.29,-2.85,-531.21,-1.46
1104.00,10.00,7.98,0.00,0.00,,1.00,1.00,-1.00,-85.00,-9.25,-95.00,-51.80,,-508.66,-16.66
1105.00,9.00,11.82,0.00,0.16,1.60,1.42,1.11,0.21,13.93,-21.90,-60.00,-11.66,-5.09,153.94,-10.89
1108.00,10.00,10.85,0.42,0.08,1.20,2.40,,0.50,-53.98,,27.98,-10.91,-15.90,336.83,-10.06
1109.00,10.00,15.87,0.00,0.00,1.00,2.00,1.00,-1.40,-85.00,-9.25,-95.00,-22.59,-19.92,-734.12,1.48
1112.00,10.00,8.38,0.00,1.00,2.00,2.50,,-1.67,302.70,,-95.00,-7.99,0.16,-886.31,-15.74
1116.00,10.00,19.80,0.88,0.55,3.25,5.76,1.22,0.69,128.24,-1.61,162.67,87.21,25.26,443.93,10.51
1118.00,10.00,13.95,0.27,0.27,1.57,2.88,1.00,1.10,19.68,-9.25,-15.94,3.10,-8.48,675.03,-2.93
1119.00,9.00,21.80,0.13,0.16,1.32,1.96,1.20,-0.43,13.93,-16.80,10.17,0.26,-10.32,-86.66,13.69
1121.00,10.00,19.81,0.40,0.53,1.86,3.22,1.00,0.55,120.48,-9.25,22.13,13.03,-2.65,365.01,10.54
1122.00,10.00,12.19,0.17,0.07,1.57,1.96,1.22,-0.19,-57.86,-1.61,-45.22,-23.77,-8.48,-52.10,-6.98
1128.00,9.00,13.61,0.00,0.00,1.27,1.45,1.20,0.11,-80.00,-16.80,-60.00,-11.00,-11.26,116.35,-6.48
1129.00,9.00,6.57,0.00,0.00,1.00,,1.40,-0.89,-80.00,-5.42,-60.00,,-16.31,-259.58,-23.82
1132.00,9.00,7.18,0.00,0.00,1.60,2.00,1.00,-0.88,-80.00,-28.16,-60.00,1.14,-5.09,-255.83,-22.32
1133.00,9.00,18.03,0.18,0.18,2.90,3.05,1.44,0.83,25.67,-3.15,37.16,24.32,19.21,387.03,4.40
1135.00,9.00,20.69,0.20,0.00,2.00,1.00,1.00,1.20,-80.00,-28.16,47.95,-20.93,2.39,526.12,10.95
1136.00,9.00,13.00,0.04,0.17,2.10,1.47,1.29,-0.20,19.80,-11.68,-38.41,-10.55,4.26,-0.19,-7.98
1137.00,10.00,15.93,0.11,0.22,1.67,2.40,1.33,0.17,0.30,2.21,-62.79,-10.91,-6.47,150.82,1.62
1139.00,10.00,12.85,0.50,0.50,2.00,2.00,,0.00,108.85,,51.40,-22.59,0.16,55.00,-5.46
1140.00,10.00,19.24,0.50,0.00,4.00,5.00,1.67,-0.25,-85.00,14.03,51.40,65.02,40.32,-85.92,9.23
1143.00,9.00,14.75,0.25,0.00,1.50,1.50,2.00,-0.20,-80.00,28.68,74.94,-9.89,-6.96,-0.19,-3.68
1144.00,10.00,15.58,0.45,0.23,1.48,2.69,1.23,0.56,4.17,-1.26,36.77,-2.45,-10.28,370.65,0.82
1145.00,10.00,14.65,1.00,0.00,2.00,2.00,,0.00,-85.00,,197.81,-22.59,0.16,55.00,-1.32
1146.00,10.00,17.70,0.14,0.30,2.00,2.59,1.30,0.20,31.31,1.17,-54.01,-5.36,0.16,167.73,5.69
1148.00,10.00,13.70,0.50,0.41,1.77,2.82,1.00,0.03,73.96,-9.25,51.40,1.35,-4.46,71.91,-3.51
1157.00,9.00,17.41,0.23,0.18,2.24,2.29,2.00,0.45,25.67,28.68,64.15,7.55,6.87,244.17,2.88
1159.00,9.00,20.17,0.00,0.10,1.43,1.00,1.86,-1.00,-21.30,20.72,-60.00,-20.93,-8.27,-300.94,9.67
1162.00,10.00,17.71,0.00,0.00,2.00,2.00,1.00,-0.57,-85.00,-9.25,-95.00,-22.59,0.16,-266.29,5.71
1165.00,9.00,14.98,0.10,0.13,1.62,2.86,1.33,0.26,-3.68,-9.40,-6.02,20.13,-4.72,172.74,-3.11
1177.00,9.00,14.17,0.06,0.06,1.17,1.00,1.75,-0.40,-44.78,14.47,-27.61,-20.93,-13.13,-75.38,-5.10
1180.00,10.00,6.90,0.00,0.00,,1.00,1.00,-1.50,-85.00,-9.25,-95.00,-51.80,,-790.49,-19.14
1186.00,10.00,15.37,0.00,0.00,1.00,1.50,1.00,-2.46,-85.00,-9.25,-95.00,-37.20,-19.92,-1331.61,0.33
1187.00,10.00,15.31,0.33,0.22,1.67,2.47,1.00,0.27,0.30,-9.25,1.62,-8.87,-6.47,207.19,0.19
1188.00,9.00,17.26,0.10,0.08,1.64,1.74,1.50,-0.34,-33.03,0.26,-6.02,-4.59,-4.34,-52.81,2.51
1192.00,10.00,13.42,0.00,0.11,1.75,1.57,1.00,-0.50,-42.36,-9.25,-95.00,-35.15,-4.86,-226.83,-4.15
1195.00,10.00,19.23,0.00,0.00,1.00,1.00,,-0.50,-85.00,,-95.00,-51.80,-19.92,-226.83,9.21
1198.00,9.00,14.76,0.05,0.14,1.70,1.67,1.00,-0.36,2.18,-28.16,-33.01,-6.14,-3.22,-60.34,-3.65
1204.00,10.00,16.52,0.33,0.00,1.40,1.67,,-1.00,-85.00,,1.62,-32.23,-11.89,-508.66,2.97
1205.00,9.00,20.08,0.21,0.24,2.05,2.62,1.36,-0.97,60.90,-7.70,53.35,14.83,3.32,-289.66,9.45
1206.00,9.00,21.34,0.07,0.27,2.36,1.83,1.71,0.36,78.50,12.20,-22.22,-2.61,9.12,210.34,12.55
1208.00,10.00,13.85,0.27,0.09,1.00,2.14,1.00,-0.62,-50.11,-9.25,-15.94,-18.51,-19.92,-294.47,-3.16
1213.00,9.00,21.67,0.11,0.36,3.35,1.96,2.09,-0.88,131.34,33.80,-0.62,0.26,27.62,-255.83,13.37
1214.00,10.00,17.12,0.58,0.39,1.50,2.62,1.00,-0.07,66.21,-9.25,74.83,-4.49,-9.88,15.54,4.35
1217.00,10.00,36.47,0.00,0.00,11.00,9.00,6.00,-1.00,-85.00,164.48,-95.00,181.83,180.88,-508.66,48.84
1218.00,10.00,16.39,0.44,0.08,2.25,3.48,1.00,0.00,-53.98,-9.25,33.84,20.63,5.18,55.00,2.68
1220.00,10.00,18.79,0.12,0.23,2.31,2.17,1.50,-1.05,4.17,8.12,-59.86,-17.63,6.38,-536.84,8.19
1223.00,9.00,16.95,0.05,0.10,1.80,1.50,1.60,-0.33,-21.30,5.94,-33.01,-9.89,-1.35,-49.06,1.74
1224.00,10.00,15.64,0.24,0.12,1.92,2.37,1.00,-0.90,-38.48,-9.25,-24.73,-11.79,-1.45,-452.29,0.95
1226.00,10.00,14.39,0.00,0.00,1.56,1.33,1.44,-0.40,-85.00,6.04,-95.00,-42.16,-8.68,-170.46,-1.92
1228.00,10.00,21.81,0.55,0.18,2.24,4.62,1.78,-0.21,-15.21,17.85,66.04,53.92,4.98,-63.37,15.13
1229.00,10.00,15.30,0.30,0.30,1.50,2.00,1.00,-0.16,31.31,-9.25,-7.15,-22.59,-9.88,-35.18,0.17
1230.00,9.00,14.48,0.07,0.12,2.14,1.89,1.38,0.50,-9.55,-6.56,-22.22,-1.28,5.00,262.97,-4.34
1232.00,9.00,9.68,0.00,0.00,,,1.00,-2.00,-80.00,-28.16,-60.00,,,-676.88,-16.16
1233.00,10.00,15.51,0.67,0.17,2.97,4.50,1.12,0.44,-19.09,-5.08,101.18,50.41,19.64,303.01,0.65
1234.00,10.00,14.05,0.12,0.08,1.00,1.36,1.33,-0.05,-53.98,2.21,-59.86,-41.29,-19.92,26.82,-2.70
1236.00,9.00,13.96,0.08,0.00,1.83,1.20,1.33,0.55,-80.00,-9.40,-16.82,-16.51,-0.79,281.77,-5.62
1237.00,10.00,14.13,0.39,0.25,2.00,2.31,1.67,0.30,11.93,14.03,19.19,-13.54,0.16,224.10,-2.52
1240.00,10.00,17.88,0.41,0.41,1.82,2.27,1.36,1.08,73.96,3.26,25.05,-14.71,-3.46,663.75,6.10
1242.00,9.00,16.25,0.07,0.14,2.50,2.10,1.46,0.54,2.18,-2.01,-22.22,3.35,11.73,278.00,0.02
1243.00,9.00,11.08,0.00,0.20,2.00,2.00,,1.33,37.41,,-60.00,1.14,2.39,575.00,-12.71
1244.00,10.00,13.53,0.38,0.31,1.68,2.45,1.20,0.85,35.19,-2.31,16.26,-9.45,-6.26,534.11,-3.90
1245.00,10.00,12.65,0.00,0.11,1.40,1.50,1.00,-1.00,-42.36,-9.25,-95.00,-37.20,-11.89,-508.66,-5.92
1246.00,10.00,14.11,0.05,0.19,1.50,2.29,1.25,0.58,-11.34,-0.57,-80.36,-14.13,-9.88,381.92,-2.57
1247.00,10.00,16.06,0.53,0.25,2.27,3.38,1.14,0.64,11.93,-4.39,60.19,17.71,5.58,415.75,1.92
1249.00,10.00,12.24,0.00,0.00,1.38,1.60,1.00,-1.14,-85.00,-9.25,-95.00,-34.27,-12.29,-587.57,-6.86
1250.00,10.00,15.12,0.05,0.05,1.56,1.73,1.47,-0.23,-65.61,7.08,-80.36,-30.48,-8.68,-74.64,-0.24
1252.00,9.00,18.43,0.33,0.00,1.67,1.00,2.00,0.00,-80.00,28.68,118.12,-20.93,-3.78,75.00,5.39
1253.00,10.00,14.84,0.30,0.17,1.58,2.11,1.00,-0.38,-19.09,-9.25,-7.15,-19.38,-8.27,-159.19,-0.89
1254.00,9.00,15.83,0.11,0.19,2.68,2.14,1.37,0.84,31.54,-7.13,-0.62,4.24,15.10,390.79,-1.02
1255.00,10.00,12.68,0.20,0.00,1.20,1.50,1.00,0.67,-85.00,-9.25,-36.44,-37.20,-15.90,432.65,-5.85
1260.00,9.00,18.36,0.00,0.13,1.71,1.29,1.12,0.43,-3.68,-21.34,-60.00,-14.53,-3.03,236.66,5.22
1261.00,9.00,17.98,0.00,0.00,1.78,1.55,2.50,-0.36,-80.00,57.10,-60.00,-8.79,-1.73,-60.34,4.28
1264.00,10.00,15.25,0.44,0.22,1.89,2.17,1.17,0.54,0.30,-3.34,33.84,-17.63,-2.05,359.38,0.06
1265.00,9.00,15.34,0.00,0.05,1.69,1.09,1.55,0.03,-50.65,3.10,-60.00,-18.94,-3.41,86.28,-2.22
1275.00,9.00,,0.00,0.00,,,,,-80.00,,-60.00,,,,
1294.00,10.00,17.24,0.00,0.00,1.00,,,-2.60,-85.00,,-95.00,,-19.92,-1410.51,4.63
1297.00,9.00,17.84,0.11,0.06,1.43,1.17,1.50,-0.36,-44.78,0.26,-0.62,-17.17,-8.27,-60.34,3.94
1298.00,10.00,15.31,0.19,0.12,2.00,2.15,1.00,-0.20,-38.48,-9.25,-39.37,-18.21,0.16,-57.73,0.19
1304.00,10.00,17.57,0.61,0.37,2.54,4.00,1.31,0.08,58.45,1.52,83.61,35.81,11.00,100.09,5.39
1306.00,9.00,20.02,0.00,0.25,1.00,2.00,1.33,0.75,66.76,-9.40,-60.00,1.14,-16.31,356.95,9.30
1310.00,9.00,13.70,0.00,0.25,1.00,,2.00,-1.33,66.76,28.68,-60.00,,-16.31,-425.00,-6.26
1313.00,9.00,7.39,0.00,0.00,,1.00,,,-80.00,,-60.00,-20.93,,,-21.80
1315.00,9.00,8.27,0.00,0.00,1.25,1.33,1.50,-1.25,-80.00,0.26,-60.00,-13.64,-11.63,-394.92,-19.63
1318.00,9.00,9.54,0.00,0.08,1.67,1.00,1.40,-0.62,-33.03,-5.42,-60.00,-20.93,-3.78,-158.08,-16.50
1332.00,9.00,18.07,0.00,0.10,1.74,1.75,1.67,-0.59,-21.30,9.92,-60.00,-4.37,-2.47,-146.81,4.50
1333.00,10.00,14.93,0.00,0.00,2.00,1.00,,0.00,-85.00,,-95.00,-51.80,0.16,55.00,-0.68
1334.00,10.00,17.23,0.00,0.00,1.00,,1.00,-2.50,-85.00,-9.25,-95.00,,-19.92,-1354.15,4.61
1336.00,10.00,16.01,0.19,0.11,1.42,2.07,1.27,-0.21,-42.36,0.13,-39.37,-20.55,-11.49,-63.37,1.80
1338.00,9.00,21.22,0.22,0.41,2.18,2.73,1.25,0.24,160.69,-13.95,58.75,17.26,5.75,165.23,12.26
1339.00,10.00,14.70,0.32,0.20,1.84,2.75,1.00,0.00,-7.46,-9.25,-1.30,-0.69,-3.05,55.00,-1.21
1341.00,9.00,20.29,0.00,0.22,1.71,1.81,1.58,0.00,49.15,4.81,-60.00,-3.05,-3.03,75.00,9.97
1342.00,10.00,13.96,0.04,0.04,1.17,1.63,1.00,-0.19,-69.50,-9.25,-83.29,-33.40,-16.51,-52.10,-2.91
1348.00,9.00,19.09,0.16,0.19,1.89,2.33,2.39,0.16,31.54,50.85,26.36,8.43,0.33,135.15,7.01
1350.00,10.00,12.49,0.00,0.00,,,1.40,0.00,-85.00,4.65,-95.00,,,55.00,-6.29
1355.00,9.00,11.30,0.00,0.00,12.00,6.00,5.00,-2.00,-80.00,199.20,-60.00,89.44,189.32,-676.88,-12.17
1356.00,10.00,15.12,0.00,0.11,2.50,2.00,1.00,0.00,-42.36,-9.25,-95.00,-22.59,10.20,55.00,-0.24
1366.00,10.00,17.35,0.64,0.18,1.87,2.97,1.00,0.18,-15.21,-9.25,92.40,5.73,-2.45,156.46,4.88
1370.00,10.00,19.67,0.41,0.31,1.62,2.08,1.22,0.65,35.19,-1.61,25.05,-20.26,-7.47,421.38,10.22
1371.00,10.00,16.64,0.20,0.40,1.25,2.60,1.00,0.20,70.08,-9.25,-36.44,-5.07,-14.90,167.73,3.25
1373.00,10.00,20.79,0.00,0.00,3.67,7.67,,-1.50,-85.00,,-95.00,142.99,33.69,-790.49,12.79
1377.00,10.00,21.53,0.50,0.00,2.00,1.00,,0.00,-85.00,,51.40,-51.80,0.16,55.00,14.49
1380.00,9.00,14.90,0.00,0.29,1.67,1.25,2.67,-0.17,90.25,66.76,-60.00,-15.41,-3.78,11.09,-3.30
1382.00,10.00,8.00,0.12,0.06,1.00,2.00,1.00,-0.29,-61.74,-9.25,-59.86,-22.59,-19.92,-108.46,-16.61
1389.00,10.00,5.87,0.00,1.00,,,,0.00,302.70,,-95.00,,,55.00,-21.51
1395.00,9.00,17.93,0.25,0.25,4.50,2.75,2.67,-1.00,66.76,66.76,74.94,17.70,49.12,-300.94,4.16
1396.00,9.00,22.07,0.36,0.18,1.93,2.28,1.17,-0.11,25.67,-18.50,134.32,7.32,1.08,33.64,14.35
1398.00,9.00,18.99,0.00,0.07,2.00,1.62,1.25,-0.69,-38.90,-13.95,-60.00,-7.24,2.39,-184.40,6.77
1410.00,9.00,19.80,0.00,0.00,2.33,1.60,1.60,1.14,-80.00,5.94,-60.00,-7.68,8.55,503.56,8.76
1417.00,10.00,17.83,0.50,0.25,2.00,2.50,1.00,-1.25,11.93,-9.25,51.40,-7.99,0.16,-649.58,5.99
1421.00,10.00,21.94,0.93,0.47,3.29,6.43,3.00,-0.13,97.22,60.24,177.31,106.77,26.06,-18.28,15.43
1431.00,9.00,15.89,0.00,0.08,1.43,1.20,1.89,-0.19,-33.03,22.43,-60.00,-16.51,-8.27,3.57,-0.87
1432.00,10.00,12.78,0.09,0.09,1.67,1.68,1.00,0.31,-50.11,-9.25,-68.65,-31.94,-6.47,229.74,-5.62
1440.00,10.00,22.75,0.50,0.06,2.45,3.62,1.74,-1.68,-61.74,16.46,51.40,24.71,9.20,-891.95,17.30
1441.00,9.00,14.86,0.00,0.00,1.20,1.29,1.00,-0.22,-80.00,-28.16,-60.00,-14.53,-12.57,-7.70,-3.40
1445.00,9.00,24.68,0.20,1.00,1.75,2.67,1.00,0.50,507.05,-28.16,47.95,15.93,-2.29,262.97,20.78
1451.00,10.00,15.68,0.00,0.50,2.00,1.50,1.00,-1.00,108.85,-9.25,-95.00,-37.20,0.16,-508.66,1.04
1452.00,9.00,16.79,0.00,0.05,1.40,1.33,1.83,-1.12,-50.65,19.01,-60.00,-13.64,-8.83,-346.05,1.35
1455.00,9.00,13.00,0.00,0.11,1.60,1.33,1.38,-0.53,-15.42,-6.56,-60.00,-13.64,-5.09,-124.25,-7.98
1470.00,10.00,12.64,0.35,0.13,1.62,2.30,1.00,-0.32,-34.59,-9.25,7.49,-13.83,-7.47,-125.37,-5.94
1472.00,10.00,18.47,0.93,0.47,3.64,4.74,2.00,0.07,97.22,25.49,177.31,57.42,33.09,94.46,7.46
1478.00,10.00,17.85,0.79,0.41,2.36,4.26,1.20,-0.08,73.96,-2.31,136.32,43.41,7.39,9.91,6.03
1481.00,10.00,21.80,0.62,0.74,2.54,3.88,2.17,-0.44,201.90,31.40,86.54,32.31,11.00,-193.01,15.11
1482.00,10.00,12.06,0.00,0.00,1.43,1.44,1.38,-0.69,-85.00,3.95,-95.00,-38.94,-11.28,-333.93,-7.28
1488.00,9.00,12.40,0.00,0.08,1.88,1.57,1.00,-0.62,-33.03,-28.16,-60.00,-8.35,0.14,-158.08,-9.46
1491.00,10.00,12.71,0.37,0.07,1.84,2.46,1.00,0.12,-57.86,-9.25,13.34,-9.16,-3.05,122.64,-5.78
1493.00,10.00,13.65,1.00,0.00,1.00,2.00,1.00,1.00,-85.00,-9.25,197.81,-22.59,-19.92,618.66,-3.62
1494.00,9.00,16.89,0.38,0.12,3.17,4.67,1.00,-0.40,-9.55,-28.16,145.11,60.08,24.26,-75.38,1.60
1504.00,10.00,13.70,0.00,0.00,2.00,2.00,1.00,-0.50,-85.00,-9.25,-95.00,-22.59,0.16,-226.83,-3.51
1505.00,10.00,14.36,0.25,0.25,2.33,2.64,1.33,0.30,11.93,2.21,-21.80,-3.90,6.79,224.10,-1.99
1506.00,10.00,13.63,0.29,0.14,1.60,2.00,,-0.14,-30.72,,-10.09,-22.59,-7.87,-23.91,-3.67
1510.00,10.00,15.58,0.00,0.33,2.00,1.50,,-1.50,42.94,,-95.00,-37.20,0.16,-790.49,0.82
1511.00,10.00,11.03,0.25,0.00,1.33,3.00,1.50,-1.75,-85.00,8.12,-21.80,6.61,-13.29,-931.40,-9.65
1513.00,9.00,21.62,0.00,0.67,2.50,1.00,1.67,-0.67,313.32,9.92,-60.00,-20.93,11.73,-176.88,13.24
1515.00,10.00,24.46,0.36,0.41,2.95,3.35,1.33,-0.70,73.96,2.21,10.41,16.83,19.24,-339.56,21.23
1518.00,10.00,14.28,0.23,0.08,1.50,1.67,1.00,-0.33,-53.98,-9.25,-27.65,-32.23,-9.88,-131.01,-2.17
1521.00,9.00,22.76,0.00,0.25,1.67,1.60,1.60,-1.00,66.76,5.94,-60.00,-7.68,-3.78,-300.94,16.05
1523.00,9.00,17.53,0.09,0.09,2.18,2.25,1.41,-0.19,-27.17,-4.85,-11.42,6.66,5.75,3.57,3.17
1525.00,10.00,14.10,0.50,0.17,2.80,3.50,1.00,-0.60,-19.09,-9.25,51.40,21.21,16.22,-283.19,-2.59
1526.00,10.00,9.90,0.40,0.00,,2.00,,0.00,-85.00,,22.13,-22.59,,55.00,-12.24
1535.00,9.00,17.90,0.04,0.04,1.33,1.09,1.33,0.38,-56.52,-9.40,-38.41,-18.94,-10.14,217.85,4.08
1536.00,9.00,16.39,0.04,0.08,1.97,1.39,1.72,0.00,-33.03,12.77,-38.41,-12.32,1.83,75.00,0.36
1537.00,10.00,17.77,0.38,0.31,1.81,2.54,1.17,0.63,35.19,-3.34,16.26,-6.82,-3.66,410.11,5.85
1538.00,10.00,21.77,0.00,0.00,1.00,1.50,1.00,-0.50,-85.00,-9.25,-95.00,-37.20,-19.92,-226.83,15.04
1546.00,9.00,19.05,0.03,0.22,1.55,1.80,1.38,0.19,49.15,-6.56,-43.81,-3.27,-6.03,146.43,6.92
1547.00,10.00,13.86,0.07,0.21,1.22,1.40,1.00,-0.09,-3.58,-9.25,-74.50,-40.12,-15.50,4.27,-3.14
1549.00,10.00,14.99,0.27,0.31,2.03,2.83,1.12,0.30,35.19,-5.08,-15.94,1.64,0.76,224.10,-0.54
1550.00,9.00,16.52,0.13,0.11,2.16,2.15,2.07,0.08,-15.42,32.66,10.17,4.45,5.38,105.07,0.68
1551.00,9.00,17.78,0.06,0.22,2.62,2.40,1.48,-0.03,49.15,-0.88,-27.61,9.97,13.98,63.72,3.79
1556.00,10.00,15.46,0.16,0.05,2.08,2.25,1.50,-0.82,-65.61,8.12,-48.16,-15.29,1.77,-407.20,0.54
1558.00,10.00,8.12,0.00,0.10,,,1.00,0.25,-46.23,-9.25,-95.00,,,195.92,-16.33
1559.00,9.00,14.62,0.00,0.09,1.00,1.00,2.20,-0.55,-27.17,40.05,-60.00,-20.93,-16.31,-131.77,-4.00
1560.00,9.00,30.67,0.00,1.00,,,,-1.00,507.05,,-60.00,,,-300.94,35.53
1562.00,9.00,18.89,0.17,0.17,1.14,1.56,1.25,0.73,19.80,-13.95,31.76,-8.57,-13.69,349.43,6.52
1566.00,10.00,14.67,0.00,0.00,2.25,1.25,1.33,-0.40,-85.00,2.21,-95.00,-44.49,5.18,-170.46,-1.28
1568.00,10.00,12.45,0.40,0.20,3.25,3.92,2.00,-0.25,-7.46,25.49,22.13,33.48,25.26,-85.92,-6.38
1570.00,10.00,16.30,0.41,0.41,2.06,3.15,1.00,0.35,73.96,-9.25,25.05,10.99,1.36,252.28,2.47
1571.00,10.00,7.68,0.00,0.00,1.50,1.29,1.00,-0.71,-85.00,-9.25,-95.00,-43.33,-9.88,-345.20,-17.35
1572.00,9.00,20.89,0.24,0.32,2.26,4.00,1.38,-0.36,107.86,-6.56,69.55,45.29,7.24,-60.34,11.44
1575.00,10.00,13.24,0.44,0.22,1.69,3.62,1.00,0.31,0.30,-9.25,33.84,24.71,-6.06,229.74,-4.56
1576.00,10.00,15.81,0.14,0.45,1.57,2.56,1.50,-0.23,89.46,8.12,-54.01,-6.24,-8.48,-74.64,1.34
1577.00,9.00,17.55,0.17,0.12,1.62,1.79,1.57,-0.20,-9.55,4.24,31.76,-3.49,-4.72,-0.19,3.22
1582.00,10.00,13.82,0.29,0.04,2.12,1.91,1.00,0.44,-69.50,-9.25,-10.09,-25.22,2.57,303.01,-3.23
1600.00,9.00,16.39,0.07,0.13,1.57,1.17,1.27,0.79,-3.68,-12.81,-22.22,-17.17,-5.65,371.99,0.36
1618.00,10.00,12.71,0.17,0.00,1.20,1.25,1.00,0.00,-85.00,-9.25,-45.22,-44.49,-15.90,55.00,-5.78
1619.00,9.00,18.24,0.00,0.00,2.00,1.25,3.50,0.00,-80.00,113.94,-60.00,-15.41,2.39,75.00,4.92
1619.00,10.00,17.12,0.00,0.12,1.83,2.00,1.80,0.67,-38.48,18.55,-95.00,-22.59,-3.25,432.65,4.35
1905.00,9.00,23.77,0.00,0.00,,2.00,,1.00,-80.00,,-60.00,1.14,,450.94,18.54
1909.00,10.00,22.58,0.33,0.67,6.00,4.50,,1.50,174.76,,1.62,50.41,80.48,900.49,16.90
1910.00,10.00,17.43,0.25,0.00,2.00,1.67,3.00,0.50,-85.00,60.24,-21.80,-32.23,0.16,336.83,5.07
1911.00,10.00,16.08,0.50,1.00,1.50,3.50,,0.50,302.70,,51.40,21.21,-9.88,336.83,1.96
1912.00,10.00,15.20,0.57,0.43,1.20,3.43,2.50,0.50,81.71,42.87,71.90,19.16,-15.90,336.83,-0.06
1916.00,10.00,13.41,0.20,0.40,1.00,1.75,2.00,-0.33,70.08,25.49,-36.44,-29.90,-19.92,-131.01,-4.18
1919.00,10.00,13.84,0.20,0.00,1.00,1.75,1.00,-1.00,-85.00,-9.25,-36.44,-29.90,-19.92,-508.66,-3.18
1922.00,9.00,18.01,0.00,0.12,1.50,1.50,1.50,-0.57,-9.55,0.26,-60.00,-9.89,-6.96,-139.28,4.35
1924.00,9.00,21.59,1.00,1.00,1.00,,2.00,1.00,507.05,28.68,479.77,,-16.31,450.94,13.17
1926.00,9.00,8.43,0.33,0.00,4.00,1.00,,0.50,-80.00,,118.12,-20.93,39.77,262.97,-19.24
1936.00,10.00,14.08,2.00,0.00,2.00,1.00,,1.00,-85.00,,490.62,-51.80,0.16,618.66,-2.63
2051.00,10.00,17.88,0.79,0.23,2.81,4.33,1.00,0.33,4.17,-9.25,136.32,45.45,16.42,241.01,6.10
2052.00,9.00,11.05,0.00,0.05,1.40,1.55,1.00,-0.54,-50.65,-28.16,-60.00,-8.79,-8.83,-128.00,-12.79
2057.00,10.00,14.59,0.18,0.08,1.46,2.28,1.00,0.33,-53.98,-9.25,-42.29,-14.42,-10.68,241.01,-1.46
2059.00,10.00,6.29,0.05,0.05,1.00,1.25,1.00,0.00,-65.61,-9.25,-80.36,-44.49,-19.92,55.00,-20.54
2066.00,9.00,24.86,0.06,0.12,2.08,2.84,2.28,0.21,-9.55,44.59,-27.61,19.69,3.88,153.94,21.22
2068.00,9.00,24.00,0.14,0.27,1.73,2.48,1.93,0.15,78.50,24.70,15.57,11.74,-2.66,131.39,19.10
2071.00,10.00,20.93,0.00,1.20,2.00,1.75,1.00,2.50,380.24,-9.25,-95.00,-29.90,0.16,1464.15,13.11
2072.00,10.00,19.42,0.75,0.25,2.25,4.50,1.00,1.67,11.93,-9.25,124.60,50.41,5.18,996.31,9.64
2194.00,10.00,19.33,0.53,0.29,2.03,3.76,1.62,0.81,27.43,12.29,60.19,28.80,0.76,511.57,9.44
2203.00,10.00,13.30,0.14,0.31,1.97,2.97,1.00,-0.36,35.19,-9.25,-54.01,5.73,-0.44,-147.92,-4.43
2204.00,10.00,11.66,0.00,0.00,1.00,1.50,1.00,-1.00,-85.00,-9.25,-95.00,-37.20,-19.92,-508.66,-8.20
2205.00,10.00,13.88,0.82,0.18,2.12,2.64,1.00,-0.18,-15.21,-9.25,145.10,-3.90,2.57,-46.46,-3.09
2209.00,9.00,17.44,0.10,0.07,1.35,1.53,1.07,-0.59,-38.90,-24.18,-6.02,-9.23,-9.76,-146.81,2.95
2210.00,10.00,15.91,0.27,0.33,1.78,3.92,,0.00,42.94,,-15.94,33.48,-4.26,55.00,1.57
2211.00,10.00,7.51,0.00,0.00,,,,-1.00,-85.00,,-95.00,,,-508.66,-17.74
2212.00,10.00,15.02,0.33,0.14,1.53,2.89,1.00,-0.29,-30.72,-9.25,1.62,3.39,-9.28,-108.46,-0.47
2213.00,9.00,10.57,0.00,0.00,,2.00,,-0.50,-80.00,,-60.00,1.14,,-112.97,-13.97
2215.00,10.00,15.99,0.21,0.16,2.11,2.09,1.44,0.34,-22.97,6.04,-33.51,-19.97,2.37,246.64,1.76
2217.00,10.00,12.77,0.00,0.00,,,,1.00,-85.00,,-95.00,,,618.66,-5.65
2218.00,10.00,18.72,0.18,0.21,1.93,2.55,1.33,0.36,-3.58,2.21,-42.29,-6.53,-1.24,257.92,8.03
2221.00,10.00,17.17,1.29,0.45,2.44,4.64,1.33,1.06,89.46,2.21,282.72,54.50,9.00,652.48,4.47
2222.00,9.00,19.56,0.00,0.23,1.00,1.33,1.57,0.62,55.02,4.24,-60.00,-13.64,-16.31,308.08,8.17
2223.00,10.00,12.28,0.25,0.22,1.68,3.04,1.00,-0.30,0.30,-9.25,-21.80,7.78,-6.26,-114.10,-6.77
2224.00,9.00,17.82,0.13,0.07,1.77,2.36,1.28,0.06,-38.90,-12.25,10.17,9.09,-1.91,97.55,3.88
2225.00,9.00,14.84,0.03,0.05,1.45,1.84,1.21,-0.12,-50.65,-16.23,-43.81,-2.39,-7.90,29.89,-3.45
2226.00,10.00,16.19,0.18,0.18,1.17,1.67,2.00,0.78,-15.21,25.49,-42.29,-32.23,-16.51,494.65,2.22
2227.00,10.00,17.73,0.69,0.45,2.57,3.91,1.00,0.38,89.46,-9.25,107.04,33.19,11.60,269.19,5.76
2230.00,9.00,14.81,0.03,0.12,1.85,1.43,1.89,-0.04,-9.55,22.43,-43.81,-11.44,-0.42,59.96,-3.53
2231.00,10.00,17.52,0.58,0.33,1.86,3.52,1.00,0.26,42.94,-9.25,74.83,21.80,-2.65,201.55,5.27
2232.00,9.00,12.87,0.03,0.15,1.13,1.71,2.22,-0.04,8.06,41.18,-43.81,-5.25,-13.88,59.96,-8.30
2233.00,9.00,16.52,0.12,0.12,1.45,1.90,1.27,0.00,-9.55,-12.81,4.77,-1.06,-7.90,75.00,0.68
2236.00,10.00,17.49,0.55,0.03,1.90,2.88,1.31,-0.06,-73.37,1.52,66.04,3.10,-1.85,21.18,5.20
2237.00,9.00,16.05,0.00,0.00,1.78,1.38,1.33,-0.38,-80.00,-9.40,-60.00,-12.54,-1.73,-67.85,-0.47
2240.00,9.00,16.16,0.00,0.00,2.00,1.33,1.00,0.00,-80.00,-28.16,-60.00,-13.64,2.39,75.00,-0.20
2241.00,10.00,13.30,0.24,0.12,1.57,2.18,1.00,0.14,-38.48,-9.25,-24.73,-17.33,-8.48,133.91,-4.43
2244.00,10.00,13.62,0.23,0.17,1.53,2.00,1.17,-0.08,-19.09,-3.34,-27.65,-22.59,-9.28,9.91,-3.69
2266.00,10.00,19.73,0.50,1.00,4.50,7.50,1.50,1.50,302.70,8.12,51.40,138.02,50.36,900.49,10.35
2267.00,9.00,16.72,0.50,0.20,2.25,3.56,1.00,1.30,37.41,-28.16,209.89,35.58,7.06,563.72,1.18
2270.00,10.00,9.73,0.12,0.04,1.64,1.87,1.00,-1.40,-69.50,-9.25,-59.86,-26.39,-7.07,-734.12,-12.63
2272.00,10.00,16.46,0.33,0.00,2.20,2.75,1.00,-0.78,-85.00,-9.25,1.62,-0.69,4.18,-384.65,2.84
2278.00,9.00,11.38,2.00,0.00,3.00,1.00,,2.00,-80.00,,1019.54,-20.93,21.08,826.88,-11.98
2281.00,10.00,17.25,0.31,0.46,2.00,3.92,1.25,-0.46,93.34,-0.57,-4.23,33.48,0.16,-204.28,4.66
2282.00,9.00,22.68,0.72,0.44,3.17,4.76,1.69,0.12,178.30,11.06,328.63,62.07,24.26,120.11,15.85
2290.00,9.00,20.22,0.00,0.09,1.35,1.41,1.17,0.77,-27.17,-18.50,-60.00,-11.88,-9.76,364.47,9.80
2291.00,10.00,15.43,0.00,0.40,2.50,2.40,,-1.50,70.08,,-95.00,-10.91,10.20,-790.49,0.47
2292.00,10.00,18.79,0.57,0.30,3.55,4.13,1.33,0.35,31.31,2.21,71.90,39.61,31.28,252.28,8.19
2294.00,9.00,15.07,0.00,0.14,2.00,1.25,1.22,0.08,2.18,-15.66,-60.00,-15.41,2.39,105.07,-2.89
2297.00,10.00,13.92,0.34,0.31,2.00,2.65,1.00,0.40,35.19,-9.25,4.55,-3.61,0.16,280.46,-3.00
2299.00,10.00,12.19,0.09,0.17,1.50,1.76,1.33,-0.29,-19.09,2.21,-68.65,-29.61,-9.88,-108.46,-6.98
2300.00,10.00,15.99,0.14,0.18,1.41,2.50,1.45,0.67,-15.21,6.38,-54.01,-7.99,-11.69,432.65,1.76
2301.00,10.00,11.61,0.26,0.16,1.55,1.81,1.00,0.12,-22.97,-9.25,-18.87,-28.14,-8.88,122.64,-8.31
2303.00,10.00,10.53,0.06,0.19,1.33,1.44,1.50,-0.04,-11.34,8.12,-77.43,-38.94,-13.29,32.46,-10.79
2304.00,9.00,17.76,0.00,0.06,1.80,1.39,1.50,-0.23,-44.78,0.26,-60.00,-12.32,-1.35,-11.47,3.74
2307.00,10.00,17.84,0.42,0.21,1.88,3.05,1.43,0.00,-3.58,5.69,27.98,8.07,-2.25,55.00,6.01
2310.00,10.00,15.89,0.45,0.27,1.89,2.38,1.00,0.50,19.68,-9.25,36.77,-11.49,-2.05,336.83,1.53
2317.00,10.00,21.42,0.27,0.30,3.41,2.79,1.67,-0.29,31.31,14.03,-15.94,0.48,28.47,-108.46,14.24
2319.00,10.00,18.53,0.44,0.56,1.38,2.59,1.25,0.12,132.12,-0.57,33.84,-5.36,-12.29,122.64,7.59
2321.00,10.00,17.88,0.43,0.13,1.90,2.52,1.40,-0.46,-34.59,4.65,30.90,-7.41,-1.85,-204.28,6.10
2322.00,10.00,11.38,0.33,0.17,1.50,1.50,1.00,-1.67,-19.09,-9.25,1.62,-37.20,-9.88,-886.31,-8.84
2323.00,10.00,19.52,0.92,0.24,2.81,3.29,1.29,0.66,8.05,0.82,174.38,15.08,16.42,427.01,9.87
2333.00,10.00,14.88,0.42,0.25,2.00,2.22,1.00,-0.36,11.93,-9.25,27.98,-16.17,0.16,-147.92,-0.79
2351.00,9.00,18.55,0.76,0.52,2.75,4.57,1.00,1.00,225.26,-28.16,350.23,57.87,16.41,450.94,5.68
2357.00,9.00,13.83,0.31,0.31,2.45,2.71,1.00,0.00,101.98,-28.16,107.33,16.82,10.80,75.00,-5.94
2359.00,10.00,14.82,0.00,0.00,2.50,2.00,,-1.00,-85.00,,-95.00,-22.59,10.20,-508.66,-0.93
2377.00,10.00,12.12,0.22,0.22,1.40,1.00,1.00,-0.50,0.30,-9.25,-30.58,-51.80,-11.89,-226.83,-7.14
2416.00,10.00,14.66,0.00,0.00,1.67,2.00,1.00,-1.80,-85.00,-9.25,-95.00,-22.59,-6.47,-959.59,-1.30
2426.00,10.00,17.34,0.38,0.38,1.76,3.08,1.10,0.30,62.33,-5.78,16.26,8.94,-4.66,224.10,4.86
2427.00,10.00,9.20,0.00,0.00,,1.33,3.00,-1.50,-85.00,60.24,-95.00,-42.16,,-790.49,-13.85
2428.00,9.00,14.27,0.00,0.07,1.58,1.62,1.82,-0.63,-38.90,18.45,-60.00,-7.24,-5.46,-161.84,-4.86
2430.00,10.00,13.17,0.00,0.00,1.33,1.75,1.00,-0.62,-85.00,-9.25,-95.00,-29.90,-13.29,-294.47,-4.72
2431.00,10.00,15.10,0.20,0.20,1.62,1.60,1.00,-0.44,-7.46,-9.25,-36.44,-34.27,-7.47,-193.01,-0.29
2433.00,9.00,23.72,0.00,0.00,2.00,3.00,,-2.00,-80.00,,-60.00,23.22,2.39,-676.88,18.42
2434.00,10.00,17.81,0.00,0.22,1.85,1.53,1.18,-0.90,0.30,-3.00,-95.00,-36.32,-2.85,-452.29,5.94
2435.00,9.00,13.91,0.67,0.00,1.33,2.33,,2.00,-80.00,,301.64,8.43,-10.14,826.88,-5.74
2441.00,9.00,13.25,0.08,0.00,2.00,1.47,1.00,-0.72,-80.00,-28.16,-16.82,-10.55,2.39,-195.67,-7.37
2443.00,9.00,16.54,0.12,0.27,1.88,1.90,1.18,0.48,78.50,-17.93,4.77,-1.06,0.14,255.45,0.73
2444.00,9.00,20.51,0.20,0.17,1.55,1.93,1.78,0.75,19.80,16.18,47.95,-0.40,-6.03,356.95,10.51
2445.00,9.00,15.78,0.00,0.12,1.25,1.40,1.20,0.50,-9.55,-16.80,-60.00,-12.10,-11.63,262.97,-1.14
2446.00,9.00,16.70,0.00,0.12,1.00,1.25,1.50,0.17,-9.55,0.26,-60.00,-15.41,-16.31,138.91,1.13
2447.00,10.00,13.87,0.15,0.17,2.07,2.25,1.42,0.21,-19.09,5.34,-51.08,-15.29,1.56,173.37,-3.11
2448.00,10.00,16.54,0.43,0.40,1.92,3.03,1.00,0.88,70.08,-9.25,30.90,7.48,-1.45,551.02,3.02
2450.00,10.00,17.51,0.27,0.27,1.53,2.78,1.20,-1.19,19.68,-2.31,-15.94,0.19,-9.28,-615.75,5.25
2452.00,10.00,18.71,1.07,0.36,3.49,5.81,1.24,0.72,54.57,-0.92,218.30,88.67,30.08,460.83,8.01
2454.00,10.00,17.25,0.00,0.00,4.00,2.00,,3.00,-85.00,,-95.00,-22.59,40.32,1745.98,4.66
2455.00,9.00,17.08,0.00,0.15,1.68,1.29,1.44,0.12,8.06,-3.15,-60.00,-14.53,-3.59,120.11,2.06
2456.00,10.00,15.09,0.36,0.36,2.33,3.00,1.00,0.82,54.57,-9.25,10.41,6.61,6.79,517.20,-0.31
2460.00,10.00,13.75,0.16,0.05,1.89,2.44,1.07,-0.30,-65.61,-6.82,-48.16,-9.74,-2.05,-114.10,-3.39
2461.00,10.00,15.59,0.14,0.33,1.90,1.65,1.00,0.10,42.94,-9.25,-54.01,-32.81,-1.85,111.36,0.84
2463.00,9.00,16.30,0.00,0.00,1.10,1.67,1.42,-0.33,-80.00,-4.28,-60.00,-6.14,-14.44,-49.06,0.14
2464.00,9.00,14.90,0.13,0.10,2.10,2.17,1.76,0.38,-21.30,15.04,10.17,4.90,4.26,217.85,-3.30
2466.00,10.00,11.57,0.19,0.05,1.50,2.00,1.17,-0.50,-65.61,-3.34,-39.37,-22.59,-9.88,-226.83,-8.40
2469.00,9.00,15.43,0.09,0.09,1.43,1.12,1.25,-0.27,-27.17,-13.95,-11.42,-18.28,-8.27,-26.51,-2.00
2472.00,10.00,13.51,0.19,0.22,1.44,1.80,1.25,-0.04,0.30,-0.57,-39.37,-28.43,-11.08,32.46,-3.94
2474.00,10.00,15.95,0.67,0.36,2.00,3.66,1.20,0.34,54.57,-2.31,101.18,25.89,0.16,246.64,1.67
2476.00,10.00,15.10,0.31,0.31,2.50,3.46,1.00,0.36,35.19,-9.25,-4.23,20.05,10.20,257.92,-0.29
2477.00,9.00,17.76,0.00,0.09,1.56,1.30,1.46,0.48,-27.17,-2.01,-60.00,-14.31,-5.84,255.45,3.74
2479.00,10.00,20.55,0.67,0.17,1.43,2.94,1.00,0.06,-19.09,-9.25,101.18,4.86,-11.28,88.82,12.24
2481.00,9.00,13.42,0.10,0.03,2.00,1.59,1.36,0.21,-62.39,-7.70,-6.02,-7.90,2.39,153.94,-6.95
2484.00,10.00,15.49,0.23,0.18,1.86,2.12,1.33,-0.16,-15.21,2.21,-27.65,-19.09,-2.65,-35.18,0.61
2487.00,10.00,20.57,1.10,0.59,3.20,5.68,1.00,0.89,143.74,-9.25,227.09,84.87,24.26,556.66,12.29
2489.00,10.00,16.31,0.53,0.33,1.67,2.25,1.00,-0.20,42.94,-9.25,60.19,-15.29,-6.47,-57.73,2.49
2490.00,9.00,12.94,0.00,0.08,1.67,1.14,1.50,0.18,-33.03,0.26,-60.00,-17.84,-3.78,142.66,-8.13
2491.00,10.00,16.42,0.29,0.23,1.33,2.31,1.60,-0.23,4.17,11.59,-10.09,-13.54,-13.29,-74.64,2.74
2501.00,10.00,14.43,0.00,0.00,,1.00,1.00,-2.00,-85.00,-9.25,-95.00,-51.80,,-1072.32,-1.83
2502.00,9.00,14.42,0.12,0.25,2.00,1.71,1.33,0.50,66.76,-9.40,4.77,-5.25,2.39,262.97,-4.49
2504.00,9.00,18.60,0.00,0.13,1.86,1.33,1.33,-1.08,-3.68,-9.40,-60.00,-13.64,-0.23,-331.01,5.81
2506.00,10.00,12.46,0.00,0.00,2.00,1.00,1.00,-0.67,-85.00,-9.25,-95.00,-51.80,0.16,-322.65,-6.36
2508.00,9.00,14.48,0.00,0.00,3.00,2.33,,-1.00,-80.00,,-60.00,8.43,21.08,-300.94,-4.34
2512.00,9.00,18.61,0.10,0.00,1.00,1.75,2.00,-2.14,-80.00,28.68,-6.02,-4.37,-16.31,-729.50,5.83
2515.00,9.00,21.40,0.00,0.00,1.00,1.00,1.00,1.00,-80.00,-28.16,-60.00,-20.93,-16.31,450.94,12.70
2516.00,10.00,15.72,0.33,0.33,2.00,1.50,2.00,0.67,42.94,25.49,1.62,-37.20,0.16,432.65,1.14
2517.00,10.00,11.12,0.00,0.00,1.00,1.00,,1.00,-85.00,,-95.00,-51.80,-19.92,618.66,-9.44
2549.00,10.00,16.87,0.41,0.19,2.87,3.19,1.50,0.28,-11.34,8.12,25.05,12.16,17.63,212.82,3.78
2550.00,10.00,18.16,0.67,0.33,2.00,4.00,,1.20,42.94,,101.18,35.81,0.16,731.39,6.74
2556.00,10.00,26.88,0.00,0.00,2.00,3.00,1.00,0.00,-85.00,-9.25,-95.00,6.61,0.16,55.00,26.79
2740.00,10.00,12.37,0.00,0.00,1.40,1.60,1.00,-0.83,-85.00,-9.25,-95.00,-34.27,-11.89,-412.84,-6.57
2743.00,10.00,14.27,0.21,0.21,1.48,2.53,1.25,0.16,-3.58,-0.57,-33.51,-7.11,-10.28,145.18,-2.20
2753.00,10.00,17.86,0.48,0.31,2.82,3.74,1.50,0.70,35.19,8.12,45.54,28.22,16.62,449.56,6.05
2757.00,10.00,21.84,1.25,0.75,2.25,5.25,,1.50,205.78,,271.01,72.32,5.18,900.49,15.20
2760.00,10.00,15.61,0.11,0.26,1.40,2.50,1.00,0.80,15.80,-9.25,-62.79,-7.99,-11.89,505.93,0.88
2762.00,10.00,19.73,0.00,0.67,2.67,3.33,1.00,-0.33,174.76,-9.25,-95.00,16.25,13.61,-131.01,10.35
2764.00,9.00,21.67,0.00,0.00,2.00,,1.00,-1.00,-80.00,-28.16,-60.00,,2.39,-300.94,13.37
2765.00,10.00,19.65,0.36,0.27,1.50,3.32,1.50,-0.58,19.68,8.12,10.41,15.96,-9.88,-271.92,10.17
2766.00,10.00,15.48,0.08,0.00,1.73,2.00,1.33,0.18,-85.00,2.21,-71.57,-22.59,-5.26,156.46,0.58
2767.00,9.00,16.32,0.25,0.38,1.67,2.40,1.40,-0.43,143.08,-5.42,74.94,9.97,-3.78,-86.66,0.19
2769.00,9.00,19.84,0.25,0.50,3.00,3.50,,-1.33,213.53,,74.94,34.25,21.08,-425.00,8.86
2770.00,9.00,19.77,0.19,0.14,1.50,2.40,1.56,0.33,2.18,3.67,42.56,9.97,-6.96,199.06,8.69
2771.00,9.00,14.68,0.00,0.00,,1.50,,0.00,-80.00,,-60.00,-9.89,,75.00,-3.85
2772.00,9.00,24.83,0.00,0.33,1.50,2.50,1.50,0.33,113.73,0.26,-60.00,12.18,-6.96,199.06,21.15
2773.00,10.00,14.05,0.09,0.05,1.00,1.23,1.00,-0.56,-65.61,-9.25,-68.65,-45.08,-19.92,-260.65,-2.70
2774.00,10.00,18.62,0.35,0.08,1.82,2.40,1.25,0.09,-53.98,-0.57,7.49,-10.91,-3.46,105.73,7.80
2783.00,9.00,17.51,0.00,0.06,1.91,2.30,1.38,-0.29,-44.78,-6.56,-60.00,7.77,0.70,-34.02,3.12
2790.00,10.00,11.23,0.56,0.22,1.90,2.96,1.00,0.76,0.30,-9.25,68.97,5.44,-1.85,483.38,-9.18
2792.00,9.00,17.48,0.27,0.45,3.10,3.36,1.33,0.50,184.18,-9.40,85.74,31.16,22.95,262.97,3.05
2794.00,9.00,15.46,0.12,0.38,1.71,3.00,1.00,0.00,143.08,-28.16,4.77,23.22,-3.03,75.00,-1.93
2795.00,10.00,14.73,0.00,0.18,1.25,1.80,,-0.50,-15.21,,-95.00,-28.43,-14.90,-226.83,-1.14
2799.00,9.00,13.75,0.05,0.23,1.47,1.50,1.79,0.00,55.02,16.74,-33.01,-9.89,-7.52,75.00,-6.14
2800.00,9.00,7.54,0.00,0.00,1.00,2.00,1.25,-0.67,-80.00,-13.95,-60.00,1.14,-16.31,-176.88,-21.43
2802.00,9.00,21.67,0.08,0.25,1.17,1.30,1.50,0.00,66.76,0.26,-16.82,-14.31,-13.13,75.00,13.37
2805.00,10.00,18.65,0.50,0.12,2.00,2.67,1.00,-0.36,-38.48,-9.25,51.40,-3.03,0.16,-147.92,7.87
2807.00,10.00,17.43,0.16,0.26,2.47,3.63,1.00,-1.12,15.80,-9.25,-48.16,25.00,9.60,-576.30,5.07
2814.00,9.00,12.85,0.06,0.09,1.62,1.71,1.20,0.20,-27.17,-16.80,-27.61,-5.25,-4.72,150.19,-8.36
2817.00,10.00,9.46,0.20,0.10,1.50,1.83,1.00,0.17,-46.23,-9.25,-36.44,-27.56,-9.88,150.82,-13.25
2824.00,10.00,16.03,0.46,0.46,1.81,2.48,1.14,0.23,93.34,-4.39,39.69,-8.58,-3.66,184.64,1.85
2827.00,9.00,19.22,0.00,0.11,2.86,1.83,2.00,0.00,-15.42,28.68,-60.00,-2.61,18.46,75.00,7.33
2829.00,9.00,13.91,0.00,0.00,2.00,1.84,1.23,-0.50,-80.00,-15.09,-60.00,-2.39,2.39,-112.97,-5.74
2831.00,9.00,14.30,0.00,0.11,1.29,1.25,1.78,0.13,-15.42,16.18,-60.00,-15.41,-10.88,123.87,-4.78
2832.00,10.00,15.02,0.30,0.20,2.22,3.00,1.75,0.12,-7.46,16.81,-7.15,6.61,4.58,122.64,-0.47
2840.00,10.00,14.54,0.09,0.00,2.12,2.00,1.00,-0.75,-85.00,-9.25,-68.65,-22.59,2.57,-367.75,-1.57
2843.00,10.00,12.83,0.45,0.17,2.38,2.56,1.00,0.21,-19.09,-9.25,36.77,-6.24,7.79,173.37,-5.51
2858.00,10.00,18.49,0.82,0.56,3.02,4.24,1.31,0.58,132.12,1.52,145.10,42.82,20.64,381.92,7.50
2862.00,10.00,16.95,0.75,0.25,2.43,3.00,1.33,-1.62,11.93,2.21,124.60,6.61,8.80,-858.13,3.96
2863.00,10.00,19.28,0.00,0.17,3.67,3.00,1.00,0.40,-19.09,-9.25,-95.00,6.61,33.69,280.46,9.32
2864.00,10.00,14.73,0.21,0.50,2.07,1.95,6.00,-0.33,108.85,164.48,-33.51,-24.06,1.56,-131.01,-1.14
2865.00,9.00,53.67,0.00,0.00,,8.00,9.00,0.00,-80.00,426.56,-60.00,133.58,,75.00,92.17
2871.00,9.00,14.35,0.00,0.00,1.67,1.25,1.62,1.00,-80.00,7.08,-60.00,-15.41,-3.78,450.94,-4.66
2872.00,10.00,12.55,0.38,0.08,1.57,1.92,,-0.27,-53.98,,16.26,-24.93,-8.48,-97.19,-6.15
2873.00,10.00,20.22,0.64,0.27,2.68,3.37,1.00,-0.83,19.68,-9.25,92.40,17.42,13.82,-412.84,11.48
2875.00,10.00,13.39,0.25,0.25,2.33,2.25,1.00,-0.75,11.93,-9.25,-21.80,-15.29,6.79,-367.75,-4.22
2876.00,10.00,19.30,0.00,0.00,,1.00,,1.00,-85.00,,-95.00,-51.80,,618.66,9.37
2890.00,9.00,16.01,0.16,0.24,1.71,1.77,1.48,-0.46,60.90,-0.88,26.36,-3.93,-3.03,-97.93,-0.57
2894.00,9.00,20.13,0.12,0.21,2.94,3.66,1.56,0.19,43.28,3.67,4.77,37.78,19.96,146.43,9.58
2895.00,10.00,12.81,0.18,0.11,1.80,2.45,1.00,-0.17,-42.36,-9.25,-42.29,-9.45,-3.86,-40.82,-5.55
2896.00,9.00,17.19,0.12,0.35,1.88,2.27,1.20,-0.17,125.46,-16.80,4.77,7.10,0.14,11.09,2.33
2900.00,9.00,17.15,0.12,0.14,1.88,2.12,1.73,0.90,2.18,13.34,4.77,3.79,0.14,413.34,2.24
2901.00,10.00,17.96,0.00,0.33,2.33,4.00,1.00,-2.33,42.94,-9.25,-95.00,35.81,6.79,-1258.33,6.29
2902.00,10.00,15.66,0.42,0.31,2.00,2.77,1.25,0.04,35.19,-0.57,27.98,-0.11,0.16,77.54,1.00
2903.00,9.00,17.82,0.07,0.20,1.60,1.58,1.83,1.20,37.41,19.01,-22.22,-8.13,-5.09,526.12,3.88
2904.00,10.00,15.17,0.31,0.23,2.14,2.33,2.00,0.67,4.17,25.49,-4.23,-12.96,2.97,432.65,-0.13
2907.00,9.00,15.66,0.09,0.06,1.75,1.86,1.57,-0.15,-44.78,4.24,-11.42,-1.94,-2.29,18.61,-1.44
2908.00,9.00,14.39,0.18,0.09,1.80,2.10,1.20,-0.33,-27.17,-16.80,37.16,3.35,-1.35,-49.06,-4.56
2911.00,10.00,15.73,0.70,0.39,2.40,3.48,1.00,0.32,66.21,-9.25,109.96,20.63,8.19,235.37,1.16
2913.00,9.00,16.93,0.00,0.11,1.85,1.17,2.06,-0.76,-15.42,32.09,-60.00,-17.17,-0.42,-210.71,1.69
2915.00,10.00,20.15,0.55,0.45,2.33,3.38,1.00,-0.50,89.46,-9.25,66.04,17.71,6.79,-226.83,11.32
2916.00,10.00,17.54,0.07,0.39,1.78,2.27,1.00,-0.05,66.21,-9.25,-74.50,-14.71,-4.26,26.82,5.32
2917.00,10.00,16.46,0.28,0.20,1.47,1.96,1.00,-0.59,-7.46,-9.25,-13.01,-23.77,-10.48,-277.56,2.84
2920.00,9.00,19.06,0.00,0.00,1.25,1.20,1.00,-1.30,-80.00,-28.16,-60.00,-16.51,-11.63,-413.72,6.94
2921.00,9.00,11.73,0.03,0.03,1.33,1.27,1.50,0.00,-62.39,0.26,-43.81,-14.97,-10.14,75.00,-11.11
2923.00,10.00,18.90,0.78,0.44,2.00,4.22,2.00,-1.25,85.59,25.49,133.39,42.24,0.16,-649.58,8.45
2958.00,10.00,19.17,0.00,0.00,4.00,1.00,1.00,-1.50,-85.00,-9.25,-95.00,-51.80,40.32,-790.49,9.07
2969.00,10.00,6.90,0.00,0.00,,,,-1.00,-85.00,,-95.00,,,-508.66,-19.14
2990.00,9.00,8.19,0.08,0.08,1.08,1.87,1.00,-0.46,-33.03,-28.16,-16.82,-1.72,-14.81,-97.93,-19.83
3030.00,9.00,18.29,0.08,0.15,1.40,1.00,1.60,-0.83,8.06,5.94,-16.82,-20.93,-8.83,-237.03,5.04
3032.00,10.00,15.94,0.67,0.00,2.00,2.50,1.00,0.00,-85.00,-9.25,101.18,-7.99,0.16,55.00,1.64
3036.00,9.00,14.04,0.20,0.20,1.38,2.67,1.00,-1.62,37.41,-28.16,47.95,15.93,-9.21,-534.01,-5.42
3037.00,10.00,17.85,0.56,0.14,1.83,2.75,1.33,-1.09,-30.72,2.21,68.97,-0.69,-3.25,-559.39,6.03
3042.00,10.00,12.55,0.43,0.24,2.59,2.17,1.50,-0.06,8.05,8.12,30.90,-17.63,12.01,21.18,-6.15
3043.00,10.00,22.64,0.11,0.26,1.77,2.12,1.30,-1.18,15.80,1.17,-62.79,-19.09,-4.46,-610.12,17.04
3044.00,9.00,13.11,0.20,0.00,1.33,2.25,1.00,-0.60,-80.00,-28.16,47.95,6.66,-10.14,-150.56,-7.72
3049.00,9.00,14.25,0.16,0.18,1.59,2.40,1.36,0.19,25.67,-7.70,26.36,9.97,-5.28,146.43,-4.91
3052.00,10.00,16.42,0.90,0.39,2.94,4.91,1.33,1.17,66.21,2.21,168.53,62.39,19.04,714.48,2.74
3053.00,10.00,15.04,0.43,0.46,2.10,2.12,1.17,1.06,93.34,-3.34,30.90,-19.09,2.17,652.48,-0.43
3060.00,9.00,21.10,0.00,0.00,1.00,,,-1.00,-80.00,,-60.00,,-16.31,-300.94,11.96
3062.00,10.00,18.98,0.06,0.24,1.87,1.92,1.57,0.33,8.05,10.55,-77.43,-24.93,-2.45,241.01,8.63
3065.00,10.00,6.93,0.00,0.00,,,1.00,-2.00,-85.00,-9.25,-95.00,,,-1072.32,-19.07
3068.00,9.00,15.71,0.04,0.25,1.76,1.75,2.00,1.18,66.76,28.68,-38.41,-4.37,-2.10,518.60,-1.31
3071.00,10.00,12.52,0.27,0.09,1.86,2.78,1.00,-0.43,-50.11,-9.25,-15.94,0.19,-2.65,-187.37,-6.22
3076.00,10.00,15.61,0.22,0.33,1.50,1.57,,0.00,42.94,,-30.58,-35.15,-9.88,55.00,0.88
3077.00,10.00,18.29,0.58,0.58,2.89,4.78,,0.44,139.87,,74.83,58.60,18.03,303.01,7.05
3078.00,9.00,16.60,0.14,0.14,1.63,2.07,1.50,0.37,2.18,0.26,15.57,2.69,-4.53,214.09,0.88
3079.00,10.00,13.36,1.11,0.67,2.00,3.44,1.00,1.25,174.76,-9.25,230.01,19.46,0.16,759.58,-4.29
3080.00,9.00,14.64,0.00,0.00,1.70,1.67,1.40,-0.38,-80.00,-5.42,-60.00,-6.14,-3.22,-67.85,-3.95
3083.00,10.00,17.72,0.41,0.22,1.60,2.26,1.00,-0.80,0.30,-9.25,25.05,-15.00,-7.87,-395.93,5.73
3125.00,10.00,13.83,0.48,0.24,2.41,3.00,1.00,0.47,8.05,-9.25,45.54,6.61,8.39,319.92,-3.21
3126.00,9.00,15.59,0.04,0.04,1.19,1.55,1.12,-0.83,-56.52,-21.34,-38.41,-8.79,-12.75,-237.03,-1.61
3127.00,9.00,15.91,0.03,0.09,1.65,1.39,1.10,0.07,-27.17,-22.47,-43.81,-12.32,-4.15,101.32,-0.82
3129.00,10.00,17.76,0.51,0.26,2.55,2.98,1.15,0.07,15.80,-4.04,54.33,6.03,11.20,94.46,5.82
3134.00,10.00,15.70,0.67,0.47,2.46,3.60,1.00,0.21,97.22,-9.25,101.18,24.13,9.40,173.37,1.09
3137.00,10.00,17.21,0.62,0.51,2.11,3.25,1.33,0.97,112.73,2.21,86.54,13.91,2.37,601.75,4.56
3138.00,10.00,10.82,0.55,0.09,1.00,2.57,,0.22,-50.11,,66.04,-5.95,-19.92,179.00,-10.13
3145.00,10.00,9.47,0.00,0.00,,1.00,1.00,-2.00,-85.00,-9.25,-95.00,-51.80,,-1072.32,-13.23
3155.00,9.00,11.43,0.14,0.36,1.20,2.50,1.50,-0.64,131.34,0.26,15.57,12.18,-12.57,-165.60,-11.85
3163.00,9.00,19.29,0.00,0.12,1.27,1.36,1.36,-0.44,-9.55,-7.70,-60.00,-12.98,-11.26,-90.41,7.50
3178.00,10.00,14.05,0.00,0.00,1.00,2.00,,-1.00,-85.00,,-95.00,-22.59,-19.92,-508.66,-2.70
3194.00,10.00,17.49,0.75,0.75,1.50,3.25,,1.50,205.78,,124.60,13.91,-9.88,900.49,5.20
3213.00,9.00,16.13,0.00,0.00,2.50,1.00,1.00,-5.00,-80.00,-28.16,-60.00,-20.93,11.73,-1804.69,-0.28
3215.00,10.00,14.18,0.90,0.80,2.17,4.30,2.00,0.80,225.16,25.49,168.53,44.57,3.57,505.93,-2.40
3216.00,10.00,14.28,0.47,0.39,2.21,3.30,1.00,0.44,66.21,-9.25,42.62,15.37,4.38,303.01,-2.17
3217.00,10.00,17.62,0.64,0.00,2.75,4.67,1.00,0.08,-85.00,-9.25,92.40,55.38,15.22,100.09,5.51
3219.00,10.00,13.06,0.00,0.05,1.50,1.70,1.56,-0.53,-65.61,10.20,-95.00,-31.36,-9.88,-243.74,-4.98
3220.00,10.00,11.73,0.23,0.08,1.86,2.39,1.00,0.09,-53.98,-9.25,-27.65,-11.20,-2.65,105.73,-8.04
3223.00,9.00,16.84,0.10,0.10,1.73,1.25,1.77,0.21,-21.30,15.61,-6.02,-15.41,-2.66,153.94,1.47
3225.00,9.00,16.78,0.00,0.15,1.55,1.55,1.00,0.32,8.06,-28.16,-60.00,-8.79,-6.03,195.30,1.32
3228.00,10.00,20.82,2.00,0.00,3.00,5.00,,1.00,-85.00,,490.62,65.02,20.24,618.66,12.86
3229.00,10.00,22.59,0.96,0.46,3.62,5.71,1.00,0.18,93.34,-9.25,186.10,85.75,32.69,156.46,16.93
3234.00,10.00,14.98,0.14,0.14,2.60,3.00,,-1.00,-30.72,,-54.01,6.61,12.21,-508.66,-0.56
3237.00,10.00,29.63,0.50,1.00,2.00,3.50,1.67,0.50,302.70,14.03,51.40,21.21,0.16,336.83,33.11
3239.00,10.00,12.86,0.31,0.27,1.62,3.15,1.00,-0.62,19.68,-9.25,-4.23,10.99,-7.47,-294.47,-5.44
3246.00,9.00,19.21,0.06,0.29,1.64,2.36,1.60,-1.31,90.25,5.94,-27.61,9.09,-4.34,-417.48,7.31
3274.00,10.00,14.83,0.36,0.27,1.58,2.12,1.00,-0.20,19.68,-9.25,10.41,-19.09,-8.27,-57.73,-0.91
3275.00,10.00,18.81,0.12,0.25,1.60,1.67,1.00,-0.71,11.93,-9.25,-59.86,-32.23,-7.87,-345.20,8.24
3276.00,10.00,19.81,0.61,0.39,1.92,3.31,1.33,0.12,66.21,2.21,83.61,15.67,-1.45,122.64,10.54
3277.00,10.00,12.34,0.33,1.00,1.00,3.67,,-0.33,302.70,,1.62,26.18,-19.92,-131.01,-6.63
3350.00,9.00,14.57,0.71,0.14,1.20,3.17,1.00,0.00,2.18,-28.16,323.24,26.97,-12.57,75.00,-4.12
3374.00,10.00,19.20,0.00,0.60,1.75,3.80,1.33,-1.00,147.62,2.21,-95.00,29.97,-4.86,-508.66,9.13
3377.00,10.00,17.49,0.25,0.17,1.78,3.12,1.00,-1.55,-19.09,-9.25,-21.80,10.12,-4.26,-818.68,5.20
3403.00,10.00,15.74,0.00,0.20,1.00,2.00,1.00,0.80,-7.46,-9.25,-95.00,-22.59,-19.92,505.93,1.18
3409.00,10.00,18.75,0.85,0.81,2.06,3.04,1.25,1.75,229.04,-0.57,153.88,7.78,1.36,1041.40,8.10
3420.00,10.00,13.31,0.50,0.12,1.67,2.88,1.00,0.14,-38.48,-9.25,51.40,3.10,-6.47,133.91,-4.40
3424.00,9.00,17.58,0.00,0.11,2.00,2.00,2.00,-0.50,-15.42,28.68,-60.00,1.14,2.39,-112.97,3.30
3425.00,9.00,18.99,0.00,0.33,1.67,1.33,2.00,-3.67,113.73,28.68,-60.00,-13.64,-3.78,-1304.69,6.77
3431.00,9.00,17.57,0.17,0.08,2.40,1.90,1.22,0.82,-33.03,-15.66,31.76,-1.06,9.86,383.26,3.27
3441.00,10.00,13.89,0.27,0.32,1.70,2.50,1.29,0.03,39.07,0.82,-15.94,-7.99,-5.86,71.91,-3.07
3449.00,10.00,20.02,0.64,0.64,2.39,4.07,1.42,0.60,163.13,5.34,92.40,37.86,7.99,393.19,11.02
3450.00,9.00,15.06,0.00,0.00,1.29,2.25,1.75,-1.64,-80.00,14.47,-60.00,6.66,-10.88,-541.54,-2.91
3452.00,9.00,16.00,0.63,0.33,2.36,4.14,1.33,0.25,113.73,-9.40,280.06,48.38,9.12,168.98,-0.60
3453.00,9.00,15.90,0.08,0.08,1.75,1.33,1.00,-1.25,-33.03,-28.16,-16.82,-13.64,-2.29,-394.92,-0.84
3456.00,10.00,18.41,0.92,0.55,2.68,5.30,1.00,0.62,128.24,-9.25,174.38,73.77,13.82,404.47,7.32
3458.00,9.00,18.08,0.08,0.12,1.76,1.94,1.20,0.39,-9.55,-16.80,-16.82,-0.18,-2.10,221.62,4.52
3461.00,10.00,15.28,0.34,0.34,2.43,2.78,1.23,0.32,46.82,-1.26,4.55,0.19,8.80,235.37,0.13
3466.00,10.00,11.87,0.12,0.12,2.57,2.50,,0.83,-38.48,,-59.86,-7.99,11.60,522.84,-7.71
3470.00,9.00,20.88,0.00,0.00,1.78,2.62,1.20,-0.78,-80.00,-16.80,-60.00,14.83,-1.73,-218.23,11.42
3473.00,10.00,17.02,0.33,0.33,2.00,3.33,,2.00,42.94,,1.62,16.25,0.16,1182.32,4.12
3476.00,10.00,22.27,2.50,0.00,1.50,7.50,,1.50,-85.00,,637.01,138.02,-9.88,900.49,16.19
3481.00,10.00,21.50,1.57,0.71,4.55,6.33,1.29,0.67,190.26,0.82,364.70,103.86,51.36,432.65,14.42
3487.00,9.00,19.17,0.56,0.39,2.44,3.03,1.46,0.37,148.95,-2.01,242.27,23.88,10.61,214.09,7.21
3489.00,9.00,10.68,0.00,0.00,4.50,1.50,1.00,-1.00,-80.00,-28.16,-60.00,-9.89,49.12,-300.94,-13.70
3575.00,9.00,19.67,1.17,0.67,3.20,4.67,,0.50,313.32,,571.53,60.08,24.82,262.97,8.44
3579.00,10.00,17.64,1.00,0.00,2.00,5.00,,1.50,-85.00,,197.81,65.02,0.16,900.49,5.55
3582.00,9.00,24.20,0.00,0.00,1.00,2.00,3.00,2.00,-80.00,85.52,-60.00,1.14,-16.31,826.88,19.60
3583.00,10.00,19.34,1.67,0.33,3.33,4.33,,1.67,42.94,,393.98,45.45,26.87,996.31,9.46
3587.00,10.00,14.46,0.07,0.16,1.61,1.78,1.25,0.11,-22.97,-0.57,-74.50,-29.01,-7.67,117.00,-1.76
3588.00,9.00,18.02,0.07,0.07,1.60,1.38,1.60,0.55,-38.90,5.94,-22.22,-12.54,-5.09,281.77,4.38
3590.00,10.00,17.96,0.27,0.05,1.90,3.33,1.17,-0.47,-65.61,-3.34,-15.94,16.25,-1.85,-209.92,6.29
3627.00,10.00,15.31,0.47,0.56,2.15,4.41,1.00,0.48,132.12,-9.25,42.62,47.79,3.17,325.56,0.19
3631.00,10.00,14.44,0.23,0.21,2.19,3.15,1.17,0.23,-3.58,-3.34,-27.65,10.99,3.98,184.64,-1.81
3632.00,9.00,19.19,0.13,0.04,1.29,1.38,1.33,0.05,-56.52,-9.40,10.17,-12.54,-10.88,93.80,7.26
3633.00,9.00,15.33,0.00,0.00,1.40,1.40,1.75,0.75,-80.00,14.47,-60.00,-12.10,-8.83,356.95,-2.25
3635.00,9.00,17.15,0.00,0.05,2.00,1.25,1.71,-0.33,-50.65,12.20,-60.00,-15.41,2.39,-49.06,2.24
3657.00,10.00,15.17,0.50,0.14,1.79,2.75,1.50,0.24,-30.72,8.12,51.40,-0.69,-4.06,190.28,-0.13
3670.00,9.00,16.63,0.00,0.06,1.50,1.57,1.40,-0.61,-44.78,-5.42,-60.00,-8.35,-6.96,-154.32,0.96
3677.00,10.00,18.07,0.00,0.33,1.00,1.67,,0.00,42.94,,-95.00,-32.23,-19.92,55.00,6.54
3679.00,10.00,15.69,0.62,0.38,1.25,2.57,1.00,1.29,62.33,-9.25,86.54,-5.95,-14.90,782.12,1.07
3680.00,9.00,18.40,0.03,0.23,1.85,1.14,1.36,0.58,55.02,-7.70,-43.81,-17.84,-0.42,293.04,5.31
3684.00,9.00,16.54,0.00,0.17,2.50,1.75,1.50,-0.67,19.80,0.26,-60.00,-4.37,11.73,-176.88,0.73
3688.00,10.00,15.88,0.20,0.20,2.60,2.60,1.00,1.00,-7.46,-9.25,-36.44,-5.07,12.21,618.66,1.50
3697.00,9.00,17.60,0.05,0.05,1.71,1.77,1.67,0.90,-50.65,9.92,-33.01,-3.93,-3.03,413.34,3.34
3699.00,10.00,18.13,0.61,0.57,2.05,2.58,1.00,0.31,135.99,-9.25,83.61,-5.65,1.16,229.74,6.68
3701.00,10.00,17.10,0.56,0.11,2.83,3.75,1.25,0.12,-42.36,-0.57,68.97,28.51,16.83,122.64,4.31
3721.00,9.00,17.71,0.06,0.26,2.60,2.09,1.56,0.30,72.63,3.67,-27.61,3.13,13.60,187.78,3.62
3722.00,10.00,13.15,0.16,0.23,1.67,1.96,1.25,-0.24,4.17,-0.57,-48.16,-23.77,-6.47,-80.28,-4.77
3746.00,10.00,18.88,0.00,0.00,2.33,3.67,,-1.00,-85.00,,-95.00,26.18,6.79,-508.66,8.40
3780.00,10.00,16.18,1.00,0.58,3.00,3.64,1.17,0.83,139.87,-3.34,197.81,25.30,20.24,522.84,2.19
3781.00,10.00,17.16,0.20,0.40,2.60,4.00,,-0.20,70.08,,-36.44,35.81,12.21,-57.73,4.44
3823.00,10.00,20.82,0.33,0.61,1.93,2.89,1.75,0.35,151.50,16.81,1.62,3.39,-1.24,252.28,12.86
3846.00,10.00,18.11,0.35,0.32,2.23,2.81,1.00,-0.06,39.07,-9.25,7.49,1.06,4.78,21.18,6.63
3847.00,9.00,15.03,0.08,0.15,1.63,1.29,1.78,0.52,8.06,16.18,-16.82,-14.53,-4.53,270.49,-2.98
3849.00,10.00,17.70,0.58,0.33,2.45,3.27,1.33,0.45,42.94,2.21,74.83,14.49,9.20,308.65,5.69
3850.00,10.00,19.47,1.00,0.52,3.00,5.16,1.22,0.83,116.60,-1.61,197.81,69.69,20.24,522.84,9.76
3851.00,10.00,19.37,0.00,0.33,1.50,2.00,1.00,0.00,42.94,-9.25,-95.00,-22.59,-9.88,55.00,9.53
3853.00,9.00,17.93,0.00,0.75,4.00,2.50,1.00,0.25,360.29,-28.16,-60.00,12.18,39.77,168.98,4.16
3863.00,10.00,20.97,0.80,1.00,2.00,4.20,1.00,0.20,302.70,-9.25,139.24,41.65,0.16,167.73,13.21
3897.00,10.00,17.48,0.62,0.38,1.76,3.19,1.50,0.27,62.33,8.12,86.54,12.16,-4.66,207.19,5.18
3936.00,10.00,14.00,0.39,0.29,1.31,2.20,1.00,0.12,27.43,-9.25,19.19,-16.75,-13.70,122.64,-2.82
3939.00,9.00,15.20,0.00,0.13,1.43,1.17,1.71,-0.21,-3.68,12.20,-60.00,-17.17,-8.27,-3.94,-2.57
3949.00,9.00,15.70,0.00,0.00,2.00,1.33,1.00,0.25,-80.00,-28.16,-60.00,-13.64,2.39,168.98,-1.34
3950.00,10.00,15.04,0.76,0.40,2.36,3.38,1.14,0.72,70.08,-4.39,127.54,17.71,7.39,460.83,-0.43
3952.00,10.00,16.25,0.50,0.25,2.75,3.00,1.40,1.29,11.93,4.65,51.40,6.61,15.22,782.12,2.36
3954.00,9.00,20.02,0.20,0.00,3.60,2.20,2.00,-0.20,-80.00,28.68,47.95,5.56,32.29,-0.19,9.30
3955.00,9.00,16.84,0.17,0.36,1.57,1.78,1.18,0.50,131.34,-17.93,31.76,-3.71,-5.65,262.97,1.47
3956.00,10.00,13.44,0.11,0.22,2.40,1.80,1.00,-1.71,0.30,-9.25,-62.79,-28.43,8.19,-908.86,-4.11
3958.00,9.00,12.74,0.00,0.00,2.00,2.00,1.33,-0.25,-80.00,-9.40,-60.00,1.14,2.39,-18.98,-8.62
3961.00,9.00,15.18,0.30,0.00,1.70,1.71,2.50,-0.29,-80.00,57.10,101.93,-5.25,-3.22,-34.02,-2.62
3962.00,10.00,9.63,0.20,0.00,1.67,1.80,1.00,1.00,-85.00,-9.25,-36.44,-28.43,-6.47,618.66,-12.86
3963.00,10.00,9.45,0.00,0.00,1.33,1.67,2.00,-0.43,-85.00,25.49,-95.00,-32.23,-13.29,-187.37,-13.28
3965.00,9.00,13.59,0.04,0.12,2.33,2.07,1.25,0.70,-9.55,-13.95,-38.41,2.69,8.55,338.15,-6.53
3967.00,9.00,14.23,0.00,0.00,1.00,1.00,1.67,-0.33,-80.00,9.92,-60.00,-20.93,-16.31,-49.06,-4.96
3969.00,9.00,14.96,0.00,0.14,1.47,1.33,1.12,-0.33,2.18,-21.34,-60.00,-13.64,-7.52,-49.06,-3.16
3971.00,10.00,17.53,0.45,0.32,2.66,3.52,1.40,0.46,39.07,4.65,36.77,21.80,13.41,314.28,5.30
3973.00,10.00,16.81,0.25,0.25,1.67,3.86,,-0.38,11.93,,-21.80,31.73,-6.47,-159.19,3.64
3975.00,9.00,10.36,0.00,0.40,1.00,2.00,1.50,-0.50,154.82,0.26,-60.00,1.14,-16.31,-112.97,-14.49
3983.00,9.00,13.83,0.08,0.15,1.29,1.38,1.38,-0.44,8.06,-6.56,-16.82,-12.54,-10.88,-90.41,-5.94
3984.00,10.00,13.62,0.20,0.13,1.89,2.86,1.00,-0.07,-34.59,-9.25,-36.44,2.52,-2.05,15.54,-3.69
3986.00,10.00,19.80,0.30,0.48,2.80,3.57,1.33,0.74,101.10,2.21,-7.15,23.26,16.22,472.11,10.51
3988.00,10.00,18.61,0.56,0.28,3.14,3.42,1.25,1.12,23.55,-0.57,68.97,18.87,23.05,686.30,7.78
3990.00,9.00,17.21,0.61,0.56,2.69,3.12,1.67,0.13,248.75,9.92,269.26,25.86,15.28,123.87,2.38
4028.00,9.00,15.61,0.33,0.17,1.60,2.60,3.00,0.40,19.80,85.52,118.12,14.39,-5.09,225.38,-1.56
4072.00,10.00,20.85,0.09,0.45,2.40,2.80,1.75,-1.09,89.46,16.81,-68.65,0.77,8.19,-559.39,12.93
4076.00,10.00,27.49,0.50,0.33,1.25,2.25,,-3.67,42.94,,51.40,-15.29,-14.90,-2013.63,28.19
4106.00,10.00,17.22,0.86,0.71,4.76,5.95,2.00,0.65,190.26,25.49,156.82,92.76,55.58,421.38,4.58
4165.00,10.00,22.79,0.91,0.84,3.45,4.60,1.42,0.52,240.67,5.34,171.46,53.34,29.28,348.10,17.39
4166.00,10.00,15.80,0.22,0.28,2.32,2.17,1.17,0.08,23.55,-3.34,-30.58,-17.63,6.58,100.09,1.32
4167.00,9.00,19.64,0.04,0.04,2.00,1.44,2.11,0.62,-56.52,34.94,-38.41,-11.21,2.39,308.08,8.37
4173.00,9.00,16.67,0.00,0.18,1.64,1.54,1.30,0.00,25.67,-11.11,-60.00,-9.01,-4.34,75.00,1.05
4174.00,9.00,16.15,0.10,0.00,2.80,2.40,1.50,-1.12,-80.00,0.26,-6.02,9.97,17.34,-346.05,-0.23
4176.00,10.00,13.67,0.00,0.00,3.00,,,1.00,-85.00,,-95.00,,20.24,618.66,-3.58
4177.00,9.00,16.79,0.00,0.15,1.92,1.67,1.33,0.31,8.06,-9.40,-60.00,-6.14,0.89,191.54,1.35
4183.00,10.00,13.40,0.11,0.04,1.67,2.00,1.50,-0.10,-69.50,8.12,-62.79,-22.59,-6.47,-1.36,-4.20
4184.00,10.00,16.87,0.55,0.34,2.85,3.48,1.47,0.31,46.82,7.08,66.04,20.63,17.23,229.74,3.78
4188.00,10.00,17.60,0.52,0.28,2.30,2.57,1.18,0.38,23.55,-3.00,57.26,-5.95,6.18,269.19,5.46
4189.00,10.00,16.82,0.18,0.26,1.63,2.43,1.12,0.16,15.80,-5.08,-42.29,-10.04,-7.27,145.18,3.66
4190.00,9.00,15.00,0.00,0.00,2.00,1.20,1.57,-0.82,-80.00,4.24,-60.00,-16.51,2.39,-233.26,-3.06
4192.00,10.00,16.96,0.30,0.32,1.72,3.09,1.54,0.23,39.07,9.51,-7.15,9.24,-5.46,184.64,3.99
4195.00,10.00,14.47,0.07,0.23,1.11,1.52,1.44,-0.03,4.17,6.04,-74.50,-36.61,-17.71,38.09,-1.74
4196.00,10.00,15.39,0.25,0.05,2.21,2.29,1.17,0.40,-65.61,-3.34,-21.80,-14.13,4.38,280.46,0.38
4197.00,9.00,15.91,0.09,0.27,2.40,1.17,1.17,-0.70,78.50,-18.50,-11.42,-17.17,9.86,-188.15,-0.82
4200.00,9.00,15.33,0.00,0.00,1.56,1.00,1.12,-1.41,-80.00,-21.34,-60.00,-20.93,-5.84,-455.07,-2.25
4202.00,10.00,13.86,0.33,0.00,1.00,1.50,,2.00,-85.00,,1.62,-37.20,-19.92,1182.32,-3.14
4204.00,9.00,18.32,0.03,0.12,1.33,1.40,1.61,0.03,-9.55,6.51,-43.81,-12.10,-10.14,86.28,5.12
4205.00,9.00,13.56,0.04,0.12,1.64,1.33,1.50,-0.37,-9.55,0.26,-38.41,-13.64,-4.34,-64.09,-6.60
4208.00,9.00,24.52,0.33,0.50,3.13,3.32,2.04,-0.41,213.53,30.96,118.12,30.28,23.51,-79.13,20.38
4214.00,10.00,13.23,0.12,0.00,1.44,2.15,1.25,-1.33,-85.00,-0.57,-59.86,-18.21,-11.08,-694.67,-4.59
4216.00,10.00,12.07,0.00,0.05,2.71,1.64,1.00,-0.88,-65.61,-9.25,-95.00,-33.10,14.42,-441.02,-7.26
4217.00,10.00,13.27,0.25,0.00,1.00,1.67,,-0.50,-85.00,,-21.80,-32.23,-19.92,-226.83,-4.49
4218.00,10.00,13.17,0.03,0.03,1.50,1.85,1.11,-0.91,-73.37,-5.43,-86.21,-26.97,-9.88,-457.93,-4.72
4219.00,10.00,15.05,0.68,0.05,2.40,3.20,1.20,-0.19,-65.61,-2.31,104.11,12.45,8.19,-52.10,-0.40
4221.00,10.00,12.73,0.12,0.12,1.44,1.90,1.25,-0.92,-38.48,-0.57,-59.86,-25.52,-11.08,-463.57,-5.74
4224.00,10.00,10.96,0.35,0.15,1.41,2.18,1.20,-0.11,-26.84,-2.31,7.49,-17.33,-11.69,-7.00,-9.81
4225.00,9.00,19.50,0.33,0.44,2.00,2.29,2.00,0.89,178.30,28.68,118.12,7.55,2.39,409.58,8.02
4226.00,10.00,16.81,0.79,0.48,2.51,5.91,1.17,0.55,101.10,-3.34,136.32,91.59,10.40,365.01,3.64
4227.00,10.00,15.50,0.30,0.35,1.77,3.06,1.13,0.49,50.69,-4.73,-7.15,8.36,-4.46,331.19,0.63
4228.00,9.00,18.56,0.03,0.27,1.52,1.53,1.47,-0.30,78.50,-1.44,-43.81,-9.23,-6.59,-37.78,5.71
4229.00,10.00,19.14,0.18,0.00,1.89,2.90,1.50,-1.75,-85.00,8.12,-42.29,3.69,-2.05,-931.40,9.00
4232.00,9.00,15.82,0.02,0.16,2.09,1.84,1.40,0.07,13.93,-5.42,-49.21,-2.39,4.07,101.32,-1.04
4237.00,10.00,18.52,0.67,0.31,2.40,4.23,1.29,0.09,35.19,0.82,101.18,42.53,8.19,105.73,7.57
4241.00,10.00,,0.00,0.00,,,,,-85.00,,-95.00,,,,
4249.00,9.00,15.21,0.20,0.00,,1.00,1.00,0.00,-80.00,-28.16,47.95,-20.93,,75.00,-2.54
4253.00,10.00,17.71,0.00,0.00,3.50,2.00,,-0.50,-85.00,,-95.00,-22.59,30.28,-226.83,5.71
4254.00,10.00,14.62,0.59,0.29,2.62,4.31,,-0.07,27.43,,77.76,44.87,12.61,15.54,-1.39
4255.00,10.00,14.02,0.00,0.00,1.00,1.00,,1.50,-85.00,,-95.00,-51.80,-19.92,900.49,-2.77
4258.00,9.00,20.18,0.08,0.08,2.30,2.00,2.60,-0.33,-33.03,62.78,-16.82,1.14,7.99,-49.06,9.70
4259.00,9.00,14.50,0.00,0.00,2.50,2.33,1.00,0.50,-80.00,-28.16,-60.00,8.43,11.73,262.97,-4.29
4260.00,9.00,18.00,0.00,0.07,2.11,1.50,2.25,-0.86,-38.90,42.89,-60.00,-9.89,4.44,-248.30,4.33
4261.00,9.00,13.79,0.08,0.17,2.17,1.67,1.14,-0.30,19.80,-20.20,-16.82,-6.14,5.56,-37.78,-6.04
4262.00,9.00,19.53,0.12,0.06,3.31,2.25,1.64,-0.20,-44.78,8.22,4.77,6.66,26.87,-0.19,8.10
4263.00,10.00,14.44,0.24,0.18,1.93,2.58,1.00,0.43,-15.21,-9.25,-24.73,-5.65,-1.24,297.37,-1.81
4264.00,10.00,14.75,0.12,0.08,1.64,2.13,1.25,-0.22,-53.98,-0.57,-59.86,-18.80,-7.07,-69.00,-1.09
4265.00,10.00,18.89,0.12,0.75,2.71,1.86,,1.00,205.78,,-59.86,-26.68,14.42,618.66,8.42
4266.00,10.00,17.66,0.46,0.31,2.45,3.33,1.00,-1.36,35.19,-9.25,39.69,16.25,9.20,-711.58,5.60
4267.00,10.00,13.59,0.27,0.08,1.62,2.76,1.12,-0.20,-53.98,-5.08,-15.94,-0.40,-7.47,-57.73,-3.76
4268.00,10.00,16.19,0.14,0.00,1.33,2.17,1.00,-1.00,-85.00,-9.25,-54.01,-17.63,-13.29,-508.66,2.22
4281.00,10.00,15.96,0.20,0.08,1.67,1.95,1.75,-0.37,-53.98,16.81,-36.44,-24.06,-6.47,-153.55,1.69
4282.00,10.00,19.38,0.52,0.38,2.96,4.74,1.00,-0.46,62.33,-9.25,57.26,57.42,19.44,-204.28,9.55
4288.00,10.00,17.42,0.25,0.50,1.00,1.75,1.00,-0.75,108.85,-9.25,-21.80,-29.90,-19.92,-367.75,5.04
4298.00,10.00,12.58,0.00,0.00,2.50,,,1.00,-85.00,,-95.00,,10.20,618.66,-6.08
4303.00,10.00,12.20,0.31,0.08,1.62,1.87,1.17,0.24,-53.98,-3.34,-4.23,-26.39,-7.47,190.28,-6.95
4304.00,10.00,13.19,0.12,0.12,2.57,3.00,1.00,0.00,-38.48,-9.25,-59.86,6.61,11.60,55.00,-4.68
4307.00,10.00,14.86,0.50,0.50,2.00,4.00,,0.50,108.85,,51.40,35.81,0.16,336.83,-0.84
4308.00,10.00,12.45,0.30,0.20,1.00,2.00,,-0.12,-7.46,,-7.15,-22.59,-19.92,-12.64,-6.38
4309.00,10.00,20.11,0.33,0.17,4.60,6.67,3.33,-0.80,-19.09,71.71,1.62,113.79,52.37,-395.93,11.23
4311.00,10.00,15.38,0.00,0.33,1.00,1.67,1.67,0.50,42.94,14.03,-95.00,-32.23,-19.92,336.83,0.35
4312.00,10.00,20.43,0.76,0.48,2.84,5.07,1.00,-0.43,101.10,-9.25,127.54,67.06,17.03,-187.37,11.96
4313.00,9.00,20.37,0.00,0.00,1.40,2.40,1.33,-0.90,-80.00,-9.40,-60.00,9.97,-8.83,-263.34,10.16
4320.00,9.00,16.59,0.50,0.00,2.00,2.00,1.00,0.00,-80.00,-28.16,209.89,1.14,2.39,75.00,0.86
4321.00,9.00,18.83,0.22,0.17,2.72,2.31,1.68,0.67,19.80,10.49,58.75,7.99,15.84,326.88,6.37
4323.00,10.00,19.83,0.06,0.26,1.96,2.27,1.30,-0.27,15.80,1.17,-77.43,-14.71,-0.64,-97.19,10.58
4326.00,10.00,10.00,0.00,0.00,,,,-1.00,-85.00,,-95.00,,,-508.66,-12.01
4327.00,10.00,17.40,0.23,0.10,1.80,2.48,1.40,-0.55,-46.23,4.65,-27.65,-8.58,-3.86,-255.01,5.00
4329.00,9.00,15.33,0.18,0.09,2.11,2.57,1.64,0.20,-27.17,8.22,37.16,13.73,4.44,150.19,-2.25
4331.00,10.00,11.99,0.44,0.11,1.57,3.75,1.00,0.88,-42.36,-9.25,33.84,28.51,-8.48,551.02,-7.44
4332.00,10.00,12.01,0.00,0.00,1.33,1.00,1.50,-0.50,-85.00,8.12,-95.00,-51.80,-13.29,-226.83,-7.39
4334.00,9.00,12.95,0.12,0.12,1.50,1.00,1.00,0.40,-9.55,-28.16,4.77,-20.93,-6.96,225.38,-8.11
4335.00,10.00,11.39,0.50,0.00,1.33,1.50,1.00,0.00,-85.00,-9.25,51.40,-37.20,-13.29,55.00,-8.82
4336.00,9.00,23.92,0.11,0.17,1.70,1.85,1.50,0.29,19.80,0.26,-0.62,-2.17,-3.22,184.02,18.91
4337.00,10.00,19.30,0.31,0.20,3.29,4.22,1.31,0.24,-7.46,1.52,-4.23,42.24,26.06,190.28,9.37
4341.00,9.00,10.84,0.21,0.05,1.78,2.00,1.00,-1.21,-50.65,-28.16,53.35,1.14,-1.73,-379.88,-13.30
4342.00,10.00,19.61,0.60,0.47,2.49,4.58,1.28,0.86,97.22,0.48,80.68,52.76,10.00,539.75,10.08
4343.00,10.00,10.90,0.00,0.00,1.75,1.57,1.00,-1.55,-85.00,-9.25,-95.00,-35.15,-4.86,-818.68,-9.94
4345.00,10.00,14.46,0.21,0.21,1.46,1.92,1.00,-1.34,-3.58,-9.25,-33.51,-24.93,-10.68,-700.30,-1.76
4346.00,9.00,22.12,0.06,0.25,2.47,2.20,1.87,-0.91,66.76,21.29,-27.61,5.56,11.17,-267.11,14.48
4351.00,9.00,16.19,0.10,0.10,1.60,1.91,1.72,-0.71,-21.30,12.77,-6.02,-0.84,-5.09,-191.92,-0.13
4353.00,10.00,9.62,0.00,0.00,1.00,1.00,1.00,0.00,-85.00,-9.25,-95.00,-51.80,-19.92,55.00,-12.89
4354.00,9.00,14.20,0.03,0.08,1.75,1.46,1.47,-1.00,-33.03,-1.44,-43.81,-10.78,-2.29,-300.94,-5.03
4355.00,10.00,11.00,0.07,0.13,1.20,1.50,1.00,-0.73,-34.59,-9.25,-74.50,-37.20,-15.90,-356.47,-9.71
4357.00,10.00,14.57,0.00,0.00,1.00,5.00,,-2.00,-85.00,,-95.00,65.02,-19.92,-1072.32,-1.51
4359.00,9.00,13.38,0.00,0.00,1.00,1.00,2.00,4.00,-80.00,28.68,-60.00,-20.93,-16.31,1578.75,-7.05
4362.00,10.00,14.57,0.29,0.09,1.62,2.61,1.00,0.42,-50.11,-9.25,-10.09,-4.78,-7.47,291.74,-1.51
4367.00,10.00,12.03,0.29,0.29,1.78,2.78,1.00,1.00,27.43,-9.25,-10.09,0.19,-4.26,618.66,-7.35
4368.00,9.00,21.22,0.00,0.09,2.00,1.33,1.40,0.67,-27.17,-5.42,-60.00,-13.64,2.39,326.88,12.26
4369.00,9.00,11.24,0.00,0.00,,1.00,1.00,-0.50,-80.00,-28.16,-60.00,-20.93,,-112.97,-12.32
4372.00,9.00,11.95,0.00,0.00,2.00,3.00,2.00,-2.00,-80.00,28.68,-60.00,23.22,2.39,-676.88,-10.57
4372.00,10.00,14.73,1.00,0.00,2.00,2.00,,1.00,-85.00,,197.81,-22.59,0.16,618.66,-1.14
4373.00,10.00,12.47,0.18,0.18,1.62,2.00,,0.00,-15.21,,-42.29,-22.59,-7.47,55.00,-6.33
4375.00,9.00,15.93,0.11,0.21,1.41,1.40,1.33,0.42,43.28,-9.40,-0.62,-12.10,-8.64,232.89,-0.77
4379.00,10.00,20.36,1.00,0.83,4.60,3.50,1.00,2.40,236.79,-9.25,197.81,21.21,52.37,1407.79,11.80
4380.00,10.00,17.95,0.14,0.57,2.00,2.71,,-0.20,135.99,,-54.01,-1.85,0.16,-57.73,6.26
4384.00,10.00,18.09,0.70,0.49,2.45,3.64,1.00,0.57,104.97,-9.25,109.96,25.30,9.20,376.29,6.58
4389.00,10.00,15.34,0.42,0.20,2.35,3.88,1.17,0.19,-7.46,-3.34,27.98,32.31,7.19,162.10,0.26
4392.00,9.00,16.06,0.11,0.33,2.00,2.50,1.33,-0.78,113.73,-9.40,-0.62,12.18,2.39,-218.23,-0.45
4395.00,10.00,24.42,1.00,1.00,4.00,5.00,2.00,2.00,302.70,25.49,197.81,65.02,40.32,1182.32,21.14
4398.00,10.00,14.67,0.33,0.33,1.00,4.00,2.00,0.00,42.94,25.49,1.62,35.81,-19.92,55.00,-1.28
4400.00,10.00,18.18,0.65,0.23,3.05,4.24,1.00,0.00,4.17,-9.25,95.32,42.82,21.24,55.00,6.79
4401.00,10.00,10.41,0.00,0.00,,,1.33,-1.42,-85.00,2.21,-95.00,,,-745.40,-11.07
4402.00,10.00,13.58,0.28,0.09,1.71,2.38,1.25,-0.26,-50.11,-0.57,-13.01,-11.49,-5.66,-91.55,-3.78
4405.00,10.00,17.02,0.00,0.00,3.00,2.00,,-2.00,-85.00,,-95.00,-22.59,20.24,-1072.32,4.12
4412.00,10.00,12.74,0.00,0.22,1.50,1.87,1.29,-0.25,0.30,0.82,-95.00,-26.39,-9.88,-85.92,-5.72
4413.00,10.00,10.14,0.16,0.05,1.20,1.62,1.00,-0.75,-65.61,-9.25,-48.16,-33.69,-15.90,-367.75,-11.69
4419.00,10.00,13.09,0.00,0.00,1.33,2.00,1.00,0.00,-85.00,-9.25,-95.00,-22.59,-13.29,55.00,-4.91
4421.00,10.00,16.43,0.10,0.20,1.88,3.00,1.00,-0.62,-7.46,-9.25,-65.72,6.61,-2.25,-294.47,2.77
4422.00,10.00,12.38,0.35,0.12,2.56,2.43,1.36,-0.45,-38.48,3.26,7.49,-10.04,11.40,-198.65,-6.54
4424.00,9.00,15.65,1.00,0.00,,4.00,,-2.00,-80.00,,479.77,45.29,,-676.88,-1.46
4425.00,10.00,20.09,0.71,0.43,3.26,4.96,1.29,-0.27,81.71,0.82,112.89,63.85,25.46,-97.19,11.18
4432.00,9.00,17.20,0.20,0.20,1.88,1.31,1.63,0.50,37.41,7.65,47.95,-14.09,0.14,262.97,2.36
4433.00,10.00,26.87,4.00,1.00,2.00,9.00,1.00,1.00,302.70,-9.25,1076.23,181.83,0.16,618.66,26.77
4436.00,10.00,9.52,0.13,0.06,1.50,1.43,1.33,-0.80,-61.74,2.21,-56.93,-39.24,-9.88,-395.93,-13.11
4438.00,10.00,2.92,0.00,0.00,1.00,,,-1.00,-85.00,,-95.00,,-19.92,-508.66,-28.29
4440.00,10.00,13.87,0.29,0.14,1.55,2.20,1.75,-0.25,-30.72,16.81,-10.09,-16.75,-8.88,-85.92,-3.11
4442.00,9.00,11.23,0.33,0.00,1.00,1.00,,-0.50,-80.00,,118.12,-20.93,-16.31,-112.97,-12.34
4443.00,10.00,13.83,0.15,0.23,1.50,2.71,1.33,-0.14,4.17,2.21,-51.08,-1.85,-9.88,-23.91,-3.21
4444.00,9.00,18.99,0.07,0.07,2.00,1.71,1.36,-0.07,-38.90,-7.70,-22.22,-5.25,2.39,48.68,6.77
4445.00,9.00,17.46,0.07,0.10,1.52,1.53,1.33,0.43,-21.30,-9.40,-22.22,-9.23,-6.59,236.66,3.00
4446.00,10.00,16.65,0.58,0.29,3.45,5.94,1.00,0.42,27.43,-9.25,74.83,92.47,29.28,291.74,3.27
4447.00,9.00,16.83,0.04,0.04,2.39,2.00,1.46,0.16,-56.52,-2.01,-38.41,1.14,9.68,135.15,1.45
4448.00,10.00,17.00,0.39,0.29,2.46,3.15,1.30,0.32,27.43,1.17,19.19,10.99,9.40,235.37,4.08
4449.00,10.00,11.62,0.12,0.06,1.38,1.80,1.00,-0.89,-61.74,-9.25,-59.86,-28.43,-12.29,-446.66,-8.29
4451.00,9.00,15.81,0.00,0.15,1.58,1.57,1.25,-0.12,8.06,-13.95,-60.00,-8.35,-5.46,29.89,-1.06
4452.00,9.00,17.55,0.16,0.03,1.86,1.62,1.67,-0.21,-62.39,9.92,26.36,-7.24,-0.23,-3.94,3.22
4453.00,10.00,17.72,0.29,0.15,1.96,3.14,1.42,-0.15,-26.84,5.34,-10.09,10.70,-0.64,-29.55,5.73
4454.00,9.00,14.27,0.32,0.22,2.28,2.07,1.11,0.03,49.15,-21.90,112.73,2.69,7.62,86.28,-4.86
4455.00,10.00,14.49,0.62,0.16,2.00,2.74,1.18,0.10,-22.97,-3.00,86.54,-0.98,0.16,111.36,-1.69
4456.00,10.00,14.73,0.80,0.50,2.57,3.75,1.00,0.70,108.85,-9.25,139.24,28.51,11.60,449.56,-1.14
4458.00,9.00,10.32,0.00,0.00,1.00,1.00,,0.00,-80.00,,-60.00,-20.93,-16.31,75.00,-14.58
4459.00,10.00,12.80,0.23,0.20,1.68,2.12,1.00,-0.31,-7.46,-9.25,-27.65,-19.09,-6.26,-119.73,-5.58
4460.00,9.00,16.34,0.06,0.23,1.89,1.84,1.14,-0.10,55.02,-20.20,-27.61,-2.39,0.33,37.41,0.24
4463.00,9.00,14.17,0.11,0.06,1.75,1.67,1.38,1.20,-44.78,-6.56,-0.62,-6.14,-2.29,526.12,-5.10
4465.00,10.00,17.41,0.72,0.44,2.87,4.26,1.20,0.17,85.59,-2.31,115.82,43.41,17.63,150.82,5.02
4466.00,9.00,14.38,0.07,0.03,1.83,1.27,1.24,0.06,-62.39,-14.52,-22.22,-14.97,-0.79,97.55,-4.59
4467.00,9.00,15.27,0.00,0.00,2.00,1.00,,-0.67,-80.00,,-60.00,-20.93,2.39,-176.88,-2.40
4468.00,10.00,14.80,0.32,0.47,1.59,2.37,1.00,-0.03,97.22,-9.25,-1.30,-11.79,-8.07,38.09,-0.98
4470.00,10.00,10.89,0.15,0.40,1.40,1.93,1.00,0.08,70.08,-9.25,-51.08,-24.64,-11.89,100.09,-9.97
4471.00,10.00,12.89,0.17,0.09,1.60,1.94,1.00,-0.18,-50.11,-9.25,-45.22,-24.35,-7.87,-46.46,-5.37
4473.00,10.00,13.49,0.50,0.20,2.40,3.00,1.33,-0.25,-7.46,2.21,51.40,6.61,8.19,-85.92,-3.99
4475.00,9.00,22.54,0.00,0.00,1.50,1.17,1.40,-0.75,-80.00,-5.42,-60.00,-17.17,-6.96,-206.95,15.51
4476.00,9.00,18.29,0.00,0.25,2.33,2.00,3.00,-0.75,66.76,85.52,-60.00,1.14,8.55,-206.95,5.04
4477.00,10.00,12.60,0.08,0.12,1.21,1.40,1.33,-0.17,-38.48,2.21,-71.57,-40.12,-15.70,-40.82,-6.04
4484.00,10.00,19.59,0.30,0.10,2.00,3.00,1.00,-1.67,-46.23,-9.25,-7.15,6.61,0.16,-886.31,10.03
4485.00,10.00,14.99,0.27,0.27,1.33,2.33,1.00,0.18,19.68,-9.25,-15.94,-12.96,-13.29,156.46,-0.54
4487.00,10.00,25.47,0.91,0.45,5.44,7.54,1.33,-0.95,89.46,2.21,171.46,139.19,69.24,-480.47,23.55
4488.00,10.00,15.46,0.60,0.25,2.43,4.19,1.00,0.20,11.93,-9.25,80.68,41.36,8.80,167.73,0.54
4489.00,10.00,14.75,0.20,0.20,1.55,2.39,1.25,0.21,-7.46,-0.57,-36.44,-11.20,-8.88,173.37,-1.09
4490.00,10.00,11.54,0.12,0.16,1.55,1.73,1.00,0.18,-22.97,-9.25,-59.86,-30.48,-8.88,156.46,-8.47
