ID player,amplua,time,G,As,TB,Shot,BT,pm,dev_As,dev_BT,dev_G,dev_Shot,dev_TB,dev_pm,dev_time
1.00,10.00,11.32,0.04,0.20,1.32,1.70,1.25,-0.40,-7.40,-0.54,-83.29,-31.38,-13.48,-165.01,-8.96
3.00,10.00,13.04,0.00,0.05,1.20,1.33,1.44,-1.69,-65.60,6.06,-95.00,-42.18,-15.89,-874.55,-5.00
8.00,9.00,21.28,0.09,0.15,1.95,2.24,1.50,0.39,7.90,0.32,-11.80,6.49,1.44,224.19,12.33
10.00,9.00,18.12,1.00,0.50,3.50,3.50,2.00,-0.50,213.02,28.76,475.55,34.33,30.40,-116.27,4.56
10.00,10.00,15.40,1.00,0.00,4.00,2.50,1.00,-1.00,-85.00,-9.23,197.88,-8.03,40.36,-495.03,0.42
13.00,10.00,10.99,0.23,0.07,2.47,2.86,1.29,0.58,-57.84,0.85,-27.64,2.48,9.62,374.02,-9.72
17.00,9.00,13.74,0.14,0.14,2.27,3.20,,0.12,2.05,,14.98,27.70,7.42,120.91,-6.21
18.00,10.00,17.28,0.75,0.25,2.50,4.00,2.00,0.50,11.99,25.53,124.67,35.75,10.23,330.02,4.75
19.00,9.00,15.13,0.08,0.00,1.57,3.00,1.50,-0.78,-80.00,0.32,-17.15,23.28,-5.66,-223.38,-2.80
21.00,9.00,9.22,0.00,0.00,,2.00,,-2.00,-80.00,,-60.00,1.19,,-690.08,-17.33
22.00,10.00,12.87,0.31,0.31,1.62,2.25,1.50,-0.14,35.27,8.15,-4.21,-15.33,-7.45,-22.01,-5.40
24.00,10.00,11.67,0.00,0.00,1.00,,1.00,-1.00,-85.00,-9.23,-95.00,,-19.91,-495.03,-8.15
25.00,10.00,16.76,0.40,0.20,2.42,3.43,1.00,-0.50,-7.40,-9.23,22.15,19.12,8.62,-220.02,3.55
26.00,9.00,11.96,0.05,0.05,1.62,1.38,2.00,-0.50,-50.70,28.76,-33.22,-12.51,-4.73,-116.27,-10.59
35.00,9.00,16.23,0.00,0.12,2.00,1.00,2.00,-0.89,-9.68,28.76,-60.00,-20.91,2.37,-265.46,-0.09
37.00,9.00,13.55,0.00,0.00,1.67,1.00,1.00,-1.25,-80.00,-28.12,-60.00,-20.91,-3.79,-403.18,-6.68
39.00,9.00,15.38,0.50,0.50,,1.67,1.50,0.50,213.02,0.32,207.77,-6.10,,266.27,-2.18
40.00,9.00,20.75,0.27,0.15,2.13,1.88,1.90,0.41,7.90,23.07,84.60,-1.46,4.80,231.84,11.02
47.00,10.00,19.98,0.17,0.08,1.43,3.10,1.33,-1.56,-53.96,2.24,-45.21,9.49,-11.27,-803.05,10.96
49.00,10.00,13.95,0.08,0.10,1.29,1.56,1.17,-0.87,-46.20,-3.32,-71.57,-35.46,-14.08,-423.53,-2.91
51.00,9.00,16.38,0.11,0.21,1.63,1.77,1.38,-0.22,43.06,-6.50,-1.09,-3.89,-4.54,-9.16,0.28
53.00,9.00,22.17,0.05,0.25,1.70,1.69,1.70,0.22,66.50,11.70,-33.22,-5.66,-3.23,159.16,14.52
55.00,9.00,16.87,0.00,0.00,3.00,1.00,1.00,-3.00,-80.00,-28.12,-60.00,-20.91,21.06,-1072.63,1.48
55.00,10.00,13.82,0.00,0.00,,,1.00,-2.00,-85.00,-9.23,-95.00,,,-1045.06,-3.21
62.00,9.00,10.18,0.04,0.15,1.25,1.47,1.14,-0.44,7.90,-20.15,-38.58,-10.52,-11.64,-93.32,-14.97
63.00,10.00,11.69,0.00,0.00,1.33,1.54,1.00,-1.54,-85.00,-9.23,-95.00,-36.05,-13.28,-792.04,-8.11
64.00,10.00,11.97,0.17,0.17,1.40,1.33,1.00,-0.50,-19.04,-9.23,-45.21,-42.18,-11.87,-220.02,-7.47
66.00,9.00,18.76,0.00,0.09,1.50,1.62,1.55,-0.60,-27.26,3.16,-60.00,-7.21,-6.97,-154.52,6.13
74.00,9.00,14.61,0.26,0.30,1.82,2.83,1.20,0.25,95.81,-16.74,79.24,19.53,-0.99,170.63,-4.07
79.00,9.00,21.94,0.20,0.25,1.82,2.21,1.31,-0.61,66.50,-10.49,47.11,5.83,-0.99,-158.35,13.95
83.00,10.00,15.13,0.32,0.31,1.66,2.86,1.26,-0.04,35.27,-0.19,-1.27,2.48,-6.65,33.00,-0.20
87.00,10.00,11.58,0.00,0.00,1.00,1.00,,0.00,-85.00,,-95.00,-51.81,-19.91,55.00,-8.36
92.00,9.00,14.54,0.00,0.00,1.00,1.43,1.50,0.17,-80.00,0.32,-60.00,-11.40,-16.31,140.03,-4.24
95.00,10.00,11.69,0.12,0.12,3.00,1.60,1.00,0.00,-38.45,-9.23,-59.85,-34.30,20.28,55.00,-8.11
104.00,9.00,13.51,0.22,0.16,1.33,1.70,1.25,-0.48,13.77,-13.90,57.82,-5.44,-10.15,-108.62,-6.78
107.00,9.00,15.98,0.08,0.38,2.10,1.80,1.33,-0.18,142.69,-9.35,-17.15,-3.23,4.24,6.14,-0.70
110.00,10.00,16.04,0.48,0.17,2.82,3.28,1.00,-0.33,-19.04,-9.23,45.59,14.74,16.66,-126.51,1.90
114.00,10.00,13.64,0.23,0.23,1.89,3.05,1.00,-0.14,4.23,-9.23,-27.64,8.03,-2.03,-22.01,-3.63
115.00,10.00,12.16,0.10,0.15,2.15,1.80,1.00,-0.30,-26.80,-9.23,-65.71,-28.46,3.20,-110.01,-7.03
116.00,9.00,16.32,0.05,0.12,2.14,1.69,2.19,0.76,-9.68,39.57,-33.22,-5.66,4.99,365.73,0.13
117.00,10.00,15.29,0.39,0.12,1.80,2.50,1.00,0.52,-38.45,-9.23,19.23,-8.03,-3.84,341.02,0.17
118.00,9.00,15.60,0.00,0.05,1.67,1.33,1.50,-0.27,-50.70,0.32,-60.00,-13.61,-3.79,-28.29,-1.64
120.00,10.00,15.92,1.20,0.40,3.22,5.30,1.00,0.75,70.19,-9.23,256.46,73.70,24.70,467.52,1.62
121.00,10.00,21.50,0.35,0.22,1.83,2.79,1.47,-0.77,0.36,7.11,7.51,0.44,-3.23,-368.52,14.45
124.00,9.00,16.29,0.12,0.25,2.43,2.83,1.00,0.00,66.50,-28.12,4.27,19.53,10.41,75.00,0.06
125.00,10.00,14.39,0.09,0.11,1.48,1.68,1.44,-0.05,-42.32,6.06,-68.64,-31.96,-10.26,27.50,-1.90
126.00,9.00,11.87,0.10,0.28,1.53,1.79,1.12,0.75,84.09,-21.29,-6.44,-3.45,-6.41,361.91,-10.81
139.00,10.00,14.34,0.50,0.12,2.71,3.75,1.00,0.50,-38.45,-9.23,51.44,28.46,14.45,330.02,-2.02
142.00,10.00,14.30,0.67,0.17,1.33,2.80,1.00,0.00,-19.04,-9.23,101.23,0.73,-13.28,55.00,-2.11
148.00,10.00,15.38,0.60,0.50,1.86,3.50,1.00,0.70,109.00,-9.23,80.73,21.17,-2.63,440.02,0.38
149.00,10.00,13.81,0.14,0.00,2.00,1.75,1.00,-2.00,-85.00,-9.23,-54.00,-29.92,0.18,-1045.06,-3.23
150.00,10.00,13.70,0.16,0.16,1.53,1.84,1.50,-0.72,-22.92,8.15,-48.14,-27.29,-9.26,-341.02,-3.49
151.00,10.00,15.12,0.12,0.38,2.07,2.50,,-0.50,62.43,,-59.85,-8.03,1.59,-220.02,-0.22
155.00,10.00,14.10,0.17,0.17,2.00,2.04,1.46,-0.21,-19.04,6.76,-45.21,-21.46,0.18,-60.51,-2.57
156.00,10.00,14.26,0.00,0.13,1.57,1.86,1.00,-0.30,-34.56,-9.23,-95.00,-26.71,-8.46,-110.01,-2.20
157.00,10.00,9.47,0.33,0.33,1.50,1.33,,0.33,43.04,,1.65,-42.18,-9.86,236.51,-13.22
158.00,9.00,23.19,0.29,0.13,3.12,2.75,1.45,-1.15,-3.82,-2.52,95.31,17.76,23.30,-364.93,17.02
159.00,9.00,17.71,0.00,0.27,1.33,1.50,1.00,0.00,78.22,-28.12,-60.00,-9.86,-10.15,75.00,3.55
160.00,10.00,19.32,0.00,0.00,1.00,1.00,,-0.50,-85.00,,-95.00,-51.81,-19.91,-220.02,9.44
161.00,10.00,16.21,0.24,0.29,1.79,2.59,1.14,0.75,27.51,-4.36,-24.71,-5.40,-4.04,467.52,2.29
162.00,9.00,20.59,0.00,0.14,1.93,1.42,1.50,-0.89,2.05,0.32,-60.00,-11.63,1.07,-265.46,10.63
164.00,10.00,13.40,0.20,0.20,1.50,2.80,1.00,0.60,-7.40,-9.23,-36.42,0.73,-9.86,385.02,-4.18
167.00,9.00,18.71,0.00,0.00,1.00,1.00,1.67,-2.17,-80.00,9.99,-60.00,-20.91,-16.31,-755.12,6.01
168.00,10.00,17.18,0.53,0.28,1.79,2.79,1.20,-0.03,23.64,-2.28,60.23,0.44,-4.04,38.50,4.52
169.00,9.00,17.77,0.11,0.18,2.20,1.71,1.17,-0.04,25.49,-18.45,-1.09,-5.22,6.11,59.70,3.70
170.00,9.00,14.86,0.00,0.00,2.11,2.33,1.12,-1.21,-80.00,-21.29,-60.00,8.48,4.43,-387.88,-3.46
172.00,10.00,19.49,0.16,0.34,1.96,2.70,1.31,-0.58,46.91,1.54,-48.14,-2.19,-0.62,-264.02,9.83
174.00,10.00,16.86,0.36,0.29,1.77,3.27,1.19,-0.04,27.51,-2.63,10.44,14.45,-4.44,33.00,3.78
175.00,10.00,12.56,0.06,0.12,1.85,2.50,1.00,0.18,-38.45,-9.23,-77.42,-8.03,-2.83,154.01,-6.11
176.00,10.00,16.60,0.06,0.25,1.20,2.00,1.25,-0.17,11.99,-0.54,-77.42,-22.62,-15.89,-38.51,3.18
180.00,10.00,15.39,0.18,0.35,2.64,1.69,1.30,0.44,50.80,1.20,-42.28,-31.67,13.04,297.01,0.40
181.00,9.00,14.86,0.03,0.13,1.21,1.22,1.90,0.50,-3.82,23.07,-43.93,-16.04,-12.39,266.27,-3.46
182.00,10.00,16.15,0.67,0.00,3.00,4.00,,0.00,-85.00,,101.23,35.75,20.28,55.00,2.15
184.00,10.00,12.03,0.05,0.25,1.14,2.33,1.00,-0.07,11.99,-9.23,-80.35,-12.99,-17.10,16.50,-7.33
185.00,10.00,20.32,0.22,0.00,2.83,2.33,1.00,0.88,-85.00,-9.23,-30.56,-12.99,16.86,539.03,11.74
186.00,10.00,10.44,0.09,0.14,1.47,1.77,1.00,-0.10,-30.68,-9.23,-68.64,-29.34,-10.46,-0.01,-10.99
187.00,10.00,13.30,0.12,0.17,1.57,2.00,1.40,0.12,-19.04,4.67,-59.85,-22.62,-8.46,121.01,-4.41
190.00,10.00,17.15,0.39,0.29,1.69,2.19,1.22,-0.59,27.51,-1.58,19.23,-17.07,-6.04,-269.52,4.45
191.00,9.00,14.35,0.06,0.06,1.86,1.62,1.93,0.04,-44.84,24.78,-27.86,-7.21,-0.24,90.30,-4.71
193.00,10.00,19.65,1.13,0.33,2.77,5.87,1.50,0.80,43.04,8.15,235.96,90.34,15.65,495.02,10.20
194.00,10.00,20.39,0.59,0.65,2.25,3.67,1.46,0.51,167.19,6.76,77.81,26.12,5.20,335.52,11.90
202.00,9.00,19.54,0.18,0.29,1.58,1.73,1.48,-0.11,89.95,-0.82,36.40,-4.78,-5.47,32.92,8.05
203.00,10.00,17.57,0.24,0.26,1.84,2.15,1.06,-0.23,15.88,-7.15,-24.71,-18.24,-3.03,-71.51,5.41
204.00,10.00,14.89,0.21,0.00,2.15,1.88,1.00,-0.67,-85.00,-9.23,-33.50,-26.12,3.20,-313.52,-0.75
206.00,10.00,16.88,0.00,0.00,,1.00,,-3.00,-85.00,,-95.00,-51.81,,-1595.09,3.83
207.00,9.00,19.38,0.05,0.13,1.35,1.74,1.22,-0.06,-3.82,-15.61,-33.22,-4.55,-9.77,52.05,7.66
208.00,10.00,18.73,0.85,0.33,2.69,5.59,1.62,0.16,43.04,12.32,153.96,82.17,14.04,143.01,8.08
209.00,10.00,14.10,0.30,0.30,1.85,3.00,1.50,-0.08,31.40,8.15,-7.13,6.57,-2.83,11.00,-2.57
210.00,9.00,25.11,0.00,0.40,1.60,1.00,1.00,-1.20,154.41,-28.12,-60.00,-20.91,-5.10,-384.05,21.75
213.00,9.00,17.75,0.00,0.55,2.00,1.20,1.25,1.22,242.31,-13.90,-60.00,-16.49,2.37,541.70,3.65
214.00,10.00,13.08,0.40,0.00,2.14,3.78,1.00,0.89,-85.00,-9.23,22.15,29.34,3.00,544.53,-4.91
215.00,9.00,16.51,0.00,0.00,2.00,1.33,1.40,0.00,-80.00,-5.37,-60.00,-13.61,2.37,75.00,0.60
216.00,9.00,15.00,0.14,0.00,1.30,1.38,1.25,0.12,-80.00,-13.90,14.98,-12.51,-10.71,120.91,-3.12
224.00,10.00,18.23,0.75,1.00,2.67,6.00,2.00,1.00,302.98,25.53,124.67,94.14,13.64,605.03,6.93
227.00,9.00,18.62,0.04,0.13,1.70,1.62,2.08,-1.25,-3.82,33.31,-38.58,-7.21,-3.23,-403.18,5.79
228.00,10.00,9.89,0.13,0.18,1.50,2.00,1.00,0.19,-15.16,-9.23,-56.92,-22.62,-9.86,159.51,-12.25
230.00,10.00,16.93,0.25,0.50,2.00,2.50,1.00,-1.25,109.00,-9.23,-21.77,-8.03,0.18,-632.54,3.94
231.00,10.00,17.84,0.20,0.07,2.38,2.33,1.00,-0.58,-57.84,-9.23,-36.42,-12.99,7.82,-264.02,6.04
234.00,10.00,14.73,0.91,0.18,2.12,4.10,,0.40,-15.16,,171.53,38.68,2.59,275.01,-1.12
235.00,9.00,13.57,0.00,0.05,1.71,1.14,1.25,0.18,-50.70,-13.90,-60.00,-17.81,-3.04,143.86,-6.63
244.00,9.00,16.01,0.44,0.22,3.33,3.89,2.00,-0.57,48.93,28.76,175.64,42.95,27.23,-143.05,-0.63
246.00,10.00,13.58,0.00,0.00,1.00,1.50,2.00,-1.50,-85.00,25.53,-95.00,-37.22,-19.91,-770.04,-3.76
247.00,10.00,10.08,0.13,0.13,1.60,1.92,,-0.83,-34.56,,-56.92,-24.96,-7.85,-401.53,-11.81
251.00,10.00,16.74,0.57,0.14,2.00,3.14,1.40,-0.71,-30.68,4.67,71.94,10.65,0.18,-335.52,3.51
252.00,9.00,14.07,0.50,0.00,,2.75,,1.67,-80.00,,207.77,17.76,,713.85,-5.40
256.00,9.00,21.66,0.50,0.24,2.17,3.18,1.24,0.77,60.65,-14.47,207.77,27.26,5.55,369.56,13.26
262.00,10.00,14.75,0.50,0.19,2.55,4.31,1.00,0.71,-11.28,-9.23,51.44,44.81,11.23,445.52,-1.07
263.00,10.00,12.22,0.26,0.06,1.29,1.60,1.25,-0.29,-61.72,-0.54,-18.85,-34.30,-14.08,-104.51,-6.89
269.00,9.00,13.86,0.50,0.50,1.50,1.50,,0.00,213.02,,207.77,-9.86,-6.97,75.00,-5.92
272.00,10.00,15.48,0.67,0.33,2.00,4.12,1.75,1.29,43.04,16.84,101.23,39.26,0.18,764.54,0.61
273.00,9.00,22.12,0.09,0.09,1.67,2.00,1.50,0.91,-27.26,0.32,-11.80,1.19,-3.79,423.11,14.40
274.00,10.00,18.03,0.12,0.18,1.96,1.95,1.60,-0.03,-15.16,11.62,-59.85,-24.08,-0.62,38.50,6.47
277.00,9.00,18.48,0.20,0.12,1.62,2.45,1.78,-0.18,-9.68,16.24,47.11,11.13,-4.73,6.14,5.44
281.00,10.00,11.68,0.13,0.11,1.40,1.56,1.38,0.00,-42.32,3.98,-56.92,-35.46,-11.87,55.00,-8.13
282.00,10.00,14.96,0.00,0.00,1.00,2.00,1.00,-1.00,-85.00,-9.23,-95.00,-22.62,-19.91,-495.03,-0.59
283.00,9.00,18.81,0.18,0.09,1.78,1.89,1.00,0.10,-27.26,-28.12,36.40,-1.24,-1.74,113.26,6.26
285.00,10.00,14.42,0.17,0.33,2.50,3.33,,0.00,43.04,,-45.21,16.20,10.23,55.00,-1.83
287.00,9.00,16.43,0.00,0.14,1.29,1.50,1.36,0.50,2.05,-7.64,-60.00,-9.86,-10.89,266.27,0.40
288.00,10.00,15.80,0.46,0.38,1.84,2.74,1.16,0.16,62.43,-3.67,39.73,-1.02,-3.03,143.01,1.34
289.00,10.00,17.52,0.13,0.27,1.80,2.62,1.00,0.17,19.75,-9.23,-56.92,-4.53,-3.84,148.51,5.30
292.00,9.00,13.57,0.00,0.03,1.09,1.38,1.73,-0.54,-62.42,13.40,-60.00,-12.51,-14.63,-131.57,-6.63
294.00,9.00,22.34,0.06,0.10,1.70,1.94,2.03,-0.60,-21.40,30.46,-27.86,-0.14,-3.23,-154.52,14.94
295.00,10.00,14.91,0.20,0.10,1.90,2.59,1.00,-1.36,-46.20,-9.23,-36.42,-5.40,-1.83,-693.04,-0.70
298.00,10.00,14.53,0.37,0.19,1.75,2.04,1.00,-0.54,-11.28,-9.23,13.37,-21.46,-4.84,-242.02,-1.58
299.00,10.00,17.63,0.31,0.29,1.31,2.14,1.12,-0.14,27.51,-5.06,-4.21,-18.53,-13.68,-22.01,5.55
302.00,10.00,11.90,0.22,0.16,1.56,2.08,1.00,-0.57,-22.92,-9.23,-30.56,-20.28,-8.66,-258.52,-7.63
303.00,9.00,20.07,0.17,0.17,2.67,2.75,1.00,-0.25,19.62,-28.12,31.04,17.76,14.90,-20.63,9.35
305.00,10.00,15.56,0.44,0.34,1.80,3.21,1.38,-0.46,46.91,3.98,33.87,12.70,-3.84,-198.02,0.79
314.00,10.00,13.07,1.00,0.25,2.25,3.75,,0.33,11.99,,197.88,28.46,5.20,236.51,-4.93
328.00,10.00,12.59,0.31,0.06,1.69,3.27,1.50,0.56,-61.72,8.15,-4.21,14.45,-6.04,363.02,-6.04
333.00,10.00,13.89,0.30,0.35,2.62,4.00,1.00,0.06,50.80,-9.23,-7.13,35.75,12.64,88.00,-3.05
334.00,10.00,15.61,0.26,0.11,1.45,2.92,1.10,0.46,-42.32,-5.76,-18.85,4.24,-10.87,308.02,0.91
343.00,9.00,16.33,0.19,0.29,1.94,2.14,1.67,-0.05,89.95,9.99,41.75,4.28,1.25,55.88,0.16
349.00,9.00,23.45,0.00,1.00,1.00,5.00,1.00,-1.00,506.03,-28.12,-60.00,67.47,-16.31,-307.55,17.66
351.00,9.00,20.27,0.00,0.33,1.50,1.00,1.00,-3.00,113.39,-28.12,-60.00,-20.91,-6.97,-1072.63,9.84
353.00,9.00,10.76,0.00,0.05,1.70,1.62,2.00,-0.06,-50.70,28.76,-60.00,-7.21,-3.23,52.05,-13.54
356.00,9.00,22.20,0.17,0.17,2.33,2.71,2.64,-0.07,19.62,65.16,31.04,16.88,8.54,48.22,14.59
360.00,10.00,10.03,0.21,0.05,1.40,1.77,,-0.40,-65.60,,-33.50,-29.34,-11.87,-165.01,-11.93
362.00,9.00,17.35,0.51,0.22,2.21,3.26,1.21,0.76,48.93,-16.18,213.13,29.03,6.30,365.73,2.66
364.00,10.00,13.01,0.25,0.25,1.33,2.25,2.00,0.25,11.99,25.53,-21.77,-15.33,-13.28,192.51,-5.07
365.00,10.00,1.93,0.00,0.00,,,,,-85.00,,-95.00,,,,-30.56
366.00,10.00,10.01,0.26,0.23,1.94,1.82,1.00,-0.04,4.23,-9.23,-18.85,-27.87,-1.02,33.00,-11.97
369.00,10.00,13.10,0.41,0.18,1.71,2.76,1.00,-0.22,-15.16,-9.23,25.08,-0.44,-5.64,-66.01,-4.87
370.00,9.00,9.59,0.00,0.00,1.00,1.33,1.00,0.00,-80.00,-28.12,-60.00,-13.61,-16.31,75.00,-16.42
372.00,9.00,15.18,0.07,0.07,1.33,1.08,1.65,0.58,-38.98,8.85,-22.51,-19.14,-10.15,296.87,-2.67
375.00,10.00,16.24,0.50,0.26,2.07,3.26,1.00,0.70,15.88,-9.23,51.44,14.16,1.59,440.02,2.36
376.00,10.00,8.46,0.17,0.00,1.50,1.80,,-1.00,-85.00,,-45.21,-28.46,-9.86,-495.03,-15.54
377.00,10.00,10.23,0.00,0.00,1.50,3.25,1.00,-0.67,-85.00,-9.23,-95.00,13.87,-9.86,-313.52,-11.47
378.00,10.00,15.35,0.29,0.26,2.33,3.08,2.50,-0.13,15.88,42.92,-10.06,8.90,6.81,-16.51,0.31
380.00,10.00,12.88,0.74,0.26,1.69,3.47,,1.00,15.88,,121.73,20.29,-6.04,605.03,-5.37
381.00,9.00,15.63,0.24,0.12,1.37,1.58,2.15,-0.23,-9.68,37.29,68.53,-8.09,-9.40,-12.98,-1.56
385.00,9.00,19.62,0.50,0.50,1.50,4.00,,1.50,213.02,,207.77,45.38,-6.97,648.82,8.25
387.00,10.00,20.31,0.41,0.45,2.02,3.22,1.00,-0.63,89.59,-9.23,25.08,12.99,0.58,-291.52,11.72
388.00,10.00,14.06,0.16,0.12,1.44,2.40,1.00,-0.63,-38.45,-9.23,-48.14,-10.94,-11.07,-291.52,-2.66
393.00,10.00,15.15,0.04,0.08,1.50,1.81,1.00,-1.15,-53.96,-9.23,-83.29,-28.16,-9.86,-577.53,-0.15
397.00,9.00,18.83,0.19,0.12,2.08,2.38,1.17,0.67,-9.68,-18.45,41.75,9.58,3.87,331.31,6.30
399.00,9.00,17.54,0.31,0.06,1.82,2.31,1.74,0.17,-44.84,13.97,106.02,8.04,-0.99,140.03,3.13
402.00,9.00,16.81,0.06,0.11,1.25,1.25,1.50,0.43,-15.54,0.32,-27.86,-15.38,-11.64,239.49,1.34
405.00,10.00,8.40,0.00,0.07,1.25,2.50,2.00,-1.25,-57.84,25.53,-95.00,-8.03,-14.88,-632.54,-15.68
406.00,10.00,15.67,0.36,0.14,2.40,3.25,1.00,0.00,-30.68,-9.23,10.44,13.87,8.22,55.00,1.04
407.00,9.00,16.18,0.25,0.08,1.80,1.78,1.00,1.27,-33.12,-28.12,73.89,-3.67,-1.36,560.83,-0.21
408.00,10.00,13.20,0.11,0.11,1.57,2.40,1.00,-1.40,-42.32,-9.23,-62.79,-10.94,-8.46,-715.04,-4.64
409.00,10.00,14.12,0.25,0.00,2.00,3.50,1.00,0.00,-85.00,-9.23,-21.77,21.17,0.18,55.00,-2.52
410.00,10.00,15.58,0.50,0.42,2.19,3.49,1.25,0.70,77.95,-0.54,51.44,20.87,4.00,440.02,0.84
412.00,9.00,13.05,0.06,0.21,1.25,1.60,1.71,-0.22,43.06,12.27,-27.86,-7.65,-11.64,-9.16,-7.91
415.00,10.00,14.61,0.23,0.26,1.46,2.38,1.30,0.22,15.88,1.20,-27.64,-11.53,-10.67,176.01,-1.39
418.00,10.00,14.74,0.25,0.08,2.38,2.45,1.00,-0.20,-53.96,-9.23,-21.77,-9.49,7.82,-55.01,-1.10
419.00,10.00,13.78,0.17,0.20,1.47,1.59,1.53,-0.03,-7.40,9.19,-45.21,-34.59,-10.46,38.50,-3.30
429.00,10.00,9.10,0.00,0.00,2.00,1.33,,-0.67,-85.00,,-95.00,-42.18,0.18,-313.52,-14.07
435.00,9.00,15.86,0.16,0.05,1.78,1.64,1.31,0.90,-50.70,-10.49,25.69,-6.76,-1.74,419.29,-1.00
438.00,9.00,10.70,0.05,0.21,1.33,1.25,1.25,-0.67,43.06,-13.90,-33.22,-15.38,-10.15,-181.31,-13.69
444.00,9.00,19.74,0.00,0.11,1.73,2.33,2.18,-0.20,-15.54,39.00,-60.00,8.48,-2.67,-1.51,8.54
445.00,10.00,18.26,0.33,0.04,2.00,3.33,1.44,-0.18,-69.48,6.06,1.65,16.20,0.18,-44.01,7.00
446.00,9.00,13.16,0.08,0.15,1.25,1.00,1.57,-0.36,7.90,4.30,-17.15,-20.91,-11.64,-62.72,-7.64
447.00,9.00,27.58,0.00,0.00,2.00,1.00,,-3.00,-80.00,,-60.00,-20.91,2.37,-1072.63,27.82
448.00,10.00,18.81,0.00,0.29,2.75,2.14,1.00,-1.86,27.51,-9.23,-95.00,-18.53,15.25,-968.06,8.27
450.00,9.00,21.77,0.00,0.18,2.29,2.33,2.00,-0.88,25.49,28.76,-60.00,8.48,7.79,-261.64,13.53
451.00,10.00,17.28,0.00,0.00,1.57,3.67,1.00,-2.50,-85.00,-9.23,-95.00,26.12,-8.46,-1320.08,4.75
452.00,9.00,13.53,0.11,0.00,1.00,1.25,1.00,0.57,-80.00,-28.12,-1.09,-15.38,-16.31,293.05,-6.73
453.00,10.00,12.31,0.27,0.36,1.80,2.62,1.00,1.43,54.67,-9.23,-15.92,-4.53,-3.84,841.54,-6.69
456.00,9.00,15.42,0.00,0.24,1.60,2.19,1.38,0.70,60.65,-6.50,-60.00,5.39,-5.10,342.78,-2.08
459.00,10.00,8.14,0.33,1.33,,1.33,,0.50,431.02,,1.65,-42.18,,330.02,-16.27
460.00,10.00,14.93,0.12,0.14,1.32,1.73,1.36,-0.06,-30.68,3.28,-59.85,-30.50,-13.48,22.00,-0.66
461.00,10.00,13.80,0.19,0.06,1.43,2.46,1.00,-0.58,-61.72,-9.23,-39.35,-9.19,-11.27,-264.02,-3.26
464.00,10.00,12.80,0.50,0.50,3.00,1.50,,2.50,109.00,,51.44,-37.22,20.28,1430.08,-5.56
465.00,10.00,2.20,0.00,0.00,,,,,-85.00,,-95.00,,,,-29.94
466.00,10.00,12.21,0.20,0.10,1.25,1.29,,-1.50,-46.20,,-36.42,-43.34,-14.88,-770.04,-6.92
467.00,10.00,16.85,0.48,0.26,2.36,2.89,1.40,-0.08,15.88,4.67,45.59,3.35,7.42,11.00,3.76
474.00,10.00,16.48,0.68,0.68,2.18,3.81,1.33,1.03,178.83,2.24,104.17,30.21,3.80,621.53,2.91
479.00,10.00,13.89,0.43,0.21,1.50,2.50,1.00,0.64,-3.52,-9.23,30.94,-8.03,-9.86,407.02,-3.05
480.00,10.00,13.85,0.12,0.12,1.62,1.90,1.00,-0.18,-38.45,-9.23,-59.85,-25.54,-7.45,-44.01,-3.14
482.00,10.00,12.87,0.07,0.14,1.29,1.50,1.33,0.15,-30.68,2.24,-74.50,-37.22,-14.08,137.51,-5.40
485.00,10.00,15.06,0.25,0.12,2.57,4.38,1.67,-0.75,-38.45,14.06,-21.77,46.85,11.64,-357.52,-0.36
486.00,9.00,8.30,0.00,0.00,,1.00,1.00,1.00,-80.00,-28.12,-60.00,-20.91,,457.54,-19.59
487.00,10.00,15.33,0.57,0.26,2.26,3.70,1.00,0.26,15.88,-9.23,71.94,27.00,5.41,198.01,0.26
492.00,10.00,16.49,0.40,0.20,3.00,3.00,,-1.20,-7.40,,22.15,6.57,20.28,-605.04,2.93
495.00,9.00,18.30,0.00,0.24,2.18,2.00,1.67,-0.24,60.65,9.99,-60.00,1.19,5.74,-16.81,5.00
496.00,9.00,20.26,0.04,0.04,2.56,1.76,1.43,-0.41,-56.56,-3.66,-38.58,-4.12,12.84,-81.84,9.82
499.00,10.00,21.73,0.49,0.22,2.43,3.77,1.14,-1.07,0.36,-4.36,48.52,29.05,8.82,-533.53,14.98
500.00,10.00,4.50,0.00,0.00,,,,-3.00,-85.00,,-95.00,,,-1595.09,-24.65
501.00,10.00,13.45,0.18,0.09,1.00,1.75,1.20,0.14,-50.08,-2.28,-42.28,-29.92,-19.91,132.01,-4.06
506.00,9.00,20.80,0.00,0.00,,1.00,,-2.00,-80.00,,-60.00,-20.91,,-690.08,11.15
508.00,10.00,13.33,0.57,0.13,1.13,3.60,1.17,0.18,-34.56,-3.32,71.94,24.08,-17.30,154.01,-4.34
519.00,9.00,19.11,0.00,0.00,1.80,1.20,1.50,-1.17,-80.00,0.32,-60.00,-16.49,-1.36,-372.58,6.99
522.00,10.00,16.64,0.34,0.47,2.00,3.21,1.55,0.31,97.35,9.89,4.58,12.70,0.18,225.51,3.28
524.00,9.00,18.51,0.03,0.06,1.76,1.70,1.74,0.46,-44.84,13.97,-43.93,-5.44,-2.11,250.97,5.52
526.00,10.00,15.46,0.71,0.14,1.55,2.58,1.14,0.35,-30.68,-4.36,112.95,-5.69,-8.86,247.51,0.56
527.00,9.00,15.61,0.05,0.14,1.56,1.79,1.67,0.39,2.05,9.99,-33.22,-3.45,-5.85,224.19,-1.62
531.00,9.00,13.62,0.41,0.19,1.54,2.65,1.00,0.39,31.34,-28.12,159.58,15.55,-6.22,224.19,-6.51
535.00,9.00,12.33,0.17,0.17,3.67,2.50,1.50,0.33,19.62,0.32,31.04,12.24,33.58,201.24,-9.68
536.00,10.00,18.82,0.40,0.60,1.75,4.20,1.00,-1.20,147.79,-9.23,22.15,41.59,-4.84,-605.04,8.29
541.00,9.00,11.55,0.00,0.00,1.33,1.33,1.00,-0.57,-80.00,-28.12,-60.00,-13.61,-10.15,-143.05,-11.60
543.00,10.00,15.16,0.63,0.26,1.20,3.50,1.56,0.07,15.88,10.23,89.52,21.17,-15.89,93.50,-0.13
544.00,9.00,16.20,0.14,0.14,1.71,2.00,1.64,-0.16,2.05,8.28,14.98,1.19,-3.04,13.79,-0.16
545.00,10.00,17.62,0.11,0.07,1.82,2.12,1.71,-1.00,-57.84,15.45,-62.79,-19.12,-3.43,-495.03,5.53
551.00,10.00,15.74,0.53,0.12,2.18,3.50,,0.40,-38.45,,60.23,21.17,3.80,275.01,1.20
556.00,9.00,23.05,0.47,0.40,2.17,3.42,1.00,-0.50,154.41,-28.12,191.71,32.56,5.55,-116.27,16.68
557.00,10.00,21.91,0.12,0.12,2.29,2.53,2.25,-0.12,-38.45,34.22,-59.85,-7.15,6.01,-11.01,15.40
561.00,10.00,13.21,0.00,0.00,,2.00,,-2.00,-85.00,,-95.00,-22.62,,-1045.06,-4.61
568.00,9.00,19.28,0.50,0.10,2.29,3.14,1.67,0.00,-21.40,9.99,207.77,26.38,7.79,75.00,7.41
570.00,10.00,14.08,0.00,0.00,1.50,1.00,1.00,-0.50,-85.00,-9.23,-95.00,-51.81,-9.86,-220.02,-2.61
571.00,9.00,17.21,0.00,0.06,1.33,1.00,1.36,-1.07,-44.84,-7.64,-60.00,-20.91,-10.15,-334.32,2.32
572.00,10.00,9.95,0.00,0.14,2.00,1.67,1.00,0.40,-30.68,-9.23,-95.00,-32.25,0.18,275.01,-12.11
577.00,9.00,17.12,0.08,0.24,1.64,1.57,1.86,0.35,60.65,20.80,-17.15,-8.31,-4.35,208.89,2.10
583.00,10.00,15.23,0.25,0.25,2.00,3.50,3.00,0.50,11.99,60.30,-21.77,21.17,0.18,330.02,0.03
585.00,10.00,17.34,0.17,0.17,1.50,2.38,1.50,-1.08,-19.04,8.15,-45.21,-11.53,-9.86,-539.03,4.89
587.00,9.00,13.76,0.00,0.00,1.00,2.00,1.33,0.25,-80.00,-9.35,-60.00,1.19,-16.31,170.63,-6.16
589.00,9.00,17.41,0.28,0.26,2.44,2.50,1.44,1.19,72.37,-3.09,89.95,12.24,10.60,530.23,2.81
590.00,9.00,21.78,0.40,0.00,1.62,1.71,2.44,0.10,-80.00,53.79,154.22,-5.22,-4.73,113.26,13.56
592.00,9.00,17.63,0.00,0.11,2.12,1.44,1.57,0.35,-15.54,4.30,-60.00,-11.18,4.62,208.89,3.35
593.00,9.00,19.55,0.06,0.17,1.50,1.20,1.33,0.93,19.62,-9.35,-27.86,-16.49,-6.97,430.76,8.08
594.00,10.00,15.54,0.40,0.00,2.25,2.33,1.00,-2.00,-85.00,-9.23,22.15,-12.99,5.20,-1045.06,0.75
595.00,10.00,9.72,0.00,0.17,2.00,1.00,1.00,-0.67,-19.04,-9.23,-95.00,-51.81,0.18,-313.52,-12.64
597.00,10.00,14.46,0.20,0.10,1.67,2.00,2.00,0.25,-46.20,25.53,-36.42,-22.62,-6.45,192.51,-1.74
610.00,10.00,12.61,0.17,0.42,2.44,3.36,1.25,0.00,77.95,-0.54,-45.21,17.07,9.02,55.00,-6.00
614.00,10.00,22.20,1.00,0.00,4.00,3.00,,1.00,-85.00,,197.88,6.57,40.36,605.03,16.06
616.00,9.00,9.78,0.00,0.25,,1.50,1.00,-2.00,66.50,-28.12,-60.00,-9.86,,-690.08,-15.95
618.00,9.00,20.88,0.21,0.24,2.05,2.61,2.00,-0.81,60.65,28.76,52.46,14.67,3.31,-234.86,11.34
619.00,9.00,22.13,0.03,0.21,1.55,1.47,1.58,-0.19,43.06,4.87,-43.93,-10.52,-6.03,2.32,14.42
628.00,9.00,17.27,0.26,0.26,1.83,2.04,1.40,-0.36,72.37,-5.37,79.24,2.07,-0.80,-62.72,2.47
633.00,9.00,18.99,0.00,0.09,1.38,2.33,1.50,-1.38,-27.26,0.32,-60.00,8.48,-9.21,-452.91,6.70
636.00,9.00,14.62,0.08,0.08,1.80,1.20,2.00,0.08,-33.12,28.76,-17.15,-16.49,-1.36,105.60,-4.05
646.00,10.00,15.75,0.42,0.33,3.44,3.67,1.00,0.81,43.04,-9.23,28.02,26.12,29.12,500.52,1.23
647.00,9.00,23.42,0.14,0.14,2.00,2.10,1.14,1.07,2.05,-20.15,14.98,3.40,2.37,484.32,17.59
648.00,10.00,14.75,0.64,0.32,2.06,3.94,1.50,0.36,39.16,8.15,92.44,34.00,1.39,253.01,-1.07
650.00,10.00,13.12,0.22,0.09,1.95,2.16,1.67,-0.64,-50.08,14.06,-30.56,-17.95,-0.82,-297.02,-4.82
651.00,10.00,19.53,0.37,0.42,1.60,3.36,1.00,-0.19,77.95,-9.23,13.37,17.07,-7.85,-49.51,9.92
652.00,10.00,19.99,0.29,0.29,2.00,3.50,1.25,-0.31,27.51,-0.54,-10.06,21.17,0.18,-115.51,10.98
654.00,10.00,19.49,0.46,0.35,2.00,2.39,1.00,-1.14,50.80,-9.23,39.73,-11.23,0.18,-572.03,9.83
655.00,9.00,18.28,0.02,0.11,1.55,1.41,1.96,0.07,-15.54,26.49,-49.29,-11.85,-6.03,101.77,4.95
657.00,10.00,14.11,0.18,0.30,2.14,2.60,1.20,-0.54,31.40,-2.28,-42.28,-5.11,3.00,-242.02,-2.54
662.00,10.00,10.89,0.06,0.12,1.00,1.24,1.17,-0.15,-38.45,-3.32,-77.42,-44.81,-19.91,-27.51,-9.95
670.00,9.00,19.23,0.00,0.00,1.00,2.00,1.57,-0.30,-80.00,4.30,-60.00,1.19,-16.31,-39.77,7.29
671.00,10.00,21.50,0.87,0.54,3.04,4.88,1.17,0.38,124.52,-3.32,159.81,61.45,21.08,264.01,14.45
672.00,9.00,15.43,0.14,0.24,2.00,2.60,1.20,0.19,60.65,-16.74,14.98,14.45,2.37,147.68,-2.06
675.00,10.00,18.13,0.22,0.37,1.70,2.40,1.33,0.56,58.56,2.24,-30.56,-10.94,-5.84,363.02,6.70
676.00,9.00,16.82,0.00,0.25,1.40,1.57,1.40,1.00,66.50,-5.37,-60.00,-8.31,-8.84,457.54,1.36
678.00,10.00,13.50,0.06,0.06,1.91,1.50,1.00,0.15,-61.72,-9.23,-77.42,-37.22,-1.62,137.51,-3.95
680.00,10.00,19.23,0.67,0.62,2.24,4.16,1.00,0.38,155.55,-9.23,101.23,40.43,5.00,264.01,9.23
681.00,9.00,22.46,0.00,0.08,1.53,1.71,1.50,-0.62,-33.12,0.32,-60.00,-5.22,-6.41,-162.18,15.23
682.00,10.00,9.96,0.00,0.10,1.33,1.33,1.00,0.00,-46.20,-9.23,-95.00,-42.18,-13.28,55.00,-12.09
684.00,10.00,11.52,0.25,0.28,1.39,1.79,1.00,0.05,23.64,-9.23,-21.77,-28.76,-12.07,82.50,-8.50
685.00,9.00,16.64,0.09,0.07,2.00,1.63,1.20,0.11,-38.98,-16.74,-11.80,-6.99,2.37,117.08,0.92
686.00,10.00,16.69,0.33,0.29,1.84,2.77,1.08,0.29,27.51,-6.45,1.65,-0.15,-3.03,214.51,3.39
687.00,10.00,11.16,0.20,0.00,1.40,1.67,,-0.57,-85.00,,-36.42,-32.25,-11.87,-258.52,-9.33
688.00,10.00,19.56,0.12,0.25,1.83,2.67,1.00,0.00,11.99,-9.23,-59.85,-3.06,-3.23,55.00,9.99
689.00,10.00,11.59,0.25,0.28,1.57,2.38,1.00,0.29,23.64,-9.23,-21.77,-11.53,-8.46,214.51,-8.34
691.00,10.00,7.54,0.00,0.00,,1.67,,-1.67,-85.00,,-95.00,-32.25,,-863.55,-17.66
692.00,10.00,12.16,0.17,0.09,1.00,1.93,1.25,0.28,-50.08,-0.54,-45.21,-24.66,-19.91,209.01,-7.03
693.00,9.00,12.80,0.03,0.03,1.35,1.25,1.25,0.09,-62.42,-13.90,-43.93,-15.38,-9.77,109.43,-8.52
694.00,9.00,11.56,0.00,0.00,1.50,1.33,1.00,0.75,-80.00,-28.12,-60.00,-13.61,-6.97,361.91,-11.57
696.00,9.00,18.50,0.11,0.26,2.38,2.52,1.50,0.28,72.37,0.32,-1.09,12.68,9.47,182.12,5.49
697.00,9.00,19.99,0.22,0.24,2.05,2.56,1.39,0.57,60.65,-5.93,57.82,13.56,3.31,293.05,9.16
698.00,9.00,18.76,0.00,0.33,1.00,1.00,1.33,-1.33,113.39,-9.35,-60.00,-20.91,-16.31,-433.78,6.13
699.00,9.00,18.73,0.14,0.09,3.06,3.47,1.31,0.32,-27.26,-10.49,14.98,33.67,22.18,197.42,6.06
700.00,10.00,15.72,0.70,0.70,2.63,4.50,1.25,1.10,186.59,-0.54,110.02,50.35,12.84,660.03,1.16
701.00,10.00,16.05,0.88,0.25,3.00,3.43,1.00,0.71,11.99,-9.23,162.74,19.12,20.28,445.52,1.92
704.00,10.00,18.78,0.50,0.50,1.50,1.40,2.00,-0.60,109.00,25.53,51.44,-40.14,-9.86,-275.02,8.20
712.00,9.00,22.21,0.07,0.40,1.96,1.77,1.76,0.25,154.41,15.10,-22.51,-3.89,1.63,170.63,14.62
715.00,10.00,13.44,0.08,0.46,1.33,2.00,1.00,0.91,93.47,-9.23,-71.57,-22.62,-13.28,555.53,-4.08
717.00,10.00,20.73,0.00,0.00,4.00,4.00,,,-85.00,,-95.00,35.75,40.36,,12.68
720.00,10.00,17.34,0.40,0.20,1.50,2.25,1.00,0.00,-7.40,-9.23,22.15,-15.33,-9.86,55.00,4.89
724.00,10.00,18.60,0.25,0.62,3.00,4.25,,1.62,155.55,,-21.77,43.05,20.28,946.05,7.78
725.00,10.00,13.69,0.33,0.05,1.67,2.22,1.00,-0.31,-65.60,-9.23,1.65,-16.20,-6.45,-115.51,-3.51
727.00,10.00,14.50,0.46,0.36,1.92,3.00,1.67,0.62,54.67,14.06,39.73,6.57,-1.42,396.02,-1.65
729.00,9.00,14.18,0.12,0.19,1.86,2.36,1.00,-0.36,31.34,-28.12,4.27,9.14,-0.24,-62.72,-5.13
730.00,9.00,16.34,0.08,0.08,1.47,1.71,1.00,-0.79,-33.12,-28.12,-17.15,-5.22,-7.53,-227.21,0.18
731.00,9.00,13.42,0.00,0.00,1.00,1.00,2.00,-0.33,-80.00,28.76,-60.00,-20.91,-16.31,-51.24,-7.00
733.00,10.00,16.59,0.57,0.26,2.22,3.44,1.42,0.47,15.88,5.37,71.94,19.41,4.60,313.52,3.16
734.00,10.00,15.11,0.43,0.29,2.37,3.90,1.00,-0.06,27.51,-9.23,30.94,32.84,7.62,22.00,-0.24
738.00,9.00,13.76,0.07,0.00,1.57,1.62,1.00,-0.80,-80.00,-28.12,-22.51,-7.21,-5.66,-231.04,-6.16
741.00,9.00,14.19,0.25,0.00,2.00,1.67,1.00,-1.50,-80.00,-28.12,73.89,-6.10,2.37,-498.82,-5.11
742.00,10.00,12.88,0.50,0.50,1.00,1.00,,-1.00,109.00,,51.44,-51.81,-19.91,-495.03,-5.37
746.00,10.00,18.29,0.52,0.28,2.13,3.48,1.43,0.14,23.64,5.72,57.30,20.58,2.80,132.01,7.07
747.00,10.00,13.00,0.33,0.00,1.00,1.80,,-0.50,-85.00,,1.65,-28.46,-19.91,-220.02,-5.10
748.00,9.00,16.96,0.15,0.30,2.26,2.94,1.78,0.47,95.81,16.24,20.33,21.96,7.23,254.80,1.70
749.00,10.00,15.10,0.94,0.31,2.05,3.80,1.00,0.00,35.27,-9.23,180.32,29.92,1.19,55.00,-0.27
751.00,10.00,15.91,0.14,0.00,3.00,2.50,1.00,-0.67,-85.00,-9.23,-54.00,-8.03,20.28,-313.52,1.60
755.00,10.00,19.16,0.21,0.24,1.66,2.30,1.35,0.45,8.12,2.93,-33.50,-13.87,-6.65,302.51,9.07
756.00,9.00,16.70,0.12,0.12,2.00,1.71,1.00,1.43,-9.68,-28.12,4.27,-5.22,2.37,622.03,1.07
759.00,9.00,19.56,1.00,0.59,3.53,6.26,1.44,0.62,265.76,-3.09,475.55,95.31,30.96,312.18,8.10
763.00,10.00,13.53,0.30,0.33,1.86,3.10,1.33,0.55,43.04,2.24,-7.13,9.49,-2.63,357.52,-3.88
764.00,10.00,18.12,1.00,0.40,1.50,4.00,,0.20,70.19,,197.88,35.75,-9.86,165.01,6.68
765.00,9.00,18.53,0.24,0.14,2.11,2.97,1.37,0.12,2.05,-7.07,68.53,22.62,4.43,120.91,5.57
766.00,9.00,15.11,0.25,0.75,2.67,2.33,1.33,-1.00,359.52,-9.35,73.89,8.48,14.90,-307.55,-2.84
767.00,10.00,11.47,0.44,0.28,1.36,1.80,1.00,0.38,23.64,-9.23,33.87,-28.46,-12.68,264.01,-8.62
768.00,10.00,16.50,1.00,0.33,4.75,7.25,1.00,1.12,43.04,-9.23,197.88,130.62,55.44,671.03,2.95
769.00,9.00,8.99,0.18,0.00,1.25,1.40,1.25,0.11,-80.00,-13.90,36.40,-12.07,-11.64,117.08,-17.89
772.00,9.00,25.41,0.00,0.12,2.50,3.29,1.43,-0.29,-9.68,-3.66,-60.00,29.69,11.72,-35.94,22.48
774.00,10.00,13.02,0.14,0.14,1.62,1.82,1.00,-1.00,-30.68,-9.23,-54.00,-27.87,-7.45,-495.03,-5.05
785.00,10.00,16.34,0.11,0.36,1.58,2.79,1.62,-0.14,54.67,12.32,-62.79,0.44,-8.26,-22.01,2.59
801.00,10.00,14.52,0.67,0.00,2.00,2.33,1.00,2.00,-85.00,-9.23,101.23,-12.99,0.18,1155.06,-1.60
805.00,10.00,11.04,0.00,0.06,1.33,1.79,1.00,-0.83,-61.72,-9.23,-95.00,-28.76,-13.28,-401.53,-9.60
806.00,10.00,23.90,1.00,0.63,3.43,5.64,1.57,0.76,159.43,10.58,197.88,83.62,28.91,473.02,19.97
807.00,10.00,16.19,0.24,0.05,2.00,2.28,1.50,-1.62,-65.60,8.15,-24.71,-14.45,0.18,-836.05,2.24
812.00,9.00,14.50,0.00,0.00,1.00,1.00,1.25,0.33,-80.00,-13.90,-60.00,-20.91,-16.31,201.24,-4.34
813.00,10.00,15.42,0.32,0.68,2.00,3.03,1.20,0.48,178.83,-2.28,-1.27,7.44,0.18,319.02,0.47
814.00,10.00,9.12,0.00,0.09,1.44,1.91,1.00,-0.81,-50.08,-9.23,-95.00,-25.25,-11.07,-390.52,-14.02
815.00,9.00,13.92,0.17,0.17,2.64,2.47,1.36,0.59,19.62,-7.64,31.04,11.58,14.33,300.70,-5.77
822.00,10.00,13.70,1.00,0.00,1.00,1.00,,0.00,-85.00,,197.88,-51.81,-19.91,55.00,-3.49
824.00,9.00,12.28,0.04,0.04,1.75,1.36,1.50,0.33,-56.56,0.32,-38.58,-12.95,-2.30,201.24,-9.80
825.00,10.00,23.66,1.26,0.80,4.19,6.65,1.17,0.34,225.39,-3.32,274.04,113.11,44.18,242.01,19.42
830.00,10.00,18.40,0.47,0.53,2.50,4.48,1.12,0.09,120.63,-5.06,42.65,49.77,10.23,104.50,7.33
832.00,10.00,13.01,0.16,0.18,1.30,2.00,1.50,-0.26,-15.16,8.15,-48.14,-22.62,-13.88,-88.01,-5.07
837.00,9.00,8.75,0.07,0.07,1.20,2.25,1.50,-0.67,-38.98,0.32,-22.51,6.71,-12.58,-181.31,-18.48
840.00,10.00,15.73,0.06,0.25,2.38,2.18,,-0.64,11.99,,-77.42,-17.37,7.82,-297.02,1.18
841.00,9.00,15.68,0.15,0.25,1.82,2.35,1.33,0.35,66.50,-9.35,20.33,8.92,-0.99,208.89,-1.44
842.00,10.00,14.53,0.29,0.29,1.38,2.76,1.17,-0.43,27.51,-3.32,-10.06,-0.44,-12.27,-181.51,-1.58
850.00,10.00,15.58,0.45,0.23,1.94,3.33,2.00,0.24,4.23,25.53,36.80,16.20,-1.02,187.01,0.84
851.00,10.00,25.69,0.50,0.50,2.00,5.00,,-1.00,109.00,,51.44,64.95,0.18,-495.03,24.09
853.00,10.00,14.51,0.13,0.39,2.33,2.28,1.20,0.11,66.32,-2.28,-56.92,-14.45,6.81,115.51,-1.62
854.00,9.00,17.72,0.21,0.14,2.71,2.68,1.43,-0.58,2.05,-3.66,52.46,16.22,15.64,-146.87,3.58
855.00,10.00,14.86,0.48,0.29,1.57,3.00,1.00,0.87,27.51,-9.23,45.59,6.57,-8.46,533.53,-0.82
858.00,10.00,13.15,0.28,0.22,1.55,2.21,1.25,0.85,0.36,-0.54,-12.99,-16.49,-8.86,522.53,-4.75
859.00,10.00,16.26,0.43,0.14,1.80,4.29,,0.75,-30.68,,30.94,44.22,-3.84,467.52,2.40
860.00,9.00,14.22,0.11,0.00,2.00,1.50,1.00,-0.14,-80.00,-28.12,-1.09,-9.86,2.37,21.44,-5.03
863.00,10.00,18.17,0.18,0.18,2.54,2.21,1.80,-0.93,-15.16,18.58,-42.28,-16.49,11.03,-456.53,6.79
864.00,9.00,13.45,1.00,0.00,2.00,1.00,1.00,1.00,-80.00,-28.12,475.55,-20.91,2.37,457.54,-6.92
876.00,10.00,13.03,0.35,0.12,1.94,2.53,1.33,0.09,-38.45,2.24,7.51,-7.15,-1.02,104.50,-5.03
879.00,9.00,19.82,0.07,0.09,1.88,1.85,1.75,-0.44,-27.26,14.54,-22.51,-2.12,0.13,-93.32,8.74
883.00,10.00,20.29,0.57,0.79,2.20,4.75,1.20,0.84,221.51,-2.28,71.94,57.65,4.20,517.03,11.67
886.00,10.00,16.33,0.09,0.00,1.77,2.41,1.38,-1.06,-85.00,3.98,-68.64,-10.65,-4.44,-528.03,2.56
892.00,10.00,16.69,0.68,1.05,2.72,3.21,1.00,1.21,322.39,-9.23,104.17,12.70,14.65,720.54,3.39
896.00,9.00,17.56,0.00,0.20,2.00,2.00,2.00,0.25,37.21,28.76,-60.00,1.19,2.37,170.63,3.18
898.00,10.00,15.48,1.00,0.00,1.00,4.00,,-1.00,-85.00,,197.88,35.75,-19.91,-495.03,0.61
910.00,9.00,14.93,0.08,0.08,1.75,1.77,1.52,0.08,-33.12,1.45,-17.15,-3.89,-2.30,105.60,-3.29
911.00,10.00,12.28,0.10,0.10,1.17,1.78,1.00,-0.33,-46.20,-9.23,-65.71,-29.05,-16.49,-126.51,-6.75
913.00,9.00,19.57,0.00,0.00,,,,0.00,-80.00,,-60.00,,,75.00,8.12
913.00,10.00,25.68,0.33,0.33,1.00,1.67,3.00,-1.00,43.04,60.30,1.65,-32.25,-19.91,-495.03,24.07
917.00,9.00,14.55,0.25,0.19,1.80,2.08,1.20,0.14,31.34,-16.74,73.89,2.96,-1.36,128.56,-4.22
919.00,9.00,15.79,0.09,0.18,1.75,2.36,1.09,0.42,25.49,-23.00,-11.80,9.14,-2.30,235.67,-1.17
921.00,10.00,14.69,0.23,0.60,2.00,2.89,1.00,0.40,147.79,-9.23,-27.64,3.35,0.18,275.01,-1.21
922.00,10.00,10.94,0.29,0.00,1.00,1.33,1.67,-0.20,-85.00,14.06,-10.06,-42.18,-19.91,-55.01,-9.83
923.00,10.00,17.62,1.00,0.00,2.00,2.00,,0.00,-85.00,,197.88,-22.62,0.18,55.00,5.53
924.00,10.00,19.75,1.00,1.00,2.00,7.00,,0.00,302.98,,197.88,123.32,0.18,55.00,10.43
925.00,10.00,10.56,0.00,0.00,2.00,1.50,1.00,-2.00,-85.00,-9.23,-95.00,-37.22,0.18,-1045.06,-10.71
926.00,10.00,,0.00,0.00,,,,,-85.00,,-95.00,,,,
928.00,10.00,11.10,0.00,0.00,1.00,1.50,,0.50,-85.00,,-95.00,-37.22,-19.91,330.02,-9.47
929.00,10.00,12.46,0.33,0.33,1.33,2.00,1.00,-0.67,43.04,-9.23,1.65,-22.62,-13.28,-313.52,-6.34
934.00,10.00,17.98,0.42,0.17,1.88,2.84,1.52,-0.20,-19.04,8.84,28.02,1.90,-2.23,-55.01,6.36
937.00,10.00,11.61,0.67,0.00,1.00,1.67,,0.50,-85.00,,101.23,-32.25,-19.91,330.02,-8.29
939.00,10.00,14.80,0.00,0.00,1.00,2.25,1.00,-2.00,-85.00,-9.23,-95.00,-15.33,-19.91,-1045.06,-0.96
940.00,9.00,20.55,0.00,0.20,3.25,3.00,1.00,-1.50,37.21,-28.12,-60.00,23.28,25.73,-498.82,10.53
942.00,9.00,21.73,0.67,0.33,5.33,4.33,,-1.67,113.39,,298.82,52.67,64.60,-563.85,13.44
946.00,9.00,18.61,0.00,0.11,1.25,1.40,1.33,-1.75,-15.54,-9.35,-60.00,-12.07,-11.64,-594.45,5.76
948.00,10.00,10.17,0.10,0.15,2.00,1.43,1.00,-1.00,-26.80,-9.23,-65.71,-39.26,0.18,-495.03,-11.61
949.00,10.00,14.90,0.47,0.07,2.83,3.20,1.00,-0.17,-57.84,-9.23,42.65,12.41,16.86,-38.51,-0.73
950.00,10.00,10.19,0.20,0.10,1.40,1.80,1.00,0.71,-46.20,-9.23,-36.42,-28.46,-11.87,445.52,-11.56
951.00,10.00,14.84,0.39,0.32,2.50,3.78,1.20,-0.09,39.16,-2.28,19.23,29.34,10.23,5.50,-0.86
952.00,10.00,17.34,0.00,0.00,2.00,2.00,4.00,0.00,-85.00,95.07,-95.00,-22.62,0.18,55.00,4.89
953.00,10.00,14.63,0.64,0.45,2.00,3.64,1.00,1.00,89.59,-9.23,92.44,25.25,0.18,605.03,-1.35
960.00,9.00,16.23,0.11,0.07,1.88,1.62,1.25,0.52,-38.98,-13.90,-1.09,-7.21,0.13,273.92,-0.09
962.00,9.00,17.47,0.03,0.11,1.79,2.00,1.70,0.26,-15.54,11.70,-43.93,1.19,-1.55,174.46,2.96
963.00,9.00,16.34,0.00,0.05,2.77,1.86,1.55,0.47,-50.70,3.16,-60.00,-1.90,16.76,254.80,0.18
964.00,9.00,16.25,0.00,0.44,1.57,2.00,1.00,1.44,177.86,-28.12,-60.00,1.19,-5.66,625.86,-0.04
967.00,10.00,14.05,0.25,1.25,2.00,2.67,,2.33,399.98,,-21.77,-3.06,0.18,1336.57,-2.68
971.00,10.00,16.90,0.19,0.33,1.53,2.06,1.33,1.17,43.04,2.24,-39.35,-20.87,-9.26,698.53,3.87
973.00,9.00,23.82,0.00,0.75,1.00,1.00,1.33,1.75,359.52,-9.35,-60.00,-20.91,-16.31,744.45,18.58
976.00,9.00,16.14,0.19,0.19,1.47,2.15,1.61,0.65,31.34,6.58,41.75,4.50,-7.53,323.66,-0.31
977.00,9.00,19.62,0.22,0.25,2.00,2.25,1.17,-0.48,66.50,-18.45,57.82,6.71,2.37,-108.62,8.25
981.00,9.00,19.40,0.05,0.21,1.87,2.24,2.18,0.41,43.06,39.00,-33.22,6.49,-0.06,231.84,7.70
982.00,10.00,18.35,0.56,0.49,2.87,3.28,1.00,0.47,105.11,-9.23,69.02,14.74,17.66,313.52,7.21
985.00,10.00,17.57,0.41,0.35,2.41,4.88,1.20,0.12,50.80,-2.28,25.08,61.45,8.42,121.01,5.41
986.00,9.00,20.03,0.31,0.31,2.10,2.36,1.25,1.45,101.67,-13.90,106.02,9.14,4.24,629.69,9.26
988.00,10.00,16.75,0.64,0.71,2.11,3.61,1.00,0.62,190.47,-9.23,92.44,24.37,2.39,396.02,3.53
990.00,10.00,17.90,0.10,0.24,2.44,2.29,1.40,0.29,8.12,4.67,-65.71,-14.16,9.02,214.51,6.17
994.00,10.00,18.80,1.00,0.50,1.00,3.50,1.00,-2.50,109.00,-9.23,197.88,21.17,-19.91,-1320.08,8.24
1000.00,9.00,23.49,0.00,0.20,2.09,1.86,1.29,-1.47,37.21,-11.63,-60.00,-1.90,4.06,-487.33,17.76
1001.00,9.00,16.16,0.00,0.15,1.20,1.67,1.43,-0.28,7.90,-3.66,-60.00,-6.10,-12.58,-32.12,-0.26
1004.00,10.00,12.68,0.06,0.06,1.20,1.70,1.20,-0.64,-61.72,-2.28,-77.42,-31.38,-15.89,-297.02,-5.83
1006.00,10.00,15.12,0.17,0.06,1.60,2.07,1.57,-1.27,-61.72,10.58,-45.21,-20.58,-7.85,-643.54,-0.22
1007.00,10.00,,0.00,0.00,,,,,-85.00,,-95.00,,,,
1008.00,9.00,20.29,0.00,0.17,1.80,2.00,1.67,0.40,19.62,9.99,-60.00,1.19,-1.36,228.01,9.90
1010.00,9.00,2.27,0.00,0.00,,1.00,,0.00,-80.00,,-60.00,-20.91,,75.00,-34.42
1013.00,10.00,15.31,0.15,0.32,1.33,1.91,1.25,-0.20,39.16,-0.54,-51.06,-25.25,-13.28,-55.01,0.22
1014.00,9.00,10.56,0.00,0.00,1.56,2.33,,-1.09,-80.00,,-60.00,8.48,-5.85,-341.97,-14.03
1015.00,10.00,7.70,0.00,0.00,,1.00,,-1.00,-85.00,,-95.00,-51.81,,-495.03,-17.29
1016.00,10.00,14.18,0.29,0.46,1.89,4.28,1.00,0.90,93.47,-9.23,-10.06,43.93,-2.03,550.03,-2.38
1017.00,9.00,23.55,0.06,0.06,1.47,1.73,2.50,-1.27,-44.84,57.20,-27.86,-4.78,-7.53,-410.83,17.91
1018.00,9.00,9.51,0.08,0.00,1.25,1.33,1.00,-0.56,-80.00,-28.12,-17.15,-13.61,-11.64,-139.22,-16.62
1021.00,10.00,8.84,0.00,0.00,2.67,2.20,1.00,-1.17,-85.00,-9.23,-95.00,-16.78,13.64,-588.53,-14.66
1024.00,10.00,5.31,0.00,0.00,,1.00,,-1.00,-85.00,,-95.00,-51.81,,-495.03,-22.78
1026.00,10.00,13.08,1.00,0.00,1.50,3.00,,0.00,-85.00,,197.88,6.57,-9.86,55.00,-4.91
1027.00,10.00,12.55,0.17,0.00,1.88,2.00,1.00,-0.44,-85.00,-9.23,-45.21,-22.62,-2.23,-187.01,-6.13
1033.00,10.00,14.18,0.14,0.06,1.89,2.45,1.60,-0.72,-61.72,11.62,-54.00,-9.49,-2.03,-341.02,-2.38
1034.00,10.00,9.53,0.00,0.00,,,,,-85.00,,-95.00,,,,-13.08
1036.00,9.00,8.27,0.00,0.06,1.29,1.00,1.00,-0.40,-44.84,-28.12,-60.00,-20.91,-10.89,-78.02,-19.66
1038.00,9.00,24.83,0.00,0.00,2.00,1.00,1.67,-3.67,-80.00,9.99,-60.00,-20.91,2.37,-1328.93,21.06
1039.00,10.00,17.83,0.17,0.11,1.64,1.40,1.83,-0.59,-42.32,19.62,-45.21,-40.14,-7.05,-269.52,6.01
1040.00,9.00,13.51,0.00,0.00,9.00,10.00,6.00,-2.50,-80.00,256.27,-60.00,177.95,133.19,-881.36,-6.78
1043.00,10.00,16.93,0.00,0.00,3.20,3.00,6.00,-0.20,-85.00,164.60,-95.00,6.57,24.29,-55.01,3.94
1049.00,9.00,13.84,0.00,0.00,1.83,1.00,1.00,-0.44,-80.00,-28.12,-60.00,-20.91,-0.80,-93.32,-5.97
1054.00,9.00,10.00,0.00,0.00,,,1.00,-1.00,-80.00,-28.12,-60.00,,,-307.55,-15.41
1058.00,10.00,14.69,0.14,0.19,1.30,2.03,1.00,-0.09,-11.28,-9.23,-54.00,-21.75,-13.88,5.50,-1.21
1059.00,10.00,20.97,0.25,0.25,2.00,2.00,2.50,-0.50,11.99,42.92,-21.77,-22.62,0.18,-220.02,13.24
1066.00,10.00,16.42,0.07,0.14,1.43,2.10,,-1.46,-30.68,,-74.50,-19.70,-11.27,-748.04,2.77
1076.00,9.00,15.44,0.00,0.25,4.00,4.00,2.00,0.33,66.50,28.76,-60.00,45.38,39.75,201.24,-2.03
1082.00,9.00,7.45,0.00,0.06,1.25,1.00,1.00,0.00,-44.84,-28.12,-60.00,-20.91,-11.64,75.00,-21.68
1085.00,10.00,11.23,0.00,0.00,1.33,1.67,1.00,-0.40,-85.00,-9.23,-95.00,-32.25,-13.28,-165.01,-9.17
1086.00,9.00,10.59,0.00,0.00,,1.00,1.00,0.00,-80.00,-28.12,-60.00,-20.91,,75.00,-13.96
1087.00,9.00,6.85,0.00,0.00,1.00,1.00,1.00,-0.71,-80.00,-28.12,-60.00,-20.91,-16.31,-196.60,-23.16
1090.00,10.00,10.28,0.08,0.12,2.38,3.12,1.00,-0.73,-38.45,-9.23,-71.57,10.07,7.82,-346.52,-11.35
1093.00,9.00,10.23,0.02,0.00,1.43,1.36,1.59,0.14,-80.00,5.44,-49.29,-12.95,-8.28,128.56,-14.84
1095.00,10.00,13.21,0.00,0.00,1.00,1.00,2.00,0.67,-85.00,25.53,-95.00,-51.81,-19.91,423.52,-4.61
1100.00,9.00,21.56,0.00,0.14,2.00,1.62,1.36,0.22,2.05,-7.64,-60.00,-7.21,2.37,159.16,13.02
1101.00,10.00,13.92,0.34,0.31,1.84,4.24,1.00,0.52,35.27,-9.23,4.58,42.76,-3.03,341.02,-2.98
1102.00,10.00,14.59,0.16,0.10,1.85,2.25,1.18,-1.04,-46.20,-2.97,-48.14,-15.33,-2.83,-517.03,-1.44
1104.00,10.00,7.98,0.00,0.00,,1.00,1.00,-1.00,-85.00,-9.23,-95.00,-51.81,,-495.03,-16.64
1105.00,9.00,11.82,0.00,0.16,1.60,1.42,1.11,0.21,13.77,-21.86,-60.00,-11.63,-5.10,155.33,-10.94
1108.00,10.00,10.85,0.42,0.08,1.20,2.40,,0.50,-53.96,,28.02,-10.94,-15.89,330.02,-10.04
1109.00,10.00,15.87,0.00,0.00,1.00,2.00,1.00,-1.40,-85.00,-9.23,-95.00,-22.62,-19.91,-715.04,1.50
1112.00,10.00,8.38,0.00,1.00,2.00,2.50,,-1.67,302.98,,-95.00,-8.03,0.18,-863.55,-15.73
1116.00,10.00,19.80,0.88,0.55,3.25,5.76,1.22,0.69,128.39,-1.58,162.74,87.13,25.30,434.52,10.55
1118.00,10.00,13.95,0.27,0.27,1.57,2.88,1.00,1.10,19.75,-9.23,-15.92,3.06,-8.46,660.03,-2.91
1119.00,9.00,21.80,0.13,0.16,1.32,1.96,1.20,-0.43,13.77,-16.74,9.62,0.31,-10.33,-89.49,13.61
1121.00,10.00,19.81,0.40,0.53,1.86,3.22,1.00,0.55,120.63,-9.23,22.15,12.99,-2.63,357.52,10.57
1122.00,10.00,12.19,0.17,0.07,1.57,1.96,1.22,-0.19,-57.84,-1.58,-45.21,-23.79,-8.46,-49.51,-6.96
1128.00,9.00,13.61,0.00,0.00,1.27,1.45,1.20,0.11,-80.00,-16.74,-60.00,-10.96,-11.27,117.08,-6.53
1129.00,9.00,6.57,0.00,0.00,1.00,,1.40,-0.89,-80.00,-5.37,-60.00,,-16.31,-265.46,-23.84
1132.00,9.00,7.18,0.00,0.00,1.60,2.00,1.00,-0.88,-80.00,-28.12,-60.00,1.19,-5.10,-261.64,-22.34
1133.00,9.00,18.03,0.18,0.18,2.90,3.05,1.44,0.83,25.49,-3.09,36.40,24.39,19.19,392.51,4.34
1135.00,9.00,20.69,0.20,0.00,2.00,1.00,1.00,1.20,-80.00,-28.12,47.11,-20.91,2.37,534.05,10.88
1136.00,9.00,13.00,0.04,0.17,2.10,1.47,1.29,-0.20,19.62,-11.63,-38.58,-10.52,4.24,-1.51,-8.03
1137.00,10.00,15.93,0.11,0.22,1.67,2.40,1.33,0.17,0.36,2.24,-62.79,-10.94,-6.45,148.51,1.64
1139.00,10.00,12.85,0.50,0.50,2.00,2.00,,0.00,109.00,,51.44,-22.62,0.18,55.00,-5.44
1140.00,10.00,19.24,0.50,0.00,4.00,5.00,1.67,-0.25,-85.00,14.06,51.44,64.95,40.36,-82.51,9.26
1143.00,9.00,14.75,0.25,0.00,1.50,1.50,2.00,-0.20,-80.00,28.76,73.89,-9.86,-6.97,-1.51,-3.73
1144.00,10.00,15.58,0.45,0.23,1.48,2.69,1.23,0.56,4.23,-1.24,36.80,-2.48,-10.26,363.02,0.84
1145.00,10.00,14.65,1.00,0.00,2.00,2.00,,0.00,-85.00,,197.88,-22.62,0.18,55.00,-1.30
1146.00,10.00,17.70,0.14,0.30,2.00,2.59,1.30,0.20,31.40,1.20,-54.00,-5.40,0.18,165.01,5.72
1148.00,10.00,13.70,0.50,0.41,1.77,2.82,1.00,0.03,74.08,-9.23,51.44,1.31,-4.44,71.50,-3.49
1157.00,9.00,17.41,0.23,0.18,2.24,2.29,2.00,0.45,25.49,28.76,63.18,7.60,6.86,247.15,2.81
1159.00,9.00,20.17,0.00,0.10,1.43,1.00,1.86,-1.00,-21.40,20.80,-60.00,-20.91,-8.28,-307.55,9.60
1162.00,10.00,17.71,0.00,0.00,2.00,2.00,1.00,-0.57,-85.00,-9.23,-95.00,-22.62,0.18,-258.52,5.74
1165.00,9.00,14.98,0.10,0.13,1.62,2.86,1.33,0.26,-3.82,-9.35,-6.44,20.19,-4.73,174.46,-3.16
1177.00,9.00,14.17,0.06,0.06,1.17,1.00,1.75,-0.40,-44.84,14.54,-27.86,-20.91,-13.14,-78.02,-5.16
1180.00,10.00,6.90,0.00,0.00,,1.00,1.00,-1.50,-85.00,-9.23,-95.00,-51.81,,-770.04,-19.13
1186.00,10.00,15.37,0.00,0.00,1.00,1.50,1.00,-2.46,-85.00,-9.23,-95.00,-37.22,-19.91,-1298.07,0.35
1187.00,10.00,15.31,0.33,0.22,1.67,2.47,1.00,0.27,0.36,-9.23,1.65,-8.90,-6.45,203.51,0.22
1188.00,9.00,17.26,0.10,0.08,1.64,1.74,1.50,-0.34,-33.12,0.32,-6.44,-4.55,-4.35,-55.06,2.44
1192.00,10.00,13.42,0.00,0.11,1.75,1.57,1.00,-0.50,-42.32,-9.23,-95.00,-35.17,-4.84,-220.02,-4.13
1195.00,10.00,19.23,0.00,0.00,1.00,1.00,,-0.50,-85.00,,-95.00,-51.81,-19.91,-220.02,9.23
1198.00,9.00,14.76,0.05,0.14,1.70,1.67,1.00,-0.36,2.05,-28.12,-33.22,-6.10,-3.23,-62.72,-3.70
1204.00,10.00,16.52,0.33,0.00,1.40,1.67,,-1.00,-85.00,,1.65,-32.25,-11.87,-495.03,3.00
1205.00,9.00,20.08,0.21,0.24,2.05,2.62,1.36,-0.97,60.65,-7.64,52.46,14.89,3.31,-296.07,9.38
1206.00,9.00,21.34,0.07,0.27,2.36,1.83,1.71,0.36,78.22,12.27,-22.51,-2.57,9.10,212.72,12.48
1208.00,10.00,13.85,0.27,0.09,1.00,2.14,1.00,-0.62,-50.08,-9.23,-15.92,-18.53,-19.91,-286.02,-3.14
1213.00,9.00,21.67,0.11,0.36,3.35,1.96,2.09,-0.88,130.97,33.88,-1.09,0.31,27.60,-261.64,13.29
1214.00,10.00,17.12,0.58,0.39,1.50,2.62,1.00,-0.07,66.32,-9.23,74.88,-4.53,-9.86,16.50,4.38
1217.00,10.00,36.47,0.00,0.00,11.00,9.00,6.00,-1.00,-85.00,164.60,-95.00,181.70,181.00,-495.03,48.89
1218.00,10.00,16.39,0.44,0.08,2.25,3.48,1.00,0.00,-53.96,-9.23,33.87,20.58,5.20,55.00,2.70
1220.00,10.00,18.79,0.12,0.23,2.31,2.17,1.50,-1.05,4.23,8.15,-59.85,-17.66,6.41,-522.53,8.22
1223.00,9.00,16.95,0.05,0.10,1.80,1.50,1.60,-0.33,-21.40,6.01,-33.22,-9.86,-1.36,-51.24,1.68
1224.00,10.00,15.64,0.24,0.12,1.92,2.37,1.00,-0.90,-38.45,-9.23,-24.71,-11.82,-1.42,-440.03,0.98
1226.00,10.00,14.39,0.00,0.00,1.56,1.33,1.44,-0.40,-85.00,6.06,-95.00,-42.18,-8.66,-165.01,-1.90
1228.00,10.00,21.81,0.55,0.18,2.24,4.62,1.78,-0.21,-15.16,17.89,66.09,53.86,5.00,-60.51,15.17
1229.00,10.00,15.30,0.30,0.30,1.50,2.00,1.00,-0.16,31.40,-9.23,-7.13,-22.62,-9.86,-33.01,0.19
1230.00,9.00,14.48,0.07,0.12,2.14,1.89,1.38,0.50,-9.68,-6.50,-22.51,-1.24,4.99,266.27,-4.39
1232.00,9.00,9.68,0.00,0.00,,,1.00,-2.00,-80.00,-28.12,-60.00,,,-690.08,-16.20
1233.00,10.00,15.51,0.67,0.17,2.97,4.50,1.12,0.44,-19.04,-5.06,101.23,50.35,19.67,297.01,0.68
1234.00,10.00,14.05,0.12,0.08,1.00,1.36,1.33,-0.05,-53.96,2.24,-59.85,-41.30,-19.91,27.50,-2.68
1236.00,9.00,13.96,0.08,0.00,1.83,1.20,1.33,0.55,-80.00,-9.35,-17.15,-16.49,-0.80,285.40,-5.67
1237.00,10.00,14.13,0.39,0.25,2.00,2.31,1.67,0.30,11.99,14.06,19.23,-13.58,0.18,220.01,-2.50
1240.00,10.00,17.88,0.41,0.41,1.82,2.27,1.36,1.08,74.08,3.28,25.08,-14.74,-3.43,649.03,6.13
1242.00,9.00,16.25,0.07,0.14,2.50,2.10,1.46,0.54,2.05,-1.95,-22.51,3.40,11.72,281.57,-0.04
1243.00,9.00,11.08,0.00,0.20,2.00,2.00,,1.33,37.21,,-60.00,1.19,2.37,583.78,-12.75
1244.00,10.00,13.53,0.38,0.31,1.68,2.45,1.20,0.85,35.27,-2.28,16.30,-9.49,-6.25,522.53,-3.88
1245.00,10.00,12.65,0.00,0.11,1.40,1.50,1.00,-1.00,-42.32,-9.23,-95.00,-37.22,-11.87,-495.03,-5.90
1246.00,10.00,14.11,0.05,0.19,1.50,2.29,1.25,0.58,-11.28,-0.54,-80.35,-14.16,-9.86,374.02,-2.54
1247.00,10.00,16.06,0.53,0.25,2.27,3.38,1.14,0.64,11.99,-4.36,60.23,17.66,5.61,407.02,1.94
1249.00,10.00,12.24,0.00,0.00,1.38,1.60,1.00,-1.14,-85.00,-9.23,-95.00,-34.30,-12.27,-572.03,-6.85
1250.00,10.00,15.12,0.05,0.05,1.56,1.73,1.47,-0.23,-65.60,7.11,-80.35,-30.50,-8.66,-71.51,-0.22
1252.00,9.00,18.43,0.33,0.00,1.67,1.00,2.00,0.00,-80.00,28.76,116.73,-20.91,-3.79,75.00,5.32
1253.00,10.00,14.84,0.30,0.17,1.58,2.11,1.00,-0.38,-19.04,-9.23,-7.13,-19.41,-8.26,-154.01,-0.86
1254.00,9.00,15.83,0.11,0.19,2.68,2.14,1.37,0.84,31.34,-7.07,-1.09,4.28,15.08,396.34,-1.07
1255.00,10.00,12.68,0.20,0.00,1.20,1.50,1.00,0.67,-85.00,-9.23,-36.42,-37.22,-15.89,423.52,-5.83
1260.00,9.00,18.36,0.00,0.13,1.71,1.29,1.12,0.43,-3.82,-21.29,-60.00,-14.50,-3.04,239.49,5.15
1261.00,9.00,17.98,0.00,0.00,1.78,1.55,2.50,-0.36,-80.00,57.20,-60.00,-8.75,-1.74,-62.72,4.21
1264.00,10.00,15.25,0.44,0.22,1.89,2.17,1.17,0.54,0.36,-3.32,33.87,-17.66,-2.03,352.02,0.08
1265.00,9.00,15.34,0.00,0.05,1.69,1.09,1.55,0.03,-50.70,3.16,-60.00,-18.92,-3.42,86.47,-2.28
1275.00,9.00,,0.00,0.00,,,,,-80.00,,-60.00,,,,
1294.00,10.00,17.24,0.00,0.00,1.00,,,-2.60,-85.00,,-95.00,,-19.91,-1375.08,4.66
1297.00,9.00,17.84,0.11,0.06,1.43,1.17,1.50,-0.36,-44.84,0.32,-1.09,-17.15,-8.28,-62.72,3.87
1298.00,10.00,15.31,0.19,0.12,2.00,2.15,1.00,-0.20,-38.45,-9.23,-39.35,-18.24,0.18,-55.01,0.22
1304.00,10.00,17.57,0.61,0.37,2.54,4.00,1.31,0.08,58.56,1.54,83.67,35.75,11.03,99.00,5.41
1306.00,9.00,20.02,0.00,0.25,1.00,2.00,1.33,0.75,66.50,-9.35,-60.00,1.19,-16.31,361.91,9.23
1310.00,9.00,13.70,0.00,0.25,1.00,,2.00,-1.33,66.50,28.76,-60.00,,-16.31,-433.78,-6.31
1313.00,9.00,7.39,0.00,0.00,,1.00,,,-80.00,,-60.00,-20.91,,,-21.83
1315.00,9.00,8.27,0.00,0.00,1.25,1.33,1.50,-1.25,-80.00,0.32,-60.00,-13.61,-11.64,-403.18,-19.66
1318.00,9.00,9.54,0.00,0.08,1.67,1.00,1.40,-0.62,-33.12,-5.37,-60.00,-20.91,-3.79,-162.18,-16.54
1332.00,9.00,18.07,0.00,0.10,1.74,1.75,1.67,-0.59,-21.40,9.99,-60.00,-4.33,-2.48,-150.70,4.44
1333.00,10.00,14.93,0.00,0.00,2.00,1.00,,0.00,-85.00,,-95.00,-51.81,0.18,55.00,-0.66
1334.00,10.00,17.23,0.00,0.00,1.00,,1.00,-2.50,-85.00,-9.23,-95.00,,-19.91,-1320.08,4.63
1336.00,10.00,16.01,0.19,0.11,1.42,2.07,1.27,-0.21,-42.32,0.15,-39.35,-20.58,-11.47,-60.51,1.83
1338.00,9.00,21.22,0.22,0.41,2.18,2.73,1.25,0.24,160.27,-13.90,57.82,17.32,5.74,166.81,12.18
1339.00,10.00,14.70,0.32,0.20,1.84,2.75,1.00,0.00,-7.40,-9.23,-1.27,-0.73,-3.03,55.00,-1.19
1341.00,9.00,20.29,0.00,0.22,1.71,1.81,1.58,0.00,48.93,4.87,-60.00,-3.01,-3.04,75.00,9.90
1342.00,10.00,13.96,0.04,0.04,1.17,1.63,1.00,-0.19,-69.48,-9.23,-83.29,-33.42,-16.49,-49.51,-2.89
1348.00,9.00,19.09,0.16,0.19,1.89,2.33,2.39,0.16,31.34,50.94,25.69,8.48,0.32,136.21,6.94
1350.00,10.00,12.49,0.00,0.00,,,1.40,0.00,-85.00,4.67,-95.00,,,55.00,-6.27
1355.00,9.00,11.30,0.00,0.00,12.00,6.00,5.00,-2.00,-80.00,199.40,-60.00,89.57,189.25,-690.08,-12.21
1356.00,10.00,15.12,0.00,0.11,2.50,2.00,1.00,0.00,-42.32,-9.23,-95.00,-22.62,10.23,55.00,-0.22
1366.00,10.00,17.35,0.64,0.18,1.87,2.97,1.00,0.18,-15.16,-9.23,92.44,5.69,-2.43,154.01,4.91
1370.00,10.00,19.67,0.41,0.31,1.62,2.08,1.22,0.65,35.27,-1.58,25.08,-20.28,-7.45,412.52,10.24
1371.00,10.00,16.64,0.20,0.40,1.25,2.60,1.00,0.20,70.19,-9.23,-36.42,-5.11,-14.88,165.01,3.28
1373.00,10.00,20.79,0.00,0.00,3.67,7.67,,-1.50,-85.00,,-95.00,142.88,33.74,-770.04,12.82
1377.00,10.00,21.53,0.50,0.00,2.00,1.00,,0.00,-85.00,,51.44,-51.81,0.18,55.00,14.52
1380.00,9.00,14.90,0.00,0.29,1.67,1.25,2.67,-0.17,89.95,66.87,-60.00,-15.38,-3.79,9.97,-3.36
1382.00,10.00,8.00,0.12,0.06,1.00,2.00,1.00,-0.29,-61.72,-9.23,-59.85,-22.62,-19.91,-104.51,-16.60
1389.00,9.00,5.87,0.00,1.00,,,,0.00,506.03,,-60.00,,,75.00,-25.56
1395.00,9.00,17.93,0.25,0.25,4.50,2.75,2.67,-1.00,66.50,66.87,73.89,17.76,49.09,-307.55,4.09
1396.00,9.00,22.07,0.36,0.18,1.93,2.28,1.17,-0.11,25.49,-18.45,132.80,7.37,1.07,32.92,14.27
1398.00,9.00,18.99,0.00,0.07,2.00,1.62,1.25,-0.69,-38.98,-13.90,-60.00,-7.21,2.37,-188.95,6.70
1410.00,9.00,19.80,0.00,0.00,2.33,1.60,1.60,1.14,-80.00,6.01,-60.00,-7.65,8.54,511.10,8.69
1417.00,10.00,17.83,0.50,0.25,2.00,2.50,1.00,-1.25,11.99,-9.23,51.44,-8.03,0.18,-632.54,6.01
1421.00,10.00,21.94,0.93,0.47,3.29,6.43,3.00,-0.13,97.35,60.30,177.38,106.69,26.10,-16.51,15.47
1431.00,9.00,15.89,0.00,0.08,1.43,1.20,1.89,-0.19,-33.12,22.50,-60.00,-16.49,-8.28,2.32,-0.92
1432.00,10.00,12.78,0.09,0.09,1.67,1.68,1.00,0.31,-50.08,-9.23,-68.64,-31.96,-6.45,225.51,-5.60
1440.00,10.00,22.75,0.50,0.06,2.45,3.62,1.74,-1.68,-61.72,16.50,51.44,24.66,9.22,-869.05,17.33
1441.00,9.00,14.86,0.00,0.00,1.20,1.29,1.00,-0.22,-80.00,-28.12,-60.00,-14.50,-12.58,-9.16,-3.46
1445.00,9.00,24.68,0.20,1.00,1.75,2.67,1.00,0.50,506.03,-28.12,47.11,15.99,-2.30,266.27,20.69
1451.00,10.00,15.68,0.00,0.50,2.00,1.50,1.00,-1.00,109.00,-9.23,-95.00,-37.22,0.18,-495.03,1.07
1452.00,9.00,16.79,0.00,0.05,1.40,1.33,1.83,-1.12,-50.70,19.09,-60.00,-13.61,-8.84,-353.44,1.29
1455.00,9.00,13.00,0.00,0.11,1.60,1.33,1.38,-0.53,-15.54,-6.50,-60.00,-13.61,-5.10,-127.75,-8.03
1470.00,10.00,12.64,0.35,0.13,1.62,2.30,1.00,-0.32,-34.56,-9.23,7.51,-13.87,-7.45,-121.01,-5.93
1472.00,10.00,18.47,0.93,0.47,3.64,4.74,2.00,0.07,97.35,25.53,177.38,57.36,33.13,93.50,7.49
1478.00,10.00,17.85,0.79,0.41,2.36,4.26,1.20,-0.08,74.08,-2.28,136.38,43.34,7.42,11.00,6.06
1481.00,10.00,21.80,0.62,0.74,2.54,3.88,2.17,-0.44,202.11,31.44,86.59,32.25,11.03,-187.01,15.14
1482.00,10.00,12.06,0.00,0.00,1.43,1.44,1.38,-0.69,-85.00,3.98,-95.00,-38.97,-11.27,-324.52,-7.26
1488.00,9.00,12.40,0.00,0.08,1.88,1.57,1.00,-0.62,-33.12,-28.12,-60.00,-8.31,0.13,-162.18,-9.51
1491.00,10.00,12.71,0.37,0.07,1.84,2.46,1.00,0.12,-57.84,-9.23,13.37,-9.19,-3.03,121.01,-5.76
1493.00,10.00,13.65,1.00,0.00,1.00,2.00,1.00,1.00,-85.00,-9.23,197.88,-22.62,-19.91,605.03,-3.60
1494.00,9.00,16.89,0.38,0.12,3.17,4.67,1.00,-0.40,-9.68,-28.12,143.51,60.18,24.24,-78.02,1.53
1504.00,10.00,13.70,0.00,0.00,2.00,2.00,1.00,-0.50,-85.00,-9.23,-95.00,-22.62,0.18,-220.02,-3.49
1505.00,10.00,14.36,0.25,0.25,2.33,2.64,1.33,0.30,11.99,2.24,-21.77,-3.94,6.81,220.01,-1.97
1506.00,10.00,13.63,0.29,0.14,1.60,2.00,,-0.14,-30.68,,-10.06,-22.62,-7.85,-22.01,-3.65
1510.00,10.00,15.58,0.00,0.33,2.00,1.50,,-1.50,43.04,,-95.00,-37.22,0.18,-770.04,0.84
1511.00,10.00,11.03,0.25,0.00,1.33,3.00,1.50,-1.75,-85.00,8.15,-21.77,6.57,-13.28,-907.56,-9.63
1513.00,9.00,21.62,0.00,0.67,2.50,1.00,1.67,-0.67,312.64,9.99,-60.00,-20.91,11.72,-181.31,13.16
1515.00,10.00,24.46,0.36,0.41,2.95,3.35,1.33,-0.70,74.08,2.24,10.44,16.78,19.27,-330.02,21.26
1518.00,10.00,14.28,0.23,0.08,1.50,1.67,1.00,-0.33,-53.96,-9.23,-27.64,-32.25,-9.86,-126.51,-2.15
1521.00,9.00,22.76,0.00,0.25,1.67,1.60,1.60,-1.00,66.50,6.01,-60.00,-7.65,-3.79,-307.55,15.97
1523.00,9.00,17.53,0.09,0.09,2.18,2.25,1.41,-0.19,-27.26,-4.80,-11.80,6.71,5.74,2.32,3.11
1525.00,10.00,14.10,0.50,0.17,2.80,3.50,1.00,-0.60,-19.04,-9.23,51.44,21.17,16.26,-275.02,-2.57
1526.00,10.00,9.90,0.40,0.00,,2.00,,0.00,-85.00,,22.15,-22.62,,55.00,-12.23
1535.00,9.00,17.90,0.04,0.04,1.33,1.09,1.33,0.38,-56.56,-9.35,-38.58,-18.92,-10.15,220.37,4.02
1536.00,9.00,16.39,0.04,0.08,1.97,1.39,1.72,0.00,-33.12,12.83,-38.58,-12.29,1.81,75.00,0.30
1537.00,10.00,17.77,0.38,0.31,1.81,2.54,1.17,0.63,35.27,-3.32,16.30,-6.86,-3.64,401.52,5.88
1538.00,10.00,21.77,0.00,0.00,1.00,1.50,1.00,-0.50,-85.00,-9.23,-95.00,-37.22,-19.91,-220.02,15.07
1546.00,9.00,19.05,0.03,0.22,1.55,1.80,1.38,0.19,48.93,-6.50,-43.93,-3.23,-6.03,147.68,6.84
1547.00,10.00,13.86,0.07,0.21,1.22,1.40,1.00,-0.09,-3.52,-9.23,-74.50,-40.14,-15.49,5.50,-3.12
1549.00,10.00,14.99,0.27,0.31,2.03,2.83,1.12,0.30,35.27,-5.06,-15.92,1.60,0.78,220.01,-0.52
1550.00,9.00,16.52,0.13,0.11,2.16,2.15,2.07,0.08,-15.54,32.74,9.62,4.50,5.37,105.60,0.62
1551.00,9.00,17.78,0.06,0.22,2.62,2.40,1.48,-0.03,48.93,-0.82,-27.86,10.03,13.96,63.53,3.72
1556.00,10.00,15.46,0.16,0.05,2.08,2.25,1.50,-0.82,-65.60,8.15,-48.14,-15.33,1.79,-396.02,0.56
1558.00,10.00,8.12,0.00,0.10,,,1.00,0.25,-46.20,-9.23,-95.00,,,192.51,-16.32
1559.00,9.00,14.62,0.00,0.09,1.00,1.00,2.20,-0.55,-27.26,40.14,-60.00,-20.91,-16.31,-135.40,-4.05
1560.00,9.00,30.67,0.00,1.00,,,,-1.00,506.03,,-60.00,,,-307.55,35.42
1562.00,9.00,18.89,0.17,0.17,1.14,1.56,1.25,0.73,19.62,-13.90,31.04,-8.53,-13.70,354.25,6.45
1566.00,10.00,14.67,0.00,0.00,2.25,1.25,1.33,-0.40,-85.00,2.24,-95.00,-44.51,5.20,-165.01,-1.26
1568.00,10.00,12.45,0.40,0.20,3.25,3.92,2.00,-0.25,-7.40,25.53,22.15,33.42,25.30,-82.51,-6.36
1570.00,10.00,16.30,0.41,0.41,2.06,3.15,1.00,0.35,74.08,-9.23,25.08,10.94,1.39,247.51,2.49
1571.00,10.00,7.68,0.00,0.00,1.50,1.29,1.00,-0.71,-85.00,-9.23,-95.00,-43.34,-9.86,-335.52,-17.34
1572.00,9.00,20.89,0.24,0.32,2.26,4.00,1.38,-0.36,107.53,-6.50,68.53,45.38,7.23,-62.72,11.37
1575.00,10.00,13.24,0.44,0.22,1.69,3.62,1.00,0.31,0.36,-9.23,33.87,24.66,-6.04,225.51,-4.55
1576.00,10.00,15.81,0.14,0.45,1.57,2.56,1.50,-0.23,89.59,8.15,-54.00,-6.28,-8.46,-71.51,1.36
1577.00,9.00,17.55,0.17,0.12,1.62,1.79,1.57,-0.20,-9.68,4.30,31.04,-3.45,-4.73,-1.51,3.16
1582.00,10.00,13.82,0.29,0.04,2.12,1.91,1.00,0.44,-69.48,-9.23,-10.06,-25.25,2.59,297.01,-3.21
1600.00,9.00,16.39,0.07,0.13,1.57,1.17,1.27,0.79,-3.82,-12.76,-22.51,-17.15,-5.66,377.21,0.30
1618.00,10.00,12.71,0.17,0.00,1.20,1.25,1.00,0.00,-85.00,-9.23,-45.21,-44.51,-15.89,55.00,-5.76
1619.00,9.00,22.57,0.00,0.00,1.67,1.33,2.00,0.50,-80.00,28.76,-60.00,-13.61,-3.79,266.27,15.50
1619.00,10.00,15.61,0.00,0.10,2.00,1.80,2.40,0.29,-46.20,39.44,-95.00,-28.46,0.18,214.51,0.91
1905.00,9.00,23.77,0.00,0.00,,2.00,,1.00,-80.00,,-60.00,1.19,,457.54,18.45
1909.00,10.00,22.58,0.33,0.67,6.00,4.50,,1.50,174.95,,1.65,50.35,80.55,880.04,16.94
1910.00,10.00,17.43,0.25,0.00,2.00,1.67,3.00,0.50,-85.00,60.30,-21.77,-32.25,0.18,330.02,5.09
1911.00,10.00,16.08,0.50,1.00,1.50,3.50,,0.50,302.98,,51.44,21.17,-9.86,330.02,1.99
1912.00,10.00,15.20,0.57,0.43,1.20,3.43,2.50,0.50,81.84,42.92,71.94,19.12,-15.89,330.02,-0.03
1916.00,10.00,13.41,0.20,0.40,1.00,1.75,2.00,-0.33,70.19,25.53,-36.42,-29.92,-19.91,-126.51,-4.15
1919.00,10.00,13.84,0.20,0.00,1.00,1.75,1.00,-1.00,-85.00,-9.23,-36.42,-29.92,-19.91,-495.03,-3.16
1922.00,9.00,18.01,0.00,0.12,1.50,1.50,1.50,-0.57,-9.68,0.32,-60.00,-9.86,-6.97,-143.05,4.29
1924.00,9.00,21.59,1.00,1.00,1.00,,2.00,1.00,506.03,28.76,475.55,,-16.31,457.54,13.09
1926.00,9.00,8.43,0.33,0.00,4.00,1.00,,0.50,-80.00,,116.73,-20.91,39.75,266.27,-19.27
1936.00,10.00,14.08,2.00,0.00,2.00,1.00,,1.00,-85.00,,490.78,-51.81,0.18,605.03,-2.61
2051.00,10.00,17.88,0.79,0.23,2.81,4.33,1.00,0.33,4.23,-9.23,136.38,45.39,16.46,236.51,6.13
2052.00,9.00,11.05,0.00,0.05,1.40,1.55,1.00,-0.54,-50.70,-28.12,-60.00,-8.75,-8.84,-131.57,-12.83
2057.00,10.00,14.59,0.18,0.08,1.46,2.28,1.00,0.33,-53.96,-9.23,-42.28,-14.45,-10.67,236.51,-1.44
2059.00,10.00,6.29,0.05,0.05,1.00,1.25,1.00,0.00,-65.60,-9.23,-80.35,-44.51,-19.91,55.00,-20.53
2066.00,9.00,24.86,0.06,0.12,2.08,2.84,2.28,0.21,-9.68,44.68,-27.86,19.75,3.87,155.33,21.13
2068.00,9.00,24.00,0.14,0.27,1.73,2.48,1.93,0.15,78.22,24.78,14.98,11.79,-2.67,132.38,19.02
2071.00,10.00,20.93,0.00,1.20,2.00,1.75,1.00,2.50,380.59,-9.23,-95.00,-29.92,0.18,1430.08,13.14
2072.00,10.00,19.42,0.75,0.25,2.25,4.50,1.00,1.67,11.99,-9.23,124.67,50.35,5.20,973.55,9.67
2194.00,10.00,19.33,0.53,0.29,2.03,3.76,1.62,0.81,27.51,12.32,60.23,28.76,0.78,500.52,9.46
2203.00,10.00,13.30,0.14,0.31,1.97,2.97,1.00,-0.36,35.27,-9.23,-54.00,5.69,-0.42,-143.01,-4.41
2204.00,10.00,11.66,0.00,0.00,1.00,1.50,1.00,-1.00,-85.00,-9.23,-95.00,-37.22,-19.91,-495.03,-8.18
2205.00,10.00,13.88,0.82,0.18,2.12,2.64,1.00,-0.18,-15.16,-9.23,145.17,-3.94,2.59,-44.01,-3.07
2209.00,9.00,17.44,0.10,0.07,1.35,1.53,1.07,-0.59,-38.98,-24.14,-6.44,-9.19,-9.77,-150.70,2.88
2210.00,10.00,15.91,0.27,0.33,1.78,3.92,,0.00,43.04,,-15.92,33.42,-4.24,55.00,1.60
2211.00,10.00,7.51,0.00,0.00,,,,-1.00,-85.00,,-95.00,,,-495.03,-17.72
2212.00,10.00,15.02,0.33,0.14,1.53,2.89,1.00,-0.29,-30.68,-9.23,1.65,3.35,-9.26,-104.51,-0.45
2213.00,9.00,10.57,0.00,0.00,,2.00,,-0.50,-80.00,,-60.00,1.19,,-116.27,-14.01
2215.00,10.00,15.99,0.21,0.16,2.11,2.09,1.44,0.34,-22.92,6.06,-33.50,-19.99,2.39,242.01,1.78
2217.00,10.00,12.77,0.00,0.00,,,,1.00,-85.00,,-95.00,,,605.03,-5.62
2218.00,10.00,18.72,0.18,0.21,1.93,2.55,1.33,0.36,-3.52,2.24,-42.28,-6.57,-1.22,253.01,8.06
2221.00,10.00,17.17,1.29,0.45,2.44,4.64,1.33,1.06,89.59,2.24,282.82,54.44,9.02,638.03,4.49
2222.00,9.00,19.56,0.00,0.23,1.00,1.33,1.57,0.62,54.78,4.30,-60.00,-13.61,-16.31,312.18,8.10
2223.00,10.00,12.28,0.25,0.22,1.68,3.04,1.00,-0.30,0.36,-9.23,-21.77,7.74,-6.25,-110.01,-6.75
2224.00,9.00,17.82,0.13,0.07,1.77,2.36,1.28,0.06,-38.98,-12.20,9.62,9.14,-1.92,97.95,3.82
2225.00,9.00,14.84,0.03,0.05,1.45,1.84,1.21,-0.12,-50.70,-16.18,-43.93,-2.35,-7.90,29.09,-3.51
2226.00,10.00,16.19,0.18,0.18,1.17,1.67,2.00,0.78,-15.16,25.53,-42.28,-32.25,-16.49,484.02,2.24
2227.00,10.00,17.73,0.69,0.45,2.57,3.91,1.00,0.38,89.59,-9.23,107.09,33.13,11.64,264.01,5.78
2230.00,9.00,14.81,0.03,0.12,1.85,1.43,1.89,-0.04,-9.68,22.50,-43.93,-11.40,-0.43,59.70,-3.58
2231.00,10.00,17.52,0.58,0.33,1.86,3.52,1.00,0.26,43.04,-9.23,74.88,21.75,-2.63,198.01,5.30
2232.00,9.00,12.87,0.03,0.15,1.13,1.71,2.22,-0.04,7.90,41.28,-43.93,-5.22,-13.88,59.70,-8.35
2233.00,9.00,16.52,0.12,0.12,1.45,1.90,1.27,0.00,-9.68,-12.76,4.27,-1.02,-7.90,75.00,0.62
2236.00,10.00,17.49,0.55,0.03,1.90,2.88,1.31,-0.06,-73.36,1.54,66.09,3.06,-1.83,22.00,5.23
2237.00,9.00,16.05,0.00,0.00,1.78,1.38,1.33,-0.38,-80.00,-9.35,-60.00,-12.51,-1.74,-70.36,-0.53
2240.00,9.00,16.16,0.00,0.00,2.00,1.33,1.00,0.00,-80.00,-28.12,-60.00,-13.61,2.37,75.00,-0.26
2241.00,10.00,13.30,0.24,0.12,1.57,2.18,1.00,0.14,-38.45,-9.23,-24.71,-17.37,-8.46,132.01,-4.41
2244.00,10.00,13.62,0.23,0.17,1.53,2.00,1.17,-0.08,-19.04,-3.32,-27.64,-22.62,-9.26,11.00,-3.67
2266.00,10.00,19.73,0.50,1.00,4.50,7.50,1.50,1.50,302.98,8.15,51.44,137.92,50.41,880.04,10.38
2267.00,9.00,16.72,0.50,0.20,2.25,3.56,1.00,1.30,37.21,-28.12,207.77,35.66,7.05,572.30,1.12
2270.00,10.00,9.73,0.12,0.04,1.64,1.87,1.00,-1.40,-69.48,-9.23,-59.85,-26.41,-7.05,-715.04,-12.62
2272.00,10.00,16.46,0.33,0.00,2.20,2.75,1.00,-0.78,-85.00,-9.23,1.65,-0.73,4.20,-374.02,2.86
2278.00,9.00,11.38,2.00,0.00,3.00,1.00,,2.00,-80.00,,1011.10,-20.91,21.06,840.08,-12.02
2281.00,10.00,17.25,0.31,0.46,2.00,3.92,1.25,-0.46,93.47,-0.54,-4.21,33.42,0.18,-198.02,4.68
2282.00,9.00,22.68,0.72,0.44,3.17,4.76,1.69,0.12,177.86,11.13,325.60,62.17,24.24,120.91,15.77
2290.00,9.00,20.22,0.00,0.09,1.35,1.41,1.17,0.77,-27.26,-18.45,-60.00,-11.85,-9.77,369.56,9.72
2291.00,10.00,15.43,0.00,0.40,2.50,2.40,,-1.50,70.19,,-95.00,-10.94,10.23,-770.04,0.49
2292.00,10.00,18.79,0.57,0.30,3.55,4.13,1.33,0.35,31.40,2.24,71.94,39.55,31.32,247.51,8.22
2294.00,9.00,15.07,0.00,0.14,2.00,1.25,1.22,0.08,2.05,-15.61,-60.00,-15.38,2.37,105.60,-2.94
2297.00,10.00,13.92,0.34,0.31,2.00,2.65,1.00,0.40,35.27,-9.23,4.58,-3.65,0.18,275.01,-2.98
2299.00,10.00,12.19,0.09,0.17,1.50,1.76,1.33,-0.29,-19.04,2.24,-68.64,-29.63,-9.86,-104.51,-6.96
2300.00,10.00,15.99,0.14,0.18,1.41,2.50,1.45,0.67,-15.16,6.41,-54.00,-8.03,-11.67,423.52,1.78
2301.00,10.00,11.61,0.26,0.16,1.55,1.81,1.00,0.12,-22.92,-9.23,-18.85,-28.16,-8.86,121.01,-8.29
2303.00,10.00,10.53,0.06,0.19,1.33,1.44,1.50,-0.04,-11.28,8.15,-77.42,-38.97,-13.28,33.00,-10.78
2304.00,9.00,17.76,0.00,0.06,1.80,1.39,1.50,-0.23,-44.84,0.32,-60.00,-12.29,-1.36,-12.98,3.67
2307.00,10.00,17.84,0.42,0.21,1.88,3.05,1.43,0.00,-3.52,5.72,28.02,8.03,-2.23,55.00,6.04
2310.00,10.00,15.89,0.45,0.27,1.89,2.38,1.00,0.50,19.75,-9.23,36.80,-11.53,-2.03,330.02,1.55
2317.00,10.00,21.42,0.27,0.30,3.41,2.79,1.67,-0.29,31.40,14.06,-15.92,0.44,28.51,-104.51,14.27
2319.00,10.00,18.53,0.44,0.56,1.38,2.59,1.25,0.12,132.27,-0.54,33.87,-5.40,-12.27,121.01,7.62
2321.00,10.00,17.88,0.43,0.13,1.90,2.52,1.40,-0.46,-34.56,4.67,30.94,-7.44,-1.83,-198.02,6.13
2322.00,10.00,11.38,0.33,0.17,1.50,1.50,1.00,-1.67,-19.04,-9.23,1.65,-37.22,-9.86,-863.55,-8.82
2323.00,10.00,19.52,0.92,0.24,2.81,3.29,1.29,0.66,8.12,0.85,174.46,15.03,16.46,418.02,9.90
2333.00,10.00,14.88,0.42,0.25,2.00,2.22,1.00,-0.36,11.99,-9.23,28.02,-16.20,0.18,-143.01,-0.77
2351.00,9.00,18.55,0.76,0.52,2.75,4.57,1.00,1.00,224.74,-28.12,347.02,57.97,16.39,457.54,5.62
2357.00,9.00,13.83,0.31,0.31,2.45,2.71,1.00,0.00,101.67,-28.12,106.02,16.88,10.78,75.00,-5.99
2359.00,10.00,14.82,0.00,0.00,2.50,2.00,,-1.00,-85.00,,-95.00,-22.62,10.23,-495.03,-0.91
2377.00,10.00,12.12,0.22,0.22,1.40,1.00,1.00,-0.50,0.36,-9.23,-30.56,-51.81,-11.87,-220.02,-7.12
2416.00,10.00,14.66,0.00,0.00,1.67,2.00,1.00,-1.80,-85.00,-9.23,-95.00,-22.62,-6.45,-935.06,-1.28
2426.00,10.00,17.34,0.38,0.38,1.76,3.08,1.10,0.30,62.43,-5.76,16.30,8.90,-4.64,220.01,4.89
2427.00,10.00,9.20,0.00,0.00,,1.33,3.00,-1.50,-85.00,60.30,-95.00,-42.18,,-770.04,-13.84
2428.00,9.00,14.27,0.00,0.07,1.58,1.62,1.82,-0.63,-38.98,18.52,-60.00,-7.21,-5.47,-166.00,-4.91
2430.00,10.00,13.17,0.00,0.00,1.33,1.75,1.00,-0.62,-85.00,-9.23,-95.00,-29.92,-13.28,-286.02,-4.71
2431.00,10.00,15.10,0.20,0.20,1.62,1.60,1.00,-0.44,-7.40,-9.23,-36.42,-34.30,-7.45,-187.01,-0.27
2433.00,9.00,23.72,0.00,0.00,2.00,3.00,,-2.00,-80.00,,-60.00,23.28,2.37,-690.08,18.33
2434.00,10.00,17.81,0.00,0.22,1.85,1.53,1.18,-0.90,0.36,-2.97,-95.00,-36.34,-2.83,-440.03,5.97
2435.00,9.00,13.91,0.67,0.00,1.33,2.33,,2.00,-80.00,,298.82,8.48,-10.15,840.08,-5.80
2441.00,9.00,13.25,0.08,0.00,2.00,1.47,1.00,-0.72,-80.00,-28.12,-17.15,-10.52,2.37,-200.43,-7.42
2443.00,9.00,16.54,0.12,0.27,1.88,1.90,1.18,0.48,78.22,-17.88,4.27,-1.02,0.13,258.62,0.67
2444.00,9.00,20.51,0.20,0.17,1.55,1.93,1.78,0.75,19.62,16.24,47.11,-0.36,-6.03,361.91,10.44
2445.00,9.00,15.78,0.00,0.12,1.25,1.40,1.20,0.50,-9.68,-16.74,-60.00,-12.07,-11.64,266.27,-1.20
2446.00,9.00,16.70,0.00,0.12,1.00,1.25,1.50,0.17,-9.68,0.32,-60.00,-15.38,-16.31,140.03,1.07
2447.00,10.00,13.87,0.15,0.17,2.07,2.25,1.42,0.21,-19.04,5.37,-51.06,-15.33,1.59,170.51,-3.10
2448.00,10.00,16.54,0.43,0.40,1.92,3.03,1.00,0.88,70.19,-9.23,30.94,7.44,-1.42,539.03,3.04
2450.00,10.00,17.51,0.27,0.27,1.53,2.78,1.20,-1.19,19.75,-2.28,-15.92,0.15,-9.26,-599.54,5.28
2452.00,10.00,18.71,1.07,0.36,3.49,5.81,1.24,0.72,54.67,-0.89,218.39,88.59,30.12,451.02,8.04
2454.00,10.00,17.25,0.00,0.00,4.00,2.00,,3.00,-85.00,,-95.00,-22.62,40.36,1705.09,4.68
2455.00,9.00,17.08,0.00,0.15,1.68,1.29,1.44,0.12,7.90,-3.09,-60.00,-14.50,-3.60,120.91,2.00
2456.00,10.00,15.09,0.36,0.36,2.33,3.00,1.00,0.82,54.67,-9.23,10.44,6.57,6.81,506.02,-0.29
2460.00,10.00,13.75,0.16,0.05,1.89,2.44,1.07,-0.30,-65.60,-6.80,-48.14,-9.78,-2.03,-110.01,-3.37
2461.00,10.00,15.59,0.14,0.33,1.90,1.65,1.00,0.10,43.04,-9.23,-54.00,-32.84,-1.83,110.01,0.86
2463.00,9.00,16.30,0.00,0.00,1.10,1.67,1.42,-0.33,-80.00,-4.23,-60.00,-6.10,-14.44,-51.24,0.08
2464.00,9.00,14.90,0.13,0.10,2.10,2.17,1.76,0.38,-21.40,15.10,9.62,4.95,4.24,220.37,-3.36
2466.00,10.00,11.57,0.19,0.05,1.50,2.00,1.17,-0.50,-65.60,-3.32,-39.35,-22.62,-9.86,-220.02,-8.39
2469.00,9.00,15.43,0.09,0.09,1.43,1.12,1.25,-0.27,-27.26,-13.90,-11.80,-18.25,-8.28,-28.29,-2.06
2472.00,10.00,13.51,0.19,0.22,1.44,1.80,1.25,-0.04,0.36,-0.54,-39.35,-28.46,-11.07,33.00,-3.92
2474.00,10.00,15.95,0.67,0.36,2.00,3.66,1.20,0.34,54.67,-2.28,101.23,25.83,0.18,242.01,1.69
2476.00,10.00,15.10,0.31,0.31,2.50,3.46,1.00,0.36,35.27,-9.23,-4.21,19.99,10.23,253.01,-0.27
2477.00,9.00,17.76,0.00,0.09,1.56,1.30,1.46,0.48,-27.26,-1.95,-60.00,-14.28,-5.85,258.62,3.67
2479.00,10.00,20.55,0.67,0.17,1.43,2.94,1.00,0.06,-19.04,-9.23,101.23,4.82,-11.27,88.00,12.27
2481.00,9.00,13.42,0.10,0.03,2.00,1.59,1.36,0.21,-62.42,-7.64,-6.44,-7.87,2.37,155.33,-7.00
2484.00,10.00,15.49,0.23,0.18,1.86,2.12,1.33,-0.16,-15.16,2.24,-27.64,-19.12,-2.63,-33.01,0.63
2487.00,10.00,20.57,1.10,0.59,3.20,5.68,1.00,0.89,143.91,-9.23,227.17,84.79,24.29,544.53,12.32
2489.00,10.00,16.31,0.53,0.33,1.67,2.25,1.00,-0.20,43.04,-9.23,60.23,-15.33,-6.45,-55.01,2.52
2490.00,9.00,12.94,0.00,0.08,1.67,1.14,1.50,0.18,-33.12,0.32,-60.00,-17.81,-3.79,143.86,-8.18
2491.00,10.00,16.42,0.29,0.23,1.33,2.31,1.60,-0.23,4.23,11.62,-10.06,-13.58,-13.28,-71.51,2.77
2501.00,10.00,14.43,0.00,0.00,,1.00,1.00,-2.00,-85.00,-9.23,-95.00,-51.81,,-1045.06,-1.81
2502.00,9.00,14.42,0.12,0.25,2.00,1.71,1.33,0.50,66.50,-9.35,4.27,-5.22,2.37,266.27,-4.54
2504.00,9.00,18.60,0.00,0.13,1.86,1.33,1.33,-1.08,-3.82,-9.35,-60.00,-13.61,-0.24,-338.14,5.74
2506.00,10.00,12.46,0.00,0.00,2.00,1.00,1.00,-0.67,-85.00,-9.23,-95.00,-51.81,0.18,-313.52,-6.34
2508.00,9.00,14.48,0.00,0.00,3.00,2.33,,-1.00,-80.00,,-60.00,8.48,21.06,-307.55,-4.39
2512.00,9.00,18.61,0.10,0.00,1.00,1.75,2.00,-2.14,-80.00,28.76,-6.44,-4.33,-16.31,-743.64,5.76
2515.00,9.00,21.40,0.00,0.00,1.00,1.00,1.00,1.00,-80.00,-28.12,-60.00,-20.91,-16.31,457.54,12.62
2516.00,10.00,15.72,0.33,0.33,2.00,1.50,2.00,0.67,43.04,25.53,1.65,-37.22,0.18,423.52,1.16
2517.00,10.00,11.12,0.00,0.00,1.00,1.00,,1.00,-85.00,,-95.00,-51.81,-19.91,605.03,-9.42
2549.00,10.00,16.87,0.41,0.19,2.87,3.19,1.50,0.28,-11.28,8.15,25.08,12.12,17.66,209.01,3.80
2550.00,10.00,18.16,0.67,0.33,2.00,4.00,,1.20,43.04,,101.23,35.75,0.18,715.04,6.77
2556.00,10.00,26.88,0.00,0.00,2.00,3.00,1.00,0.00,-85.00,-9.23,-95.00,6.57,0.18,55.00,26.83
2740.00,10.00,12.37,0.00,0.00,1.40,1.60,1.00,-0.83,-85.00,-9.23,-95.00,-34.30,-11.87,-401.53,-6.54
2743.00,10.00,14.27,0.21,0.21,1.48,2.53,1.25,0.16,-3.52,-0.54,-33.50,-7.15,-10.26,143.01,-2.18
2753.00,10.00,17.86,0.48,0.31,2.82,3.74,1.50,0.70,35.27,8.15,45.59,28.16,16.66,440.02,6.08
2757.00,10.00,21.84,1.25,0.75,2.25,5.25,,1.50,205.99,,271.11,72.24,5.20,880.04,15.24
2760.00,10.00,15.61,0.11,0.26,1.40,2.50,1.00,0.80,15.88,-9.23,-62.79,-8.03,-11.87,495.02,0.91
2762.00,10.00,19.73,0.00,0.67,2.67,3.33,1.00,-0.33,174.95,-9.23,-95.00,16.20,13.64,-126.51,10.38
2764.00,9.00,21.67,0.00,0.00,2.00,,1.00,-1.00,-80.00,-28.12,-60.00,,2.37,-307.55,13.29
2765.00,10.00,19.65,0.36,0.27,1.50,3.32,1.50,-0.58,19.75,8.15,10.44,15.91,-9.86,-264.02,10.20
2766.00,10.00,15.48,0.08,0.00,1.73,2.00,1.33,0.18,-85.00,2.24,-71.57,-22.62,-5.24,154.01,0.61
2767.00,9.00,16.32,0.25,0.38,1.67,2.40,1.40,-0.43,142.69,-5.37,73.89,10.03,-3.79,-89.49,0.13
2769.00,9.00,19.84,0.25,0.50,3.00,3.50,,-1.33,213.02,,73.89,34.33,21.06,-433.78,8.79
2770.00,9.00,19.77,0.19,0.14,1.50,2.40,1.56,0.33,2.05,3.73,41.75,10.03,-6.97,201.24,8.62
2771.00,9.00,14.68,0.00,0.00,,1.50,,0.00,-80.00,,-60.00,-9.86,,75.00,-3.90
2772.00,9.00,24.83,0.00,0.33,1.50,2.50,1.50,0.33,113.39,0.32,-60.00,12.24,-6.97,201.24,21.06
2773.00,10.00,14.05,0.09,0.05,1.00,1.23,1.00,-0.56,-65.60,-9.23,-68.64,-45.10,-19.91,-253.02,-2.68
2774.00,10.00,18.62,0.35,0.08,1.82,2.40,1.25,0.09,-53.96,-0.54,7.51,-10.94,-3.43,104.50,7.83
2783.00,9.00,17.51,0.00,0.06,1.91,2.30,1.38,-0.29,-44.84,-6.50,-60.00,7.82,0.69,-35.94,3.06
2790.00,10.00,11.23,0.56,0.22,1.90,2.96,1.00,0.76,0.36,-9.23,69.02,5.40,-1.83,473.02,-9.17
2792.00,9.00,17.48,0.27,0.45,3.10,3.36,1.33,0.50,183.71,-9.35,84.60,31.24,22.93,266.27,2.98
2794.00,9.00,15.46,0.12,0.38,1.71,3.00,1.00,0.00,142.69,-28.12,4.27,23.28,-3.04,75.00,-1.98
2795.00,10.00,14.73,0.00,0.18,1.25,1.80,,-0.50,-15.16,,-95.00,-28.46,-14.88,-220.02,-1.12
2799.00,9.00,13.75,0.05,0.23,1.47,1.50,1.79,0.00,54.78,16.81,-33.22,-9.86,-7.53,75.00,-6.19
2800.00,9.00,7.54,0.00,0.00,1.00,2.00,1.25,-0.67,-80.00,-13.90,-60.00,1.19,-16.31,-181.31,-21.46
2802.00,9.00,21.67,0.08,0.25,1.17,1.30,1.50,0.00,66.50,0.32,-17.15,-14.28,-13.14,75.00,13.29
2805.00,10.00,18.65,0.50,0.12,2.00,2.67,1.00,-0.36,-38.45,-9.23,51.44,-3.06,0.18,-143.01,7.90
2807.00,10.00,17.43,0.16,0.26,2.47,3.63,1.00,-1.12,15.88,-9.23,-48.14,24.96,9.62,-561.03,5.09
2814.00,9.00,12.85,0.06,0.09,1.62,1.71,1.20,0.20,-27.26,-16.74,-27.86,-5.22,-4.73,151.51,-8.40
2817.00,10.00,9.46,0.20,0.10,1.50,1.83,1.00,0.17,-46.20,-9.23,-36.42,-27.58,-9.86,148.51,-13.24
2824.00,10.00,16.03,0.46,0.46,1.81,2.48,1.14,0.23,93.47,-4.36,39.73,-8.61,-3.64,181.51,1.87
2827.00,9.00,19.22,0.00,0.11,2.86,1.83,2.00,0.00,-15.54,28.76,-60.00,-2.57,18.45,75.00,7.26
2829.00,9.00,13.91,0.00,0.00,2.00,1.84,1.23,-0.50,-80.00,-15.04,-60.00,-2.35,2.37,-116.27,-5.80
2831.00,9.00,14.30,0.00,0.11,1.29,1.25,1.78,0.13,-15.54,16.24,-60.00,-15.38,-10.89,124.73,-4.84
2832.00,10.00,15.02,0.30,0.20,2.22,3.00,1.75,0.12,-7.40,16.84,-7.13,6.57,4.60,121.01,-0.45
2840.00,10.00,14.54,0.09,0.00,2.12,2.00,1.00,-0.75,-85.00,-9.23,-68.64,-22.62,2.59,-357.52,-1.55
2843.00,10.00,12.83,0.45,0.17,2.38,2.56,1.00,0.21,-19.04,-9.23,36.80,-6.28,7.82,170.51,-5.49
2858.00,10.00,18.49,0.82,0.56,3.02,4.24,1.31,0.58,132.27,1.54,145.17,42.76,20.68,374.02,7.53
2862.00,10.00,16.95,0.75,0.25,2.43,3.00,1.33,-1.62,11.99,2.24,124.67,6.57,8.82,-836.05,3.99
2863.00,10.00,19.28,0.00,0.17,3.67,3.00,1.00,0.40,-19.04,-9.23,-95.00,6.57,33.74,275.01,9.35
2864.00,10.00,14.73,0.21,0.50,2.07,1.95,6.00,-0.33,109.00,164.60,-33.50,-24.08,1.59,-126.51,-1.12
2865.00,9.00,53.67,0.00,0.00,,8.00,9.00,0.00,-80.00,426.92,-60.00,133.76,,75.00,91.98
2871.00,9.00,14.35,0.00,0.00,1.67,1.25,1.62,1.00,-80.00,7.15,-60.00,-15.38,-3.79,457.54,-4.71
2872.00,10.00,12.55,0.38,0.08,1.57,1.92,,-0.27,-53.96,,16.30,-24.96,-8.46,-93.51,-6.13
2873.00,10.00,20.22,0.64,0.27,2.68,3.37,1.00,-0.83,19.75,-9.23,92.44,17.37,13.84,-401.53,11.51
2875.00,10.00,13.39,0.25,0.25,2.33,2.25,1.00,-0.75,11.99,-9.23,-21.77,-15.33,6.81,-357.52,-4.20
2876.00,10.00,19.30,0.00,0.00,,1.00,,1.00,-85.00,,-95.00,-51.81,,605.03,9.39
2890.00,9.00,16.01,0.16,0.24,1.71,1.77,1.48,-0.46,60.65,-0.82,25.69,-3.89,-3.04,-100.97,-0.63
2894.00,9.00,20.13,0.12,0.21,2.94,3.66,1.56,0.19,43.06,3.73,4.27,37.87,19.94,147.68,9.50
2895.00,10.00,12.81,0.18,0.11,1.80,2.45,1.00,-0.17,-42.32,-9.23,-42.28,-9.49,-3.84,-38.51,-5.53
2896.00,9.00,17.19,0.12,0.35,1.88,2.27,1.20,-0.17,125.11,-16.74,4.27,7.16,0.13,9.97,2.27
2900.00,9.00,17.15,0.12,0.14,1.88,2.12,1.73,0.90,2.05,13.40,4.27,3.84,0.13,419.29,2.17
2901.00,10.00,17.96,0.00,0.33,2.33,4.00,1.00,-2.33,43.04,-9.23,-95.00,35.75,6.81,-1226.57,6.31
2902.00,10.00,15.66,0.42,0.31,2.00,2.77,1.25,0.04,35.27,-0.54,28.02,-0.15,0.18,77.00,1.02
2903.00,9.00,17.82,0.07,0.20,1.60,1.58,1.83,1.20,37.21,19.09,-22.51,-8.09,-5.10,534.05,3.82
2904.00,10.00,15.17,0.31,0.23,2.14,2.33,2.00,0.67,4.23,25.53,-4.21,-12.99,3.00,423.52,-0.10
2907.00,9.00,15.66,0.09,0.06,1.75,1.86,1.57,-0.15,-44.84,4.30,-11.80,-1.90,-2.30,17.62,-1.49
2908.00,9.00,14.39,0.18,0.09,1.80,2.10,1.20,-0.33,-27.26,-16.74,36.40,3.40,-1.36,-51.24,-4.62
2911.00,10.00,15.73,0.70,0.39,2.40,3.48,1.00,0.32,66.32,-9.23,110.02,20.58,8.22,231.01,1.18
2913.00,9.00,16.93,0.00,0.11,1.85,1.17,2.06,-0.76,-15.54,32.17,-60.00,-17.15,-0.43,-215.73,1.63
2915.00,10.00,20.15,0.55,0.45,2.33,3.38,1.00,-0.50,89.59,-9.23,66.09,17.66,6.81,-220.02,11.35
2916.00,10.00,17.54,0.07,0.39,1.78,2.27,1.00,-0.05,66.32,-9.23,-74.50,-14.74,-4.24,27.50,5.34
2917.00,10.00,16.46,0.28,0.20,1.47,1.96,1.00,-0.59,-7.40,-9.23,-12.99,-23.79,-10.46,-269.52,2.86
2920.00,9.00,19.06,0.00,0.00,1.25,1.20,1.00,-1.30,-80.00,-28.12,-60.00,-16.49,-11.64,-422.30,6.87
2921.00,9.00,11.73,0.03,0.03,1.33,1.27,1.50,0.00,-62.42,0.32,-43.93,-14.94,-10.15,75.00,-11.16
2923.00,10.00,18.90,0.78,0.44,2.00,4.22,2.00,-1.25,85.71,25.53,133.46,42.18,0.18,-632.54,8.47
2958.00,10.00,19.17,0.00,0.00,4.00,1.00,1.00,-1.50,-85.00,-9.23,-95.00,-51.81,40.36,-770.04,9.10
2969.00,10.00,6.90,0.00,0.00,,,,-1.00,-85.00,,-95.00,,,-495.03,-19.13
2990.00,9.00,8.19,0.08,0.08,1.08,1.87,1.00,-0.46,-33.12,-28.12,-17.15,-1.68,-14.82,-100.97,-19.86
3030.00,9.00,18.29,0.08,0.15,1.40,1.00,1.60,-0.83,7.90,6.01,-17.15,-20.91,-8.84,-242.51,4.98
3032.00,10.00,15.94,0.67,0.00,2.00,2.50,1.00,0.00,-85.00,-9.23,101.23,-8.03,0.18,55.00,1.67
3036.00,9.00,14.04,0.20,0.20,1.38,2.67,1.00,-1.62,37.21,-28.12,47.11,15.99,-9.21,-544.72,-5.48
3037.00,10.00,17.85,0.56,0.14,1.83,2.75,1.33,-1.09,-30.68,2.24,69.02,-0.73,-3.23,-544.53,6.06
3042.00,10.00,12.55,0.43,0.24,2.59,2.17,1.50,-0.06,8.12,8.15,30.94,-17.66,12.04,22.00,-6.13
3043.00,10.00,22.64,0.11,0.26,1.77,2.12,1.30,-1.18,15.88,1.20,-62.79,-19.12,-4.44,-594.03,17.08
3044.00,9.00,13.11,0.20,0.00,1.33,2.25,1.00,-0.60,-80.00,-28.12,47.11,6.71,-10.15,-154.52,-7.76
3049.00,9.00,14.25,0.16,0.18,1.59,2.40,1.36,0.19,25.49,-7.64,25.69,10.03,-5.29,147.68,-4.96
3052.00,10.00,16.42,0.90,0.39,2.94,4.91,1.33,1.17,66.32,2.24,168.60,62.32,19.07,698.53,2.77
3053.00,10.00,15.04,0.43,0.46,2.10,2.12,1.17,1.06,93.47,-3.32,30.94,-19.12,2.19,638.03,-0.41
3060.00,9.00,21.10,0.00,0.00,1.00,,,-1.00,-80.00,,-60.00,,-16.31,-307.55,11.88
3062.00,10.00,18.98,0.06,0.24,1.87,1.92,1.57,0.33,8.12,10.58,-77.42,-24.96,-2.43,236.51,8.66
3065.00,10.00,6.93,0.00,0.00,,,1.00,-2.00,-85.00,-9.23,-95.00,,,-1045.06,-19.06
3068.00,9.00,15.71,0.04,0.25,1.76,1.75,2.00,1.18,66.50,28.76,-38.58,-4.33,-2.11,526.40,-1.37
3071.00,10.00,12.52,0.27,0.09,1.86,2.78,1.00,-0.43,-50.08,-9.23,-15.92,0.15,-2.63,-181.51,-6.20
3076.00,10.00,15.61,0.22,0.33,1.50,1.57,,0.00,43.04,,-30.56,-35.17,-9.86,55.00,0.91
3077.00,10.00,18.29,0.58,0.58,2.89,4.78,,0.44,140.03,,74.88,58.52,18.06,297.01,7.07
3078.00,9.00,16.60,0.14,0.14,1.63,2.07,1.50,0.37,2.05,0.32,14.98,2.73,-4.54,216.54,0.82
3079.00,10.00,13.36,1.11,0.67,2.00,3.44,1.00,1.25,174.95,-9.23,230.11,19.41,0.18,742.54,-4.27
3080.00,9.00,14.64,0.00,0.00,1.70,1.67,1.40,-0.38,-80.00,-5.37,-60.00,-6.10,-3.23,-70.36,-4.00
3083.00,10.00,17.72,0.41,0.22,1.60,2.26,1.00,-0.80,0.36,-9.23,25.08,-15.03,-7.85,-385.02,5.76
3125.00,10.00,13.83,0.48,0.24,2.41,3.00,1.00,0.47,8.12,-9.23,45.59,6.57,8.42,313.52,-3.19
3126.00,9.00,15.59,0.04,0.04,1.19,1.55,1.12,-0.83,-56.56,-21.29,-38.58,-8.75,-12.76,-242.51,-1.66
3127.00,9.00,15.91,0.03,0.09,1.65,1.39,1.10,0.07,-27.26,-22.43,-43.93,-12.29,-4.17,101.77,-0.88
3129.00,10.00,17.76,0.51,0.26,2.55,2.98,1.15,0.07,15.88,-4.02,54.37,5.99,11.23,93.50,5.85
3134.00,10.00,15.70,0.67,0.47,2.46,3.60,1.00,0.21,97.35,-9.23,101.23,24.08,9.42,170.51,1.11
3137.00,10.00,17.21,0.62,0.51,2.11,3.25,1.33,0.97,112.87,2.24,86.59,13.87,2.39,588.53,4.59
3138.00,10.00,10.82,0.55,0.09,1.00,2.57,,0.22,-50.08,,66.09,-5.99,-19.91,176.01,-10.11
3145.00,10.00,9.47,0.00,0.00,,1.00,1.00,-2.00,-85.00,-9.23,-95.00,-51.81,,-1045.06,-13.22
3155.00,9.00,11.43,0.14,0.36,1.20,2.50,1.50,-0.64,130.97,0.32,14.98,12.24,-12.58,-169.83,-11.89
3163.00,9.00,19.29,0.00,0.12,1.27,1.36,1.36,-0.44,-9.68,-7.64,-60.00,-12.95,-11.27,-93.32,7.44
3178.00,10.00,14.05,0.00,0.00,1.00,2.00,,-1.00,-85.00,,-95.00,-22.62,-19.91,-495.03,-2.68
3194.00,10.00,17.49,0.75,0.75,1.50,3.25,,1.50,205.99,,124.67,13.87,-9.86,880.04,5.23
3213.00,9.00,16.13,0.00,0.00,2.50,1.00,1.00,-5.00,-80.00,-28.12,-60.00,-20.91,11.72,-1837.72,-0.34
3215.00,10.00,14.18,0.90,0.80,2.17,4.30,2.00,0.80,225.39,25.53,168.60,44.52,3.60,495.02,-2.38
3216.00,10.00,14.28,0.47,0.39,2.21,3.30,1.00,0.44,66.32,-9.23,42.65,15.33,4.40,297.01,-2.15
3217.00,10.00,17.62,0.64,0.00,2.75,4.67,1.00,0.08,-85.00,-9.23,92.44,55.31,15.25,99.00,5.53
3219.00,10.00,13.06,0.00,0.05,1.50,1.70,1.56,-0.53,-65.60,10.23,-95.00,-31.38,-9.86,-236.52,-4.96
3220.00,10.00,11.73,0.23,0.08,1.86,2.39,1.00,0.09,-53.96,-9.23,-27.64,-11.23,-2.63,104.50,-8.02
3223.00,9.00,16.84,0.10,0.10,1.73,1.25,1.77,0.21,-21.40,15.67,-6.44,-15.38,-2.67,155.33,1.41
3225.00,9.00,16.78,0.00,0.15,1.55,1.55,1.00,0.32,7.90,-28.12,-60.00,-8.75,-6.03,197.42,1.26
3228.00,10.00,20.82,2.00,0.00,3.00,5.00,,1.00,-85.00,,490.78,64.95,20.28,605.03,12.89
3229.00,10.00,22.59,0.96,0.46,3.62,5.71,1.00,0.18,93.47,-9.23,186.17,85.67,32.73,154.01,16.96
3234.00,10.00,14.98,0.14,0.14,2.60,3.00,,-1.00,-30.68,,-54.00,6.57,12.24,-495.03,-0.54
3237.00,10.00,29.63,0.50,1.00,2.00,3.50,1.67,0.50,302.98,14.06,51.44,21.17,0.18,330.02,33.16
3239.00,10.00,12.86,0.31,0.27,1.62,3.15,1.00,-0.62,19.75,-9.23,-4.21,10.94,-7.45,-286.02,-5.42
3246.00,9.00,19.21,0.06,0.29,1.64,2.36,1.60,-1.31,89.95,6.01,-27.86,9.14,-4.35,-426.13,7.24
3274.00,10.00,14.83,0.36,0.27,1.58,2.12,1.00,-0.20,19.75,-9.23,10.44,-19.12,-8.26,-55.01,-0.89
3275.00,10.00,18.81,0.12,0.25,1.60,1.67,1.00,-0.71,11.99,-9.23,-59.85,-32.25,-7.85,-335.52,8.27
3276.00,10.00,19.81,0.61,0.39,1.92,3.31,1.33,0.12,66.32,2.24,83.67,15.62,-1.42,121.01,10.57
3277.00,10.00,12.34,0.33,1.00,1.00,3.67,,-0.33,302.98,,1.65,26.12,-19.91,-126.51,-6.61
3350.00,9.00,14.57,0.71,0.14,1.20,3.17,1.00,0.00,2.05,-28.12,320.24,27.04,-12.58,75.00,-4.17
3374.00,10.00,19.20,0.00,0.60,1.75,3.80,1.33,-1.00,147.79,2.24,-95.00,29.92,-4.84,-495.03,9.16
3377.00,10.00,17.49,0.25,0.17,1.78,3.12,1.00,-1.55,-19.04,-9.23,-21.77,10.07,-4.24,-797.54,5.23
3403.00,10.00,15.74,0.00,0.20,1.00,2.00,1.00,0.80,-7.40,-9.23,-95.00,-22.62,-19.91,495.02,1.20
3409.00,10.00,18.75,0.85,0.81,2.06,3.04,1.25,1.75,229.27,-0.54,153.96,7.74,1.39,1017.56,8.13
3420.00,10.00,13.31,0.50,0.12,1.67,2.88,1.00,0.14,-38.45,-9.23,51.44,3.06,-6.45,132.01,-4.39
3424.00,9.00,17.58,0.00,0.11,2.00,2.00,2.00,-0.50,-15.54,28.76,-60.00,1.19,2.37,-116.27,3.23
3425.00,9.00,18.99,0.00,0.33,1.67,1.33,2.00,-3.67,113.39,28.76,-60.00,-13.61,-3.79,-1328.93,6.70
3431.00,9.00,17.57,0.17,0.08,2.40,1.90,1.22,0.82,-33.12,-15.61,31.04,-1.02,9.85,388.69,3.20
3441.00,10.00,13.89,0.27,0.32,1.70,2.50,1.29,0.03,39.16,0.85,-15.92,-8.03,-5.84,71.50,-3.05
3449.00,10.00,20.02,0.64,0.64,2.39,4.07,1.42,0.60,163.31,5.37,92.44,37.80,8.02,385.02,11.05
3450.00,9.00,15.06,0.00,0.00,1.29,2.25,1.75,-1.64,-80.00,14.54,-60.00,6.71,-10.89,-552.37,-2.97
3452.00,9.00,16.00,0.63,0.33,2.36,4.14,1.33,0.25,113.39,-9.35,277.40,48.47,9.10,170.63,-0.66
3453.00,9.00,15.90,0.08,0.08,1.75,1.33,1.00,-1.25,-33.12,-28.12,-17.15,-13.61,-2.30,-403.18,-0.90
3456.00,10.00,18.41,0.92,0.55,2.68,5.30,1.00,0.62,128.39,-9.23,174.46,73.70,13.84,396.02,7.35
3458.00,9.00,18.08,0.08,0.12,1.76,1.94,1.20,0.39,-9.68,-16.74,-17.15,-0.14,-2.11,224.19,4.46
3461.00,10.00,15.28,0.34,0.34,2.43,2.78,1.23,0.32,46.91,-1.24,4.58,0.15,8.82,231.01,0.15
3466.00,10.00,11.87,0.12,0.12,2.57,2.50,,0.83,-38.45,,-59.85,-8.03,11.64,511.53,-7.70
3470.00,9.00,20.88,0.00,0.00,1.78,2.62,1.20,-0.78,-80.00,-16.74,-60.00,14.89,-1.74,-223.38,11.34
3473.00,10.00,17.02,0.33,0.33,2.00,3.33,,2.00,43.04,,1.65,16.20,0.18,1155.06,4.15
3476.00,10.00,22.27,2.50,0.00,1.50,7.50,,1.50,-85.00,,637.22,137.92,-9.86,880.04,16.23
3481.00,10.00,21.50,1.57,0.71,4.55,6.33,1.29,0.67,190.47,0.85,364.84,103.77,51.42,423.52,14.45
3487.00,9.00,19.17,0.56,0.39,2.44,3.03,1.46,0.37,148.55,-1.95,239.91,23.95,10.60,216.54,7.14
3489.00,9.00,10.68,0.00,0.00,4.50,1.50,1.00,-1.00,-80.00,-28.12,-60.00,-9.86,49.09,-307.55,-13.74
3575.00,9.00,19.67,1.17,0.67,3.20,4.67,,0.50,312.64,,566.60,60.18,24.80,266.27,8.37
3579.00,10.00,17.64,1.00,0.00,2.00,5.00,,1.50,-85.00,,197.88,64.95,0.18,880.04,5.58
3582.00,9.00,24.20,0.00,0.00,1.00,2.00,3.00,2.00,-80.00,85.64,-60.00,1.19,-16.31,840.08,19.51
3583.00,10.00,19.34,1.67,0.33,3.33,4.33,,1.67,43.04,,394.13,45.39,26.90,973.55,9.48
3587.00,10.00,14.46,0.07,0.16,1.61,1.78,1.25,0.11,-22.92,-0.54,-74.50,-29.05,-7.65,115.51,-1.74
3588.00,9.00,18.02,0.07,0.07,1.60,1.38,1.60,0.55,-38.98,6.01,-22.51,-12.51,-5.10,285.40,4.31
3590.00,10.00,17.96,0.27,0.05,1.90,3.33,1.17,-0.47,-65.60,-3.32,-15.92,16.20,-1.83,-203.52,6.31
3627.00,10.00,15.31,0.47,0.56,2.15,4.41,1.00,0.48,132.27,-9.23,42.65,47.73,3.20,319.02,0.22
3631.00,10.00,14.44,0.23,0.21,2.19,3.15,1.17,0.23,-3.52,-3.32,-27.64,10.94,4.00,181.51,-1.78
3632.00,9.00,19.19,0.13,0.04,1.29,1.38,1.33,0.05,-56.56,-9.35,9.62,-12.51,-10.89,94.12,7.19
3633.00,9.00,15.33,0.00,0.00,1.40,1.40,1.75,0.75,-80.00,14.54,-60.00,-12.07,-8.84,361.91,-2.30
3635.00,9.00,17.15,0.00,0.05,2.00,1.25,1.71,-0.33,-50.70,12.27,-60.00,-15.38,2.37,-51.24,2.17
3657.00,10.00,15.17,0.50,0.14,1.79,2.75,1.50,0.24,-30.68,8.15,51.44,-0.73,-4.04,187.01,-0.10
3670.00,9.00,16.63,0.00,0.06,1.50,1.57,1.40,-0.61,-44.84,-5.37,-60.00,-8.31,-6.97,-158.35,0.89
3677.00,10.00,18.07,0.00,0.33,1.00,1.67,,0.00,43.04,,-95.00,-32.25,-19.91,55.00,6.57
3679.00,10.00,15.69,0.62,0.38,1.25,2.57,1.00,1.29,62.43,-9.23,86.59,-5.99,-14.88,764.54,1.09
3680.00,9.00,18.40,0.03,0.23,1.85,1.14,1.36,0.58,54.78,-7.64,-43.93,-17.81,-0.43,296.87,5.25
3684.00,9.00,16.54,0.00,0.17,2.50,1.75,1.50,-0.67,19.62,0.32,-60.00,-4.33,11.72,-181.31,0.67
3688.00,10.00,15.88,0.20,0.20,2.60,2.60,1.00,1.00,-7.40,-9.23,-36.42,-5.11,12.24,605.03,1.53
3697.00,9.00,17.60,0.05,0.05,1.71,1.77,1.67,0.90,-50.70,9.99,-33.22,-3.89,-3.04,419.29,3.28
3699.00,10.00,18.13,0.61,0.57,2.05,2.58,1.00,0.31,136.15,-9.23,83.67,-5.69,1.19,225.51,6.70
3701.00,10.00,17.10,0.56,0.11,2.83,3.75,1.25,0.12,-42.32,-0.54,69.02,28.46,16.86,121.01,4.33
3721.00,9.00,17.71,0.06,0.26,2.60,2.09,1.56,0.30,72.37,3.73,-27.86,3.18,13.59,189.77,3.55
3722.00,10.00,13.15,0.16,0.23,1.67,1.96,1.25,-0.24,4.23,-0.54,-48.14,-23.79,-6.45,-77.01,-4.75
3746.00,10.00,18.88,0.00,0.00,2.33,3.67,,-1.00,-85.00,,-95.00,26.12,6.81,-495.03,8.43
3780.00,10.00,16.18,1.00,0.58,3.00,3.64,1.17,0.83,140.03,-3.32,197.88,25.25,20.28,511.53,2.22
3781.00,10.00,17.16,0.20,0.40,2.60,4.00,,-0.20,70.19,,-36.42,35.75,12.24,-55.01,4.47
3823.00,10.00,20.82,0.33,0.61,1.93,2.89,1.75,0.35,151.67,16.84,1.65,3.35,-1.22,247.51,12.89
3846.00,10.00,18.11,0.35,0.32,2.23,2.81,1.00,-0.06,39.16,-9.23,7.51,1.02,4.80,22.00,6.66
3847.00,9.00,15.03,0.08,0.15,1.63,1.29,1.78,0.52,7.90,16.24,-17.15,-14.50,-4.54,273.92,-3.04
3849.00,10.00,17.70,0.58,0.33,2.45,3.27,1.33,0.45,43.04,2.24,74.88,14.45,9.22,302.51,5.72
3850.00,10.00,19.47,1.00,0.52,3.00,5.16,1.22,0.83,116.76,-1.58,197.88,69.62,20.28,511.53,9.79
3851.00,10.00,19.37,0.00,0.33,1.50,2.00,1.00,0.00,43.04,-9.23,-95.00,-22.62,-9.86,55.00,9.55
3853.00,9.00,17.93,0.00,0.75,4.00,2.50,1.00,0.25,359.52,-28.12,-60.00,12.24,39.75,170.63,4.09
3863.00,10.00,20.97,0.80,1.00,2.00,4.20,1.00,0.20,302.98,-9.23,139.31,41.59,0.18,165.01,13.24
3897.00,10.00,17.48,0.62,0.38,1.76,3.19,1.50,0.27,62.43,8.15,86.59,12.12,-4.64,203.51,5.21
3936.00,10.00,14.00,0.39,0.29,1.31,2.20,1.00,0.12,27.51,-9.23,19.23,-16.78,-13.68,121.01,-2.80
3939.00,9.00,15.20,0.00,0.13,1.43,1.17,1.71,-0.21,-3.82,12.27,-60.00,-17.15,-8.28,-5.33,-2.62
3949.00,9.00,15.70,0.00,0.00,2.00,1.33,1.00,0.25,-80.00,-28.12,-60.00,-13.61,2.37,170.63,-1.39
3950.00,10.00,15.04,0.76,0.40,2.36,3.38,1.14,0.72,70.19,-4.36,127.59,17.66,7.42,451.02,-0.41
3952.00,10.00,16.25,0.50,0.25,2.75,3.00,1.40,1.29,11.99,4.67,51.44,6.57,15.25,764.54,2.38
3954.00,9.00,20.02,0.20,0.00,3.60,2.20,2.00,-0.20,-80.00,28.76,47.11,5.61,32.27,-1.51,9.23
3955.00,9.00,16.84,0.17,0.36,1.57,1.78,1.18,0.50,130.97,-17.88,31.04,-3.67,-5.66,266.27,1.41
3956.00,10.00,13.44,0.11,0.22,2.40,1.80,1.00,-1.71,0.36,-9.23,-62.79,-28.46,8.22,-885.55,-4.08
3958.00,9.00,12.74,0.00,0.00,2.00,2.00,1.33,-0.25,-80.00,-9.35,-60.00,1.19,2.37,-20.63,-8.67
3961.00,9.00,15.18,0.30,0.00,1.70,1.71,2.50,-0.29,-80.00,57.20,100.67,-5.22,-3.23,-35.94,-2.67
3962.00,10.00,9.63,0.20,0.00,1.67,1.80,1.00,1.00,-85.00,-9.23,-36.42,-28.46,-6.45,605.03,-12.85
3963.00,10.00,9.45,0.00,0.00,1.33,1.67,2.00,-0.43,-85.00,25.53,-95.00,-32.25,-13.28,-181.51,-13.26
3965.00,9.00,13.59,0.04,0.12,2.33,2.07,1.25,0.70,-9.68,-13.90,-38.58,2.73,8.54,342.78,-6.58
3967.00,9.00,14.23,0.00,0.00,1.00,1.00,1.67,-0.33,-80.00,9.99,-60.00,-20.91,-16.31,-51.24,-5.01
3969.00,9.00,14.96,0.00,0.14,1.47,1.33,1.12,-0.33,2.05,-21.29,-60.00,-13.61,-7.53,-51.24,-3.21
3971.00,10.00,17.53,0.45,0.32,2.66,3.52,1.40,0.46,39.16,4.67,36.80,21.75,13.44,308.02,5.32
3973.00,10.00,16.81,0.25,0.25,1.67,3.86,,-0.38,11.99,,-21.77,31.67,-6.45,-154.01,3.67
3975.00,9.00,10.36,0.00,0.40,1.00,2.00,1.50,-0.50,154.41,0.32,-60.00,1.19,-16.31,-116.27,-14.52
3983.00,9.00,13.83,0.08,0.15,1.29,1.38,1.38,-0.44,7.90,-6.50,-17.15,-12.51,-10.89,-93.32,-5.99
3984.00,10.00,13.62,0.20,0.13,1.89,2.86,1.00,-0.07,-34.56,-9.23,-36.42,2.48,-2.03,16.50,-3.67
3986.00,10.00,19.80,0.30,0.48,2.80,3.57,1.33,0.74,101.23,2.24,-7.13,23.21,16.26,462.02,10.55
3988.00,10.00,18.61,0.56,0.28,3.14,3.42,1.25,1.12,23.64,-0.54,69.02,18.82,23.09,671.03,7.81
3990.00,9.00,17.21,0.61,0.56,2.69,3.12,1.67,0.13,248.18,9.99,266.69,25.93,15.27,124.73,2.32
4028.00,9.00,15.61,0.33,0.17,1.60,2.60,3.00,0.40,19.62,85.64,116.73,14.45,-5.10,228.01,-1.62
4072.00,10.00,20.85,0.09,0.45,2.40,2.80,1.75,-1.09,89.59,16.84,-68.64,0.73,8.22,-544.53,12.96
4076.00,10.00,27.49,0.50,0.33,1.25,2.25,,-3.67,43.04,,51.44,-15.33,-14.88,-1963.61,28.23
4106.00,10.00,17.22,0.86,0.71,4.76,5.95,2.00,0.65,190.47,25.53,156.88,92.67,55.64,412.52,4.61
4165.00,10.00,22.79,0.91,0.84,3.45,4.60,1.42,0.52,240.91,5.37,171.53,53.27,29.32,341.02,17.42
4166.00,10.00,15.80,0.22,0.28,2.32,2.17,1.17,0.08,23.64,-3.32,-30.56,-17.66,6.61,99.00,1.34
4167.00,9.00,19.64,0.04,0.04,2.00,1.44,2.11,0.62,-56.56,35.02,-38.58,-11.18,2.37,312.18,8.30
4173.00,9.00,16.67,0.00,0.18,1.64,1.54,1.30,0.00,25.49,-11.06,-60.00,-8.97,-4.35,75.00,0.99
4174.00,9.00,16.15,0.10,0.00,2.80,2.40,1.50,-1.12,-80.00,0.32,-6.44,10.03,17.32,-353.44,-0.29
4176.00,10.00,13.67,0.00,0.00,3.00,,,1.00,-85.00,,-95.00,,20.28,605.03,-3.56
4177.00,9.00,16.79,0.00,0.15,1.92,1.67,1.33,0.31,7.90,-9.35,-60.00,-6.10,0.88,193.59,1.29
4183.00,10.00,13.40,0.11,0.04,1.67,2.00,1.50,-0.10,-69.48,8.15,-62.79,-22.62,-6.45,-0.01,-4.18
4184.00,10.00,16.87,0.55,0.34,2.85,3.48,1.47,0.31,46.91,7.11,66.09,20.58,17.26,225.51,3.80
4188.00,10.00,17.60,0.52,0.28,2.30,2.57,1.18,0.38,23.64,-2.97,57.30,-5.99,6.21,264.01,5.48
4189.00,10.00,16.82,0.18,0.26,1.63,2.43,1.12,0.16,15.88,-5.06,-42.28,-10.07,-7.25,143.01,3.69
4190.00,9.00,15.00,0.00,0.00,2.00,1.20,1.57,-0.82,-80.00,4.30,-60.00,-16.49,2.37,-238.69,-3.12
4192.00,10.00,16.96,0.30,0.32,1.72,3.09,1.54,0.23,39.16,9.54,-7.13,9.19,-5.44,181.51,4.01
4195.00,10.00,14.47,0.07,0.23,1.11,1.52,1.44,-0.03,4.23,6.06,-74.50,-36.64,-17.70,38.50,-1.72
4196.00,10.00,15.39,0.25,0.05,2.21,2.29,1.17,0.40,-65.60,-3.32,-21.77,-14.16,4.40,275.01,0.40
4197.00,9.00,15.91,0.09,0.27,2.40,1.17,1.17,-0.70,78.22,-18.45,-11.80,-17.15,9.85,-192.78,-0.88
4200.00,9.00,15.33,0.00,0.00,1.56,1.00,1.12,-1.41,-80.00,-21.29,-60.00,-20.91,-5.85,-464.38,-2.30
4202.00,10.00,13.86,0.33,0.00,1.00,1.50,,2.00,-85.00,,1.65,-37.22,-19.91,1155.06,-3.12
4204.00,9.00,18.32,0.03,0.12,1.33,1.40,1.61,0.03,-9.68,6.58,-43.93,-12.07,-10.15,86.47,5.05
4205.00,9.00,13.56,0.04,0.12,1.64,1.33,1.50,-0.37,-9.68,0.32,-38.58,-13.61,-4.35,-66.54,-6.66
4208.00,9.00,24.52,0.33,0.50,3.13,3.32,2.04,-0.41,213.02,31.03,116.73,30.35,23.49,-81.84,20.30
4214.00,10.00,13.23,0.12,0.00,1.44,2.15,1.25,-1.33,-85.00,-0.54,-59.85,-18.24,-11.07,-676.54,-4.57
4216.00,10.00,12.07,0.00,0.05,2.71,1.64,1.00,-0.88,-65.60,-9.23,-95.00,-33.13,14.45,-429.03,-7.24
4217.00,10.00,13.27,0.25,0.00,1.00,1.67,,-0.50,-85.00,,-21.77,-32.25,-19.91,-220.02,-4.48
4218.00,10.00,13.17,0.03,0.03,1.50,1.85,1.11,-0.91,-73.36,-5.41,-86.21,-27.00,-9.86,-445.53,-4.71
4219.00,10.00,15.05,0.68,0.05,2.40,3.20,1.20,-0.19,-65.60,-2.28,104.17,12.41,8.22,-49.51,-0.38
4221.00,10.00,12.73,0.12,0.12,1.44,1.90,1.25,-0.92,-38.45,-0.54,-59.85,-25.54,-11.07,-451.03,-5.72
4224.00,10.00,10.96,0.35,0.15,1.41,2.18,1.20,-0.11,-26.80,-2.28,7.51,-17.37,-11.67,-5.51,-9.79
4225.00,9.00,19.50,0.33,0.44,2.00,2.29,2.00,0.89,177.86,28.76,116.73,7.60,2.37,415.46,7.95
4226.00,10.00,16.81,0.79,0.48,2.51,5.91,1.17,0.55,101.23,-3.32,136.38,91.51,10.43,357.52,3.67
4227.00,10.00,15.50,0.30,0.35,1.77,3.06,1.13,0.49,50.80,-4.71,-7.13,8.32,-4.44,324.52,0.65
4228.00,9.00,18.56,0.03,0.27,1.52,1.53,1.47,-0.30,78.22,-1.39,-43.93,-9.19,-6.59,-39.77,5.64
4229.00,10.00,19.14,0.18,0.00,1.89,2.90,1.50,-1.75,-85.00,8.15,-42.28,3.65,-2.03,-907.56,9.03
4232.00,9.00,15.82,0.02,0.16,2.09,1.84,1.40,0.07,13.77,-5.37,-49.29,-2.35,4.06,101.77,-1.10
4237.00,10.00,18.52,0.67,0.31,2.40,4.23,1.29,0.09,35.27,0.85,101.23,42.47,8.22,104.50,7.60
4241.00,10.00,,0.00,0.00,,,,,-85.00,,-95.00,,,,
4249.00,9.00,15.21,0.20,0.00,,1.00,1.00,0.00,-80.00,-28.12,47.11,-20.91,,75.00,-2.60
4253.00,10.00,17.71,0.00,0.00,3.50,2.00,,-0.50,-85.00,,-95.00,-22.62,30.32,-220.02,5.74
4254.00,10.00,14.62,0.59,0.29,2.62,4.31,,-0.07,27.51,,77.81,44.81,12.64,16.50,-1.37
4255.00,10.00,14.02,0.00,0.00,1.00,1.00,,1.50,-85.00,,-95.00,-51.81,-19.91,880.04,-2.75
4258.00,9.00,20.18,0.08,0.08,2.30,2.00,2.60,-0.33,-33.12,62.89,-17.15,1.19,7.98,-51.24,9.62
4259.00,9.00,14.50,0.00,0.00,2.50,2.33,1.00,0.50,-80.00,-28.12,-60.00,8.48,11.72,266.27,-4.34
4260.00,9.00,18.00,0.00,0.07,2.11,1.50,2.25,-0.86,-38.98,42.98,-60.00,-9.86,4.43,-253.99,4.26
4261.00,9.00,13.79,0.08,0.17,2.17,1.67,1.14,-0.30,19.62,-20.15,-17.15,-6.10,5.55,-39.77,-6.09
4262.00,9.00,19.53,0.12,0.06,3.31,2.25,1.64,-0.20,-44.84,8.28,4.27,6.71,26.86,-1.51,8.02
4263.00,10.00,14.44,0.24,0.18,1.93,2.58,1.00,0.43,-15.16,-9.23,-24.71,-5.69,-1.22,291.51,-1.78
4264.00,10.00,14.75,0.12,0.08,1.64,2.13,1.25,-0.22,-53.96,-0.54,-59.85,-18.82,-7.05,-66.01,-1.07
4265.00,10.00,18.89,0.12,0.75,2.71,1.86,,1.00,205.99,,-59.85,-26.71,14.45,605.03,8.45
4266.00,10.00,17.66,0.46,0.31,2.45,3.33,1.00,-1.36,35.27,-9.23,39.73,16.20,9.22,-693.04,5.62
4267.00,10.00,13.59,0.27,0.08,1.62,2.76,1.12,-0.20,-53.96,-5.06,-15.92,-0.44,-7.45,-55.01,-3.74
4268.00,10.00,16.19,0.14,0.00,1.33,2.17,1.00,-1.00,-85.00,-9.23,-54.00,-17.66,-13.28,-495.03,2.24
4281.00,10.00,15.96,0.20,0.08,1.67,1.95,1.75,-0.37,-53.96,16.84,-36.42,-24.08,-6.45,-148.51,1.71
4282.00,10.00,19.38,0.52,0.38,2.96,4.74,1.00,-0.46,62.43,-9.23,57.30,57.36,19.47,-198.02,9.58
4288.00,10.00,17.42,0.25,0.50,1.00,1.75,1.00,-0.75,109.00,-9.23,-21.77,-29.92,-19.91,-357.52,5.07
4298.00,10.00,12.58,0.00,0.00,2.50,,,1.00,-85.00,,-95.00,,10.23,605.03,-6.06
4303.00,10.00,12.20,0.31,0.08,1.62,1.87,1.17,0.24,-53.96,-3.32,-4.21,-26.41,-7.45,187.01,-6.94
4304.00,10.00,13.19,0.12,0.12,2.57,3.00,1.00,0.00,-38.45,-9.23,-59.85,6.57,11.64,55.00,-4.66
4307.00,10.00,14.86,0.50,0.50,2.00,4.00,,0.50,109.00,,51.44,35.75,0.18,330.02,-0.82
4308.00,10.00,12.45,0.30,0.20,1.00,2.00,,-0.12,-7.40,,-7.13,-22.62,-19.91,-11.01,-6.36
4309.00,10.00,20.11,0.33,0.17,4.60,6.67,3.33,-0.80,-19.04,71.77,1.65,113.69,52.42,-385.02,11.26
4311.00,10.00,15.38,0.00,0.33,1.00,1.67,1.67,0.50,43.04,14.06,-95.00,-32.25,-19.91,330.02,0.38
4312.00,10.00,20.43,0.76,0.48,2.84,5.07,1.00,-0.43,101.23,-9.23,127.59,66.99,17.06,-181.51,11.99
4313.00,9.00,20.37,0.00,0.00,1.40,2.40,1.33,-0.90,-80.00,-9.35,-60.00,10.03,-8.84,-269.29,10.09
4320.00,9.00,16.59,0.50,0.00,2.00,2.00,1.00,0.00,-80.00,-28.12,207.77,1.19,2.37,75.00,0.80
4321.00,9.00,18.83,0.22,0.17,2.72,2.31,1.68,0.67,19.62,10.56,57.82,8.04,15.83,331.31,6.30
4323.00,10.00,19.83,0.06,0.26,1.96,2.27,1.30,-0.27,15.88,1.20,-77.42,-14.74,-0.62,-93.51,10.61
4326.00,10.00,10.00,0.00,0.00,,,,-1.00,-85.00,,-95.00,,,-495.03,-12.00
4327.00,10.00,17.40,0.23,0.10,1.80,2.48,1.40,-0.55,-46.20,4.67,-27.64,-8.61,-3.84,-247.52,5.02
4329.00,9.00,15.33,0.18,0.09,2.11,2.57,1.64,0.20,-27.26,8.28,36.40,13.78,4.43,151.51,-2.30
4331.00,10.00,11.99,0.44,0.11,1.57,3.75,1.00,0.88,-42.32,-9.23,33.87,28.46,-8.46,539.03,-7.42
4332.00,10.00,12.01,0.00,0.00,1.33,1.00,1.50,-0.50,-85.00,8.15,-95.00,-51.81,-13.28,-220.02,-7.37
4334.00,9.00,12.95,0.12,0.12,1.50,1.00,1.00,0.40,-9.68,-28.12,4.27,-20.91,-6.97,228.01,-8.16
4335.00,10.00,11.39,0.50,0.00,1.33,1.50,1.00,0.00,-85.00,-9.23,51.44,-37.22,-13.28,55.00,-8.80
4336.00,9.00,23.92,0.11,0.17,1.70,1.85,1.50,0.29,19.62,0.32,-1.09,-2.12,-3.23,185.94,18.82
4337.00,10.00,19.30,0.31,0.20,3.29,4.22,1.31,0.24,-7.40,1.54,-4.21,42.18,26.10,187.01,9.39
4341.00,9.00,10.84,0.21,0.05,1.78,2.00,1.00,-1.21,-50.70,-28.12,52.46,1.19,-1.74,-387.88,-13.34
4342.00,10.00,19.61,0.60,0.47,2.49,4.58,1.28,0.86,97.35,0.50,80.73,52.69,10.03,528.03,10.11
4343.00,10.00,10.90,0.00,0.00,1.75,1.57,1.00,-1.55,-85.00,-9.23,-95.00,-35.17,-4.84,-797.54,-9.93
4345.00,10.00,14.46,0.21,0.21,1.46,1.92,1.00,-1.34,-3.52,-9.23,-33.50,-24.96,-10.67,-682.04,-1.74
4346.00,9.00,22.12,0.06,0.25,2.47,2.20,1.87,-0.91,66.50,21.37,-27.86,5.61,11.16,-273.11,14.40
4351.00,9.00,16.19,0.10,0.10,1.60,1.91,1.72,-0.71,-21.40,12.83,-6.44,-0.80,-5.10,-196.60,-0.19
4353.00,10.00,9.62,0.00,0.00,1.00,1.00,1.00,0.00,-85.00,-9.23,-95.00,-51.81,-19.91,55.00,-12.87
4354.00,9.00,14.20,0.03,0.08,1.75,1.46,1.47,-1.00,-33.12,-1.39,-43.93,-10.74,-2.30,-307.55,-5.08
4355.00,10.00,11.00,0.07,0.13,1.20,1.50,1.00,-0.73,-34.56,-9.23,-74.50,-37.22,-15.89,-346.52,-9.70
4357.00,10.00,14.57,0.00,0.00,1.00,5.00,,-2.00,-85.00,,-95.00,64.95,-19.91,-1045.06,-1.49
4359.00,9.00,13.38,0.00,0.00,1.00,1.00,2.00,4.00,-80.00,28.76,-60.00,-20.91,-16.31,1605.17,-7.10
4362.00,10.00,14.57,0.29,0.09,1.62,2.61,1.00,0.42,-50.08,-9.23,-10.06,-4.82,-7.45,286.01,-1.49
4367.00,10.00,12.03,0.29,0.29,1.78,2.78,1.00,1.00,27.51,-9.23,-10.06,0.15,-4.24,605.03,-7.33
4368.00,9.00,21.22,0.00,0.09,2.00,1.33,1.40,0.67,-27.26,-5.37,-60.00,-13.61,2.37,331.31,12.18
4369.00,9.00,11.24,0.00,0.00,,1.00,1.00,-0.50,-80.00,-28.12,-60.00,-20.91,,-116.27,-12.36
4372.00,9.00,15.10,1.00,0.00,2.00,2.00,,1.00,-80.00,,475.55,1.19,2.37,457.54,-2.87
4372.00,10.00,13.16,0.50,0.00,2.00,2.50,2.00,-0.50,-85.00,25.53,51.44,-8.03,0.18,-220.02,-4.73
4373.00,10.00,12.47,0.18,0.18,1.62,2.00,,0.00,-15.16,,-42.28,-22.62,-7.45,55.00,-6.32
4375.00,9.00,15.93,0.11,0.21,1.41,1.40,1.33,0.42,43.06,-9.35,-1.09,-12.07,-8.65,235.67,-0.83
4379.00,10.00,20.36,1.00,0.83,4.60,3.50,1.00,2.40,237.03,-9.23,197.88,21.17,52.42,1375.07,11.83
4380.00,10.00,17.95,0.14,0.57,2.00,2.71,,-0.20,136.15,,-54.00,-1.90,0.18,-55.01,6.29
4384.00,10.00,18.09,0.70,0.49,2.45,3.64,1.00,0.57,105.11,-9.23,110.02,25.25,9.22,368.52,6.61
4389.00,10.00,15.34,0.42,0.20,2.35,3.88,1.17,0.19,-7.40,-3.32,28.02,32.25,7.22,159.51,0.29
4392.00,9.00,16.06,0.11,0.33,2.00,2.50,1.33,-0.78,113.39,-9.35,-1.09,12.24,2.37,-223.38,-0.51
4395.00,10.00,24.42,1.00,1.00,4.00,5.00,2.00,2.00,302.98,25.53,197.88,64.95,40.36,1155.06,21.17
4398.00,10.00,14.67,0.33,0.33,1.00,4.00,2.00,0.00,43.04,25.53,1.65,35.75,-19.91,55.00,-1.26
4400.00,10.00,18.18,0.65,0.23,3.05,4.24,1.00,0.00,4.23,-9.23,95.38,42.76,21.28,55.00,6.82
4401.00,10.00,10.41,0.00,0.00,,,1.33,-1.42,-85.00,2.24,-95.00,,,-726.04,-11.05
4402.00,10.00,13.58,0.28,0.09,1.71,2.38,1.25,-0.26,-50.08,-0.54,-12.99,-11.53,-5.64,-88.01,-3.76
4405.00,10.00,17.02,0.00,0.00,3.00,2.00,,-2.00,-85.00,,-95.00,-22.62,20.28,-1045.06,4.15
4412.00,10.00,12.74,0.00,0.22,1.50,1.87,1.29,-0.25,0.36,0.85,-95.00,-26.41,-9.86,-82.51,-5.69
4413.00,10.00,10.14,0.16,0.05,1.20,1.62,1.00,-0.75,-65.60,-9.23,-48.14,-33.71,-15.89,-357.52,-11.68
4419.00,10.00,13.09,0.00,0.00,1.33,2.00,1.00,0.00,-85.00,-9.23,-95.00,-22.62,-13.28,55.00,-4.89
4421.00,10.00,16.43,0.10,0.20,1.88,3.00,1.00,-0.62,-7.40,-9.23,-65.71,6.57,-2.23,-286.02,2.79
4422.00,10.00,12.38,0.35,0.12,2.56,2.43,1.36,-0.45,-38.45,3.28,7.51,-10.07,11.44,-192.51,-6.52
4424.00,9.00,15.65,1.00,0.00,,4.00,,-2.00,-80.00,,475.55,45.38,,-690.08,-1.52
4425.00,10.00,20.09,0.71,0.43,3.26,4.96,1.29,-0.27,81.84,0.85,112.95,63.78,25.50,-93.51,11.21
4432.00,9.00,17.20,0.20,0.20,1.88,1.31,1.63,0.50,37.21,7.72,47.11,-14.06,0.13,266.27,2.30
4433.00,10.00,26.87,4.00,1.00,2.00,9.00,1.00,1.00,302.98,-9.23,1076.55,181.70,0.18,605.03,26.81
4436.00,10.00,9.52,0.13,0.06,1.50,1.43,1.33,-0.80,-61.72,2.24,-56.92,-39.26,-9.86,-385.02,-13.10
4438.00,10.00,2.92,0.00,0.00,1.00,,,-1.00,-85.00,,-95.00,,-19.91,-495.03,-28.28
4440.00,10.00,13.87,0.29,0.14,1.55,2.20,1.75,-0.25,-30.68,16.84,-10.06,-16.78,-8.86,-82.51,-3.10
4442.00,9.00,11.23,0.33,0.00,1.00,1.00,,-0.50,-80.00,,116.73,-20.91,-16.31,-116.27,-12.38
4443.00,10.00,13.83,0.15,0.23,1.50,2.71,1.33,-0.14,4.23,2.24,-51.06,-1.90,-9.86,-22.01,-3.19
4444.00,9.00,18.99,0.07,0.07,2.00,1.71,1.36,-0.07,-38.98,-7.64,-22.51,-5.22,2.37,48.22,6.70
4445.00,9.00,17.46,0.07,0.10,1.52,1.53,1.33,0.43,-21.40,-9.35,-22.51,-9.19,-6.59,239.49,2.94
4446.00,10.00,16.65,0.58,0.29,3.45,5.94,1.00,0.42,27.51,-9.23,74.88,92.38,29.32,286.01,3.30
4447.00,9.00,16.83,0.04,0.04,2.39,2.00,1.46,0.16,-56.56,-1.95,-38.58,1.19,9.66,136.21,1.38
4448.00,10.00,17.00,0.39,0.29,2.46,3.15,1.30,0.32,27.51,1.20,19.23,10.94,9.42,231.01,4.11
4449.00,10.00,11.62,0.12,0.06,1.38,1.80,1.00,-0.89,-61.72,-9.23,-59.85,-28.46,-12.27,-434.53,-8.27
4451.00,9.00,15.81,0.00,0.15,1.58,1.57,1.25,-0.12,7.90,-13.90,-60.00,-8.31,-5.47,29.09,-1.12
4452.00,9.00,17.55,0.16,0.03,1.86,1.62,1.67,-0.21,-62.42,9.99,25.69,-7.21,-0.24,-5.33,3.16
4453.00,10.00,17.72,0.29,0.15,1.96,3.14,1.42,-0.15,-26.80,5.37,-10.06,10.65,-0.62,-27.51,5.76
4454.00,9.00,14.27,0.32,0.22,2.28,2.07,1.11,0.03,48.93,-21.86,111.38,2.73,7.61,86.47,-4.91
4455.00,10.00,14.49,0.62,0.16,2.00,2.74,1.18,0.10,-22.92,-2.97,86.59,-1.02,0.18,110.01,-1.67
4456.00,10.00,14.73,0.80,0.50,2.57,3.75,1.00,0.70,109.00,-9.23,139.31,28.46,11.64,440.02,-1.12
4458.00,9.00,10.32,0.00,0.00,1.00,1.00,,0.00,-80.00,,-60.00,-20.91,-16.31,75.00,-14.62
4459.00,10.00,12.80,0.23,0.20,1.68,2.12,1.00,-0.31,-7.40,-9.23,-27.64,-19.12,-6.25,-115.51,-5.56
4460.00,9.00,16.34,0.06,0.23,1.89,1.84,1.14,-0.10,54.78,-20.15,-27.86,-2.35,0.32,36.74,0.18
4463.00,9.00,14.17,0.11,0.06,1.75,1.67,1.38,1.20,-44.84,-6.50,-1.09,-6.10,-2.30,534.05,-5.16
4465.00,10.00,17.41,0.72,0.44,2.87,4.26,1.20,0.17,85.71,-2.28,115.88,43.34,17.66,148.51,5.05
4466.00,9.00,14.38,0.07,0.03,1.83,1.27,1.24,0.06,-62.42,-14.47,-22.51,-14.94,-0.80,97.95,-4.64
4467.00,9.00,15.27,0.00,0.00,2.00,1.00,,-0.67,-80.00,,-60.00,-20.91,2.37,-181.31,-2.45
4468.00,10.00,14.80,0.32,0.47,1.59,2.37,1.00,-0.03,97.35,-9.23,-1.27,-11.82,-8.06,38.50,-0.96
4470.00,10.00,10.89,0.15,0.40,1.40,1.93,1.00,0.08,70.19,-9.23,-51.06,-24.66,-11.87,99.00,-9.95
4471.00,10.00,12.89,0.17,0.09,1.60,1.94,1.00,-0.18,-50.08,-9.23,-45.21,-24.37,-7.85,-44.01,-5.35
4473.00,10.00,13.49,0.50,0.20,2.40,3.00,1.33,-0.25,-7.40,2.24,51.44,6.57,8.22,-82.51,-3.97
4475.00,9.00,22.54,0.00,0.00,1.50,1.17,1.40,-0.75,-80.00,-5.37,-60.00,-17.15,-6.97,-211.91,15.43
4476.00,9.00,18.29,0.00,0.25,2.33,2.00,3.00,-0.75,66.50,85.64,-60.00,1.19,8.54,-211.91,4.98
4477.00,10.00,12.60,0.08,0.12,1.21,1.40,1.33,-0.17,-38.45,2.24,-71.57,-40.14,-15.69,-38.51,-6.02
4484.00,10.00,19.59,0.30,0.10,2.00,3.00,1.00,-1.67,-46.20,-9.23,-7.13,6.57,0.18,-863.55,10.06
4485.00,10.00,14.99,0.27,0.27,1.33,2.33,1.00,0.18,19.75,-9.23,-15.92,-12.99,-13.28,154.01,-0.52
4487.00,10.00,25.47,0.91,0.45,5.44,7.54,1.33,-0.95,89.59,2.24,171.53,139.09,69.30,-467.53,23.59
4488.00,10.00,15.46,0.60,0.25,2.43,4.19,1.00,0.20,11.99,-9.23,80.73,41.30,8.82,165.01,0.56
4489.00,10.00,14.75,0.20,0.20,1.55,2.39,1.25,0.21,-7.40,-0.54,-36.42,-11.23,-8.86,170.51,-1.07
4490.00,10.00,11.54,0.12,0.16,1.55,1.73,1.00,0.18,-22.92,-9.23,-59.85,-30.50,-8.86,154.01,-8.46
4491.00,10.00,14.84,0.46,0.14,2.07,2.84,1.20,-0.79,-30.68,-2.28,39.73,1.90,1.59,-379.52,-0.86
4492.00,9.00,19.52,0.07,0.17,2.20,2.38,1.69,0.54,19.62,11.13,-22.51,9.58,6.11,281.57,8.00
4495.00,9.00,17.58,0.14,0.19,2.04,1.50,1.87,0.00,31.34,21.37,14.98,-9.86,3.12,75.00,3.23
4499.00,10.00,14.99,0.46,0.34,1.72,3.03,1.14,-0.03,46.91,-4.36,39.73,7.44,-5.44,38.50,-0.52
4500.00,10.00,14.15,0.24,0.29,1.62,2.50,1.08,0.07,27.51,-6.45,-24.71,-8.03,-7.45,93.50,-2.45
4501.00,9.00,9.42,0.50,0.00,3.00,1.00,,-0.50,-80.00,,207.77,-20.91,21.06,-116.27,-16.84
4502.00,10.00,10.82,0.07,0.00,1.00,2.00,1.25,-0.44,-85.00,-0.54,-74.50,-22.62,-19.91,-187.01,-10.11
4508.00,10.00,11.61,0.20,0.20,1.88,2.67,1.00,0.31,-7.40,-9.23,-36.42,-3.06,-2.23,225.51,-8.29
4509.00,9.00,19.59,0.36,0.28,2.53,3.76,1.45,-0.83,84.09,-2.52,132.80,40.08,12.28,-242.51,8.17
4510.00,9.00,22.46,0.03,0.17,2.18,1.82,3.03,-0.38,19.62,87.35,-43.93,-2.79,5.74,-70.36,15.23
4511.00,9.00,16.02,0.00,0.40,1.33,1.00,1.00,0.80,154.41,-28.12,-60.00,-20.91,-10.15,381.04,-0.61
4513.00,10.00,13.96,0.54,0.14,1.68,2.95,1.33,0.04,-30.68,2.24,63.16,5.11,-6.25,77.00,-2.89
