ID player,amplua,time,G,As,TB,Shot,BT,pm,dev_As,dev_BT,dev_G,dev_Shot,dev_TB,dev_pm,dev_time
1.00,10.00,11.93,0.08,0.18,1.41,1.70,1.35,-0.60,-15.52,2.61,-71.52,-31.58,-12.39,-253.19,-7.45
3.00,10.00,14.19,0.03,0.09,1.20,1.67,1.44,-1.09,-50.26,5.72,-86.19,-32.45,-16.50,-504.88,-2.23
8.00,9.00,19.85,0.10,0.12,1.81,2.23,1.38,0.55,-6.97,-7.78,-6.79,5.83,-1.41,298.80,9.20
10.00,9.00,17.79,0.71,0.29,3.71,4.71,1.33,0.14,96.50,-10.57,317.78,60.14,33.86,131.97,4.09
10.00,10.00,15.27,2.00,0.50,4.00,5.00,,0.00,108.01,,492.21,64.35,38.32,55.00,0.26
13.00,10.00,11.70,0.18,0.06,2.51,2.67,1.36,0.28,-61.84,2.95,-42.15,-3.38,9.14,198.83,-7.98
14.00,10.00,20.11,0.25,0.00,1.75,3.25,1.00,-3.50,-85.00,-9.47,-21.60,13.48,-5.74,-1742.79,11.44
17.00,9.00,13.74,0.14,0.14,2.27,3.20,,0.12,5.21,,14.50,27.07,7.13,123.83,-5.95
18.00,10.00,17.21,0.70,0.30,2.60,4.70,2.00,0.90,30.80,25.05,110.52,55.63,10.90,517.29,4.74
19.00,9.00,15.13,0.08,0.00,1.57,3.00,1.50,-0.78,-80.00,-1.06,-17.43,22.69,-5.86,-242.39,-2.50
21.00,9.00,9.22,0.00,0.00,,2.00,,-2.00,-80.00,,-60.00,0.80,,-738.83,-17.15
22.00,10.00,11.60,0.21,0.21,1.60,2.00,1.50,-0.15,-3.94,7.79,-33.34,-22.86,-8.67,-22.05,-8.21
24.00,10.00,11.67,0.00,0.00,1.00,,1.00,-1.00,-85.00,-9.47,-95.00,,-20.42,-458.65,-8.05
25.00,10.00,16.68,0.47,0.22,2.29,3.48,1.20,-0.54,-0.08,-2.57,43.00,20.17,4.84,-222.37,3.52
26.00,9.00,11.96,0.05,0.05,1.62,1.38,2.00,-0.50,-49.57,26.91,-33.40,-12.78,-4.93,-128.45,-10.36
35.00,9.00,16.23,0.00,0.12,2.00,1.00,2.00,-0.89,-6.97,26.91,-60.00,-21.10,2.12,-287.15,0.22
37.00,9.00,16.19,0.00,0.00,2.00,1.33,1.00,-1.67,-80.00,-29.04,-60.00,-13.88,2.12,-604.54,0.12
39.00,9.00,15.38,0.50,0.50,,1.67,1.50,0.50,224.30,-1.06,206.05,-6.43,,278.45,-1.88
40.00,9.00,21.10,0.25,0.18,2.11,2.03,1.80,0.25,29.55,15.72,73.03,1.45,4.16,176.73,12.29
47.00,10.00,18.52,0.14,0.07,1.43,2.83,1.38,-1.64,-57.98,3.64,-53.89,1.27,-12.00,-787.39,7.77
49.00,10.00,12.80,0.06,0.11,1.45,1.57,1.14,-0.76,-42.54,-4.64,-77.39,-35.36,-11.61,-335.38,-5.44
51.00,9.00,15.98,0.09,0.22,1.63,1.91,1.33,-0.18,53.90,-10.57,-12.11,-1.18,-4.75,1.75,-0.40
53.00,9.00,22.05,0.03,0.15,1.62,1.60,1.65,-0.03,11.29,7.33,-44.04,-7.96,-4.93,62.79,14.65
55.00,10.00,15.34,0.00,0.00,3.00,1.00,1.00,-2.50,-85.00,-9.47,-95.00,-51.93,18.74,-1229.13,0.42
62.00,9.00,10.18,0.04,0.15,1.25,1.47,1.14,-0.44,11.29,-21.21,-38.72,-10.81,-11.80,-104.04,-14.77
63.00,10.00,11.86,0.00,0.04,1.27,1.50,1.00,-1.29,-69.56,-9.47,-95.00,-37.39,-15.14,-607.61,-7.61
64.00,10.00,11.97,0.17,0.17,1.40,1.33,1.00,-0.50,-19.38,-9.47,-45.09,-42.34,-12.59,-201.83,-7.36
66.00,9.00,18.76,0.00,0.09,1.50,1.62,1.55,-0.60,-25.22,1.73,-60.00,-7.52,-7.16,-169.15,6.50
74.00,9.00,14.21,0.28,0.22,1.73,2.62,1.15,0.26,53.90,-20.65,88.99,14.37,-2.89,180.80,-4.78
79.00,9.00,21.53,0.14,0.21,2.00,1.86,1.44,-0.40,47.81,-4.42,14.50,-2.27,2.12,-87.77,13.36
83.00,10.00,15.16,0.32,0.28,1.62,2.88,1.52,-0.30,23.09,8.48,-1.04,2.72,-8.28,-99.09,0.01
85.00,10.00,16.55,0.08,0.15,2.82,2.40,1.00,-1.77,-27.10,-9.47,-71.52,-11.23,15.21,-854.17,3.22
87.00,10.00,10.21,0.00,0.00,1.50,2.00,1.00,-0.33,-85.00,-9.47,-95.00,-22.86,-10.63,-114.50,-11.42
92.00,9.00,13.90,0.00,0.00,1.29,1.67,1.40,-0.22,-80.00,-6.66,-60.00,-6.43,-11.06,-14.52,-5.55
94.00,9.00,21.60,0.33,0.11,3.29,2.44,2.75,-2.33,-13.06,68.88,115.59,10.43,26.06,-873.11,13.53
95.00,10.00,12.58,0.11,0.11,2.80,2.50,1.00,0.00,-42.54,-9.47,-62.70,-8.32,14.82,55.00,-5.95
104.00,9.00,13.51,0.22,0.16,1.33,1.70,1.25,-0.48,17.38,-15.05,57.06,-5.77,-10.31,-120.31,-6.52
107.00,9.00,15.98,0.08,0.38,2.10,1.80,1.33,-0.18,151.27,-10.57,-17.43,-3.59,3.98,1.75,-0.40
110.00,10.00,16.24,0.43,0.19,2.73,3.20,1.00,-0.22,-11.65,-9.47,31.25,12.03,13.45,-58.00,2.50
114.00,10.00,13.41,0.24,0.24,1.74,3.12,1.00,-0.10,7.64,-9.47,-24.54,9.70,-5.93,3.64,-4.03
115.00,10.00,12.06,0.08,0.14,1.79,1.71,1.00,-0.29,-30.96,-9.47,-71.52,-31.29,-4.95,-93.96,-7.15
116.00,9.00,14.94,0.07,0.11,2.00,1.71,2.06,0.78,-13.06,30.27,-22.75,-5.56,2.12,392.39,-2.97
117.00,10.00,14.53,0.30,0.12,1.76,2.38,1.08,0.20,-38.67,-6.71,-6.92,-11.81,-5.54,157.73,-1.45
118.00,9.00,15.77,0.00,0.04,1.60,1.41,1.50,-0.24,-55.66,-1.06,-60.00,-12.13,-5.31,-22.66,-0.92
120.00,10.00,15.77,0.90,0.20,3.47,4.53,1.00,0.62,-7.79,-9.47,169.24,50.69,27.94,373.47,1.42
121.00,10.00,19.55,0.33,0.22,1.84,2.76,1.37,-0.39,-0.08,3.30,1.89,-0.76,-3.98,-145.33,10.15
123.00,9.00,14.92,0.00,0.00,1.50,1.33,2.50,-0.50,-80.00,54.89,-60.00,-13.88,-7.16,-128.45,-3.02
124.00,9.00,17.59,0.29,0.26,2.27,2.97,1.12,-0.35,78.24,-22.33,94.31,22.03,7.13,-67.42,3.60
125.00,10.00,14.60,0.09,0.14,1.58,1.74,1.36,0.00,-30.96,2.95,-68.57,-30.42,-9.06,55.00,-1.28
126.00,9.00,11.87,0.10,0.28,1.53,1.79,1.12,0.75,90.41,-22.33,-6.79,-3.81,-6.60,380.18,-10.58
130.00,9.00,11.17,0.00,0.17,1.33,1.00,1.75,0.83,23.46,12.92,-60.00,-21.10,-10.31,412.74,-12.32
137.00,10.00,13.39,0.36,0.09,2.50,3.12,,0.00,-50.26,,10.70,9.70,8.95,55.00,-4.08
139.00,10.00,15.10,0.64,0.20,2.86,4.57,1.00,0.75,-7.79,-9.47,92.91,51.86,16.00,440.24,-0.13
142.00,10.00,13.22,0.33,0.22,1.40,2.12,1.00,-0.36,-0.08,-9.47,1.89,-19.37,-12.59,-129.92,-4.47
147.00,10.00,16.72,0.40,0.60,3.00,4.00,1.00,1.00,146.61,-9.47,22.44,35.28,18.74,568.65,3.61
148.00,10.00,15.55,0.51,0.44,1.95,3.58,1.00,0.63,84.85,-9.47,54.74,23.08,-1.82,378.60,0.91
149.00,10.00,13.81,0.14,0.00,2.00,1.75,1.00,-2.00,-85.00,-9.47,-53.89,-30.12,-0.84,-972.31,-3.11
150.00,10.00,13.16,0.13,0.20,1.58,1.97,1.33,-0.52,-7.79,1.92,-56.83,-23.73,-9.06,-212.10,-4.61
151.00,10.00,15.12,0.12,0.38,2.07,2.50,,-0.50,61.68,,-59.76,-8.32,0.53,-201.83,-0.08
155.00,10.00,14.53,0.21,0.14,2.37,2.03,1.33,-0.12,-30.96,1.92,-33.34,-21.98,6.40,-6.64,-1.45
156.00,10.00,14.26,0.00,0.13,1.57,1.86,1.00,-0.30,-34.82,-9.47,-95.00,-26.92,-9.26,-99.09,-2.07
157.00,10.00,11.34,0.14,0.14,1.25,1.33,1.00,-0.14,-30.96,-9.47,-53.89,-42.34,-15.53,-16.91,-8.81
158.00,9.00,21.10,0.24,0.14,3.19,2.64,1.50,-0.71,5.21,-1.06,67.70,14.81,24.21,-213.91,12.29
159.00,9.00,17.71,0.00,0.27,1.33,1.50,1.00,0.00,84.32,-29.04,-60.00,-10.15,-10.31,75.00,3.89
160.00,10.00,19.32,0.00,0.00,1.00,1.00,,-0.50,-85.00,,-95.00,-51.93,-20.42,-201.83,9.61
161.00,10.00,17.00,0.22,0.26,2.00,2.48,1.33,0.57,15.36,1.92,-30.41,-8.90,-0.84,347.78,4.26
162.00,9.00,18.74,0.06,0.25,2.00,1.53,1.39,-0.75,72.15,-7.22,-28.07,-9.50,2.12,-230.18,6.44
164.00,10.00,13.24,0.11,0.11,1.43,2.50,1.00,-0.33,-42.54,-9.47,-62.70,-8.32,-12.00,-114.50,-4.42
167.00,9.00,18.71,0.00,0.00,1.00,1.00,1.67,-2.17,-80.00,8.45,-60.00,-21.10,-16.44,-808.00,6.37
168.00,10.00,16.56,0.43,0.29,1.86,2.66,1.27,0.00,26.95,-0.15,31.25,-3.67,-3.58,55.00,3.24
169.00,9.00,17.50,0.08,0.18,2.10,1.79,1.33,0.14,29.55,-10.57,-17.43,-3.81,3.98,131.97,3.37
170.00,9.00,16.39,0.08,0.08,2.17,2.17,1.55,-0.20,-31.31,1.73,-17.43,4.51,5.27,-6.38,0.62
172.00,10.00,18.30,0.18,0.33,1.93,2.47,1.33,-0.15,42.38,1.92,-42.15,-9.19,-2.21,-22.05,7.26
174.00,10.00,16.84,0.32,0.28,1.80,3.18,1.14,-0.39,23.09,-4.64,-1.04,11.45,-4.76,-145.33,3.89
175.00,10.00,12.46,0.12,0.08,1.63,2.53,1.00,0.22,-54.12,-9.47,-59.76,-7.45,-8.09,168.00,-6.23
176.00,10.00,16.60,0.06,0.25,1.20,2.00,1.25,-0.17,11.50,-0.84,-77.39,-22.86,-16.50,-32.32,3.34
180.00,10.00,14.98,0.19,0.33,2.59,1.82,1.20,0.25,42.38,-2.57,-39.22,-28.09,10.71,183.41,-0.41
181.00,9.00,14.86,0.03,0.13,1.21,1.22,1.90,0.50,-0.88,21.32,-44.04,-16.28,-12.54,278.45,-3.17
182.00,10.00,15.97,0.40,0.20,2.75,4.00,1.00,0.25,-7.79,-9.47,22.44,35.28,13.84,183.41,1.88
184.00,10.00,13.96,0.26,0.31,1.33,2.37,1.00,0.00,34.66,-9.47,-18.66,-12.10,-13.96,55.00,-2.76
185.00,10.00,19.22,0.14,0.00,2.67,2.38,1.00,0.42,-85.00,-9.47,-53.89,-11.81,12.28,270.73,9.38
186.00,10.00,10.48,0.12,0.15,1.33,1.82,1.12,-0.03,-27.10,-5.33,-59.76,-28.09,-13.96,39.59,-10.80
187.00,10.00,12.45,0.12,0.19,1.64,1.81,1.44,-0.04,-11.65,5.72,-59.76,-28.38,-7.89,34.45,-6.25
190.00,10.00,16.77,0.45,0.39,1.69,2.48,1.24,-0.23,65.54,-1.19,37.13,-8.90,-6.91,-63.14,3.73
191.00,9.00,15.10,0.05,0.05,2.14,1.55,2.10,-0.12,-49.57,32.51,-33.40,-9.06,4.72,26.17,-2.58
193.00,10.00,19.65,1.13,0.33,2.77,5.87,1.50,0.80,42.38,7.79,236.78,89.64,14.23,465.92,10.38
194.00,10.00,20.17,0.57,0.54,2.39,3.67,1.47,0.44,123.45,6.75,72.35,25.69,6.79,281.01,11.58
198.00,10.00,10.80,0.00,0.00,1.00,,,-1.00,-85.00,,-95.00,,-20.42,-458.65,-10.06
202.00,9.00,19.38,0.19,0.27,1.67,2.03,1.44,-0.11,84.32,-4.42,41.10,1.45,-4.00,30.24,8.03
203.00,10.00,16.91,0.27,0.25,1.75,2.26,1.15,-0.23,11.50,-4.29,-15.72,-15.30,-5.74,-63.14,4.05
204.00,10.00,14.89,0.21,0.00,2.15,1.88,1.00,-0.67,-85.00,-9.47,-33.34,-26.35,2.10,-289.15,-0.62
206.00,10.00,16.88,0.00,0.00,,1.00,,-3.00,-85.00,,-95.00,-51.93,,-1485.96,3.98
207.00,9.00,19.82,0.05,0.14,1.50,1.72,1.20,-0.30,5.21,-17.85,-33.40,-5.34,-7.16,-47.07,9.12
208.00,10.00,18.38,0.83,0.36,3.13,5.31,1.45,0.16,53.97,6.06,148.69,73.37,21.28,137.19,7.44
209.00,10.00,14.57,0.25,0.22,1.61,3.19,1.50,-0.13,-0.08,7.79,-21.60,11.74,-8.48,-11.78,-1.35
210.00,9.00,25.11,0.00,0.40,1.60,1.00,1.00,-1.20,163.44,-29.04,-60.00,-21.10,-5.31,-413.29,22.23
213.00,9.00,17.75,0.00,0.55,2.00,1.20,1.25,1.22,254.73,-15.05,-60.00,-16.72,2.12,571.43,3.99
214.00,10.00,12.93,0.29,0.00,1.92,3.19,1.00,0.21,-85.00,-9.47,-9.85,11.74,-2.41,162.87,-5.14
215.00,9.00,15.34,0.00,0.00,1.60,1.14,1.45,-0.21,-80.00,-3.87,-60.00,-18.04,-5.31,-10.46,-1.98
216.00,9.00,16.19,0.10,0.00,1.53,1.93,1.21,-0.29,-80.00,-17.29,-6.79,-0.74,-6.60,-43.01,0.12
224.00,10.00,18.23,0.75,1.00,2.67,6.00,2.00,1.00,301.01,25.05,125.20,93.43,12.28,568.65,7.10
227.00,9.00,19.03,0.06,0.19,1.79,1.53,2.27,-0.94,35.63,42.02,-28.07,-9.50,-1.78,-307.50,7.16
228.00,10.00,10.50,0.15,0.15,1.63,2.08,1.33,-0.26,-27.10,1.92,-50.96,-20.53,-8.09,-78.55,-10.75
230.00,10.00,16.93,0.25,0.50,2.00,2.50,1.00,-1.25,108.01,-9.47,-21.60,-8.32,-0.84,-587.06,4.09
231.00,10.00,17.71,0.17,0.06,2.56,2.13,1.20,-0.60,-61.84,-2.57,-45.09,-19.08,10.12,-253.19,5.90
234.00,10.00,15.21,0.93,0.21,2.36,4.38,1.00,0.08,-3.94,-9.47,178.06,46.33,6.21,96.09,0.13
235.00,9.00,13.57,0.00,0.05,1.71,1.14,1.25,0.18,-49.57,-15.05,-60.00,-18.04,-3.26,148.25,-6.37
244.00,9.00,16.28,0.46,0.25,3.15,3.83,1.25,-0.24,72.15,-15.05,184.76,40.87,23.46,-22.66,0.35
246.00,10.00,13.58,0.00,0.00,1.00,1.50,2.00,-1.50,-85.00,25.05,-95.00,-37.39,-20.42,-715.48,-3.64
247.00,10.00,10.21,0.09,0.09,1.64,1.75,1.00,-1.00,-50.26,-9.47,-68.57,-30.12,-7.89,-458.65,-11.42
248.00,10.00,17.47,0.00,0.25,1.00,2.67,1.00,-1.67,11.50,-9.47,-95.00,-3.38,-20.42,-802.80,5.34
251.00,10.00,16.74,0.57,0.14,2.00,3.14,1.40,-0.71,-30.96,4.33,72.35,10.28,-0.84,-309.69,3.66
252.00,9.00,16.54,0.20,0.13,2.14,2.00,1.29,0.08,-0.88,-12.82,46.42,0.80,4.72,107.55,0.99
256.00,9.00,19.98,0.43,0.21,2.14,2.98,1.32,0.78,47.81,-11.13,168.80,22.25,4.72,392.39,9.52
262.00,10.00,14.14,0.66,0.16,2.48,4.13,1.00,0.58,-23.24,-9.47,98.78,39.07,8.56,352.92,-2.34
263.00,10.00,12.22,0.26,0.06,1.29,1.60,1.25,-0.29,-61.84,-0.84,-18.66,-34.49,-14.74,-93.96,-6.78
265.00,9.00,17.35,0.00,0.40,1.33,2.00,1.67,-0.67,163.44,8.45,-60.00,0.80,-10.31,-197.63,3.00
269.00,9.00,13.86,0.50,0.50,1.50,1.50,,0.00,224.30,,206.05,-10.15,-7.16,75.00,-5.65
272.00,10.00,15.48,0.67,0.33,2.00,4.12,1.75,1.29,42.38,16.42,101.72,38.77,-0.84,717.61,0.75
273.00,9.00,22.12,0.09,0.09,1.67,2.00,1.50,0.91,-25.22,-1.06,-12.11,0.80,-4.00,445.29,14.82
274.00,10.00,18.11,0.09,0.11,1.77,1.79,1.88,-0.17,-42.54,20.91,-68.57,-28.97,-5.34,-32.32,6.82
277.00,9.00,18.61,0.22,0.11,1.81,2.60,1.62,-0.22,-13.06,5.65,57.06,13.93,-1.41,-14.52,6.12
281.00,10.00,12.52,0.11,0.11,1.41,1.52,1.48,-0.06,-42.54,7.10,-62.70,-36.81,-12.39,24.18,-6.09
282.00,10.00,14.96,0.00,0.00,1.00,2.00,1.00,-1.00,-85.00,-9.47,-95.00,-22.86,-20.42,-458.65,-0.45
283.00,9.00,18.81,0.18,0.09,1.78,1.89,1.00,0.10,-25.22,-29.04,35.78,-1.61,-1.96,115.69,6.62
285.00,10.00,14.42,0.17,0.33,2.50,3.33,,0.00,42.38,,-45.09,15.80,8.95,55.00,-1.70
287.00,9.00,16.43,0.00,0.14,1.29,1.50,1.36,0.50,5.21,-8.90,-60.00,-10.15,-11.06,278.45,0.72
288.00,10.00,14.95,0.42,0.36,1.81,2.63,1.18,0.20,53.97,-3.26,28.32,-4.54,-4.56,157.73,-0.48
289.00,10.00,17.52,0.13,0.27,1.80,2.62,1.00,0.17,19.23,-9.47,-56.83,-4.84,-4.76,142.32,5.46
292.00,9.00,14.30,0.00,0.09,1.40,1.33,1.77,-1.00,-25.22,14.04,-60.00,-13.88,-9.02,-331.91,-4.56
294.00,9.00,22.63,0.05,0.14,1.67,1.87,2.21,-0.65,5.21,38.67,-33.40,-2.05,-4.00,-189.50,16.08
295.00,10.00,14.94,0.24,0.10,1.89,2.54,1.20,-0.91,-46.40,-2.57,-24.54,-7.16,-3.00,-412.42,-0.50
298.00,10.00,14.45,0.31,0.19,1.75,2.07,1.00,-0.43,-11.65,-9.47,-3.98,-20.83,-5.74,-165.87,-1.63
299.00,10.00,17.56,0.25,0.27,1.30,2.00,1.11,-0.40,19.23,-5.68,-21.60,-22.86,-14.55,-150.46,5.55
301.00,9.00,14.05,0.00,0.00,1.00,2.00,1.00,1.00,-80.00,-29.04,-60.00,0.80,-16.44,481.91,-5.18
302.00,10.00,12.68,0.17,0.17,1.48,2.24,1.00,-0.86,-19.38,-9.47,-45.09,-15.88,-11.02,-386.74,-5.72
303.00,9.00,20.07,0.17,0.17,2.67,2.75,1.00,-0.25,23.46,-29.04,30.46,17.22,14.55,-26.73,9.74
305.00,10.00,15.56,0.44,0.34,1.80,3.21,1.38,-0.46,46.25,3.64,34.19,12.32,-4.76,-181.28,0.93
314.00,10.00,15.44,0.61,0.33,2.88,4.33,1.25,0.18,42.38,-0.84,84.10,44.87,16.39,147.46,0.65
328.00,10.00,12.29,0.30,0.10,1.87,2.93,1.50,0.83,-46.40,7.79,-6.92,4.18,-3.39,481.33,-6.62
333.00,10.00,12.76,0.34,0.34,2.62,3.43,1.20,0.26,46.25,-2.57,4.83,18.71,11.30,188.55,-5.53
334.00,10.00,14.44,0.22,0.22,1.50,2.74,1.29,0.30,-0.08,0.54,-30.41,-1.34,-10.63,209.09,-1.65
343.00,9.00,16.33,0.19,0.29,1.94,2.14,1.67,-0.05,96.50,8.45,41.10,3.86,1.00,54.65,0.47
349.00,9.00,23.45,0.00,1.00,1.00,5.00,1.00,-1.00,528.60,-29.04,-60.00,66.49,-16.44,-331.91,18.12
351.00,9.00,20.27,0.00,0.33,1.50,1.00,1.00,-3.00,120.84,-29.04,-60.00,-21.10,-7.16,-1145.74,10.24
353.00,9.00,10.76,0.00,0.04,1.70,1.62,2.00,-0.06,-55.66,26.91,-60.00,-7.52,-3.45,50.59,-13.33
354.00,10.00,21.00,0.40,0.60,2.00,6.20,1.00,0.20,146.61,-9.47,22.44,99.24,-0.84,157.73,13.50
356.00,9.00,22.20,0.17,0.17,2.33,2.71,2.64,-0.07,23.46,62.72,30.46,16.34,8.24,46.52,15.02
360.00,10.00,11.19,0.22,0.14,1.35,2.24,1.00,-0.21,-30.96,-9.47,-30.41,-15.88,-13.57,-52.87,-9.16
362.00,9.00,17.05,0.57,0.20,2.24,3.27,1.24,0.76,41.72,-15.61,243.29,28.60,6.57,384.25,2.26
364.00,10.00,13.01,0.25,0.25,1.33,2.25,2.00,0.25,11.50,25.05,-21.60,-15.59,-13.96,183.41,-4.96
365.00,10.00,1.93,0.00,0.00,,,,,-85.00,,-95.00,,,,-30.54
366.00,10.00,12.43,0.31,0.29,2.03,2.19,1.33,-0.25,26.95,1.92,-3.98,-17.33,-0.26,-73.41,-6.30
369.00,10.00,12.87,0.43,0.16,1.81,2.72,1.00,-0.19,-23.24,-9.47,31.25,-1.93,-4.56,-42.59,-5.28
370.00,9.00,9.59,0.00,0.00,1.00,1.33,1.00,0.00,-80.00,-29.04,-60.00,-13.88,-16.44,75.00,-16.23
372.00,9.00,15.05,0.07,0.07,1.35,1.08,1.74,0.57,-37.40,12.37,-22.75,-19.35,-9.94,306.94,-2.70
374.00,9.00,15.80,0.40,0.10,2.00,2.57,1.00,0.83,-19.14,-29.04,152.84,13.27,2.12,412.74,-0.84
375.00,10.00,15.83,0.53,0.31,1.93,3.30,1.25,0.64,34.66,-0.84,60.61,14.94,-2.21,383.74,1.56
376.00,10.00,8.46,0.17,0.00,1.50,1.80,,-1.00,-85.00,,-45.09,-28.67,-10.63,-458.65,-15.46
377.00,10.00,13.07,0.27,0.09,2.00,3.75,1.00,-0.14,-50.26,-9.47,-15.72,28.02,-0.84,-16.91,-4.82
378.00,10.00,15.96,0.29,0.25,2.64,3.40,1.75,-0.27,11.50,16.42,-9.85,17.84,11.69,-83.69,1.85
380.00,10.00,12.30,0.62,0.25,1.67,3.32,1.00,1.05,11.50,-9.47,87.04,15.51,-7.30,594.34,-6.59
381.00,9.00,16.57,0.19,0.12,1.60,1.60,2.10,-0.42,-6.97,32.51,41.10,-7.96,-5.31,-95.90,1.07
385.00,9.00,19.62,0.50,0.50,1.50,4.00,,1.50,224.30,,206.05,44.59,-7.16,685.37,8.62
387.00,10.00,20.26,0.39,0.44,2.02,2.98,1.00,-0.39,84.85,-9.47,19.50,5.63,-0.45,-145.33,11.79
388.00,10.00,13.81,0.31,0.20,1.68,2.37,1.33,-0.66,-7.79,1.92,-3.98,-12.10,-7.11,-284.01,-3.11
393.00,10.00,15.15,0.04,0.08,1.50,1.81,1.00,-1.15,-54.12,-9.47,-83.26,-28.38,-10.63,-535.70,-0.01
397.00,9.00,17.94,0.14,0.16,1.93,2.14,1.19,0.15,17.38,-18.41,14.50,3.86,0.82,136.03,4.46
399.00,9.00,17.59,0.28,0.09,1.93,2.34,1.54,-0.14,-25.22,1.17,88.99,8.24,0.82,18.03,3.60
402.00,9.00,16.81,0.06,0.11,1.25,1.25,1.50,0.43,-13.06,-1.06,-28.07,-15.63,-11.80,249.98,1.66
405.00,10.00,10.30,0.00,0.06,1.33,2.29,2.00,-1.27,-61.84,25.05,-95.00,-14.43,-13.96,-597.34,-11.21
406.00,10.00,15.24,0.37,0.17,2.18,3.54,1.00,0.07,-19.38,-9.47,13.63,21.91,2.68,90.95,0.19
407.00,9.00,15.43,0.14,0.10,1.58,1.76,1.44,0.78,-19.14,-4.42,14.50,-4.46,-5.68,392.39,-1.76
408.00,10.00,13.20,0.11,0.11,1.57,2.40,1.00,-1.40,-42.54,-9.47,-62.70,-11.23,-9.26,-664.11,-4.52
409.00,10.00,13.92,0.38,0.38,2.17,2.75,1.00,1.25,61.68,-9.47,16.57,-1.05,2.49,697.06,-2.86
410.00,10.00,16.77,0.46,0.41,2.21,3.49,1.20,0.50,73.26,-2.57,40.06,20.46,3.27,311.83,3.73
412.00,9.00,12.61,0.05,0.19,1.33,1.50,1.60,0.00,35.63,4.53,-33.40,-10.15,-10.31,75.00,-8.75
415.00,10.00,14.59,0.21,0.28,1.43,2.23,1.35,0.17,23.09,2.61,-33.34,-16.18,-12.00,142.32,-1.31
418.00,10.00,14.74,0.25,0.08,2.38,2.45,1.00,-0.20,-54.12,-9.47,-21.60,-9.78,6.60,-47.73,-0.96
419.00,10.00,13.60,0.18,0.24,1.70,1.79,1.48,0.09,7.64,7.10,-42.15,-28.97,-6.72,101.23,-3.59
429.00,10.00,9.10,0.00,0.00,2.00,1.33,,-0.67,-85.00,,-95.00,-42.34,-0.84,-289.15,-13.99
435.00,9.00,15.97,0.18,0.05,1.72,1.62,1.43,0.69,-49.57,-4.98,35.78,-7.52,-3.08,355.77,-0.42
438.00,9.00,11.95,0.04,0.22,1.25,1.70,1.20,-1.20,53.90,-17.85,-38.72,-5.77,-11.80,-413.29,-10.38
444.00,9.00,20.47,0.04,0.12,2.07,2.18,2.00,-0.05,-6.97,26.91,-38.72,4.73,3.42,54.65,10.73
445.00,10.00,18.63,0.31,0.04,1.95,3.36,1.50,-0.50,-69.56,7.79,-3.98,16.68,-1.82,-201.83,8.02
446.00,9.00,13.16,0.08,0.15,1.25,1.00,1.57,-0.36,11.29,2.85,-17.43,-21.10,-11.80,-71.49,-7.38
447.00,9.00,27.58,0.00,0.00,2.00,1.00,,-3.00,-80.00,,-60.00,-21.10,2.12,-1145.74,28.35
448.00,10.00,18.81,0.00,0.29,2.75,2.14,1.00,-1.86,26.95,-9.47,-95.00,-18.79,13.84,-900.39,8.44
450.00,9.00,21.77,0.00,0.18,2.29,2.33,2.00,-0.88,29.55,26.91,-60.00,8.02,7.50,-283.08,13.96
451.00,10.00,17.28,0.00,0.00,1.57,3.67,1.00,-2.50,-85.00,-9.47,-95.00,25.69,-9.26,-1229.13,4.90
452.00,9.00,14.79,0.09,0.05,1.80,1.36,1.36,0.53,-49.57,-8.90,-12.11,-13.22,-1.59,290.66,-3.34
453.00,10.00,12.31,0.27,0.36,1.80,2.62,1.00,1.43,53.97,-9.47,-15.72,-4.84,-4.76,789.53,-6.57
454.00,9.00,11.70,0.10,0.10,2.80,4.50,2.00,-0.57,-19.14,26.91,-6.79,55.54,16.97,-156.94,-11.00
456.00,9.00,17.47,0.02,0.23,1.79,2.32,1.61,0.97,59.98,5.09,-49.36,7.80,-1.78,469.70,3.30
459.00,10.00,8.14,0.33,1.33,,1.33,,0.50,428.40,,1.89,-42.34,,311.83,-16.20
460.00,10.00,14.23,0.08,0.14,1.25,1.72,1.30,-0.02,-30.96,0.88,-71.52,-31.00,-15.53,44.73,-2.14
461.00,10.00,13.80,0.19,0.06,1.43,2.46,1.00,-0.58,-61.84,-9.47,-39.22,-9.49,-12.00,-242.92,-3.13
464.00,10.00,12.80,0.50,0.50,3.00,1.50,,2.50,108.01,,51.80,-37.39,18.74,1339.13,-5.44
465.00,10.00,2.20,0.00,0.00,,,,,-85.00,,-95.00,,,,-29.92
466.00,10.00,12.21,0.20,0.10,1.25,1.29,,-1.50,-46.40,,-36.28,-43.50,-15.53,-715.48,-6.80
467.00,10.00,16.37,0.50,0.28,2.31,2.81,1.33,-0.13,23.09,1.92,51.80,0.69,5.23,-11.78,2.80
474.00,10.00,16.44,0.61,0.68,2.31,3.74,1.33,1.00,177.49,1.92,84.10,27.73,5.23,568.65,2.96
479.00,10.00,14.51,0.37,0.21,1.45,2.35,1.67,0.42,-3.94,13.66,13.63,-12.68,-11.61,270.73,-1.49
480.00,10.00,13.85,0.12,0.12,1.62,1.90,1.00,-0.18,-38.67,-9.47,-59.76,-25.77,-8.28,-37.45,-3.02
482.00,10.00,13.03,0.05,0.10,1.25,1.43,1.17,0.22,-46.40,-3.61,-80.32,-39.43,-15.53,168.00,-4.91
485.00,10.00,16.51,0.36,0.07,2.55,4.21,1.71,-0.93,-57.98,15.04,10.70,41.39,9.93,-422.70,3.13
486.00,9.00,8.30,0.00,0.00,,1.00,1.00,1.00,-80.00,-29.04,-60.00,-21.10,,481.91,-19.43
487.00,10.00,15.44,0.57,0.22,2.22,3.67,1.00,0.00,-0.08,-9.47,72.35,25.69,3.46,55.00,0.65
492.00,10.00,11.96,0.21,0.14,2.06,2.41,1.00,-0.52,-30.96,-9.47,-33.34,-10.94,0.33,-212.10,-7.38
495.00,9.00,18.60,0.06,0.21,2.25,2.05,1.81,-0.47,47.81,16.28,-28.07,1.89,6.76,-116.25,6.10
496.00,9.00,20.38,0.03,0.03,2.33,1.79,1.50,-0.71,-61.74,-1.06,-44.04,-3.81,8.24,-213.91,10.51
499.00,10.00,21.29,0.42,0.20,2.42,3.53,1.29,-0.78,-7.79,0.54,28.32,21.62,7.38,-345.65,14.16
500.00,10.00,4.50,0.00,0.00,,,,-3.00,-85.00,,-95.00,,,-1485.96,-24.61
501.00,10.00,15.88,0.15,0.10,1.00,1.86,1.75,-1.25,-46.40,16.42,-50.96,-26.92,-20.42,-587.06,1.67
506.00,9.00,20.80,0.00,0.00,,1.00,,-2.00,-80.00,,-60.00,-21.10,,-738.83,11.55
508.00,10.00,13.09,0.52,0.24,1.11,3.24,1.17,0.16,7.64,-3.61,57.67,13.19,-18.27,137.19,-4.77
519.00,9.00,19.11,0.00,0.00,1.80,1.20,1.50,-1.17,-80.00,-1.06,-60.00,-16.72,-1.59,-401.08,7.36
522.00,10.00,16.21,0.31,0.42,1.96,3.17,1.50,0.21,77.13,7.79,-3.98,11.15,-1.62,162.87,2.43
524.00,9.00,17.87,0.02,0.10,1.68,1.64,1.61,0.63,-19.14,5.09,-49.36,-7.09,-3.82,331.36,4.29
526.00,10.00,14.30,0.62,0.15,1.64,2.48,1.11,0.33,-27.10,-5.68,87.04,-8.90,-7.89,224.50,-1.98
527.00,9.00,15.61,0.05,0.14,1.56,1.79,1.67,0.39,5.21,8.45,-33.40,-3.81,-6.05,233.69,-1.31
531.00,9.00,13.90,0.41,0.14,1.61,2.70,1.00,0.00,5.21,-29.04,158.16,16.12,-5.12,75.00,-5.55
535.00,9.00,12.33,0.17,0.17,3.67,2.50,1.50,0.33,23.46,-1.06,30.46,11.74,33.11,209.28,-9.44
536.00,10.00,16.66,0.47,0.47,2.14,3.78,1.00,-0.89,96.42,-9.47,43.00,28.88,1.90,-402.15,3.47
541.00,9.00,11.86,0.00,0.00,1.60,1.40,1.00,-0.89,-80.00,-29.04,-60.00,-12.35,-5.31,-287.15,-10.61
543.00,10.00,15.16,0.60,0.25,1.20,3.50,1.56,0.07,11.50,9.86,81.17,20.75,-16.50,90.95,0.01
544.00,9.00,17.82,0.10,0.14,1.82,1.71,1.80,-0.19,5.21,15.72,-6.79,-5.56,-1.22,-2.31,4.16
545.00,10.00,17.15,0.15,0.06,1.91,2.21,1.62,-0.67,-61.84,11.93,-50.96,-16.75,-2.60,-289.15,4.61
551.00,10.00,15.70,0.42,0.08,1.88,3.17,1.00,0.14,-54.12,-9.47,28.32,11.15,-3.19,126.91,1.26
556.00,9.00,23.05,0.47,0.40,2.17,3.42,1.00,-0.50,163.44,-29.04,190.09,31.89,5.27,-128.45,17.13
557.00,10.00,20.45,0.09,0.13,2.47,2.57,2.25,-0.22,-34.82,33.68,-68.57,-6.29,8.36,-58.00,12.23
561.00,10.00,10.82,0.09,0.00,1.83,1.57,,-0.80,-85.00,,-68.57,-35.36,-4.17,-355.92,-10.01
564.00,9.00,14.00,0.00,0.00,,,,-3.00,-80.00,,-60.00,,,-1145.74,-5.30
568.00,9.00,19.55,0.26,0.13,1.91,2.27,1.80,-0.81,-0.88,15.72,78.34,6.71,0.45,-254.59,8.45
570.00,10.00,14.08,0.00,0.00,1.50,1.00,1.00,-0.50,-85.00,-9.47,-95.00,-51.93,-10.63,-201.83,-2.48
571.00,9.00,17.85,0.00,0.03,1.33,1.33,1.56,-1.39,-61.74,2.29,-60.00,-13.88,-10.31,-490.61,4.24
572.00,10.00,9.95,0.00,0.14,2.00,1.67,1.00,0.40,-30.96,-9.47,-95.00,-32.45,-0.84,260.46,-12.02
577.00,9.00,17.18,0.07,0.21,1.60,1.44,2.00,0.15,47.81,26.91,-22.75,-11.47,-5.31,136.03,2.58
583.00,10.00,15.92,0.31,0.25,2.46,3.00,1.40,-0.73,11.50,4.33,-3.98,6.21,8.16,-319.97,1.76
585.00,10.00,18.34,0.09,0.14,1.45,2.21,2.50,-1.82,-30.96,42.31,-68.57,-16.75,-11.61,-879.85,7.35
587.00,9.00,15.61,0.00,0.20,1.67,1.83,2.14,-0.23,41.72,34.75,-60.00,-2.93,-4.00,-18.59,-1.31
589.00,9.00,17.03,0.29,0.25,2.56,2.70,1.38,1.00,72.15,-7.78,94.31,16.12,12.51,481.91,2.21
590.00,9.00,23.98,0.22,0.11,1.93,1.87,2.73,-1.17,-13.06,67.76,57.06,-2.05,0.82,-401.08,19.43
592.00,9.00,17.71,0.00,0.10,1.96,1.61,1.64,0.18,-19.14,6.77,-60.00,-7.74,1.38,148.25,3.89
593.00,9.00,20.22,0.03,0.19,1.56,1.25,1.33,-0.22,35.63,-10.57,-44.04,-15.63,-6.05,-14.52,10.11
594.00,10.00,14.07,0.31,0.12,2.18,2.45,1.17,-1.00,-38.67,-3.61,-3.98,-9.78,2.68,-458.65,-2.51
595.00,10.00,9.72,0.00,0.17,2.00,1.00,1.00,-0.67,-19.38,-9.47,-95.00,-51.93,-0.84,-289.15,-12.55
597.00,10.00,16.65,0.28,0.11,2.08,2.25,1.20,-0.53,-42.54,-2.57,-12.79,-15.59,0.72,-217.23,3.45
601.00,10.00,20.13,0.00,0.00,3.00,6.00,,3.00,-85.00,,-95.00,93.43,18.74,1595.96,11.49
606.00,9.00,22.02,0.00,0.00,4.00,3.00,1.50,-3.00,-80.00,-1.06,-60.00,22.69,39.24,-1145.74,14.57
607.00,10.00,18.01,0.83,0.17,1.80,3.33,1.00,-1.67,-19.38,-9.47,148.69,15.80,-4.76,-802.80,6.59
610.00,10.00,15.12,0.35,0.35,2.42,3.14,1.33,-0.33,50.11,1.92,7.76,10.28,7.38,-114.50,-0.08
614.00,10.00,22.20,1.00,0.00,4.00,3.00,,1.00,-85.00,,198.61,6.21,38.32,568.65,16.27
616.00,9.00,9.78,0.00,0.25,,1.50,1.00,-2.00,72.15,-29.04,-60.00,-10.15,,-738.83,-15.76
618.00,9.00,20.70,0.22,0.24,2.09,2.62,1.89,-1.00,66.06,20.76,57.06,14.37,3.79,-331.91,11.30
619.00,9.00,21.94,0.03,0.19,1.52,1.50,1.59,-0.29,35.63,3.97,-44.04,-10.15,-6.79,-43.01,14.38
624.00,10.00,14.10,0.00,1.00,3.00,3.50,,1.00,301.01,,-95.00,20.75,18.74,568.65,-2.44
627.00,10.00,12.83,0.00,0.00,3.33,2.00,,-0.33,-85.00,,-95.00,-22.86,25.20,-114.50,-5.37
628.00,9.00,16.91,0.23,0.23,1.82,2.08,1.38,-0.50,59.98,-7.78,62.38,2.55,-1.22,-128.45,1.91
633.00,9.00,18.42,0.00,0.08,1.33,2.33,1.60,-1.33,-31.31,4.53,-60.00,8.02,-10.31,-466.19,5.65
636.00,9.00,18.63,0.04,0.04,1.62,1.50,1.60,-1.04,-55.66,4.53,-38.72,-10.15,-4.93,-348.19,6.17
646.00,10.00,14.99,0.40,0.34,3.27,3.44,1.00,0.53,46.25,-9.47,22.44,19.00,24.02,327.23,-0.39
647.00,9.00,23.42,0.14,0.14,2.00,2.10,1.14,1.07,5.21,-21.21,14.50,2.98,2.12,510.40,18.04
648.00,10.00,12.88,0.40,0.19,1.85,2.83,1.25,0.08,-11.65,-0.84,22.44,1.27,-3.78,96.09,-5.26
650.00,10.00,12.93,0.21,0.09,1.90,2.12,1.67,-0.64,-50.26,13.66,-33.34,-19.37,-2.80,-273.74,-5.14
651.00,10.00,18.37,0.32,0.32,1.90,2.66,1.00,-0.58,38.52,-9.47,-1.04,-3.67,-2.80,-242.92,7.42
652.00,10.00,18.62,0.38,0.19,2.29,3.48,1.20,-0.33,-11.65,-2.57,16.57,20.17,4.84,-114.50,8.00
654.00,10.00,18.73,0.40,0.47,2.03,2.95,1.00,-1.05,96.42,-9.47,22.44,4.76,-0.26,-484.34,8.25
655.00,9.00,17.39,0.02,0.13,1.45,1.41,1.74,0.09,-0.88,12.37,-49.36,-12.13,-8.09,111.62,3.10
657.00,10.00,14.07,0.23,0.28,2.24,2.63,1.20,-0.46,23.09,-2.57,-27.47,-4.54,3.86,-181.28,-2.51
662.00,10.00,10.17,0.09,0.13,1.00,1.28,1.17,0.00,-34.82,-3.61,-68.57,-43.79,-20.42,55.00,-11.51
670.00,9.00,19.23,0.00,0.00,1.00,2.00,1.57,-0.30,-80.00,2.85,-60.00,0.80,-16.44,-47.07,7.66
671.00,10.00,21.23,0.84,0.62,2.94,4.64,1.33,0.52,154.33,1.92,151.63,53.89,17.56,322.10,14.03
672.00,9.00,15.67,0.10,0.38,1.92,2.90,1.11,0.26,151.27,-22.89,-6.79,20.50,0.63,180.80,-1.16
675.00,10.00,17.63,0.16,0.23,2.09,2.29,1.67,0.56,3.78,13.66,-48.02,-14.43,0.92,342.64,5.71
676.00,9.00,16.53,0.00,0.25,1.67,1.78,1.29,1.20,72.15,-12.82,-60.00,-4.02,-4.00,563.29,0.97
678.00,10.00,13.48,0.06,0.06,1.91,1.50,1.00,0.15,-61.84,-9.47,-77.39,-37.39,-2.60,132.05,-3.87
680.00,10.00,18.45,0.61,0.64,2.36,4.00,1.08,0.32,162.05,-6.71,84.10,35.28,6.21,219.37,7.61
681.00,9.00,22.93,0.08,0.11,1.89,1.92,1.41,-0.21,-13.06,-6.10,-17.43,-0.96,0.08,-10.46,16.83
682.00,10.00,10.12,0.06,0.06,1.20,1.67,1.50,-0.50,-61.84,7.79,-77.39,-32.45,-16.50,-201.83,-11.63
684.00,10.00,11.50,0.24,0.28,1.33,1.76,1.00,0.21,23.09,-9.47,-24.54,-29.83,-13.96,162.87,-8.44
685.00,9.00,16.06,0.08,0.05,1.81,1.62,1.35,0.02,-49.57,-9.46,-17.43,-7.52,-1.41,83.14,-0.20
686.00,10.00,16.20,0.35,0.31,2.00,2.80,1.15,0.30,34.66,-4.29,7.76,0.40,-0.84,209.09,2.41
687.00,10.00,11.16,0.20,0.00,1.40,1.67,,-0.57,-85.00,,-36.28,-32.45,-12.59,-237.78,-9.23
688.00,10.00,19.56,0.12,0.25,1.83,2.67,1.00,0.00,11.50,-9.47,-59.76,-3.38,-4.17,55.00,10.17
689.00,10.00,13.18,0.28,0.28,1.93,2.67,1.00,0.26,23.09,-9.47,-12.79,-3.38,-2.21,188.55,-4.56
690.00,10.00,14.82,0.50,0.50,3.00,4.00,1.00,0.00,108.01,-9.47,51.80,35.28,18.74,55.00,-0.78
691.00,10.00,7.54,0.00,0.00,,1.67,,-1.67,-85.00,,-95.00,-32.45,,-802.80,-17.59
692.00,10.00,12.05,0.13,0.10,1.12,1.79,1.12,-0.08,-46.40,-5.33,-56.83,-28.97,-18.07,13.91,-7.17
693.00,9.00,12.81,0.02,0.02,1.30,1.24,1.38,0.00,-67.82,-7.78,-49.36,-15.85,-10.87,75.00,-8.25
694.00,9.00,14.61,0.00,0.11,1.73,1.67,1.50,0.87,-13.06,-1.06,-60.00,-6.43,-2.89,429.01,-3.79
696.00,9.00,18.99,0.10,0.21,2.31,2.31,1.67,0.16,47.81,8.45,-6.79,7.58,7.87,140.11,7.06
697.00,9.00,20.10,0.20,0.22,1.98,2.38,1.50,0.38,53.90,-1.06,46.42,9.12,1.75,229.63,9.82
698.00,9.00,18.76,0.00,0.33,1.00,1.00,1.33,-1.33,120.84,-10.57,-60.00,-21.10,-16.44,-466.19,6.50
699.00,9.00,18.45,0.13,0.09,3.00,3.38,1.31,0.25,-25.22,-11.70,9.17,31.01,20.68,176.73,5.72
700.00,10.00,15.72,0.70,0.70,2.63,4.50,1.25,1.10,185.21,-0.84,110.52,49.82,11.49,620.02,1.30
701.00,10.00,15.64,0.75,0.38,2.47,3.00,1.00,0.39,61.68,-9.47,125.20,6.21,8.36,255.33,1.12
704.00,10.00,18.78,0.50,0.50,1.50,1.40,2.00,-0.60,108.01,25.05,51.80,-40.30,-10.63,-253.19,8.37
708.00,9.00,14.61,0.25,0.00,1.50,2.33,1.00,1.17,-80.00,-29.04,73.03,8.02,-7.16,551.09,-3.79
710.00,10.00,11.45,0.00,0.25,3.00,2.00,,0.00,11.50,,-95.00,-22.86,18.74,55.00,-8.56
712.00,9.00,21.20,0.05,0.29,1.89,1.63,1.80,0.06,96.50,15.72,-33.40,-7.31,0.08,99.41,12.54
715.00,10.00,12.99,0.14,0.50,1.38,2.00,1.33,0.95,108.01,1.92,-53.89,-22.86,-12.98,542.97,-5.00
717.00,10.00,20.73,0.00,0.00,4.00,4.00,,,-85.00,,-95.00,35.28,38.32,,12.87
720.00,10.00,17.98,0.29,0.14,1.80,2.83,1.33,-0.80,-30.96,1.92,-9.85,1.27,-4.76,-355.92,6.52
724.00,10.00,17.54,0.24,0.35,3.27,3.76,1.67,0.12,50.11,13.66,-24.54,28.31,24.02,116.64,5.51
725.00,10.00,13.98,0.39,0.23,1.50,2.20,1.00,-0.45,3.78,-9.47,19.50,-17.04,-10.63,-176.14,-2.72
727.00,10.00,14.25,0.42,0.35,2.12,3.02,1.55,0.29,50.11,9.51,28.32,6.80,1.51,203.96,-2.09
729.00,9.00,14.18,0.12,0.19,1.86,2.36,1.00,-0.36,35.63,-29.04,3.85,8.68,-0.48,-71.49,-4.86
730.00,9.00,16.32,0.06,0.12,1.43,1.62,1.00,-0.48,-6.97,-29.04,-28.07,-7.52,-8.46,-120.31,0.45
731.00,9.00,14.78,0.00,0.15,1.17,1.60,1.57,0.22,11.29,2.85,-60.00,-7.96,-13.29,164.52,-3.37
733.00,10.00,16.32,0.51,0.25,2.41,3.50,1.50,0.41,11.50,7.79,54.74,20.75,7.18,265.60,2.69
734.00,10.00,16.01,0.43,0.35,2.67,3.95,1.00,-0.06,50.11,-9.47,31.25,33.83,12.28,24.18,1.97
738.00,9.00,14.80,0.04,0.04,1.46,2.00,1.14,-0.56,-55.66,-21.21,-38.72,0.80,-7.90,-152.87,-3.32
741.00,9.00,14.19,0.25,0.00,2.00,1.67,1.00,-1.50,-80.00,-29.04,73.03,-6.43,2.12,-535.37,-4.83
742.00,10.00,12.88,0.50,0.50,1.00,1.00,,-1.00,108.01,,51.80,-51.93,-20.42,-458.65,-5.26
746.00,10.00,20.18,0.52,0.30,2.05,3.71,2.00,0.07,30.80,25.05,57.67,26.85,0.14,90.95,11.60
747.00,10.00,13.00,0.33,0.00,1.00,1.80,,-0.50,-85.00,,1.89,-28.67,-20.42,-201.83,-4.98
748.00,9.00,16.85,0.10,0.24,2.20,2.82,1.50,0.52,66.06,-1.06,-6.79,18.75,5.83,286.60,1.76
749.00,10.00,16.02,0.81,0.35,2.38,3.77,1.00,-0.22,50.11,-9.47,142.82,28.60,6.60,-58.00,1.99
751.00,10.00,14.08,0.25,0.06,2.40,2.36,1.00,-0.71,-61.84,-9.47,-21.60,-12.39,6.99,-309.69,-2.48
755.00,10.00,19.16,0.21,0.24,1.66,2.30,1.35,0.45,7.64,2.61,-33.34,-14.13,-7.50,286.14,9.25
756.00,9.00,15.48,0.10,0.19,1.93,1.68,1.12,0.73,35.63,-22.33,-6.79,-6.21,0.82,372.05,-1.64
758.00,9.00,15.70,0.07,0.14,1.38,2.50,1.00,-1.18,5.21,-29.04,-22.75,11.74,-9.39,-405.16,-1.09
759.00,9.00,20.84,1.14,0.51,3.70,6.18,1.43,0.42,230.38,-4.98,546.59,92.33,33.67,245.90,11.65
763.00,10.00,13.90,0.42,0.39,1.95,3.03,1.40,0.75,65.54,4.33,28.32,7.09,-1.82,440.24,-2.90
764.00,10.00,18.12,1.00,0.40,1.50,4.00,,0.20,69.40,,198.61,35.28,-10.63,157.73,6.85
765.00,9.00,18.60,0.25,0.13,2.20,2.98,1.45,0.37,-0.88,-3.87,73.03,22.25,5.83,225.56,6.10
766.00,9.00,15.11,0.25,0.75,2.67,2.33,1.33,-1.00,376.45,-10.57,73.03,8.02,14.55,-331.91,-2.55
767.00,10.00,11.36,0.40,0.25,1.33,1.75,1.00,0.22,11.50,-9.47,22.44,-30.12,-13.96,168.00,-8.77
768.00,10.00,16.50,1.00,0.33,4.75,7.25,1.00,1.12,42.38,-9.47,198.61,129.76,53.00,630.29,3.10
769.00,9.00,11.58,0.50,0.00,1.50,1.33,1.00,0.75,-80.00,-29.04,206.05,-13.88,-7.16,380.18,-11.30
769.00,10.00,9.43,0.00,0.00,1.00,1.50,1.33,-0.86,-85.00,1.92,-95.00,-37.39,-20.42,-386.74,-13.22
772.00,9.00,25.41,0.00,0.12,2.50,3.29,1.43,-0.29,-6.97,-4.98,-60.00,29.04,11.40,-43.01,22.98
774.00,10.00,11.46,0.10,0.10,1.40,1.76,1.00,-0.60,-46.40,-9.47,-65.64,-29.83,-12.59,-253.19,-8.54
785.00,10.00,16.10,0.16,0.30,1.53,2.94,1.45,-0.23,30.80,6.06,-48.02,4.47,-10.04,-63.14,2.18
801.00,10.00,14.71,0.33,0.13,2.00,2.50,1.00,0.15,-34.82,-9.47,1.89,-8.32,-0.84,132.05,-1.03
805.00,10.00,12.44,0.00,0.04,1.38,1.80,1.00,-1.50,-69.56,-9.47,-95.00,-28.67,-12.98,-715.48,-6.27
806.00,10.00,23.41,0.94,0.59,3.33,5.47,1.58,0.70,142.75,10.55,180.99,78.02,25.20,414.56,19.06
807.00,10.00,17.56,0.19,0.06,2.11,2.31,1.83,-1.37,-61.84,19.18,-39.22,-13.84,1.31,-648.70,5.55
808.00,10.00,10.62,0.50,0.00,2.00,4.00,,2.00,-85.00,,51.80,35.28,-0.84,1082.31,-10.48
812.00,9.00,14.50,0.00,0.00,1.00,1.00,1.25,0.33,-80.00,-15.05,-60.00,-21.10,-16.44,209.28,-4.06
813.00,10.00,15.97,0.45,0.72,1.94,3.02,1.20,0.12,192.93,-2.57,37.13,6.80,-2.02,116.64,1.88
814.00,10.00,9.12,0.00,0.09,1.44,1.91,1.00,-0.81,-50.26,-9.47,-95.00,-25.47,-11.81,-361.06,-13.94
815.00,9.00,13.54,0.16,0.23,2.32,2.25,1.38,0.46,59.98,-7.78,25.13,6.27,8.06,262.18,-6.44
822.00,10.00,14.71,0.29,0.07,2.10,1.75,1.00,-0.46,-57.98,-9.47,-9.85,-30.12,1.12,-181.28,-1.03
824.00,9.00,13.26,0.03,0.03,1.56,1.28,1.25,-0.04,-61.74,-15.05,-44.04,-14.97,-6.05,58.72,-7.14
825.00,10.00,24.29,1.11,0.82,3.82,6.38,1.16,0.38,231.53,-3.95,230.91,104.47,34.79,250.19,21.09
830.00,10.00,19.18,0.41,0.53,2.51,4.55,1.11,-0.13,119.59,-5.68,25.37,51.27,9.14,-11.78,9.29
832.00,10.00,12.39,0.15,0.17,1.32,2.06,1.45,-0.24,-19.38,6.06,-50.96,-21.12,-14.16,-68.28,-6.39
837.00,9.00,8.81,0.06,0.06,1.17,2.25,1.50,-0.54,-43.48,-1.06,-28.07,6.27,-13.29,-144.73,-18.16
840.00,10.00,14.52,0.05,0.20,2.10,2.00,,-1.21,-7.79,,-80.32,-22.86,1.12,-566.52,-1.47
841.00,9.00,16.81,0.20,0.20,1.89,2.41,1.36,-0.17,41.72,-8.90,46.42,9.77,0.08,5.83,1.66
842.00,10.00,15.49,0.19,0.22,1.37,2.52,1.40,-0.78,-0.08,4.33,-39.22,-7.74,-13.18,-345.65,0.77
843.00,9.00,17.39,0.14,0.00,2.00,1.71,1.50,-0.57,-80.00,-1.06,14.50,-5.56,2.12,-156.94,3.10
850.00,10.00,15.43,0.31,0.31,1.90,3.21,1.50,-0.12,34.66,7.79,-3.98,12.32,-2.80,-6.64,0.63
851.00,10.00,23.81,1.40,0.40,2.25,3.60,1.00,-0.60,69.40,-9.47,316.05,23.65,4.05,-253.19,19.98
853.00,10.00,14.48,0.12,0.38,2.33,2.37,1.20,0.11,61.68,-2.57,-59.76,-12.10,5.62,111.50,-1.56
854.00,9.00,17.62,0.37,0.16,2.82,3.68,1.37,-0.76,17.38,-8.34,136.87,37.58,17.34,-234.25,3.67
855.00,10.00,13.81,0.30,0.26,1.71,2.76,1.00,0.61,15.36,-9.47,-6.92,-0.76,-6.52,368.33,-3.11
857.00,9.00,16.36,0.00,0.17,2.75,2.17,1.00,-1.80,23.46,-29.04,-60.00,4.51,16.04,-657.44,0.55
858.00,10.00,13.15,0.28,0.22,1.55,2.21,1.25,0.85,-0.08,-0.84,-12.79,-16.75,-9.65,491.61,-4.63
859.00,10.00,16.22,0.39,0.17,2.33,3.50,1.33,-0.64,-19.38,1.92,19.50,20.75,5.62,-273.74,2.46
860.00,9.00,14.52,0.10,0.00,1.80,1.50,1.00,0.00,-80.00,-29.04,-6.79,-10.15,-1.59,75.00,-4.02
863.00,10.00,18.52,0.18,0.18,2.89,2.16,1.75,-1.28,-15.52,16.42,-42.15,-18.21,16.58,-602.48,7.77
864.00,9.00,17.78,0.27,0.00,1.89,1.78,1.00,0.20,-80.00,-29.04,83.66,-4.02,0.08,156.38,4.06
876.00,10.00,12.47,0.26,0.13,1.90,2.20,1.33,0.00,-34.82,1.92,-18.66,-17.04,-2.80,55.00,-6.20
879.00,9.00,19.59,0.08,0.10,1.90,1.85,1.88,-0.52,-19.14,20.20,-17.43,-2.49,0.26,-136.60,8.55
883.00,10.00,19.97,0.56,0.82,2.33,4.41,1.22,0.79,231.53,-1.88,69.42,47.21,5.62,460.78,11.12
886.00,10.00,16.33,0.09,0.00,1.77,2.41,1.38,-1.06,-85.00,3.64,-68.57,-10.94,-5.34,-489.47,2.71
892.00,10.00,16.05,0.69,1.00,2.90,3.33,1.00,1.55,301.01,-9.47,107.59,15.80,16.78,851.16,2.06
896.00,9.00,17.56,0.00,0.20,2.00,2.00,2.00,0.25,41.72,26.91,-60.00,0.80,2.12,176.73,3.52
898.00,10.00,15.48,1.00,0.00,1.00,4.00,,-1.00,-85.00,,198.61,35.28,-20.42,-458.65,0.75
910.00,9.00,14.89,0.10,0.07,1.70,1.80,1.50,0.03,-37.40,-1.06,-6.79,-3.59,-3.45,87.21,-3.10
911.00,10.00,12.70,0.08,0.08,1.25,1.73,1.00,-0.75,-54.12,-9.47,-71.52,-30.71,-15.53,-330.24,-5.67
913.00,9.00,25.68,0.33,0.33,1.00,1.67,3.00,-1.00,120.84,82.87,115.59,-6.43,-16.44,-331.91,23.64
913.00,10.00,19.57,0.00,0.00,,,,0.00,-85.00,,-95.00,,,55.00,10.19
917.00,9.00,14.51,0.15,0.15,1.56,1.95,1.11,0.08,11.29,-22.89,19.81,-0.30,-6.05,107.55,-4.04
919.00,9.00,16.12,0.06,0.16,1.71,2.28,1.12,0.43,17.38,-22.33,-28.07,6.93,-3.26,249.98,-0.05
921.00,10.00,14.85,0.19,0.67,2.03,2.84,1.00,0.27,173.63,-9.47,-39.22,1.56,-0.26,193.69,-0.71
922.00,10.00,10.94,0.25,0.00,1.00,1.33,1.67,-0.20,-85.00,13.66,-21.60,-42.34,-20.42,-47.73,-9.74
923.00,10.00,13.41,0.50,0.00,2.50,2.00,,0.50,-85.00,,51.80,-22.86,8.95,311.83,-4.03
924.00,10.00,14.29,0.80,0.40,2.00,2.80,1.00,0.00,69.40,-9.47,139.89,0.40,-0.84,55.00,-2.00
925.00,10.00,7.88,0.00,0.00,2.00,1.50,1.00,-2.00,-85.00,-9.47,-95.00,-37.39,-0.84,-972.31,-16.80
926.00,10.00,,0.00,0.00,,,,,-85.00,,-95.00,,,,
928.00,10.00,9.92,0.00,0.00,1.25,1.33,1.00,0.00,-85.00,-9.47,-95.00,-42.34,-15.53,55.00,-12.09
929.00,10.00,11.37,0.29,0.50,1.60,2.38,1.00,0.18,108.01,-9.47,-9.85,-11.81,-8.67,147.46,-8.74
934.00,10.00,17.64,0.39,0.19,1.84,2.87,1.50,-0.11,-11.65,7.79,19.50,2.43,-3.98,-1.50,5.74
937.00,10.00,13.80,0.29,0.12,2.00,2.27,,-0.17,-38.67,,-9.85,-15.01,-0.84,-32.32,-3.13
939.00,10.00,14.80,0.00,0.00,1.00,2.25,1.00,-2.00,-85.00,-9.47,-95.00,-15.59,-20.42,-972.31,-0.82
940.00,9.00,20.00,0.00,0.14,3.00,2.71,1.00,-1.83,5.21,-29.04,-60.00,16.34,20.68,-669.64,9.57
942.00,9.00,21.73,0.67,0.33,5.33,4.33,,-1.67,120.84,,296.50,51.81,63.92,-604.54,13.86
946.00,9.00,17.89,0.00,0.09,1.33,1.50,1.25,-1.70,-25.22,-15.05,-60.00,-10.15,-10.31,-616.75,4.34
948.00,10.00,10.17,0.10,0.15,2.00,1.43,1.00,-1.00,-27.10,-9.47,-65.64,-39.43,-0.84,-458.65,-11.51
949.00,10.00,14.90,0.47,0.07,2.83,3.20,1.00,-0.17,-57.98,-9.47,43.00,12.03,15.41,-32.32,-0.59
950.00,10.00,10.02,0.17,0.08,1.40,1.80,1.00,0.50,-54.12,-9.47,-45.09,-28.67,-12.59,311.83,-11.86
951.00,10.00,15.30,0.32,0.41,2.50,3.92,1.70,-0.19,73.26,14.69,-1.04,32.96,8.95,-42.59,0.33
952.00,10.00,17.34,0.00,0.00,2.00,2.00,4.00,0.00,-85.00,94.10,-95.00,-22.86,-0.84,55.00,5.04
953.00,10.00,16.14,0.63,0.74,2.11,3.12,1.00,1.33,200.65,-9.47,89.97,9.70,1.31,738.16,2.27
960.00,9.00,15.26,0.07,0.07,1.88,1.60,1.36,0.34,-37.40,-8.90,-22.75,-7.96,-0.11,213.35,-2.18
962.00,9.00,16.42,0.04,0.12,1.67,1.80,1.74,0.19,-6.97,12.37,-38.72,-3.59,-4.00,152.31,0.70
963.00,9.00,16.06,0.05,0.16,2.48,1.80,1.54,0.60,17.38,1.17,-33.40,-3.59,11.03,319.15,-0.20
964.00,9.00,16.25,0.00,0.44,1.57,2.00,1.00,1.44,187.78,-29.04,-60.00,0.80,-5.86,660.95,0.27
967.00,10.00,14.35,0.24,0.53,2.25,2.67,1.00,0.43,119.59,-9.47,-24.54,-3.38,4.05,275.87,-1.86
971.00,10.00,17.15,0.17,0.34,1.57,2.04,1.53,0.96,46.25,8.82,-45.09,-21.69,-9.26,548.11,4.61
973.00,9.00,23.99,0.13,0.33,1.50,1.78,1.64,0.60,120.84,6.77,9.17,-4.02,-7.16,319.15,19.46
976.00,9.00,15.97,0.19,0.19,1.50,2.04,1.61,0.77,35.63,5.09,41.10,1.67,-7.16,388.32,-0.42
977.00,9.00,18.63,0.18,0.23,1.93,2.17,1.15,-0.31,59.98,-20.65,35.78,4.51,0.82,-51.14,6.17
981.00,9.00,19.54,0.09,0.16,1.88,2.23,2.33,0.25,17.38,45.38,-12.11,5.83,-0.11,176.73,8.43
982.00,10.00,20.91,0.81,0.58,3.25,4.49,1.18,0.30,138.89,-3.26,142.82,49.53,23.63,209.09,13.29
984.00,10.00,14.58,0.00,0.00,1.00,5.00,,-1.00,-85.00,,-95.00,64.35,-20.42,-458.65,-1.33
985.00,10.00,17.57,0.41,0.35,2.41,4.88,1.20,0.12,50.11,-2.57,25.37,60.86,7.18,116.64,5.58
986.00,9.00,19.75,0.18,0.18,1.85,2.05,1.23,0.54,29.55,-16.18,35.78,1.89,-0.66,294.74,8.95
988.00,10.00,16.97,0.56,0.63,2.17,3.42,1.00,0.53,158.19,-9.47,69.42,18.42,2.49,327.23,4.19
990.00,10.00,18.79,0.09,0.37,2.38,2.27,1.25,0.31,57.83,-0.84,-68.57,-15.01,6.60,214.23,8.39
994.00,10.00,18.80,1.00,0.50,1.00,3.50,1.00,-2.50,108.01,-9.47,198.61,20.75,-20.42,-1229.13,8.41
1000.00,9.00,22.95,0.04,0.11,1.87,1.77,1.76,-1.46,-13.06,13.48,-38.72,-4.24,-0.29,-519.09,16.88
1001.00,9.00,18.17,0.03,0.16,1.74,1.73,1.36,-0.09,17.38,-8.90,-44.04,-5.12,-2.71,38.38,5.03
1004.00,10.00,13.83,0.09,0.04,1.22,1.86,1.70,-0.95,-69.56,14.69,-68.57,-26.92,-16.11,-432.97,-3.06
1006.00,10.00,15.12,0.17,0.06,1.60,2.07,1.57,-1.27,-61.84,10.20,-45.09,-20.83,-8.67,-597.34,-0.08
1007.00,10.00,,0.00,0.00,,,,,-85.00,,-95.00,,,,
1008.00,9.00,20.29,0.00,0.17,1.80,2.00,1.67,0.40,23.46,8.45,-60.00,0.80,-1.59,237.76,10.29
1010.00,9.00,2.27,0.00,0.00,,1.00,,0.00,-80.00,,-60.00,-21.10,,75.00,-34.38
1013.00,10.00,14.96,0.15,0.29,1.39,2.00,1.25,-0.19,26.95,-0.84,-50.96,-22.86,-12.78,-42.59,-0.45
1014.00,9.00,11.12,0.00,0.00,1.45,2.36,1.00,-1.23,-80.00,-29.04,-60.00,8.68,-8.09,-425.50,-12.44
1015.00,10.00,7.70,0.00,0.00,,1.00,,-1.00,-85.00,,-95.00,-51.93,,-458.65,-17.22
1016.00,10.00,14.18,0.29,0.46,1.89,4.28,1.00,0.90,92.56,-9.47,-9.85,43.42,-3.00,517.29,-2.25
1017.00,9.00,24.01,0.05,0.11,1.52,1.67,2.47,-1.32,-13.06,53.21,-33.40,-6.43,-6.79,-462.12,19.50
1018.00,9.00,9.51,0.08,0.00,1.25,1.33,1.00,-0.56,-80.00,-29.04,-17.43,-13.88,-11.80,-152.87,-16.43
1021.00,10.00,8.84,0.00,0.00,2.67,2.20,1.00,-1.17,-85.00,-9.47,-95.00,-17.04,12.28,-545.97,-14.58
1024.00,10.00,5.31,0.00,0.00,,1.00,,-1.00,-85.00,,-95.00,-51.93,,-458.65,-22.74
1026.00,10.00,13.08,1.00,0.00,1.50,3.00,,0.00,-85.00,,198.61,6.21,-10.63,55.00,-4.79
1027.00,10.00,12.55,0.17,0.00,1.88,2.00,1.00,-0.44,-85.00,-9.47,-45.09,-22.86,-3.19,-171.01,-6.02
1033.00,10.00,13.40,0.11,0.09,1.82,2.46,1.55,-0.77,-50.26,9.51,-62.70,-9.49,-4.37,-340.51,-4.06
1034.00,10.00,5.80,0.00,0.00,,,,,-85.00,,-95.00,,,,-21.61
1036.00,9.00,8.27,0.00,0.06,1.29,1.00,1.00,-0.40,-43.48,-29.04,-60.00,-21.10,-11.06,-87.77,-19.50
1038.00,9.00,24.83,0.00,0.00,2.00,1.00,1.67,-3.67,-80.00,8.45,-60.00,-21.10,2.12,-1418.36,21.54
1039.00,10.00,17.83,0.17,0.11,1.64,1.40,1.83,-0.59,-42.54,19.18,-45.09,-40.30,-7.89,-248.06,6.17
1040.00,9.00,13.51,0.00,0.00,9.00,10.00,6.00,-2.50,-80.00,250.74,-60.00,175.97,132.03,-942.28,-6.52
1043.00,10.00,12.03,0.00,0.00,2.50,2.62,4.00,0.22,-85.00,94.10,-95.00,-4.84,8.95,168.00,-7.22
1048.00,9.00,13.88,0.57,0.43,2.00,2.57,1.00,1.17,181.70,-29.04,243.29,13.27,2.12,551.09,-5.60
1049.00,9.00,13.84,0.00,0.00,1.83,1.00,1.00,-0.44,-80.00,-29.04,-60.00,-21.10,-1.04,-104.04,-5.70
1054.00,9.00,14.43,0.00,0.10,2.00,,1.60,-0.11,-19.14,4.53,-60.00,,2.12,30.24,-4.24
1058.00,10.00,13.73,0.15,0.18,1.34,2.04,1.00,0.27,-15.52,-9.47,-50.96,-21.69,-13.76,193.69,-3.29
1059.00,10.00,20.97,0.25,0.25,2.00,2.00,2.50,-0.50,11.50,42.31,-21.60,-22.86,-0.84,-201.83,13.43
1064.00,9.00,17.77,0.44,0.32,4.36,4.12,1.25,0.67,114.75,-15.05,174.12,47.22,45.92,347.63,4.04
1066.00,10.00,15.63,0.19,0.15,2.20,2.33,1.17,-1.36,-27.10,-3.61,-39.22,-13.27,3.07,-643.57,1.10
1072.00,9.00,16.68,0.12,0.00,1.00,1.60,1.20,-2.14,-80.00,-17.85,3.85,-7.96,-16.44,-795.79,1.34
1073.00,9.00,11.89,0.00,0.00,1.00,,2.00,-0.80,-80.00,26.91,-60.00,,-16.44,-250.53,-10.53
1076.00,9.00,15.44,0.00,0.25,4.00,4.00,2.00,0.33,72.15,26.91,-60.00,44.59,39.24,209.28,-1.73
1080.00,9.00,13.91,0.20,0.40,2.40,2.00,1.50,1.00,163.44,-1.06,46.42,0.80,9.54,481.91,-5.52
1082.00,9.00,8.11,0.00,0.04,1.33,1.00,1.33,-0.23,-55.66,-10.57,-60.00,-21.10,-10.31,-18.59,-19.90
1085.00,10.00,11.67,0.00,0.15,1.50,1.50,1.00,0.56,-27.10,-9.47,-95.00,-37.39,-10.63,342.64,-8.05
1086.00,9.00,10.59,0.00,0.00,,1.00,1.00,0.00,-80.00,-29.04,-60.00,-21.10,,75.00,-13.76
1087.00,9.00,6.66,0.00,0.00,1.00,1.00,1.00,-0.62,-80.00,-29.04,-60.00,-21.10,-16.44,-177.28,-23.50
1090.00,10.00,10.28,0.08,0.12,2.38,3.12,1.00,-0.73,-38.67,-9.47,-71.52,9.70,6.60,-319.97,-11.26
1093.00,9.00,10.44,0.05,0.02,1.50,1.35,1.62,-0.12,-67.82,5.65,-33.40,-13.44,-7.16,26.17,-14.12
1095.00,10.00,13.21,0.00,0.00,1.00,1.00,2.00,0.67,-85.00,25.05,-95.00,-51.93,-20.42,399.15,-4.49
1100.00,9.00,21.18,0.00,0.20,1.83,1.55,1.40,0.64,41.72,-6.66,-60.00,-9.06,-1.04,335.42,12.49
1101.00,10.00,14.28,0.27,0.29,1.73,3.57,1.00,-0.06,26.95,-9.47,-15.72,22.79,-6.13,24.18,-2.02
1102.00,10.00,14.23,0.12,0.17,1.87,2.12,1.21,-0.95,-19.38,-2.23,-59.76,-19.37,-3.39,-432.97,-2.14
1104.00,10.00,7.98,0.00,0.00,,1.00,1.00,-1.00,-85.00,-9.47,-95.00,-51.93,,-458.65,-16.57
1105.00,9.00,11.82,0.00,0.16,1.60,1.42,1.11,0.21,17.38,-22.89,-60.00,-11.91,-5.31,160.45,-10.70
1107.00,9.00,17.50,0.33,0.33,2.70,2.10,1.50,-0.18,120.84,-1.06,115.59,2.98,15.11,1.75,3.37
1108.00,10.00,13.07,0.31,0.15,1.50,2.10,1.00,0.53,-27.10,-9.47,-3.98,-19.95,-10.63,327.23,-4.82
1109.00,10.00,15.87,0.00,0.00,1.00,2.00,1.00,-1.40,-85.00,-9.47,-95.00,-22.86,-20.42,-664.11,1.65
1112.00,10.00,8.38,0.00,1.00,2.00,2.50,,-1.67,301.01,,-95.00,-8.32,-0.84,-802.80,-15.65
1116.00,10.00,20.15,0.91,0.56,3.21,5.72,1.30,0.60,131.16,0.88,172.18,85.28,22.85,363.19,11.53
1118.00,10.00,13.95,0.27,0.27,1.57,2.88,1.00,1.10,19.23,-9.47,-15.72,2.72,-9.26,620.02,-2.79
1119.00,9.00,19.24,0.12,0.12,1.50,1.91,1.23,-0.10,-6.97,-16.18,3.85,-1.18,-7.16,34.31,7.68
1121.00,10.00,20.01,0.40,0.63,2.00,3.21,1.07,0.57,158.19,-7.06,22.44,12.32,-0.84,347.78,11.21
1122.00,10.00,12.46,0.18,0.12,1.52,1.91,1.22,0.41,-38.67,-1.88,-42.15,-25.47,-10.24,265.60,-6.23
1128.00,9.00,13.18,0.00,0.00,1.33,1.58,1.22,0.08,-80.00,-16.74,-60.00,-8.40,-10.31,107.55,-7.34
1129.00,9.00,5.92,0.00,0.00,1.00,,1.33,-0.90,-80.00,-10.57,-60.00,,-16.44,-291.22,-25.33
1132.00,9.00,7.65,0.00,0.00,1.50,1.50,1.00,-0.67,-80.00,-29.04,-60.00,-10.15,-7.16,-197.63,-21.04
1133.00,9.00,17.25,0.14,0.19,2.97,3.03,1.62,0.77,35.63,5.65,14.50,23.35,20.12,388.32,2.75
1135.00,9.00,20.69,0.20,0.00,2.00,1.00,1.00,1.20,-80.00,-29.04,46.42,-21.10,2.12,563.29,11.28
1136.00,9.00,13.00,0.04,0.17,2.10,1.47,1.29,-0.20,23.46,-12.82,-38.72,-10.81,3.98,-6.38,-7.78
1137.00,10.00,15.93,0.11,0.22,1.67,2.40,1.33,0.17,-0.08,1.92,-62.70,-11.23,-7.30,142.32,1.79
1139.00,10.00,12.85,0.50,0.50,2.00,2.00,,0.00,108.01,,51.80,-22.86,-0.84,55.00,-5.33
1140.00,10.00,16.99,0.75,0.21,2.55,4.21,1.40,-0.22,-3.94,4.33,125.20,41.39,9.93,-58.00,4.23
1143.00,9.00,14.75,0.25,0.00,1.50,1.50,2.00,-0.20,-80.00,26.91,73.03,-10.15,-7.16,-6.38,-3.44
1144.00,10.00,15.48,0.49,0.24,1.57,3.06,1.18,0.58,7.64,-3.26,48.87,7.95,-9.26,352.92,0.75
1145.00,10.00,14.65,1.00,0.00,2.00,2.00,,0.00,-85.00,,198.61,-22.86,-0.84,55.00,-1.17
1146.00,10.00,17.04,0.20,0.24,1.86,2.48,1.33,0.23,7.64,1.92,-36.28,-8.90,-3.58,173.14,4.35
1148.00,10.00,12.94,0.40,0.31,1.65,2.59,1.00,-0.06,34.66,-9.47,22.44,-5.70,-7.70,24.18,-5.12
1150.00,10.00,14.83,0.36,0.18,1.64,3.10,,1.20,-15.52,,10.70,9.12,-7.89,671.39,-0.75
1157.00,9.00,17.50,0.15,0.15,2.04,2.25,1.95,0.41,11.29,24.11,19.81,6.27,2.86,241.83,3.37
1159.00,9.00,23.67,0.00,0.15,1.33,1.57,2.00,-0.78,11.29,26.91,-60.00,-8.62,-10.31,-242.39,18.66
1162.00,10.00,17.71,0.00,0.00,2.00,2.00,1.00,-0.57,-85.00,-9.47,-95.00,-22.86,-0.84,-237.78,5.90
1165.00,10.00,14.21,0.15,0.15,1.58,2.44,1.50,0.22,-27.10,7.79,-50.96,-10.07,-9.06,168.00,-2.18
1177.00,9.00,14.17,0.06,0.06,1.17,1.00,1.75,-0.40,-43.48,12.92,-28.07,-21.10,-13.29,-87.77,-4.88
1180.00,10.00,6.90,0.00,0.00,,1.00,1.00,-1.50,-85.00,-9.47,-95.00,-51.93,,-715.48,-19.06
1186.00,10.00,15.37,0.00,0.00,1.00,1.50,1.00,-2.46,-85.00,-9.47,-95.00,-37.39,-20.42,-1208.59,0.49
1187.00,10.00,15.31,0.23,0.15,1.67,2.47,1.00,0.27,-27.10,-9.47,-27.47,-9.19,-7.30,193.69,0.36
1188.00,9.00,16.98,0.07,0.07,1.68,1.68,1.42,-0.32,-37.40,-5.54,-22.75,-6.21,-3.82,-55.22,2.08
1192.00,10.00,14.04,0.00,0.22,1.67,1.40,1.33,-0.27,-0.08,1.92,-95.00,-40.30,-7.30,-83.69,-2.58
1195.00,10.00,12.91,0.12,0.06,1.60,2.00,2.00,0.00,-61.84,25.05,-59.76,-22.86,-8.67,55.00,-5.19
1198.00,9.00,14.70,0.04,0.12,1.67,1.64,1.20,-0.29,-6.97,-17.85,-38.72,-7.09,-4.00,-43.01,-3.57
1204.00,10.00,16.12,0.35,0.00,1.50,1.78,1.00,-0.69,-85.00,-9.47,7.76,-29.26,-10.63,-299.42,2.23
1205.00,9.00,18.70,0.18,0.27,1.90,2.44,1.35,-0.81,84.32,-9.46,35.78,10.43,0.26,-254.59,6.34
1206.00,9.00,20.76,0.06,0.23,2.71,1.85,1.76,-0.17,59.98,13.48,-28.07,-2.49,15.29,5.83,11.45
1208.00,10.00,13.85,0.27,0.09,1.00,2.14,1.00,-0.62,-50.26,-9.47,-15.72,-18.79,-20.42,-263.47,-3.02
1213.00,9.00,20.46,0.09,0.24,2.94,1.74,1.78,-1.15,66.06,14.60,-12.11,-4.90,19.56,-392.95,10.71
1214.00,10.00,16.57,0.57,0.37,1.58,2.53,1.00,-0.30,57.83,-9.47,72.35,-7.45,-9.06,-99.09,3.27
1217.00,10.00,36.47,0.00,0.00,11.00,9.00,6.00,-1.00,-85.00,163.15,-95.00,180.64,175.37,-458.65,49.22
1218.00,10.00,15.91,0.34,0.15,2.00,3.03,1.29,-0.26,-27.10,0.54,4.83,7.09,-0.84,-78.55,1.74
1220.00,10.00,17.68,0.12,0.15,2.21,2.33,1.50,-0.94,-27.10,7.79,-59.76,-13.27,3.27,-427.83,5.83
1223.00,9.00,17.02,0.03,0.06,1.67,1.29,1.45,-1.00,-43.48,-3.87,-44.04,-14.75,-4.00,-331.91,2.18
1224.00,10.00,15.06,0.22,0.08,1.86,2.50,1.00,-0.83,-54.12,-9.47,-30.41,-8.32,-3.58,-371.33,-0.22
1226.00,10.00,14.39,0.00,0.00,1.56,1.33,1.44,-0.40,-85.00,5.72,-95.00,-42.34,-9.46,-150.46,-1.77
1228.00,10.00,21.81,0.55,0.18,2.24,4.62,1.78,-0.21,-15.52,17.45,66.48,53.31,3.86,-52.87,15.36
1229.00,10.00,14.37,0.24,0.22,1.53,2.03,1.00,-0.61,-0.08,-9.47,-24.54,-21.98,-10.04,-258.33,-1.82
1230.00,9.00,14.14,0.07,0.12,1.91,1.79,1.43,0.40,-6.97,-4.98,-22.75,-3.81,0.45,237.76,-4.96
1232.00,9.00,9.68,0.00,0.00,,,1.00,-2.00,-80.00,-29.04,-60.00,,,-738.83,-16.01
1233.00,10.00,15.75,0.59,0.20,2.78,4.33,1.29,0.39,-7.79,0.54,78.23,44.87,14.43,255.33,1.37
1234.00,10.00,14.30,0.07,0.05,1.36,1.37,1.22,-0.09,-65.70,-1.88,-74.45,-41.17,-13.37,8.77,-1.98
1236.00,9.00,14.25,0.06,0.03,1.81,1.17,1.67,0.62,-61.74,8.45,-28.07,-17.38,-1.41,327.28,-4.68
1237.00,10.00,14.48,0.35,0.28,1.93,2.37,1.40,0.23,23.09,4.33,7.76,-12.10,-2.21,173.14,-1.56
1240.00,10.00,17.75,0.33,0.35,1.74,2.03,1.48,0.76,50.11,7.10,1.89,-21.98,-5.93,445.38,5.99
1242.00,9.00,17.12,0.08,0.16,2.53,1.95,1.47,0.31,17.38,-2.75,-17.43,-0.30,11.96,201.14,2.43
1243.00,9.00,10.97,0.00,0.17,2.00,2.00,,0.75,23.46,,-60.00,0.80,2.12,380.18,-12.81
1244.00,10.00,13.56,0.36,0.28,1.85,2.25,1.11,0.75,23.09,-5.68,10.70,-15.59,-3.78,440.24,-3.69
1245.00,10.00,12.65,0.00,0.11,1.40,1.50,1.00,-1.00,-42.54,-9.47,-95.00,-37.39,-12.59,-458.65,-5.79
1246.00,10.00,14.38,0.09,0.15,1.67,2.24,1.33,0.40,-27.10,1.92,-68.57,-15.88,-7.30,260.46,-1.79
1247.00,10.00,16.06,0.48,0.20,2.39,3.20,1.24,0.46,-7.79,-1.19,45.93,12.03,6.79,291.28,2.09
1249.00,10.00,12.24,0.00,0.00,1.38,1.60,1.00,-1.14,-85.00,-9.47,-95.00,-34.49,-12.98,-530.56,-6.73
1250.00,10.00,15.99,0.03,0.05,1.55,1.65,1.43,0.09,-65.70,5.37,-86.19,-33.03,-9.65,101.23,1.92
1252.00,9.00,14.17,0.08,0.08,1.43,1.00,1.20,0.56,-31.31,-17.85,-17.43,-21.10,-8.46,302.87,-4.88
1253.00,10.00,14.94,0.28,0.25,1.56,2.23,1.00,-0.22,11.50,-9.47,-12.79,-16.18,-9.46,-58.00,-0.50
1254.00,9.00,15.66,0.08,0.14,2.38,2.09,1.42,0.69,5.21,-5.54,-17.43,2.76,9.17,355.77,-1.19
1255.00,10.00,11.19,0.09,0.04,1.42,1.36,1.00,0.24,-69.56,-9.47,-68.57,-41.46,-12.20,178.28,-9.16
1260.00,9.00,18.36,0.00,0.13,1.71,1.29,1.12,0.43,-0.88,-22.33,-60.00,-14.75,-3.26,249.98,5.50
1261.00,9.00,17.98,0.00,0.00,1.78,1.55,2.50,-0.36,-80.00,54.89,-60.00,-9.06,-1.96,-71.49,4.56
1264.00,10.00,15.37,0.36,0.21,2.02,2.43,1.12,0.35,-3.94,-5.33,10.70,-10.36,-0.45,234.78,0.49
1265.00,9.00,16.03,0.02,0.05,1.69,1.25,1.43,-0.02,-49.57,-4.98,-49.36,-15.63,-3.63,66.86,-0.27
1275.00,9.00,,0.00,0.00,,,,,-80.00,,-60.00,,,,
1294.00,10.00,17.24,0.00,0.00,1.00,,,-2.60,-85.00,,-95.00,,-20.42,-1280.50,4.81
1297.00,9.00,17.84,0.11,0.06,1.43,1.17,1.50,-0.36,-43.48,-1.06,-1.47,-17.38,-8.46,-71.49,4.22
1298.00,10.00,15.31,0.19,0.12,2.00,2.15,1.00,-0.20,-38.67,-9.47,-39.22,-18.50,-0.84,-47.73,0.36
1304.00,10.00,18.33,0.58,0.47,2.58,3.78,1.22,0.24,96.42,-1.88,75.29,28.88,10.51,178.28,7.33
1306.00,9.00,19.51,0.08,0.25,1.71,1.71,1.71,0.67,72.15,10.68,-17.43,-5.56,-3.26,347.63,8.35
1310.00,9.00,13.70,0.00,0.25,1.00,,2.00,-1.33,72.15,26.91,-60.00,,-16.44,-466.19,-6.05
1313.00,9.00,9.76,0.00,0.00,1.00,1.00,2.00,-1.00,-80.00,26.91,-60.00,-21.10,-16.44,-331.91,-15.81
1315.00,9.00,8.27,0.00,0.00,1.25,1.33,1.50,-1.25,-80.00,-1.06,-60.00,-13.88,-11.80,-433.64,-19.50
1318.00,9.00,9.54,0.00,0.08,1.67,1.00,1.40,-0.62,-31.31,-6.66,-60.00,-21.10,-4.00,-177.28,-16.36
1332.00,9.00,17.68,0.00,0.15,1.61,1.83,1.62,-0.81,11.29,5.65,-60.00,-2.93,-5.12,-254.59,3.82
1333.00,10.00,14.93,0.00,0.00,2.00,1.00,,0.00,-85.00,,-95.00,-51.93,-0.84,55.00,-0.52
1334.00,10.00,17.23,0.00,0.00,1.00,,1.00,-2.50,-85.00,-9.47,-95.00,,-20.42,-1229.13,4.79
1336.00,10.00,15.14,0.18,0.14,1.42,2.03,1.25,-0.26,-30.96,-0.84,-42.15,-21.98,-12.20,-78.55,-0.04
1338.00,9.00,21.26,0.24,0.34,2.21,2.74,1.38,0.18,126.93,-7.78,67.70,17.00,6.02,148.25,12.69
1339.00,10.00,14.50,0.31,0.25,2.04,2.63,1.00,0.08,11.50,-9.47,-3.98,-4.54,-0.06,96.09,-1.52
1341.00,9.00,20.30,0.00,0.21,1.62,1.75,1.86,-0.04,47.81,19.08,-60.00,-4.68,-4.93,58.72,10.31
1342.00,10.00,14.06,0.04,0.14,1.23,1.57,1.00,-0.42,-30.96,-9.47,-83.26,-35.36,-15.92,-160.73,-2.53
1348.00,9.00,17.66,0.11,0.13,1.84,2.22,2.18,0.10,-0.88,36.98,-1.47,5.61,-0.85,115.69,3.77
1350.00,10.00,12.49,0.00,0.00,,,1.40,0.00,-85.00,4.33,-95.00,,,55.00,-6.16
1355.00,9.00,11.30,0.00,0.00,12.00,6.00,5.00,-2.00,-80.00,194.79,-60.00,88.38,187.71,-738.83,-12.00
1356.00,10.00,15.08,0.08,0.08,2.20,2.00,1.67,-0.30,-54.12,13.66,-71.52,-22.86,3.07,-99.09,-0.17
1366.00,10.00,17.48,0.56,0.20,1.82,2.87,1.07,-0.02,-7.79,-7.06,69.42,2.43,-4.37,44.73,5.37
1370.00,10.00,19.57,0.37,0.26,1.53,2.15,1.27,0.29,15.36,-0.15,13.63,-18.50,-10.04,203.96,10.19
1371.00,10.00,13.19,0.16,0.11,1.29,2.27,1.00,-0.15,-42.54,-9.47,-48.02,-15.01,-14.74,-22.05,-4.54
1373.00,10.00,20.79,0.00,0.00,3.67,7.67,,-1.50,-85.00,,-95.00,141.98,31.86,-715.48,13.01
1377.00,10.00,21.53,0.50,0.00,2.00,1.00,,0.00,-85.00,,51.80,-51.93,-0.84,55.00,14.72
1380.00,9.00,14.90,0.00,0.29,1.67,1.25,2.67,-0.17,96.50,64.40,-60.00,-15.63,-4.00,5.83,-3.07
1382.00,10.00,8.00,0.12,0.06,1.00,2.00,1.00,-0.29,-61.84,-9.47,-59.76,-22.86,-20.42,-93.96,-16.53
1385.00,10.00,7.38,0.00,0.33,2.33,2.33,2.00,0.00,42.38,25.05,-95.00,-13.27,5.62,55.00,-17.96
1389.00,10.00,5.87,0.00,1.00,,,,0.00,301.01,,-95.00,,,55.00,-21.44
1395.00,9.00,16.49,0.12,0.12,3.43,2.17,2.25,-0.67,-6.97,40.90,3.85,4.51,28.66,-197.63,0.87
1396.00,9.00,22.28,0.32,0.19,1.95,2.52,1.58,-0.64,35.63,3.41,110.27,12.18,1.19,-185.42,15.22
1398.00,9.00,18.99,0.00,0.07,2.00,1.62,1.25,-0.69,-37.40,-15.05,-60.00,-7.52,2.12,-205.77,7.06
1410.00,9.00,18.93,0.00,0.00,2.14,1.60,1.50,1.14,-80.00,-1.06,-60.00,-7.96,4.72,538.88,6.92
1417.00,10.00,17.83,0.50,0.25,2.00,2.50,1.00,-1.25,11.50,-9.47,51.80,-8.32,-0.84,-587.06,6.17
1421.00,10.00,18.59,0.85,0.29,2.97,5.09,2.20,0.26,26.95,31.95,154.56,66.97,18.15,188.55,7.93
1431.00,9.00,16.06,0.03,0.06,1.54,1.44,1.79,-0.14,-43.48,15.16,-44.04,-11.47,-6.42,18.03,-0.20
1432.00,10.00,13.78,0.14,0.23,1.54,1.83,1.00,0.46,3.78,-9.47,-53.89,-27.80,-9.85,291.28,-3.18
1440.00,10.00,22.87,0.44,0.07,2.31,3.49,1.97,-1.57,-57.98,24.02,34.19,20.46,5.23,-751.44,17.81
1441.00,9.00,13.39,0.00,0.04,1.31,1.36,1.00,0.24,-55.66,-29.04,-60.00,-13.22,-10.69,172.66,-6.82
1445.00,9.00,24.21,0.14,0.86,2.00,3.00,1.33,-0.33,443.40,-10.57,14.50,22.69,2.12,-59.28,20.00
1451.00,10.00,13.64,0.36,0.07,2.00,2.50,1.20,-1.25,-57.98,-2.57,10.70,-8.32,-0.84,-587.06,-3.50
1452.00,9.00,16.95,0.00,0.04,1.31,1.17,2.08,-1.00,-55.66,31.39,-60.00,-17.38,-10.69,-331.91,2.01
1455.00,9.00,13.00,0.00,0.11,1.60,1.33,1.38,-0.53,-13.06,-7.78,-60.00,-13.88,-5.31,-140.66,-7.78
1470.00,10.00,12.95,0.31,0.10,1.65,2.32,1.29,-0.97,-46.40,0.54,-3.98,-13.56,-7.70,-443.25,-5.10
1472.00,10.00,17.48,0.92,0.42,3.47,4.59,1.81,0.06,77.13,18.49,175.11,52.44,27.94,85.82,5.37
1478.00,10.00,16.81,0.83,0.40,2.36,4.13,1.10,0.05,69.40,-6.02,148.69,39.07,6.21,80.69,3.82
1481.00,10.00,22.01,0.57,0.72,2.42,3.77,1.78,-0.47,192.93,17.45,72.35,28.60,7.38,-186.42,15.83
1482.00,10.00,12.06,0.00,0.00,1.43,1.44,1.38,-0.69,-85.00,3.64,-95.00,-39.14,-12.00,-299.42,-7.15
1488.00,9.00,12.40,0.00,0.08,1.88,1.57,1.00,-0.62,-31.31,-29.04,-60.00,-8.62,-0.11,-177.28,-9.27
1491.00,10.00,12.25,0.32,0.14,1.97,2.41,1.33,0.32,-30.96,1.92,-1.04,-10.94,-1.43,219.37,-6.71
1493.00,10.00,17.70,0.56,0.06,2.20,4.29,1.36,-0.47,-61.84,2.95,69.42,43.72,3.07,-186.42,5.88
1494.00,9.00,16.89,0.38,0.12,3.17,4.67,1.00,-0.40,-6.97,-29.04,142.19,59.26,23.83,-87.77,1.86
1504.00,10.00,12.24,0.12,0.12,1.67,2.27,1.33,0.00,-38.67,1.92,-59.76,-15.01,-7.30,55.00,-6.73
1505.00,10.00,15.40,0.23,0.32,2.80,2.75,1.40,-0.20,38.52,4.33,-27.47,-1.05,14.82,-47.73,0.56
1506.00,10.00,13.63,0.29,0.14,1.60,2.00,,-0.14,-30.96,,-9.85,-22.86,-8.67,-16.91,-3.52
1510.00,10.00,15.58,0.00,0.33,2.00,1.50,,-1.50,42.38,,-95.00,-37.39,-0.84,-715.48,0.98
1511.00,10.00,11.03,0.25,0.00,1.33,3.00,1.50,-1.75,-85.00,7.79,-21.60,6.21,-13.96,-843.89,-9.53
1513.00,9.00,21.62,0.00,0.67,2.50,1.00,1.67,-0.67,327.76,8.45,-60.00,-21.10,11.40,-197.63,13.58
1515.00,10.00,23.68,0.38,0.38,2.83,3.32,1.33,-0.68,61.68,1.92,16.57,15.51,15.41,-294.28,19.68
1518.00,10.00,14.28,0.23,0.08,1.50,1.67,1.00,-0.33,-54.12,-9.47,-27.47,-32.45,-10.63,-114.50,-2.02
1521.00,9.00,22.35,0.00,0.25,1.50,1.43,1.43,-0.91,72.15,-4.98,-60.00,-11.69,-7.16,-295.29,15.39
1523.00,9.00,17.53,0.06,0.08,2.09,2.11,1.56,-0.23,-31.31,2.29,-28.07,3.20,3.79,-18.59,3.44
1525.00,10.00,14.10,0.50,0.17,2.80,3.50,1.00,-0.60,-19.38,-9.47,51.80,20.75,14.82,-253.19,-2.44
1526.00,10.00,9.90,0.40,0.00,,2.00,,0.00,-85.00,,22.44,-22.86,,55.00,-12.14
1535.00,9.00,17.38,0.03,0.03,1.43,1.08,1.31,0.17,-61.74,-11.70,-44.04,-19.35,-8.46,144.17,3.08
1536.00,9.00,15.93,0.03,0.11,1.85,1.54,1.68,-0.14,-13.06,9.01,-44.04,-9.28,-0.66,18.03,-0.52
1537.00,10.00,16.49,0.39,0.28,1.89,2.28,1.14,0.65,23.09,-4.64,19.50,-14.72,-3.00,388.87,3.08
1538.00,10.00,21.77,0.00,0.00,1.00,1.50,1.00,-0.50,-85.00,-9.47,-95.00,-37.39,-20.42,-201.83,15.27
1540.00,10.00,14.90,0.00,0.40,1.40,1.33,2.00,0.40,69.40,25.05,-95.00,-42.34,-12.59,260.46,-0.59
1546.00,9.00,19.14,0.03,0.18,1.52,1.80,1.45,-0.08,29.55,-3.87,-44.04,-3.59,-6.79,42.45,7.44
1547.00,10.00,12.56,0.09,0.23,1.14,1.53,1.00,-0.12,3.78,-9.47,-68.57,-36.52,-17.68,-6.64,-6.00
1549.00,10.00,14.43,0.24,0.29,1.95,2.82,1.12,0.16,26.95,-5.33,-24.54,0.98,-1.82,137.19,-1.68
1550.00,9.00,15.22,0.10,0.08,2.15,1.98,1.91,0.02,-31.31,21.88,-6.79,0.36,4.90,83.14,-2.28
1551.00,9.00,17.90,0.08,0.22,2.79,2.46,1.53,-0.12,53.90,0.61,-17.43,10.87,16.78,26.17,4.36
1552.00,10.00,9.87,0.00,0.00,1.00,1.25,1.25,-0.58,-85.00,-0.84,-95.00,-44.66,-20.42,-242.92,-12.21
1556.00,10.00,15.66,0.11,0.06,1.91,2.11,1.57,-0.87,-61.84,10.20,-62.70,-19.66,-2.60,-391.88,1.17
1558.00,10.00,8.12,0.00,0.10,,,1.00,0.25,-46.40,-9.47,-95.00,,,183.41,-16.25
1559.00,9.00,13.45,0.00,0.06,1.14,1.00,1.80,-0.33,-43.48,15.72,-60.00,-21.10,-13.84,-59.28,-6.66
1560.00,9.00,30.67,0.00,1.00,,,,-1.00,528.60,,-60.00,,,-331.91,36.01
1562.00,9.00,18.89,0.17,0.17,1.14,1.56,1.25,0.73,23.46,-15.05,30.46,-8.84,-13.84,372.05,6.82
1566.00,10.00,14.67,0.00,0.00,2.25,1.25,1.33,-0.40,-85.00,1.92,-95.00,-44.66,4.05,-150.46,-1.12
1568.00,10.00,12.45,0.40,0.20,3.25,3.92,2.00,-0.25,-7.79,25.05,22.44,32.96,23.63,-73.41,-6.25
1570.00,10.00,16.95,0.41,0.38,2.08,3.23,1.06,-0.39,61.68,-7.41,25.37,12.90,0.72,-145.33,4.14
1571.00,10.00,7.68,0.00,0.00,1.50,1.29,1.00,-0.71,-85.00,-9.47,-95.00,-43.50,-10.63,-309.69,-17.27
1572.00,9.00,21.12,0.28,0.25,2.08,3.75,1.40,-0.81,72.15,-6.66,88.99,39.11,3.60,-254.59,12.34
1575.00,10.00,13.24,0.44,0.22,1.69,3.62,1.00,0.31,-0.08,-9.47,34.19,24.24,-6.91,214.23,-4.42
1576.00,10.00,17.06,0.29,0.50,1.79,3.09,1.20,-0.05,108.01,-2.57,-9.85,8.83,-4.95,29.32,4.40
1577.00,9.00,17.94,0.14,0.11,1.74,1.74,1.74,0.17,-13.06,12.37,14.50,-4.90,-2.71,144.17,4.46
1582.00,10.00,14.34,0.28,0.20,2.11,2.17,1.00,0.53,-7.79,-9.47,-12.79,-17.92,1.31,327.23,-1.88
1600.00,9.00,15.32,0.04,0.13,1.54,1.29,1.39,0.65,-0.88,-7.22,-38.72,-14.75,-6.42,339.50,-2.03
1618.00,10.00,12.83,0.17,0.00,1.29,1.73,1.12,-0.20,-85.00,-5.33,-45.09,-30.71,-14.74,-47.73,-5.37
1619.00,9.00,15.82,0.08,0.08,2.27,2.33,1.86,0.50,-31.31,19.08,-17.43,8.02,7.13,278.45,-0.79
1619.00,10.00,18.46,0.11,0.11,2.50,1.12,2.50,0.57,-42.54,42.31,-62.70,-48.44,8.95,347.78,7.63
1713.00,9.00,19.24,0.00,0.19,3.83,3.82,1.40,1.31,35.63,-6.66,-60.00,40.65,36.08,608.06,7.68
1905.00,9.00,24.87,0.00,0.00,,2.00,2.00,-0.50,-80.00,26.91,-60.00,0.80,,-128.45,21.64
1909.00,10.00,22.58,0.33,0.67,6.00,4.50,,1.50,173.63,,1.89,49.82,77.48,825.48,17.14
1910.00,10.00,15.76,0.05,0.00,1.64,1.67,1.40,0.39,-85.00,4.33,-80.32,-32.45,-7.89,255.33,1.40
1911.00,10.00,16.34,0.58,0.42,1.64,2.75,1.00,1.00,77.13,-9.47,75.29,-1.05,-7.89,568.65,2.73
1912.00,10.00,15.84,0.52,0.24,2.41,3.04,1.83,0.42,7.64,19.18,57.67,7.38,7.18,270.73,1.58
1916.00,10.00,13.41,0.20,0.40,1.00,1.75,2.00,-0.33,69.40,25.05,-36.28,-30.12,-20.42,-114.50,-4.03
1917.00,10.00,15.46,1.00,0.50,3.33,3.75,,2.67,108.01,,198.61,28.02,25.20,1426.45,0.70
1919.00,10.00,12.05,0.11,0.00,1.40,1.67,1.00,-1.12,-85.00,-9.47,-62.70,-32.45,-12.59,-520.29,-7.17
1922.00,9.00,17.00,0.00,0.17,1.38,1.40,1.67,0.81,23.46,8.45,-60.00,-12.35,-9.39,404.60,2.13
1924.00,9.00,15.27,0.43,0.29,1.50,2.00,2.00,1.17,96.50,26.91,168.80,0.80,-7.16,551.09,-2.16
1926.00,9.00,12.43,0.04,0.00,1.75,1.43,1.30,0.28,-80.00,-12.26,-38.72,-11.69,-2.52,188.93,-9.19
1936.00,10.00,17.27,1.33,0.67,3.59,5.94,1.33,1.50,173.63,1.92,295.50,91.68,30.29,825.48,4.88
2051.00,10.00,17.38,0.63,0.26,2.83,4.17,1.00,0.12,15.36,-9.47,89.97,40.22,15.41,116.64,5.13
2052.00,9.00,11.85,0.00,0.04,1.47,1.54,1.12,-0.63,-55.66,-22.33,-60.00,-9.28,-7.72,-181.36,-10.63
2057.00,10.00,15.06,0.24,0.16,1.47,2.38,1.00,0.29,-23.24,-9.47,-24.54,-11.81,-11.22,203.96,-0.22
2059.00,10.00,6.85,0.03,0.06,1.00,1.18,1.43,-0.38,-61.84,5.37,-86.19,-46.70,-20.42,-140.19,-19.18
2066.00,9.00,25.00,0.07,0.15,2.32,3.03,2.18,0.24,11.29,36.98,-22.75,23.35,8.06,172.66,21.96
2068.00,9.00,24.70,0.15,0.24,1.85,2.47,2.35,0.12,66.06,46.50,19.81,11.09,-0.66,123.83,21.22
2070.00,10.00,11.51,0.38,0.54,1.25,2.33,,1.12,123.45,,16.57,-13.27,-15.53,630.29,-8.42
2071.00,10.00,21.85,0.20,0.70,2.67,2.75,1.00,0.89,185.21,-9.47,-36.28,-1.05,12.28,512.15,15.46
2072.00,10.00,21.89,0.62,0.25,3.38,5.88,1.00,0.00,11.50,-9.47,87.04,89.93,26.18,55.00,15.55
2155.00,10.00,10.20,0.00,0.11,2.23,1.69,1.00,-0.09,-42.54,-9.47,-95.00,-31.87,3.66,8.77,-11.45
2194.00,10.00,18.91,0.57,0.35,1.96,3.68,1.46,0.60,50.11,6.41,72.35,25.98,-1.62,363.19,8.67
2203.00,10.00,13.34,0.22,0.32,1.88,3.11,1.22,-0.10,38.52,-1.88,-30.41,9.41,-3.19,3.64,-4.19
2204.00,10.00,11.12,0.08,0.00,1.25,1.80,1.25,-0.20,-85.00,-0.84,-71.52,-28.67,-15.53,-47.73,-9.32
2205.00,10.00,14.14,0.83,0.17,2.00,2.92,1.00,-0.17,-19.38,-9.47,148.69,3.89,-0.84,-32.32,-2.34
2209.00,9.00,18.66,0.12,0.09,1.40,1.72,1.10,-0.82,-25.22,-23.45,3.85,-5.34,-9.02,-258.67,6.25
2210.00,10.00,13.60,0.19,0.31,1.80,3.20,1.00,-0.19,34.66,-9.47,-39.22,12.03,-4.76,-42.59,-3.59
2211.00,10.00,10.99,0.44,0.00,1.00,2.67,1.00,0.20,-85.00,-9.47,34.19,-3.38,-20.42,157.73,-9.62
2212.00,10.00,15.72,0.30,0.35,1.77,3.12,1.00,-0.13,50.11,-9.47,-6.92,9.70,-5.34,-11.78,1.30
2213.00,9.00,10.57,0.00,0.00,,2.00,,-0.50,-80.00,,-60.00,0.80,,-128.45,-13.80
2215.00,10.00,16.36,0.33,0.28,2.43,2.55,1.41,0.56,23.09,4.68,1.89,-6.87,7.58,342.64,2.78
2217.00,10.00,12.77,0.00,0.00,,,,1.00,-85.00,,-95.00,,,568.65,-5.51
2218.00,10.00,17.52,0.22,0.24,2.21,2.62,1.29,0.54,7.64,0.54,-30.41,-4.84,3.27,332.37,5.46
2221.00,10.00,16.41,1.06,0.39,2.27,4.45,1.40,0.74,65.54,4.33,216.22,48.37,4.44,435.11,2.89
2222.00,9.00,19.14,0.00,0.12,1.50,1.43,1.42,-0.14,-6.97,-5.54,-60.00,-11.69,-7.16,18.03,7.44
2223.00,10.00,12.15,0.24,0.22,1.68,3.04,1.00,-0.26,-0.08,-9.47,-24.54,7.38,-7.11,-78.55,-6.94
2224.00,9.00,17.48,0.11,0.06,1.80,2.22,1.25,0.11,-43.48,-15.05,-1.47,5.61,-1.59,119.76,3.32
2225.00,9.00,14.22,0.02,0.04,1.38,1.80,1.37,-0.33,-55.66,-8.34,-49.36,-3.59,-9.39,-59.28,-4.76
2226.00,10.00,16.19,0.18,0.18,1.17,1.67,2.00,0.78,-15.52,25.05,-42.15,-32.45,-17.09,455.65,2.39
2227.00,10.00,17.56,0.72,0.45,2.59,3.87,1.00,0.47,88.71,-9.47,116.39,31.50,10.71,296.42,5.55
2230.00,9.00,14.95,0.04,0.13,2.05,2.00,1.93,0.35,-0.88,22.99,-38.72,0.80,3.05,217.42,-2.95
2231.00,10.00,16.29,0.51,0.24,1.88,3.15,1.14,-0.11,7.64,-4.64,54.74,10.57,-3.19,-1.50,2.62
2232.00,9.00,13.36,0.09,0.16,1.50,1.82,2.18,0.19,17.38,36.98,-12.11,-3.15,-7.16,152.31,-6.89
2233.00,9.00,15.87,0.11,0.09,1.62,1.78,1.56,0.44,-25.22,2.29,-1.47,-4.02,-4.93,254.04,-0.67
2236.00,10.00,15.25,0.39,0.14,1.77,2.57,1.30,-0.04,-30.96,0.88,19.50,-6.29,-5.34,34.45,0.22
2237.00,9.00,15.61,0.00,0.11,1.80,1.33,1.57,-0.20,-13.06,2.85,-60.00,-13.88,-1.59,-6.38,-1.31
2240.00,9.00,16.16,0.00,0.00,2.00,1.33,1.00,0.00,-80.00,-29.04,-60.00,-13.88,2.12,75.00,0.05
2241.00,10.00,13.31,0.19,0.15,1.54,2.16,1.00,0.25,-27.10,-9.47,-39.22,-18.21,-9.85,183.41,-4.26
2244.00,10.00,13.71,0.20,0.13,1.57,1.89,1.33,-0.15,-34.82,1.92,-36.28,-26.06,-9.26,-22.05,-3.34
2266.00,10.00,20.27,0.58,0.67,2.80,5.08,1.25,0.58,173.63,-0.84,75.29,66.68,14.82,352.92,11.81
2267.00,9.00,18.06,0.52,0.32,2.29,3.05,1.27,1.88,114.75,-13.93,216.69,23.79,7.50,839.99,4.76
2270.00,10.00,9.37,0.13,0.05,1.53,1.82,1.00,-1.23,-65.70,-9.47,-56.83,-28.09,-10.04,-576.80,-13.36
2272.00,10.00,16.46,0.33,0.00,2.20,2.75,1.00,-0.78,-85.00,-9.47,1.89,-1.05,3.07,-345.65,3.01
2278.00,9.00,19.16,0.83,0.67,3.17,4.83,1.00,1.20,327.76,-29.04,381.64,62.76,23.83,563.29,7.48
2281.00,10.00,16.47,0.23,0.38,1.68,3.04,1.20,-0.41,61.68,-2.57,-27.47,7.38,-7.11,-155.60,3.03
2282.00,9.00,23.39,0.62,0.33,2.97,4.60,1.61,-0.12,120.84,5.09,269.90,57.73,20.12,26.17,17.97
2290.00,9.00,19.84,0.04,0.20,1.41,1.41,1.30,0.67,41.72,-12.26,-38.72,-12.13,-8.83,347.63,9.17
2291.00,10.00,15.80,0.25,0.45,2.38,3.05,1.20,-0.56,88.71,-2.57,-21.60,7.66,6.60,-232.64,1.49
2292.00,10.00,17.97,0.55,0.30,3.17,4.30,1.29,0.23,30.80,0.54,66.48,44.01,22.06,173.14,6.50
2294.00,9.00,15.07,0.00,0.14,2.00,1.25,1.22,0.08,5.21,-16.74,-60.00,-15.63,2.12,107.55,-2.65
2297.00,10.00,13.85,0.33,0.30,2.00,2.59,1.00,0.35,30.80,-9.47,1.89,-5.70,-0.84,234.78,-3.02
2299.00,10.00,12.10,0.11,0.19,1.54,1.75,1.25,-0.19,-11.65,-0.84,-62.70,-30.12,-9.85,-42.59,-7.06
2300.00,10.00,15.93,0.13,0.17,1.39,2.42,1.67,0.72,-19.38,13.66,-56.83,-10.65,-12.78,424.83,1.79
2301.00,10.00,11.75,0.24,0.18,1.59,1.78,1.00,0.07,-15.52,-9.47,-24.54,-29.26,-8.87,90.95,-7.86
2303.00,10.00,10.53,0.06,0.19,1.33,1.44,1.50,-0.04,-11.65,7.79,-77.39,-39.14,-13.96,34.45,-10.68
2304.00,9.00,16.79,0.00,0.04,1.67,1.48,1.44,-0.33,-55.66,-4.42,-60.00,-10.59,-4.00,-59.28,1.61
2307.00,10.00,17.78,0.43,0.26,1.93,3.19,1.36,-0.07,15.36,2.95,31.25,11.74,-2.21,19.05,6.06
2310.00,10.00,15.42,0.58,0.28,2.10,2.63,1.33,0.75,23.09,1.92,75.29,-4.54,1.12,440.24,0.61
2317.00,10.00,21.35,0.26,0.32,3.33,2.73,1.67,-0.31,38.52,13.66,-18.66,-1.64,25.20,-104.23,14.30
2319.00,10.00,15.28,0.26,0.32,1.46,2.43,1.43,-0.16,38.52,5.37,-18.66,-10.36,-11.42,-27.19,0.29
2321.00,10.00,17.91,0.39,0.11,1.96,2.70,1.43,-0.69,-42.54,5.37,19.50,-2.51,-1.62,-299.42,6.36
2322.00,10.00,11.38,0.33,0.17,1.50,1.50,1.00,-1.67,-19.38,-9.47,1.89,-37.39,-10.63,-802.80,-8.72
2323.00,10.00,18.15,0.74,0.23,2.72,3.17,1.15,0.11,3.78,-4.29,122.26,11.15,13.26,111.50,6.91
2333.00,10.00,15.18,0.32,0.16,1.79,2.33,1.75,-0.50,-23.24,16.42,-1.04,-13.27,-4.95,-201.83,0.06
2337.00,9.00,21.18,0.67,1.00,1.67,2.67,,3.33,528.60,,296.50,15.47,-4.00,1430.02,12.49
2342.00,10.00,20.71,0.86,0.43,2.14,5.17,1.00,-0.86,80.99,-9.47,157.50,69.30,1.90,-386.74,12.83
2346.00,10.00,22.17,0.33,0.00,2.00,4.67,,-2.00,-85.00,,1.89,54.76,-0.84,-972.31,16.20
2351.00,9.00,17.87,0.86,0.59,2.85,4.90,1.09,1.23,279.07,-24.00,397.60,64.30,17.90,575.50,4.29
2357.00,9.00,14.49,0.41,0.33,2.62,2.92,1.00,0.19,120.84,-29.04,158.16,20.94,13.63,152.31,-4.09
2359.00,10.00,12.39,0.08,0.15,1.67,2.00,1.00,-1.00,-27.10,-9.47,-71.52,-22.86,-7.30,-458.65,-6.39
2360.00,10.00,14.61,0.80,0.40,1.00,2.75,1.00,2.60,69.40,-9.47,139.89,-1.05,-20.42,1390.50,-1.26
2362.00,9.00,16.91,0.33,0.67,1.40,2.25,1.00,2.00,327.76,-29.04,115.59,6.27,-9.02,888.82,1.91
2367.00,10.00,19.67,0.17,0.17,2.00,2.80,1.00,-2.80,-19.38,-9.47,-45.09,0.40,-0.84,-1383.23,10.42
2377.00,10.00,12.72,0.18,0.18,1.43,1.00,1.00,-0.90,-15.52,-9.47,-42.15,-51.93,-12.00,-407.29,-5.62
2416.00,10.00,14.66,0.00,0.00,1.67,2.00,1.00,-1.80,-85.00,-9.47,-95.00,-22.86,-7.30,-869.58,-1.14
2426.00,10.00,17.58,0.40,0.35,1.82,2.95,1.28,0.11,50.11,0.19,22.44,4.76,-4.37,111.50,5.60
2427.00,10.00,9.20,0.00,0.00,,1.33,3.00,-1.50,-85.00,59.58,-95.00,-42.34,,-715.48,-13.75
2428.00,9.00,13.57,0.00,0.06,1.50,1.62,1.75,-0.71,-43.48,12.92,-60.00,-7.52,-7.16,-213.91,-6.37
2430.00,10.00,14.02,0.00,0.00,1.50,1.44,1.12,-0.56,-85.00,-5.33,-95.00,-39.14,-10.63,-232.64,-2.62
2431.00,10.00,15.10,0.20,0.20,1.62,1.60,1.00,-0.44,-7.79,-9.47,-36.28,-34.49,-8.28,-171.01,-0.13
2433.00,9.00,23.72,0.00,0.00,2.00,3.00,,-2.00,-80.00,,-60.00,22.69,2.12,-738.83,18.79
2434.00,9.00,17.21,0.06,0.18,1.65,1.55,1.40,-0.96,29.55,-6.66,-28.07,-9.06,-4.38,-315.64,2.65
2435.00,9.00,15.77,0.45,0.60,1.60,2.65,1.50,0.89,285.16,-1.06,179.44,15.03,-5.31,437.15,-0.92
2441.00,9.00,13.73,0.11,0.13,2.17,1.43,1.09,0.07,-0.88,-24.00,-1.47,-11.69,5.27,103.48,-5.97
2443.00,9.00,16.76,0.09,0.16,1.67,1.79,1.42,0.30,17.38,-5.54,-12.11,-3.81,-4.00,197.07,1.54
2444.00,9.00,19.63,0.15,0.17,1.58,2.22,1.70,0.45,23.46,10.12,19.81,5.61,-5.68,258.11,8.65
2445.00,9.00,17.71,0.07,0.14,2.50,2.11,1.50,0.27,5.21,-1.06,-22.75,3.20,11.40,184.87,3.89
2446.00,9.00,16.70,0.00,0.12,1.00,1.25,1.50,0.17,-6.97,-1.06,-60.00,-15.63,-16.44,144.17,1.39
2447.00,10.00,14.86,0.12,0.13,2.00,2.19,1.30,0.24,-34.82,0.88,-59.76,-17.33,-0.84,178.28,-0.68
2448.00,10.00,15.93,0.41,0.34,1.93,2.80,1.00,0.57,46.25,-9.47,25.37,0.40,-2.21,347.78,1.79
2450.00,10.00,17.40,0.26,0.29,1.66,2.78,1.25,-1.17,26.95,-0.84,-18.66,-0.19,-7.50,-545.97,5.18
2452.00,10.00,18.79,0.98,0.38,3.45,5.50,1.23,0.67,61.68,-1.54,192.74,78.89,27.55,399.15,8.39
2454.00,10.00,19.52,0.33,0.00,4.00,3.67,,0.50,-85.00,,1.89,25.69,38.32,311.83,10.08
2455.00,9.00,17.08,0.00,0.15,1.68,1.29,1.44,0.12,11.29,-4.42,-60.00,-14.75,-3.82,123.83,2.33
2456.00,10.00,14.94,0.43,0.33,2.17,2.95,1.00,0.76,42.38,-9.47,31.25,4.76,2.49,445.38,-0.50
2460.00,10.00,13.39,0.15,0.05,1.89,2.44,1.07,-0.30,-65.70,-7.06,-50.96,-10.07,-3.00,-99.09,-4.08
2461.00,10.00,15.84,0.14,0.29,1.73,1.62,1.11,-0.34,26.95,-5.68,-53.89,-33.91,-6.13,-119.64,1.58
2463.00,9.00,16.30,0.00,0.00,1.10,1.67,1.42,-0.33,-80.00,-5.54,-60.00,-6.43,-14.58,-59.28,0.40
2464.00,9.00,15.54,0.13,0.10,2.41,2.23,1.61,0.03,-19.14,5.09,9.17,5.83,9.73,87.21,-1.49
2466.00,10.00,11.65,0.25,0.03,1.62,2.22,1.12,-0.88,-73.42,-5.33,-21.60,-16.46,-8.28,-397.02,-8.10
2469.00,9.00,15.43,0.09,0.09,1.43,1.12,1.25,-0.27,-25.22,-15.05,-12.11,-18.48,-8.46,-34.87,-1.76
2472.00,10.00,13.51,0.19,0.19,1.79,1.72,1.20,-0.36,-11.65,-2.57,-39.22,-31.00,-4.95,-129.92,-3.80
2474.00,10.00,16.58,0.61,0.34,1.91,3.48,1.29,0.29,46.25,0.54,84.10,20.17,-2.60,203.96,3.29
2476.00,10.00,14.37,0.29,0.25,2.10,3.38,1.50,-0.10,11.50,7.79,-9.85,17.26,1.12,3.64,-1.82
2477.00,9.00,17.11,0.00,0.10,1.35,1.25,1.58,0.52,-19.14,3.41,-60.00,-15.63,-9.94,286.60,2.40
2479.00,10.00,17.48,0.52,0.13,1.57,2.57,1.40,0.33,-34.82,4.33,57.67,-6.29,-9.26,224.50,5.37
2481.00,9.00,13.31,0.09,0.03,2.06,1.59,1.36,0.21,-61.74,-8.90,-12.11,-8.18,3.23,160.45,-7.01
2484.00,10.00,16.10,0.19,0.21,1.86,2.29,1.29,-0.35,-3.94,0.54,-39.22,-14.43,-3.58,-124.78,2.18
2487.00,10.00,19.00,0.78,0.51,2.88,4.84,1.00,0.58,111.87,-9.47,134.02,59.71,16.39,352.92,8.88
2489.00,10.00,16.31,0.53,0.33,1.67,2.25,1.00,-0.20,42.38,-9.47,60.61,-15.59,-7.30,-47.73,2.66
2490.00,9.00,14.99,0.00,0.06,1.67,1.18,1.46,0.00,-43.48,-3.31,-60.00,-17.16,-4.00,75.00,-2.85
2491.00,10.00,16.42,0.29,0.23,1.33,2.31,1.60,-0.23,3.78,11.24,-9.85,-13.84,-13.96,-63.14,2.92
2501.00,10.00,14.43,0.00,0.00,,1.00,1.00,-2.00,-85.00,-9.47,-95.00,-51.93,,-972.31,-1.68
2502.00,9.00,16.38,0.17,0.31,2.24,2.08,1.50,1.08,108.66,-1.06,30.46,2.55,6.57,514.46,0.60
2504.00,9.00,18.60,0.00,0.13,1.86,1.33,1.33,-1.08,-0.88,-10.57,-60.00,-13.88,-0.48,-364.46,6.10
2506.00,10.00,13.79,0.09,0.05,1.40,1.41,1.67,0.84,-65.70,13.66,-68.57,-40.01,-12.59,486.47,-3.15
2508.00,10.00,17.68,0.55,0.27,2.53,3.24,1.50,0.83,19.23,7.79,66.48,13.19,9.54,481.33,5.83
2512.00,9.00,18.61,0.10,0.00,1.00,1.75,2.00,-2.29,-80.00,26.91,-6.79,-4.68,-16.44,-856.83,6.12
2515.00,9.00,21.40,0.00,0.00,1.00,1.00,1.00,1.00,-80.00,-29.04,-60.00,-21.10,-16.44,481.91,13.04
2516.00,10.00,12.78,0.21,0.37,2.00,2.08,1.20,0.00,57.83,-2.57,-33.34,-20.53,-0.84,55.00,-5.49
2517.00,10.00,11.12,0.00,0.00,1.00,1.00,,1.00,-85.00,,-95.00,-51.93,-20.42,568.65,-9.32
2549.00,10.00,16.83,0.31,0.20,2.79,3.20,1.57,-0.07,-7.79,10.20,-3.98,12.03,14.62,19.05,3.86
2550.00,10.00,17.94,0.86,0.29,2.00,4.29,,1.20,26.95,,157.50,43.72,-0.84,671.39,6.43
2556.00,10.00,13.37,0.20,0.12,1.36,1.64,1.38,-0.47,-38.67,3.64,-36.28,-33.32,-13.37,-186.42,-4.12
2740.00,10.00,11.33,0.00,0.00,1.29,1.58,1.00,-0.83,-85.00,-9.47,-95.00,-35.06,-14.74,-371.33,-8.83
2743.00,10.00,14.19,0.27,0.24,1.55,2.56,1.23,0.15,7.64,-1.54,-15.72,-6.58,-9.65,132.05,-2.23
2753.00,10.00,17.15,0.45,0.30,2.71,3.37,1.40,0.68,30.80,4.33,37.13,16.97,13.06,404.28,4.61
2757.00,10.00,22.54,1.11,0.78,3.56,7.39,1.00,0.50,216.09,-9.47,230.91,133.84,29.70,311.83,17.05
2760.00,10.00,15.55,0.16,0.19,1.70,2.42,1.06,0.56,-11.65,-7.41,-48.02,-10.65,-6.72,342.64,0.91
2762.00,10.00,19.73,0.00,0.67,2.67,3.33,1.00,-0.33,173.63,-9.47,-95.00,15.80,12.28,-114.50,10.56
2764.00,9.00,21.67,0.00,0.00,2.00,,1.00,-1.00,-80.00,-29.04,-60.00,,2.12,-331.91,13.71
2765.00,10.00,20.99,0.43,0.40,1.59,3.31,1.45,-0.46,69.40,6.06,31.25,15.23,-8.87,-181.28,13.47
2766.00,10.00,15.27,0.03,0.10,1.90,1.90,1.53,0.00,-46.40,8.82,-86.19,-25.77,-2.80,55.00,0.26
2767.00,9.00,14.99,0.19,0.25,1.36,2.22,1.45,-0.38,72.15,-3.87,41.10,5.61,-9.76,-79.63,-2.85
2769.00,9.00,17.24,0.61,0.39,3.05,3.13,1.29,0.76,157.35,-12.82,264.58,25.54,21.61,384.25,2.73
2770.00,9.00,19.02,0.17,0.13,1.60,2.35,1.50,0.26,-0.88,-1.06,30.46,8.46,-5.31,180.80,7.14
2771.00,9.00,14.68,0.00,0.00,,1.50,,0.00,-80.00,,-60.00,-10.15,,75.00,-3.62
2772.00,9.00,21.55,0.00,0.25,1.33,2.50,1.33,0.00,72.15,-10.57,-60.00,11.74,-10.31,75.00,13.41
2773.00,10.00,14.05,0.09,0.05,1.00,1.23,1.00,-0.56,-65.70,-9.47,-68.57,-45.25,-20.42,-232.64,-2.55
2774.00,10.00,18.62,0.35,0.08,1.82,2.40,1.25,0.09,-54.12,-0.84,7.76,-11.23,-4.37,101.23,8.00
2776.00,10.00,14.82,0.00,0.00,1.00,,1.00,-3.00,-85.00,-9.47,-95.00,,-20.42,-1485.96,-0.78
2777.00,10.00,17.16,0.00,0.00,3.00,2.33,2.00,0.00,-85.00,25.05,-95.00,-13.27,18.74,55.00,4.63
2783.00,9.00,17.60,0.04,0.12,1.94,2.31,1.60,0.09,-6.97,4.53,-38.72,7.58,1.00,111.62,3.62
2787.00,9.00,11.25,0.00,0.00,3.00,1.00,,,-80.00,,-60.00,-21.10,20.68,,-12.12
2790.00,10.00,11.19,0.48,0.29,1.82,2.88,1.00,0.57,26.95,-9.47,45.93,2.72,-4.37,347.78,-9.16
2792.00,9.00,17.48,0.27,0.45,3.10,3.36,1.33,0.50,193.87,-10.57,83.66,30.57,22.53,278.45,3.32
2794.00,9.00,15.46,0.12,0.38,1.71,3.00,1.00,0.00,151.27,-29.04,3.85,22.69,-3.26,75.00,-1.68
2795.00,10.00,15.67,0.24,0.33,1.59,2.65,,0.75,42.38,,-24.54,-3.96,-8.87,440.24,1.19
2799.00,9.00,14.34,0.03,0.17,1.40,1.50,1.74,-0.48,23.46,12.37,-44.04,-10.15,-9.02,-120.31,-4.46
2800.00,9.00,7.54,0.00,0.00,1.00,2.00,1.25,-0.67,-80.00,-15.05,-60.00,0.80,-16.44,-197.63,-21.31
2802.00,9.00,21.67,0.08,0.25,1.17,1.30,1.50,0.00,72.15,-1.06,-17.43,-14.53,-13.29,75.00,13.71
2805.00,10.00,18.75,0.58,0.35,1.89,2.57,1.14,-0.05,50.11,-4.64,75.29,-6.29,-3.00,29.32,8.30
2807.00,10.00,16.85,0.39,0.27,2.70,4.03,1.25,-0.87,19.23,-0.84,19.50,36.16,12.86,-391.88,3.91
2814.00,9.00,12.71,0.05,0.07,1.65,1.72,1.25,0.00,-37.40,-15.05,-33.40,-5.34,-4.38,75.00,-8.50
2817.00,10.00,10.62,0.21,0.07,1.57,2.38,1.00,-0.22,-57.98,-9.47,-33.34,-11.81,-9.26,-58.00,-10.48
2824.00,10.00,16.69,0.41,0.37,1.79,2.50,1.35,0.66,57.83,2.61,25.37,-8.32,-4.95,394.01,3.54
2827.00,9.00,19.15,0.04,0.30,2.68,2.24,1.83,0.92,102.58,17.40,-38.72,6.05,14.74,449.36,7.46
2829.00,9.00,14.84,0.02,0.10,2.48,1.90,1.33,0.11,-19.14,-10.57,-49.36,-1.39,11.03,119.76,-3.22
2831.00,9.00,14.59,0.00,0.09,1.67,1.17,1.58,0.00,-25.22,3.41,-60.00,-17.38,-4.00,75.00,-3.84
2832.00,10.00,14.37,0.34,0.30,2.41,2.92,1.53,0.28,30.80,8.82,4.83,3.89,7.18,198.83,-1.82
2835.00,9.00,13.59,0.00,0.29,1.67,1.50,1.50,-0.57,96.50,-1.06,-60.00,-10.15,-4.00,-156.94,-6.32
2840.00,10.00,12.69,0.12,0.04,2.00,1.95,1.00,-1.00,-69.56,-9.47,-59.76,-24.31,-0.84,-458.65,-5.69
2843.00,10.00,14.04,0.53,0.13,2.46,3.33,1.00,-0.18,-34.82,-9.47,60.61,15.80,8.16,-37.45,-2.58
2858.00,10.00,18.64,0.85,0.58,2.97,4.38,1.35,0.70,138.89,2.61,154.56,46.33,18.15,414.56,8.05
2862.00,10.00,17.70,0.52,0.22,2.05,2.58,1.30,-1.08,-0.08,0.88,57.67,-5.99,0.14,-499.75,5.88
2863.00,10.00,17.15,0.00,0.23,3.00,2.14,1.00,0.70,3.78,-9.47,-95.00,-18.79,18.74,414.56,4.61
2864.00,10.00,13.82,0.15,0.39,1.84,2.00,3.50,-0.48,65.54,76.84,-50.96,-22.86,-3.98,-191.55,-3.09
2865.00,9.00,53.67,0.00,0.00,,8.00,9.00,0.00,-80.00,418.61,-60.00,132.18,,75.00,93.02
2871.00,9.00,13.89,0.00,0.00,1.65,1.22,1.50,0.71,-80.00,-1.06,-60.00,-16.28,-4.38,363.91,-5.58
2872.00,10.00,12.89,0.29,0.06,1.44,1.93,2.00,-0.27,-61.84,25.05,-9.85,-24.89,-11.81,-83.69,-5.23
2873.00,10.00,19.82,0.69,0.23,2.70,3.32,1.00,-0.50,3.78,-9.47,107.59,15.51,12.86,-201.83,10.77
2875.00,10.00,13.71,0.17,0.33,2.25,3.33,1.00,-0.80,42.38,-9.47,-45.09,15.80,4.05,-355.92,-3.34
2876.00,10.00,19.30,0.00,0.00,,1.00,,1.00,-85.00,,-95.00,-51.93,,568.65,9.57
2890.00,9.00,17.07,0.14,0.24,1.76,1.85,1.73,-0.72,66.06,11.81,14.50,-2.49,-2.33,-217.97,2.30
2894.00,9.00,19.60,0.10,0.20,2.80,3.24,1.54,0.00,41.72,1.17,-6.79,27.95,16.97,75.00,8.58
2895.00,10.00,12.81,0.18,0.11,1.80,2.45,1.00,-0.17,-42.54,-9.47,-42.15,-9.78,-4.76,-32.32,-5.42
2896.00,9.00,17.02,0.08,0.31,1.80,2.00,1.14,-0.08,108.66,-21.21,-17.43,0.80,-1.59,42.45,2.18
2900.00,9.00,16.71,0.12,0.17,1.80,2.00,2.14,0.76,23.46,34.75,3.85,0.80,-1.59,384.25,1.41
2901.00,10.00,13.65,0.00,0.25,2.00,2.38,1.00,-1.50,11.50,-9.47,-95.00,-11.81,-0.84,-715.48,-3.48
2902.00,10.00,14.85,0.34,0.31,2.12,2.70,1.25,0.25,34.66,-0.84,4.83,-2.51,1.51,183.41,-0.71
2903.00,9.00,18.26,0.06,0.17,1.57,1.56,1.75,0.65,23.46,12.92,-28.07,-8.84,-5.86,339.50,5.26
2904.00,10.00,15.17,0.31,0.23,2.14,2.33,2.00,0.67,3.78,25.05,-3.98,-13.27,1.90,399.15,0.03
2907.00,9.00,15.60,0.11,0.07,2.12,1.83,1.58,-0.42,-37.40,3.41,-1.47,-2.93,4.35,-95.90,-1.34
2908.00,9.00,13.20,0.19,0.06,1.70,2.22,1.17,-0.10,-43.48,-19.53,41.10,5.61,-3.45,34.31,-7.28
2911.00,10.00,15.73,0.70,0.39,2.40,3.48,1.00,0.32,65.54,-9.47,110.52,20.17,6.99,219.37,1.33
2913.00,9.00,16.93,0.00,0.11,1.85,1.17,2.06,-0.76,-13.06,30.27,-60.00,-17.38,-0.66,-234.25,1.96
2915.00,10.00,19.62,0.40,0.42,2.39,2.86,1.07,-0.26,77.13,-7.06,22.44,2.15,6.79,-78.55,10.31
2916.00,10.00,18.02,0.08,0.39,2.00,2.44,1.12,-0.32,65.54,-5.33,-71.52,-10.07,-0.84,-109.37,6.61
2917.00,10.00,15.73,0.26,0.29,1.48,2.03,1.00,-0.24,26.95,-9.47,-18.66,-21.98,-11.02,-68.28,1.33
2920.00,9.00,19.07,0.00,0.00,1.20,1.20,1.00,-1.45,-80.00,-29.04,-60.00,-16.72,-12.73,-515.03,7.26
2921.00,9.00,11.73,0.03,0.03,1.33,1.27,1.50,0.00,-61.74,-1.06,-44.04,-15.19,-10.31,75.00,-10.93
2923.00,10.00,19.44,0.64,0.36,2.57,4.40,2.00,-1.11,53.97,25.05,92.91,46.92,10.32,-515.16,9.89
2958.00,10.00,15.91,0.50,0.00,2.44,3.17,1.40,-1.07,-85.00,4.33,51.80,11.15,7.77,-494.61,1.74
2969.00,10.00,9.36,0.00,0.00,1.00,,1.00,-1.00,-85.00,-9.47,-95.00,,-20.42,-458.65,-13.38
2988.00,9.00,19.77,0.00,0.00,1.75,3.00,1.33,3.00,-80.00,-10.57,-60.00,22.69,-2.52,1295.74,9.00
2990.00,9.00,8.39,0.10,0.07,1.33,1.93,1.00,-0.47,-37.40,-29.04,-6.79,-0.74,-10.31,-116.25,-19.21
3000.00,10.00,10.70,0.09,0.18,1.20,1.50,1.00,0.80,-15.52,-9.47,-68.57,-37.39,-16.50,465.92,-10.29
3030.00,9.00,18.29,0.08,0.15,1.40,1.00,1.60,-0.83,11.29,4.53,-17.43,-21.10,-9.02,-262.74,5.33
3031.00,10.00,15.82,0.11,0.17,1.75,2.33,1.00,0.06,-19.38,-9.47,-62.70,-13.27,-5.74,85.82,1.53
3032.00,10.00,15.94,0.67,0.00,2.00,2.50,1.00,0.00,-85.00,-9.47,101.72,-8.32,-0.84,55.00,1.81
3036.00,9.00,14.04,0.20,0.20,1.38,2.67,1.00,-1.62,41.72,-29.04,46.42,15.47,-9.39,-584.20,-5.20
3037.00,10.00,17.61,0.51,0.13,1.81,2.71,1.22,-1.18,-34.82,-1.88,54.74,-2.22,-4.56,-551.11,5.67
3042.00,10.00,12.61,0.48,0.24,2.48,2.27,1.33,-0.21,7.64,1.92,45.93,-15.01,8.56,-52.87,-5.88
3043.00,10.00,22.64,0.11,0.26,1.77,2.12,1.30,-1.18,15.36,0.88,-62.70,-19.37,-5.34,-551.11,17.28
3044.00,9.00,12.87,0.41,0.24,1.36,2.25,1.33,0.13,66.06,-10.57,158.16,6.27,-9.76,127.90,-8.10
3049.00,9.00,14.16,0.14,0.17,1.54,2.38,1.31,0.19,23.46,-11.70,14.50,9.12,-6.42,152.31,-4.91
3052.00,10.00,16.99,0.68,0.35,2.97,4.23,1.33,1.09,50.11,1.92,104.65,41.97,18.15,614.88,4.23
3053.00,10.00,15.04,0.43,0.46,2.10,2.12,1.17,1.06,92.56,-3.61,31.25,-19.37,1.12,599.47,-0.27
3060.00,9.00,21.10,0.00,0.00,1.00,,,-1.00,-80.00,,-60.00,,-16.44,-331.91,12.29
3062.00,10.00,18.17,0.05,0.18,1.83,1.79,1.50,0.17,-15.52,7.79,-80.32,-28.97,-4.17,142.32,6.96
3065.00,10.00,6.93,0.00,0.00,,,1.00,-2.00,-85.00,-9.47,-95.00,,,-972.31,-19.00
3068.00,9.00,15.71,0.04,0.25,1.76,1.75,2.00,1.18,72.15,26.91,-38.72,-4.68,-2.33,555.16,-1.06
3070.00,10.00,13.00,0.00,0.00,1.00,2.00,,-1.50,-85.00,,-95.00,-22.86,-20.42,-715.48,-4.98
3071.00,10.00,10.46,0.31,0.27,1.62,2.40,1.00,-0.06,19.23,-9.47,-3.98,-11.23,-8.28,24.18,-10.84
3076.00,10.00,14.56,0.24,0.24,1.27,2.15,1.00,-0.21,7.64,-9.47,-24.54,-18.50,-15.14,-52.87,-1.38
3077.00,10.00,18.29,0.58,0.58,2.89,4.78,,0.44,138.89,,75.29,57.96,16.58,281.01,7.24
3078.00,9.00,17.29,0.14,0.14,1.67,2.22,1.95,0.18,5.21,24.11,14.50,5.61,-4.00,148.25,2.85
3079.00,10.00,15.09,1.29,0.62,2.38,3.83,1.00,1.61,154.33,-9.47,283.76,30.34,6.60,881.98,-0.15
3080.00,9.00,14.64,0.00,0.00,1.70,1.67,1.40,-0.38,-80.00,-6.66,-60.00,-6.43,-3.45,-79.63,-3.72
3083.00,10.00,16.89,0.37,0.29,1.48,2.46,1.10,-0.62,26.95,-6.02,13.63,-9.49,-11.02,-263.47,4.00
3125.00,10.00,13.83,0.48,0.24,2.41,3.00,1.00,0.47,7.64,-9.47,45.93,6.21,7.18,296.42,-3.06
3126.00,9.00,14.33,0.06,0.03,1.22,1.50,1.18,-0.71,-61.74,-18.97,-28.07,-10.15,-12.36,-213.91,-4.48
3127.00,9.00,14.89,0.02,0.07,1.64,1.36,1.09,-0.15,-37.40,-24.00,-49.36,-13.22,-4.56,13.96,-3.10
3129.00,10.00,17.62,0.50,0.26,2.38,3.04,1.17,0.11,15.36,-3.61,51.80,7.38,6.60,111.50,5.69
3134.00,10.00,14.94,0.42,0.42,2.38,3.33,1.00,-0.17,77.13,-9.47,28.32,15.80,6.60,-32.32,-0.50
3137.00,10.00,17.21,0.62,0.51,2.11,3.25,1.33,0.97,111.87,1.92,87.04,13.48,1.31,553.25,4.74
3138.00,10.00,10.61,0.45,0.09,1.20,2.80,1.00,-0.17,-50.26,-9.47,37.13,0.40,-16.50,-32.32,-10.50
3142.00,9.00,10.48,1.00,0.00,3.00,4.00,,-1.00,-80.00,,472.09,44.59,20.68,-331.91,-14.03
3145.00,10.00,18.59,0.26,0.26,1.90,2.13,1.46,-0.33,15.36,6.41,-18.66,-19.08,-2.80,-114.50,7.93
3155.00,9.00,10.89,0.14,0.29,1.22,2.47,1.50,-0.47,96.50,-1.06,14.50,11.09,-12.36,-116.25,-13.01
3163.00,9.00,17.98,0.00,0.10,1.28,1.33,1.71,-0.40,-19.14,10.68,-60.00,-13.88,-11.25,-87.77,4.56
3167.00,9.00,13.11,0.14,0.29,1.50,1.33,1.00,0.50,96.50,-29.04,14.50,-13.88,-7.16,278.45,-7.51
3178.00,10.00,16.15,0.93,0.29,2.23,4.14,1.25,0.77,26.95,-0.84,178.06,39.35,3.66,450.51,2.30
3194.00,10.00,17.49,0.75,0.75,1.50,3.25,,1.50,204.51,,125.20,13.48,-10.63,825.48,5.39
3213.00,9.00,18.54,0.17,0.00,2.00,2.25,1.00,-2.40,-80.00,-29.04,30.46,6.27,2.12,-901.59,5.95
3215.00,10.00,17.13,1.00,0.57,2.19,4.52,1.50,0.90,135.03,7.79,198.61,50.40,2.88,517.29,4.56
3216.00,10.00,15.47,0.47,0.31,2.53,4.00,1.00,0.27,34.66,-9.47,43.00,35.28,9.54,193.69,0.72
3217.00,10.00,16.31,0.50,0.05,2.81,4.20,1.00,-0.22,-65.70,-9.47,51.80,41.10,15.02,-58.00,2.66
3219.00,10.00,13.06,0.00,0.05,1.50,1.70,1.56,-0.53,-65.70,9.86,-95.00,-31.58,-10.63,-217.23,-4.84
3220.00,10.00,11.27,0.22,0.08,1.71,2.27,1.00,-0.18,-54.12,-9.47,-30.41,-15.01,-6.52,-37.45,-8.97
3221.00,10.00,14.88,0.00,0.00,,1.00,1.00,-1.00,-85.00,-9.47,-95.00,-51.93,,-458.65,-0.64
3223.00,9.00,19.16,0.07,0.13,1.84,1.31,1.74,0.05,-0.88,12.37,-22.75,-14.31,-0.85,95.35,7.48
3225.00,9.00,16.66,0.03,0.12,1.50,1.82,1.15,0.39,-6.97,-20.65,-44.04,-3.15,-7.16,233.69,1.29
3227.00,10.00,19.13,0.75,0.00,1.00,4.25,1.00,0.75,-85.00,-9.47,125.20,42.55,-20.42,440.24,9.18
3228.00,10.00,19.97,1.00,0.50,3.00,5.00,4.00,3.00,108.01,94.10,198.61,64.35,18.74,1595.96,11.12
3229.00,10.00,19.81,0.70,0.33,3.04,4.41,1.00,-0.08,42.38,-9.47,110.52,47.21,19.52,13.91,10.75
3230.00,10.00,17.04,0.60,0.80,3.33,2.60,1.00,0.25,223.81,-9.47,81.17,-5.42,25.20,183.41,4.35
3231.00,10.00,9.58,0.18,0.09,1.43,2.43,1.00,0.40,-50.26,-9.47,-42.15,-10.36,-12.00,260.46,-12.88
3234.00,10.00,13.86,0.20,0.24,1.95,2.70,1.33,-0.30,7.64,1.92,-36.28,-2.51,-1.82,-99.09,-2.99
3237.00,10.00,26.16,0.50,0.62,2.60,3.75,1.67,0.50,154.33,13.66,51.80,28.02,10.90,311.83,25.41
3239.00,10.00,13.07,0.34,0.28,1.88,3.26,1.00,-0.46,23.09,-9.47,4.83,13.77,-3.19,-181.28,-4.82
3246.00,9.00,19.21,0.06,0.29,1.64,2.36,1.60,-1.31,96.50,4.53,-28.07,8.68,-4.56,-458.06,7.61
3274.00,10.00,14.83,0.36,0.27,1.58,2.12,1.00,-0.20,19.23,-9.47,10.70,-19.37,-9.06,-47.73,-0.75
3275.00,10.00,18.81,0.12,0.25,1.60,1.67,1.00,-0.71,11.50,-9.47,-59.76,-32.45,-8.67,-309.69,8.44
3276.00,10.00,19.90,0.58,0.37,1.92,3.18,1.33,-0.33,57.83,1.92,75.29,11.45,-2.41,-114.50,10.96
3277.00,10.00,12.93,0.11,0.33,1.67,2.50,1.00,0.14,42.38,-9.47,-62.70,-8.32,-7.30,126.91,-5.14
3350.00,9.00,16.48,0.64,0.27,1.78,3.70,1.57,0.50,84.32,2.85,280.54,38.02,-1.96,278.45,0.84
3374.00,10.00,19.85,0.00,0.71,1.80,4.17,1.33,-0.83,189.07,1.92,-95.00,40.22,-4.76,-371.33,10.84
3377.00,10.00,17.49,0.25,0.17,1.78,3.12,1.00,-1.55,-19.38,-9.47,-21.60,9.70,-5.15,-741.16,5.39
3403.00,10.00,16.96,0.05,0.21,1.67,1.77,1.23,0.28,-3.94,-1.54,-80.32,-29.54,-7.30,198.83,4.17
3409.00,10.00,18.75,0.85,0.81,2.06,3.04,1.25,1.75,227.67,-0.84,154.56,7.38,0.33,953.89,8.30
3420.00,10.00,13.31,0.50,0.12,1.67,2.88,1.00,0.14,-38.67,-9.47,51.80,2.72,-7.30,126.91,-4.26
3424.00,9.00,17.58,0.00,0.11,2.00,2.00,2.00,-0.50,-13.06,26.91,-60.00,0.80,2.12,-128.45,3.57
3425.00,9.00,17.12,0.00,0.12,1.50,1.62,1.33,-1.88,-6.97,-10.57,-60.00,-7.52,-7.16,-689.99,2.43
3431.00,9.00,17.52,0.09,0.09,2.37,2.00,1.27,0.37,-25.22,-13.93,-12.11,0.80,8.98,225.56,3.42
3441.00,10.00,13.71,0.33,0.30,1.58,2.47,1.22,0.14,30.80,-1.88,1.89,-9.19,-9.06,126.91,-3.34
3449.00,10.00,19.29,0.68,0.62,2.34,3.59,1.41,0.46,154.33,4.68,104.65,23.37,5.82,291.28,9.55
3450.00,9.00,15.53,0.00,0.00,1.25,2.20,1.60,-1.83,-80.00,4.53,-60.00,5.17,-11.80,-669.64,-1.51
3452.00,9.00,16.04,0.69,0.33,2.30,3.80,1.40,0.39,120.84,-6.66,307.15,40.21,7.69,233.69,-0.25
3453.00,9.00,15.75,0.07,0.13,1.60,1.38,1.00,-1.13,-0.88,-29.04,-22.75,-12.78,-5.31,-384.81,-0.96
3456.00,10.00,18.28,0.92,0.54,2.68,5.25,1.00,0.59,123.45,-9.47,175.11,71.62,12.47,358.06,7.21
3458.00,9.00,19.09,0.09,0.15,1.85,1.91,1.31,0.17,11.29,-11.70,-12.11,-1.18,-0.66,144.17,7.31
3461.00,10.00,15.13,0.37,0.32,2.42,2.98,1.17,0.19,38.52,-3.61,13.63,5.63,7.38,152.59,-0.06
3466.00,10.00,10.39,0.10,0.05,2.23,2.75,1.00,1.20,-65.70,-9.47,-65.64,-1.05,3.66,671.39,-11.01
3470.00,9.00,20.06,0.10,0.10,1.87,2.48,1.75,0.31,-19.14,12.92,-6.79,11.30,-0.29,201.14,9.72
3473.00,10.00,17.02,0.33,0.33,2.00,3.33,,2.00,42.38,,1.89,15.80,-0.84,1082.31,4.30
3476.00,10.00,24.80,1.80,1.20,2.00,6.00,,1.00,378.22,,433.49,93.43,-0.84,568.65,22.27
3480.00,10.00,22.23,0.33,1.67,3.67,4.33,,0.33,559.64,,1.89,44.87,31.86,224.50,16.33
3481.00,10.00,21.09,1.42,0.61,4.15,6.33,1.30,0.69,150.47,0.88,321.92,103.02,41.25,409.42,13.70
3487.00,9.00,19.78,0.49,0.38,2.50,2.90,1.47,0.14,151.27,-2.75,200.72,20.50,11.40,131.97,9.02
3489.00,9.00,20.42,0.06,0.06,2.64,2.55,1.25,0.00,-43.48,-15.05,-28.07,12.84,14.00,75.00,10.61
3575.00,9.00,18.39,0.80,0.50,2.62,3.89,,0.11,224.30,,365.68,42.18,13.63,119.76,5.58
3579.00,10.00,17.64,1.00,0.00,2.00,5.00,,1.50,-85.00,,198.61,64.35,-0.84,825.48,5.74
3582.00,9.00,22.80,0.27,0.47,2.33,2.30,1.89,0.00,206.04,20.76,83.66,7.36,8.24,75.00,16.51
3583.00,10.00,19.67,1.38,0.38,3.50,4.88,1.00,1.00,61.68,-9.47,310.18,60.86,28.53,568.65,10.42
3587.00,10.00,13.91,0.07,0.17,1.73,1.67,1.21,0.02,-19.38,-2.23,-74.45,-32.45,-6.13,65.27,-2.88
3588.00,9.00,17.43,0.06,0.06,1.64,1.36,1.58,0.23,-43.48,3.41,-28.07,-13.22,-4.56,168.59,3.20
3590.00,10.00,17.96,0.27,0.05,1.90,3.33,1.17,-0.47,-65.70,-3.61,-15.72,15.80,-2.80,-186.42,6.47
3627.00,10.00,14.61,0.37,0.49,2.16,4.28,1.12,0.32,104.15,-5.33,13.63,43.42,2.29,219.37,-1.26
3631.00,10.00,13.04,0.19,0.21,2.03,2.68,1.11,0.22,-3.94,-5.68,-39.22,-3.09,-0.26,168.00,-4.89
3632.00,9.00,19.52,0.16,0.11,1.88,1.65,1.48,0.21,-13.06,-2.18,25.13,-6.87,-0.11,160.45,8.38
3633.00,9.00,19.38,0.13,0.17,2.50,2.00,2.30,1.16,23.46,43.70,9.17,0.80,11.40,547.02,8.03
3635.00,9.00,19.46,0.00,0.05,2.19,1.62,1.90,-0.33,-49.57,21.32,-60.00,-7.52,5.65,-59.28,8.23
3657.00,10.00,15.33,0.57,0.20,1.92,3.12,1.43,0.66,-7.79,5.37,72.35,9.70,-2.41,394.01,0.40
3670.00,9.00,16.70,0.04,0.06,1.56,1.72,1.43,-0.10,-43.48,-4.98,-38.72,-5.34,-6.05,34.31,1.39
3677.00,10.00,18.07,0.00,0.33,1.00,1.67,,0.00,42.38,,-95.00,-32.45,-20.42,55.00,6.73
3679.00,10.00,15.40,0.56,0.44,1.40,2.50,1.00,1.12,84.85,-9.47,69.42,-8.32,-12.59,630.29,0.56
3680.00,9.00,17.71,0.02,0.17,1.82,1.26,1.50,0.17,23.46,-1.06,-49.36,-15.41,-1.22,144.17,3.89
3684.00,9.00,16.54,0.00,0.17,2.50,1.75,1.50,-0.67,23.46,-1.06,-60.00,-4.68,11.40,-197.63,0.99
3688.00,10.00,15.88,0.20,0.20,2.60,2.60,1.00,1.00,-7.79,-9.47,-36.28,-5.42,10.90,568.65,1.67
3697.00,9.00,17.57,0.10,0.10,1.66,1.77,1.55,0.65,-19.14,1.73,-6.79,-4.24,-4.19,339.50,3.54
3699.00,10.00,18.13,0.61,0.57,2.05,2.58,1.00,0.31,135.03,-9.47,84.10,-5.99,0.14,214.23,6.87
3701.00,10.00,15.93,0.33,0.07,2.09,2.77,1.29,0.46,-57.98,0.54,1.89,-0.47,0.92,291.28,1.79
3720.00,9.00,18.42,0.20,0.00,1.00,1.67,1.00,1.50,-80.00,-29.04,46.42,-6.43,-16.44,685.37,5.65
3721.00,9.00,17.32,0.04,0.28,2.33,2.15,1.55,1.08,90.41,1.73,-38.72,4.08,8.24,514.46,2.92
3722.00,10.00,12.92,0.12,0.22,1.53,1.93,1.25,-0.37,-0.08,-0.84,-59.76,-24.89,-10.04,-135.05,-5.16
3742.00,10.00,13.15,0.50,0.25,2.50,4.00,1.00,0.00,11.50,-9.47,51.80,35.28,8.95,55.00,-4.63
3746.00,10.00,14.01,0.62,0.29,2.50,3.78,1.25,0.80,26.95,-0.84,87.04,28.88,8.95,465.92,-2.65
3780.00,10.00,18.18,0.87,0.80,2.54,4.31,1.17,1.57,223.81,-3.61,160.44,44.30,9.73,861.44,6.98
3781.00,10.00,20.72,0.23,0.38,3.00,3.62,1.50,-1.31,61.68,7.79,-27.47,24.24,18.74,-617.89,12.85
3823.00,10.00,20.82,0.33,0.61,1.93,2.89,1.75,0.35,150.47,16.42,1.89,3.01,-2.21,234.78,13.08
3846.00,10.00,16.97,0.26,0.28,2.14,2.52,1.07,-0.09,23.09,-7.06,-18.66,-7.74,1.90,8.77,4.19
3847.00,9.00,14.53,0.08,0.11,1.75,1.29,1.98,0.34,-13.06,25.80,-17.43,-14.75,-2.52,213.35,-3.99
3849.00,10.00,17.70,0.58,0.33,2.45,3.27,1.33,0.45,42.38,1.92,75.29,14.06,7.97,286.14,5.88
3850.00,10.00,19.77,0.90,0.49,3.18,5.16,1.22,0.42,104.15,-1.88,169.24,69.00,22.26,270.73,10.65
3851.00,10.00,19.37,0.00,0.33,1.50,2.00,1.00,0.00,42.38,-9.47,-95.00,-22.86,-10.63,55.00,9.73
3853.00,9.00,18.38,0.48,0.57,3.29,3.26,1.17,1.37,266.90,-19.53,195.40,28.38,26.06,632.47,5.55
3863.00,10.00,22.02,1.00,0.88,1.80,4.12,1.00,0.75,254.69,-9.47,198.61,38.77,-4.76,440.24,15.85
3897.00,10.00,19.30,0.56,0.27,1.85,3.09,1.55,0.20,19.23,9.51,69.42,8.83,-3.78,157.73,9.57
3936.00,10.00,14.12,0.40,0.29,1.45,2.18,1.00,0.23,26.95,-9.47,22.44,-17.63,-11.61,173.14,-2.39
3939.00,9.00,15.11,0.00,0.12,1.47,1.15,1.77,-0.25,-6.97,14.04,-60.00,-17.82,-7.72,-26.73,-2.55
3949.00,9.00,15.70,0.00,0.00,2.00,1.33,1.00,0.25,-80.00,-29.04,-60.00,-13.88,2.12,176.73,-1.09
3950.00,10.00,14.81,0.66,0.38,2.30,3.24,1.12,0.48,61.68,-5.33,98.78,13.19,5.03,301.55,-0.80
3952.00,10.00,17.03,0.33,0.42,2.67,2.83,1.22,1.40,77.13,-1.88,1.89,1.27,12.28,774.11,4.33
3954.00,9.00,20.02,0.20,0.00,3.60,2.20,2.00,-0.20,-80.00,26.91,46.42,5.17,31.82,-6.38,9.62
3955.00,9.00,17.07,0.14,0.33,1.54,1.69,1.17,0.36,120.84,-19.53,14.50,-5.99,-6.42,221.49,2.30
3956.00,10.00,13.44,0.11,0.22,2.40,1.80,1.00,-1.71,-0.08,-9.47,-62.70,-28.67,6.99,-823.34,-3.96
3958.00,9.00,11.59,0.00,0.00,1.50,1.33,1.17,-0.29,-80.00,-19.53,-60.00,-13.88,-7.16,-43.01,-11.28
3961.00,9.00,15.18,0.30,0.00,1.70,1.71,2.50,-0.29,-80.00,54.89,99.63,-5.56,-3.45,-43.01,-2.38
3962.00,10.00,9.63,0.20,0.00,1.67,1.80,1.00,1.00,-85.00,-9.47,-36.28,-28.67,-7.30,568.65,-12.76
3963.00,10.00,9.45,0.00,0.00,1.33,1.67,2.00,-0.43,-85.00,25.05,-95.00,-32.45,-13.96,-165.87,-13.18
3965.00,9.00,13.57,0.12,0.09,2.18,2.27,1.17,0.62,-25.22,-19.53,3.85,6.71,5.46,327.28,-6.37
3967.00,9.00,14.23,0.00,0.00,1.00,1.00,1.67,-0.33,-80.00,8.45,-60.00,-21.10,-16.44,-59.28,-4.73
3969.00,9.00,13.01,0.00,0.12,1.38,1.31,1.11,-0.23,-6.97,-22.89,-60.00,-14.31,-9.39,-18.59,-7.76
3971.00,10.00,17.27,0.47,0.29,2.57,3.55,1.38,0.52,26.95,3.64,43.00,22.20,10.32,322.10,4.88
3973.00,10.00,16.81,0.25,0.25,1.67,3.86,,-0.38,11.50,,-21.60,31.22,-7.30,-140.19,3.82
3975.00,9.00,10.36,0.00,0.40,1.00,2.00,1.50,-0.50,163.44,-1.06,-60.00,0.80,-16.44,-128.45,-14.32
3983.00,9.00,13.83,0.08,0.15,1.29,1.38,1.38,-0.44,11.29,-7.78,-17.43,-12.78,-11.06,-104.04,-5.72
3984.00,10.00,13.62,0.20,0.13,1.89,2.86,1.00,-0.07,-34.82,-9.47,-36.28,2.15,-3.00,19.05,-3.55
3986.00,10.00,19.69,0.33,0.50,2.88,3.50,1.18,0.82,108.01,-3.26,1.89,20.75,16.39,476.20,10.47
3988.00,10.00,19.68,0.69,0.30,2.96,4.06,1.20,0.82,30.80,-2.57,107.59,37.03,17.95,476.20,10.45
3990.00,9.00,18.40,0.54,0.38,2.71,3.18,1.64,-0.78,151.27,6.77,227.33,26.63,15.29,-242.39,5.60
4028.00,9.00,17.40,0.42,0.25,2.10,2.27,2.50,-0.64,72.15,54.89,163.48,6.71,3.98,-185.42,3.12
4072.00,10.00,21.15,0.07,0.37,2.25,2.19,1.94,0.62,57.83,22.98,-74.45,-17.33,4.05,373.47,13.84
4076.00,10.00,22.99,0.46,0.31,1.20,2.18,1.00,-2.23,34.66,-9.47,40.06,-17.63,-16.50,-1090.45,18.09
4106.00,10.00,17.43,0.85,0.67,4.64,6.21,2.00,0.42,173.63,25.05,154.56,99.53,50.85,270.73,5.25
4165.00,10.00,22.79,0.91,0.84,3.45,4.60,1.42,0.52,239.25,5.02,172.18,52.72,27.55,322.10,17.63
4166.00,10.00,15.09,0.17,0.29,2.04,2.07,1.14,-0.34,26.95,-4.64,-45.09,-20.83,-0.06,-119.64,-0.15
4167.00,9.00,19.29,0.04,0.06,1.97,1.50,2.04,1.05,-43.48,29.15,-38.72,-10.15,1.56,502.26,7.81
4173.00,9.00,16.68,0.00,0.19,1.89,1.47,1.23,0.26,35.63,-16.18,-60.00,-10.81,0.08,180.80,1.34
4174.00,9.00,16.38,0.04,0.07,2.79,2.07,1.55,-1.04,-37.40,1.73,-38.72,2.33,16.78,-348.19,0.60
4176.00,10.00,14.94,0.25,0.25,2.67,1.00,1.00,1.67,11.50,-9.47,-21.60,-51.93,12.28,912.80,-0.50
4177.00,9.00,15.97,0.02,0.12,1.84,1.93,1.23,0.33,-6.97,-16.18,-49.36,-0.74,-0.85,209.28,-0.42
4183.00,10.00,13.00,0.12,0.03,1.57,2.10,1.50,-0.21,-73.42,7.79,-59.76,-19.95,-9.26,-52.87,-4.98
4184.00,10.00,17.95,0.69,0.35,3.03,3.98,1.69,0.59,50.11,14.35,107.59,34.70,19.32,358.06,6.45
4188.00,10.00,17.60,0.52,0.28,2.30,2.57,1.18,0.38,23.09,-3.26,57.67,-6.29,5.03,250.19,5.65
4189.00,10.00,15.79,0.16,0.29,1.59,2.33,1.11,0.11,26.95,-5.68,-48.02,-13.27,-8.87,111.50,1.46
4190.00,9.00,15.36,0.00,0.00,1.60,1.42,1.67,-0.68,-80.00,8.45,-60.00,-11.91,-5.31,-201.70,-1.93
4192.00,10.00,16.02,0.25,0.38,1.73,2.90,1.39,0.38,61.68,3.99,-21.60,3.30,-6.13,250.19,1.99
4195.00,10.00,13.91,0.12,0.23,1.19,1.60,1.30,0.38,3.78,0.88,-59.76,-34.49,-16.70,250.19,-2.88
4196.00,10.00,15.39,0.25,0.05,2.21,2.29,1.17,0.40,-65.70,-3.61,-21.60,-14.43,3.27,260.46,0.54
4197.00,9.00,15.91,0.09,0.27,2.40,1.17,1.17,-0.70,84.32,-19.53,-12.11,-17.38,9.54,-209.83,-0.57
4200.00,9.00,15.22,0.00,0.03,1.41,1.00,1.33,-1.75,-61.74,-10.57,-60.00,-21.10,-8.83,-637.10,-2.28
4202.00,10.00,13.94,0.48,0.38,2.18,2.95,1.00,1.06,61.68,-9.47,45.93,4.76,2.68,599.47,-2.81
4204.00,9.00,17.44,0.02,0.08,1.39,1.32,1.57,0.44,-31.31,2.85,-49.36,-14.10,-9.20,254.04,3.22
4205.00,9.00,14.57,0.03,0.10,1.54,1.52,1.85,-0.39,-19.14,18.52,-44.04,-9.72,-6.42,-83.69,-3.89
4208.00,9.00,24.65,0.35,0.56,3.27,3.32,2.03,-0.01,260.82,28.59,126.23,29.70,25.69,70.93,21.09
4214.00,10.00,13.54,0.25,0.00,1.85,2.29,1.40,-1.38,-85.00,4.33,-21.60,-14.43,-3.78,-653.84,-3.73
4216.00,10.00,12.58,0.00,0.04,2.67,1.62,1.00,-0.95,-69.56,-9.47,-95.00,-33.91,12.28,-432.97,-5.95
4217.00,10.00,13.27,0.25,0.00,1.00,1.67,,-0.50,-85.00,,-21.60,-32.45,-20.42,-201.83,-4.35
4218.00,10.00,13.35,0.04,0.09,1.55,1.91,1.17,-0.49,-50.26,-3.61,-83.26,-25.47,-9.65,-196.69,-4.17
4219.00,10.00,14.43,0.68,0.14,2.31,3.24,1.20,-0.26,-30.96,-2.57,104.65,13.19,5.23,-78.55,-1.68
4221.00,10.00,12.31,0.11,0.07,1.36,1.71,1.43,-0.57,-57.98,5.37,-62.70,-31.29,-13.37,-237.78,-6.57
4222.00,10.00,18.67,0.00,0.00,2.00,1.00,3.00,-1.00,-85.00,59.58,-95.00,-51.93,-0.84,-458.65,8.12
4224.00,10.00,11.12,0.31,0.14,1.52,2.58,1.17,-0.04,-30.96,-3.61,-3.98,-5.99,-10.24,34.45,-9.32
4225.00,9.00,18.80,0.26,0.32,2.00,2.47,1.90,0.53,114.75,21.32,78.34,11.09,2.12,290.66,6.59
4226.00,10.00,16.91,0.70,0.42,2.37,5.50,1.14,0.16,77.13,-4.64,110.52,78.89,6.40,137.19,4.05
4227.00,10.00,15.02,0.32,0.29,1.74,2.99,1.22,0.30,26.95,-1.88,-1.04,5.92,-5.93,209.09,-0.32
4228.00,9.00,17.07,0.08,0.16,1.47,1.48,1.52,-0.07,17.38,0.05,-17.43,-10.59,-7.72,46.52,2.30
4229.00,10.00,16.83,0.20,0.03,1.76,2.53,1.40,-1.68,-73.42,4.33,-36.28,-7.45,-5.54,-807.94,3.86
4232.00,9.00,15.72,0.03,0.15,2.11,1.82,1.48,-0.05,11.29,-2.18,-44.04,-3.15,4.16,54.65,-1.04
4237.00,10.00,18.07,0.56,0.27,2.47,3.94,1.42,0.00,19.23,5.02,69.42,33.54,8.36,55.00,6.73
4241.00,10.00,,0.00,0.00,,,,,-85.00,,-95.00,,,,
4244.00,10.00,10.70,0.00,0.00,2.00,1.00,1.00,-1.00,-85.00,-9.47,-95.00,-51.93,-0.84,-458.65,-10.29
4249.00,9.00,15.21,0.20,0.00,,1.00,1.00,0.00,-80.00,-29.04,46.42,-21.10,,75.00,-2.30
4250.00,9.00,14.95,0.00,0.00,1.71,3.00,2.00,0.71,-80.00,26.91,-60.00,22.69,-3.26,363.91,-2.95
4250.00,10.00,14.20,0.25,0.38,1.67,2.57,1.25,-0.43,61.68,-0.84,-21.60,-6.29,-7.30,-165.87,-2.21
4251.00,10.00,14.02,0.00,0.20,2.67,2.67,1.50,1.25,-7.79,7.79,-95.00,-3.38,12.28,697.06,-2.62
4253.00,10.00,17.71,0.00,0.00,3.50,2.00,,-0.50,-85.00,,-95.00,-22.86,28.53,-201.83,5.90
4254.00,10.00,14.62,0.59,0.29,2.62,4.31,,-0.07,26.95,,78.23,44.30,11.30,19.05,-1.24
4255.00,10.00,14.02,0.00,0.00,1.00,1.00,,1.50,-85.00,,-95.00,-51.93,-20.42,825.48,-2.62
4258.00,9.00,20.18,0.08,0.08,2.30,2.00,2.60,-0.33,-31.31,60.49,-17.43,0.80,7.69,-59.28,10.01
4259.00,9.00,14.50,0.00,0.00,2.50,2.33,1.00,0.50,-80.00,-29.04,-60.00,8.02,11.40,278.45,-4.06
4260.00,9.00,18.00,0.00,0.07,2.11,1.50,2.25,-0.86,-37.40,40.90,-60.00,-10.15,4.16,-274.94,4.61
4261.00,9.00,13.79,0.08,0.17,2.17,1.67,1.14,-0.30,23.46,-21.21,-17.43,-6.43,5.27,-47.07,-5.82
4262.00,9.00,19.93,0.12,0.12,3.11,2.29,2.00,-0.38,-6.97,26.91,3.85,7.15,22.72,-79.63,9.39
4263.00,10.00,14.44,0.24,0.18,1.93,2.58,1.00,0.43,-15.52,-9.47,-24.54,-5.99,-2.21,275.87,-1.65
4264.00,10.00,15.27,0.14,0.14,1.77,2.29,1.25,-0.14,-30.96,-0.84,-53.89,-14.43,-5.34,-16.91,0.26
4265.00,10.00,18.40,0.20,0.80,2.56,2.44,,0.78,223.81,,-36.28,-10.07,10.12,455.65,7.49
4266.00,10.00,17.66,0.46,0.31,2.45,3.33,1.00,-1.36,34.66,-9.47,40.06,15.80,7.97,-643.57,5.78
4267.00,10.00,15.47,0.26,0.08,2.00,2.91,1.38,-0.51,-54.12,3.64,-18.66,3.60,-0.84,-206.97,0.72
4268.00,10.00,16.19,0.14,0.00,1.33,2.17,1.00,-1.00,-85.00,-9.47,-53.89,-17.92,-13.96,-458.65,2.39
4271.00,10.00,20.65,0.00,0.00,2.00,4.50,1.00,0.00,-85.00,-9.47,-95.00,49.82,-0.84,55.00,12.69
4281.00,10.00,15.60,0.24,0.08,1.78,2.35,1.60,-0.32,-54.12,11.24,-24.54,-12.68,-5.15,-109.37,1.03
4282.00,10.00,19.38,0.52,0.38,2.96,4.74,1.00,-0.46,61.68,-9.47,57.67,56.80,17.95,-181.28,9.75
4288.00,10.00,17.77,0.42,0.37,1.87,2.33,1.43,-0.43,57.83,5.37,28.32,-13.27,-3.39,-165.87,6.04
4289.00,10.00,16.51,0.00,0.00,1.67,1.50,1.00,-1.00,-85.00,-9.47,-95.00,-37.39,-7.30,-458.65,3.13
4298.00,10.00,12.58,0.00,0.00,2.50,,,1.00,-85.00,,-95.00,,8.95,568.65,-5.95
4303.00,10.00,12.29,0.32,0.10,1.56,2.00,1.17,0.08,-46.40,-3.61,-1.04,-22.86,-9.46,96.09,-6.62
4304.00,10.00,12.32,0.21,0.17,2.17,2.64,1.25,0.20,-19.38,-0.84,-33.34,-4.25,2.49,157.73,-6.55
4307.00,10.00,10.78,0.30,0.13,1.58,2.67,1.00,0.53,-34.82,-9.47,-6.92,-3.38,-9.06,327.23,-10.10
4308.00,10.00,12.45,0.30,0.20,1.00,2.00,,-0.12,-7.79,,-6.92,-22.86,-20.42,-6.64,-6.25
4309.00,10.00,18.81,0.50,0.32,3.57,5.27,1.85,-0.30,38.52,19.87,51.80,72.20,29.90,-99.09,8.44
4311.00,10.00,18.17,0.08,0.33,1.56,2.00,1.57,0.11,42.38,10.20,-71.52,-22.86,-9.46,111.50,6.96
4312.00,10.00,20.43,0.76,0.48,2.84,5.07,1.00,-0.43,100.28,-9.47,128.15,66.39,15.60,-165.87,12.18
4313.00,9.00,20.37,0.00,0.00,1.40,2.40,1.33,-0.90,-80.00,-10.57,-60.00,9.55,-9.02,-291.22,10.48
4320.00,9.00,16.59,0.50,0.00,2.00,2.00,1.00,0.00,-80.00,-29.04,206.05,0.80,2.12,75.00,1.12
4321.00,9.00,19.89,0.26,0.16,2.78,2.55,2.47,0.36,17.38,53.21,78.34,12.84,16.59,221.49,9.30
4323.00,10.00,18.69,0.06,0.28,1.82,2.24,1.47,0.06,23.09,6.75,-77.39,-15.88,-4.37,85.82,8.16
4326.00,10.00,10.00,0.00,0.00,,,,-1.00,-85.00,,-95.00,,,-458.65,-11.91
4327.00,10.00,17.36,0.23,0.11,1.76,2.47,1.50,-0.64,-42.54,7.79,-27.47,-9.19,-5.54,-273.74,5.09
4329.00,9.00,16.19,0.18,0.13,2.27,2.52,1.64,0.24,-0.88,6.77,35.78,12.18,7.13,172.66,0.12
4331.00,10.00,12.49,0.31,0.08,1.75,3.08,2.00,0.83,-54.12,25.05,-3.98,8.54,-5.74,481.33,-6.16
4332.00,10.00,12.01,0.00,0.00,1.33,1.00,1.50,-0.50,-85.00,7.79,-95.00,-51.93,-13.96,-201.83,-7.27
4334.00,9.00,12.95,0.12,0.12,1.50,1.00,1.00,0.40,-6.97,-29.04,3.85,-21.10,-7.16,237.76,-7.90
4335.00,10.00,11.39,0.50,0.00,1.33,1.50,1.00,0.00,-85.00,-9.47,51.80,-37.39,-13.96,55.00,-8.70
4336.00,9.00,23.60,0.10,0.15,1.73,1.80,1.60,0.17,11.29,4.53,-6.79,-3.59,-2.89,144.17,18.49
4337.00,10.00,19.53,0.32,0.20,3.49,3.71,1.32,0.14,-7.79,1.57,-1.04,26.85,28.33,126.91,10.10
